{"learner":{"attributes":{"scikit_learn":"{\"_estimator_type\": \"classifier\"}"},"feature_names":["ds1_risk","ds2_risk","ds3_risk"],"feature_types":["float","float","float"],"gradient_booster":{"model":{"cats":{"enc":[],"feature_segments":[],"sorted_idx":[]},"gbtree_model_param":{"num_parallel_tree":"1","num_trees":"300"},"iteration_indptr":[0,1,2,3,4,5,6,7,8,9,10,11,12,13,14,15,16,17,18,19,20,21,22,23,24,25,26,27,28,29,30,31,32,33,34,35,36,37,38,39,40,41,42,43,44,45,46,47,48,49,50,51,52,53,54,55,56,57,58,59,60,61,62,63,64,65,66,67,68,69,70,71,72,73,74,75,76,77,78,79,80,81,82,83,84,85,86,87,88,89,90,91,92,93,94,95,96,97,98,99,100,101,102,103,104,105,106,107,108,109,110,111,112,113,114,115,116,117,118,119,120,121,122,123,124,125,126,127,128,129,130,131,132,133,134,135,136,137,138,139,140,141,142,143,144,145,146,147,148,149,150,151,152,153,154,155,156,157,158,159,160,161,162,163,164,165,166,167,168,169,170,171,172,173,174,175,176,177,178,179,180,181,182,183,184,185,186,187,188,189,190,191,192,193,194,195,196,197,198,199,200,201,202,203,204,205,206,207,208,209,210,211,212,213,214,215,216,217,218,219,220,221,222,223,224,225,226,227,228,229,230,231,232,233,234,235,236,237,238,239,240,241,242,243,244,245,246,247,248,249,250,251,252,253,254,255,256,257,258,259,260,261,262,263,264,265,266,267,268,269,270,271,272,273,274,275,276,277,278,279,280,281,282,283,284,285,286,287,288,289,290,291,292,293,294,295,296,297,298,299,300],"tree_info":[0,0,0,0,0,0,0,0,0,0,0,0,0,0,0,0,0,0,0,0,0,0,0,0,0,0,0,0,0,0,0,0,0,0,0,0,0,0,0,0,0,0,0,0,0,0,0,0,0,0,0,0,0,0,0,0,0,0,0,0,0,0,0,0,0,0,0,0,0,0,0,0,0,0,0,0,0,0,0,0,0,0,0,0,0,0,0,0,0,0,0,0,0,0,0,0,0,0,0,0,0,0,0,0,0,0,0,0,0,0,0,0,0,0,0,0,0,0,0,0,0,0,0,0,0,0,0,0,0,0,0,0,0,0,0,0,0,0,0,0,0,0,0,0,0,0,0,0,0,0,0,0,0,0,0,0,0,0,0,0,0,0,0,0,0,0,0,0,0,0,0,0,0,0,0,0,0,0,0,0,0,0,0,0,0,0,0,0,0,0,0,0,0,0,0,0,0,0,0,0,0,0,0,0,0,0,0,0,0,0,0,0,0,0,0,0,0,0,0,0,0,0,0,0,0,0,0,0,0,0,0,0,0,0,0,0,0,0,0,0,0,0,0,0,0,0,0,0,0,0,0,0,0,0,0,0,0,0,0,0,0,0,0,0,0,0,0,0,0,0,0,0,0,0,0,0,0,0,0,0,0,0,0,0,0,0,0,0,0,0,0,0,0,0,0,0,0,0,0,0],"trees":[{"base_weights":[-1.9334948E-3,-1.7816211E0,1.08523436E-1,-5.395934E-1,-9.8674394E-2,-2.7833354E-1,1.7781375E-2,-4.1647616E-1,-7.723606E-1,-5.4468715E-1,-2.0204133E-1,-3.527684E-2,-2.9200834E-1,-4.73915E-2,-2.7990067E-2,-4.0358755E-1,-8.5489565E-1,1.3323213E-1,-3.6209622E-1,-5.7569034E-3,-2.5210304E-2,-3.3778764E-2,-1.6269442E-2,-5.1433768E-2,-2.8730119E-2,-4.0228213E-3,1.348746E-2,-1.6337147E-2,-3.59937E-2],"categories":[],"categories_nodes":[],"categories_segments":[],"categories_sizes":[],"default_left":[0,0,0,0,0,0,0,0,0,0,0,0,0,0,0,0,0,0,0,0,0,0,0,0,0,0,0,0,0],"id":0,"left_children":[1,3,5,7,-1,9,-1,11,13,15,17,-1,19,-1,-1,21,23,25,27,-1,-1,-1,-1,-1,-1,-1,-1,-1,-1],"loss_changes":[1.2527257E4,8.8639355E2,5.735957E3,1.3998154E1,0E0,4.7515356E2,0E0,1.163068E1,5.8732224E0,2.2756372E2,9.757454E2,0E0,8.637032E0,0E0,0E0,7.594263E1,7.86604E1,1.7143515E2,1.554353E2,0E0,0E0,0E0,0E0,0E0,0E0,0E0,0E0,0E0,0E0],"parents":[2147483647,0,0,1,1,2,2,3,3,5,5,7,7,8,8,9,9,10,10,12,12,15,15,16,16,17,17,18,18],"right_children":[2,4,6,8,-1,10,-1,12,14,16,18,-1,20,-1,-1,22,24,26,28,-1,-1,-1,-1,-1,-1,-1,-1,-1,-1],"split_conditions":[5.98204E-1,5.979123E-1,1E0,5.9634244E-1,-9.8674394E-2,6.193973E-1,1.7781375E-2,5.9251684E-1,5.973095E-1,6.1021155E-1,6.8723387E-1,-3.527684E-2,5.950266E-1,-4.73915E-2,-2.7990067E-2,6.0267144E-1,6.150414E-1,6.374446E-1,9.7071683E-1,-5.7569034E-3,-2.5210304E-2,-3.3778764E-2,-1.6269442E-2,-5.1433768E-2,-2.8730119E-2,-4.0228213E-3,1.348746E-2,-1.6337147E-2,-3.59937E-2],"split_indices":[2,2,2,2,0,2,0,2,2,2,2,0,2,0,0,2,2,2,2,0,0,0,0,0,0,0,0,0,0],"split_type":[0,0,0,0,0,0,0,0,0,0,0,0,0,0,0,0,0,0,0,0,0,0,0,0,0,0,0,0,0],"sum_hessian":[6.3724395E4,3.7230642E3,6.000133E4,4.9868628E2,3.224378E3,2.3387146E4,3.6614184E4,3.2799146E2,1.7069484E2,5.205927E3,1.818122E4,9.73169E1,2.3067455E2,9.16105E1,7.908434E1,3.5798972E3,1.6260297E3,5.8749316E3,1.2306289E4,1.26651245E2,1.0402331E2,7.977067E2,2.7821904E3,1.0020788E3,6.2395087E2,2.2903242E3,3.5846074E3,1.1201355E4,1.1049336E3],"tree_param":{"num_deleted":"0","num_feature":"3","num_nodes":"29","size_leaf_vector":"1"}},{"base_weights":[1.9763226E-3,-1.6986881E0,1.06763914E-1,-5.0808775E-1,-9.4064526E-2,-2.6331574E-1,1.7144328E-2,-3.0941007E-1,-6.73112E-1,-5.257085E-1,-1.9032754E-1,-3.419316E-2,-7.848213E-4,-7.683731E-1,-2.1678962E-2,-3.5657004E-1,-8.32774E-1,1.1899034E-1,-3.4064078E-1,-3.1845223E-2,-4.507297E-2,-3.0005379E-2,-1.38478E-2,-4.613096E-2,-3.0151596E-2,-3.288253E-3,1.2269179E-2,-1.5438712E-2,-3.3120405E-2],"categories":[],"categories_nodes":[],"categories_segments":[],"categories_sizes":[],"default_left":[0,0,0,0,0,0,0,0,0,0,0,0,0,0,0,0,0,0,0,0,0,0,0,0,0,0,0,0,0],"id":1,"left_children":[1,3,5,7,-1,9,-1,11,13,15,17,-1,-1,19,-1,21,23,25,27,-1,-1,-1,-1,-1,-1,-1,-1,-1,-1],"loss_changes":[1.1371168E4,8.041865E2,5.2523003E3,1.598278E1,0E0,4.4827795E2,0E0,2.4836294E1,5.802925E0,2.642964E2,8.517522E2,0E0,0E0,2.7695007E0,0E0,6.35618E1,3.6778076E1,1.3992746E2,1.2620288E2,0E0,0E0,0E0,0E0,0E0,0E0,0E0,0E0,0E0,0E0],"parents":[2147483647,0,0,1,1,2,2,3,3,5,5,7,7,8,8,9,9,10,10,13,13,15,15,16,16,17,17,18,18],"right_children":[2,4,6,8,-1,10,-1,12,14,16,18,-1,-1,20,-1,22,24,26,28,-1,-1,-1,-1,-1,-1,-1,-1,-1,-1],"split_conditions":[5.98204E-1,5.979123E-1,1E0,5.950266E-1,-9.4064526E-2,6.183716E-1,1.7144328E-2,5.9251684E-1,5.973095E-1,6.092303E-1,6.8723387E-1,-3.419316E-2,-7.848213E-4,5.9634244E-1,-2.1678962E-2,6.0267144E-1,6.150414E-1,6.374446E-1,9.7071683E-1,-3.1845223E-2,-4.507297E-2,-3.0005379E-2,-1.38478E-2,-4.613096E-2,-3.0151596E-2,-3.288253E-3,1.2269179E-2,-1.5438712E-2,-3.3120405E-2],"split_indices":[2,2,2,2,0,2,0,2,2,2,2,0,0,2,0,2,2,2,2,0,0,0,0,0,0,0,0,0,0],"split_type":[0,0,0,0,0,0,0,0,0,0,0,0,0,0,0,0,0,0,0,0,0,0,0,0,0,0,0,0,0],"sum_hessian":[6.3806195E4,3.702399E3,6.0103797E4,4.9283105E2,3.2095679E3,2.3411064E4,3.669273E4,2.2491907E2,2.67912E2,5.093547E3,1.8317518E4,9.8286316E1,1.2663275E2,1.9010161E2,7.781038E1,3.2858108E3,1.8077361E3,5.9904487E3,1.2327068E4,9.854252E1,9.155908E1,8.0790643E2,2.4779045E3,1.2973616E3,5.1037454E2,2.4336052E3,3.5568438E3,1.1218037E4,1.1090308E3],"tree_param":{"num_deleted":"0","num_feature":"3","num_nodes":"29","size_leaf_vector":"1"}},{"base_weights":[1.2330005E-3,-1.6179028E0,1.0135001E-1,-4.6400496E-1,-8.990676E-2,-2.5404045E-1,3.27524E-1,-3.558843E-1,-6.7024165E-1,-4.986059E-1,-1.7816661E-1,-1.8836119E0,1.6772186E-2,-3.4763474E-2,-2.1308604E-1,-4.574046E-2,-1.9305257E-2,-3.681539E-1,-7.4153E-1,1.4947751E-1,-3.2574183E-1,-9.8385744E-2,-1.0540082E0,-6.4979466E-3,-1.5298049E-2,-3.1579245E-2,-1.4638282E-2,-4.900108E-2,-2.460457E-2,-2.6354082E-3,1.2924696E-2,-1.4674659E-2,-3.266378E-2,3.1706575E-2,-9.1596626E-2],"categories":[],"categories_nodes":[],"categories_segments":[],"categories_sizes":[],"default_left":[0,0,0,0,0,0,0,0,0,0,0,0,0,0,0,0,0,0,0,0,0,0,0,0,0,0,0,0,0,0,0,0,0,0,0],"id":2,"left_children":[1,3,5,7,-1,9,11,13,15,17,19,21,-1,-1,23,-1,-1,25,27,29,31,-1,33,-1,-1,-1,-1,-1,-1,-1,-1,-1,-1,-1,-1],"loss_changes":[1.0341229E4,7.7175586E2,4.8292573E3,1.0982262E1,0E0,4.334889E2,6.435625E2,1.5954685E1,1.1595177E1,1.7503577E2,8.623972E2,7.07901E0,0E0,0E0,1.7769156E0,0E0,0E0,7.133325E1,1.1443921E2,1.2210423E2,1.2969177E2,0E0,1.9847229E1,0E0,0E0,0E0,0E0,0E0,0E0,0E0,0E0,0E0,0E0,0E0,0E0],"parents":[2147483647,0,0,1,1,2,2,3,3,5,5,6,6,7,7,8,8,9,9,10,10,11,11,14,14,17,17,18,18,19,19,20,20,22,22],"right_children":[2,4,6,8,-1,10,12,14,16,18,20,22,-1,-1,24,-1,-1,26,28,30,32,-1,34,-1,-1,-1,-1,-1,-1,-1,-1,-1,-1,-1,-1],"split_conditions":[5.98204E-1,5.979123E-1,1E0,5.9634244E-1,-8.990676E-2,6.2226063E-1,9.9994075E-1,5.9251684E-1,5.973095E-1,6.1021155E-1,6.8723387E-1,9.972914E-1,1.6772186E-2,-3.4763474E-2,5.950266E-1,-4.574046E-2,-1.9305257E-2,6.0267144E-1,6.150414E-1,6.374446E-1,9.7071683E-1,-9.8385744E-2,9.9749905E-1,-6.4979466E-3,-1.5298049E-2,-3.1579245E-2,-1.4638282E-2,-4.900108E-2,-2.460457E-2,-2.6354082E-3,1.2924696E-2,-1.4674659E-2,-3.266378E-2,3.1706575E-2,-9.1596626E-2],"split_indices":[2,2,2,2,0,2,1,2,2,2,2,1,0,0,2,0,0,2,2,2,2,0,1,0,0,0,0,0,0,0,0,0,0,0,0],"split_type":[0,0,0,0,0,0,0,0,0,0,0,0,0,0,0,0,0,0,0,0,0,0,0,0,0,0,0,0,0,0,0,0,0,0,0],"sum_hessian":[6.3792164E4,3.7139175E3,6.0078246E4,5.0220926E2,3.2117083E3,2.3364752E4,3.6713496E4,3.312666E2,1.7094264E2,5.5310024E3,1.783375E4,1.3018414E2,3.6583312E4,9.6958595E1,2.3430801E2,9.067526E1,8.026738E1,3.6001897E3,1.9308127E3,5.538111E3,1.2295639E4,1.1695561E2,1.3228528E1,1.2490863E2,1.09399376E2,7.994108E2,2.8007788E3,9.855687E2,9.4524396E2,1.9402223E3,3.5978887E3,1.1195261E4,1.1003778E3,4.2312717E0,8.997256E0],"tree_param":{"num_deleted":"0","num_feature":"3","num_nodes":"35","size_leaf_vector":"1"}},{"base_weights":[1.4398375E-3,-1.5498313E0,9.58709E-2,-4.0876868E-1,-8.6432986E-2,-2.3802713E-1,3.0878225E-1,-2.8121597E-1,-6.535229E-1,-4.748066E-1,-1.6896622E-1,-1.832441E0,1.5810812E-2,-2.9028777E-2,-1.5599959E-1,-4.1599963E-2,-2.1321792E-2,-3.4830028E-1,-7.39472E-1,1.3779114E-1,-3.0777174E-1,-9.3585774E-2,-1.2748009E0,-2.4534424E-3,-1.3798808E-2,-2.8721426E-2,-1.3645031E-2,-4.5785118E-2,-2.4913896E-2,-1.6323976E-3,1.2835792E-2,-7.818093E-3,-1.858416E-2,4.3196004E-2,-8.726418E-2],"categories":[],"categories_nodes":[],"categories_segments":[],"categories_sizes":[],"default_left":[0,0,0,0,0,0,0,0,0,0,0,0,0,0,0,0,0,0,0,0,0,0,0,0,0,0,0,0,0,0,0,0,0,0,0],"id":3,"left_children":[1,3,5,7,-1,9,11,13,15,17,19,21,-1,-1,23,-1,-1,25,27,29,31,-1,33,-1,-1,-1,-1,-1,-1,-1,-1,-1,-1,-1,-1],"loss_changes":[9.320538E3,7.442783E2,4.263781E3,1.5299698E1,0E0,3.817976E2,5.835415E2,1.219693E1,6.501274E0,1.7628503E2,7.699461E2,3.9224243E-1,0E0,0E0,2.9691477E0,0E0,0E0,6.0702087E1,7.198816E1,1.1419807E2,1.2040784E2,0E0,1.3061665E1,0E0,0E0,0E0,0E0,0E0,0E0,0E0,0E0,0E0,0E0,0E0,0E0],"parents":[2147483647,0,0,1,1,2,2,3,3,5,5,6,6,7,7,8,8,9,9,10,10,11,11,14,14,17,17,18,18,19,19,20,20,22,22],"right_children":[2,4,6,8,-1,10,12,14,16,18,20,22,-1,-1,24,-1,-1,26,28,30,32,-1,34,-1,-1,-1,-1,-1,-1,-1,-1,-1,-1,-1,-1],"split_conditions":[5.98204E-1,5.979123E-1,1E0,5.9634244E-1,-8.6432986E-2,6.203922E-1,9.9994075E-1,5.9251684E-1,5.973095E-1,6.1021155E-1,6.849185E-1,9.974427E-1,1.5810812E-2,-2.9028777E-2,5.950266E-1,-4.1599963E-2,-2.1321792E-2,6.030616E-1,6.150414E-1,6.3848203E-1,7.633898E-1,-9.3585774E-2,9.9749905E-1,-2.4534424E-3,-1.3798808E-2,-2.8721426E-2,-1.3645031E-2,-4.5785118E-2,-2.4913896E-2,-1.6323976E-3,1.2835792E-2,-7.818093E-3,-1.858416E-2,4.3196004E-2,-8.726418E-2],"split_indices":[2,2,2,2,0,2,1,2,2,2,2,1,0,0,2,0,0,2,2,2,2,0,1,0,0,0,0,0,0,0,0,0,0,0,0],"split_type":[0,0,0,0,0,0,0,0,0,0,0,0,0,0,0,0,0,0,0,0,0,0,0,0,0,0,0,0,0,0,0,0,0,0,0],"sum_hessian":[6.3624535E4,3.6499172E3,5.9974617E4,4.9496216E2,3.154955E3,2.3352291E4,3.6622324E4,3.2680035E2,1.681618E2,5.2717847E3,1.8080506E4,1.25857315E2,3.649647E4,9.53078E1,2.3149257E2,9.266729E1,7.5494514E1,3.5684377E3,1.7033468E3,5.632595E3,1.2447911E4,1.15374985E2,1.0482328E1,1.23146E2,1.08346565E2,8.906641E2,2.6777737E3,9.826034E2,7.207434E2,2.3152202E3,3.3173748E3,3.6957976E3,8.752113E3,1.7393497E0,8.742978E0],"tree_param":{"num_deleted":"0","num_feature":"3","num_nodes":"35","size_leaf_vector":"1"}},{"base_weights":[-3.5026437E-4,-1.7069545E0,1.5447398E-4,-8.933442E-2,-9.2605454E-1,6.3923895E-1,-8.368372E-2,4.614238E-2,1.1642974E-2],"categories":[],"categories_nodes":[],"categories_segments":[],"categories_sizes":[],"default_left":[0,0,0,0,0,0,0,0,0],"id":4,"left_children":[1,3,-1,-1,5,7,-1,-1,-1],"loss_changes":[3.7345898E2,6.313263E0,0E0,0E0,1.7373386E1,3.8751698E-1,0E0,0E0,0E0],"parents":[2147483647,0,0,1,1,4,4,5,5],"right_children":[2,4,-1,-1,6,8,-1,-1,-1],"split_conditions":[9.9994075E-1,9.972914E-1,1.5447398E-4,-8.933442E-2,9.9749905E-1,9.9731743E-1,-8.368372E-2,4.614238E-2,1.1642974E-2],"split_indices":[1,1,0,0,1,1,0,0,0],"split_type":[0,0,0,0,0,0,0,0,0],"sum_hessian":[6.3616684E4,1.26968414E2,6.3489715E4,1.14036705E2,1.2931706E1,4.226869E0,8.704837E0,1.7409648E0,2.4859045E0],"tree_param":{"num_deleted":"0","num_feature":"3","num_nodes":"9","size_leaf_vector":"1"}},{"base_weights":[-1.6629028E-3,-1.6345807E0,7.819922E-5,-8.564698E-2,-8.653219E-1,7.509557E-1,-8.0501534E-2,5.9288967E-2,1.1231378E-2],"categories":[],"categories_nodes":[],"categories_segments":[],"categories_sizes":[],"default_left":[0,0,0,0,0,0,0,0,0],"id":5,"left_children":[1,3,-1,-1,5,7,-1,-1,-1],"loss_changes":[3.350295E2,6.0766296E0,0E0,0E0,1.7595165E1,8.7244225E-1,0E0,0E0,0E0],"parents":[2147483647,0,0,1,1,4,4,5,5],"right_children":[2,4,-1,-1,6,8,-1,-1,-1],"split_conditions":[9.9994075E-1,9.972914E-1,7.819922E-5,-8.564698E-2,9.9749905E-1,9.9731743E-1,-8.0501534E-2,5.9288967E-2,1.1231378E-2],"split_indices":[1,1,0,0,1,1,0,0,0],"split_type":[0,0,0,0,0,0,0,0,0],"sum_hessian":[6.3580625E4,1.2439984E2,6.3456227E4,1.1178623E2,1.2613609E1,3.9759734E0,8.637636E0,1.4911438E0,2.4848297E0],"tree_param":{"num_deleted":"0","num_feature":"3","num_nodes":"9","size_leaf_vector":"1"}},{"base_weights":[-1.1262528E-3,-1.5748954E0,9.977621E-5,-8.247039E-2,-8.619357E-1,3.619947E-2,-7.80965E-2],"categories":[],"categories_nodes":[],"categories_segments":[],"categories_sizes":[],"default_left":[0,0,0,0,0,0,0],"id":6,"left_children":[1,3,-1,-1,5,-1,-1],"loss_changes":[3.1240536E2,5.265869E0,0E0,0E0,1.6679554E1,0E0,0E0],"parents":[2147483647,0,0,1,1,4,4],"right_children":[2,4,-1,-1,6,-1,-1],"split_conditions":[9.9994075E-1,9.972914E-1,9.977621E-5,-8.247039E-2,9.9749905E-1,3.619947E-2,-7.80965E-2],"split_indices":[1,1,0,0,1,0,0],"split_type":[0,0,0,0,0,0,0],"sum_hessian":[6.3586414E4,1.2488551E2,6.346153E4,1.11879395E2,1.3006122E1,3.9722383E0,9.033883E0],"tree_param":{"num_deleted":"0","num_feature":"3","num_nodes":"7","size_leaf_vector":"1"}},{"base_weights":[3.4391065E-3,-1.522447E0,3.2387587E-4,-7.967677E-2,-8.427422E-1,7.0024514E-1,-7.571071E-2,5.6542512E-2,9.559031E-3],"categories":[],"categories_nodes":[],"categories_segments":[],"categories_sizes":[],"default_left":[0,0,0,0,0,0,0,0,0],"id":7,"left_children":[1,3,-1,-1,5,7,-1,-1,-1],"loss_changes":[2.9559903E2,4.7793274E0,0E0,0E0,1.5689128E1,8.721857E-1,0E0,0E0,0E0],"parents":[2147483647,0,0,1,1,4,4,5,5],"right_children":[2,4,-1,-1,6,8,-1,-1,-1],"split_conditions":[9.9994075E-1,9.972914E-1,3.2387587E-4,-7.967677E-2,9.9749905E-1,9.9731743E-1,-7.571071E-2,5.6542512E-2,9.559031E-3],"split_indices":[1,1,0,0,1,1,0,0,0],"split_type":[0,0,0,0,0,0,0,0,0],"sum_hessian":[6.3754836E4,1.2570533E2,6.362913E4,1.1258585E2,1.3119477E1,3.9651165E0,9.154361E0,1.4863888E0,2.4787276E0],"tree_param":{"num_deleted":"0","num_feature":"3","num_nodes":"9","size_leaf_vector":"1"}},{"base_weights":[-1.6572656E-3,-1.4713761E0,8.9850895E-2,-3.8393176E-1,-1.639769E0,-2.2858779E-1,2.9010823E-1,-3.0050534E-1,-5.422447E-1,-8.342166E-2,-3.50861E-2,-4.3096188E-1,-1.69623E-1,-1.4740096E0,2.9610878E-1,-2.4332242E-2,-2.1869703E-1,-3.545766E-2,-1.7356398E-2,-2.7907804E-1,-6.502356E-1,1.07592866E-1,-3.0082276E-1,-7.709545E-2,-8.600412E-1,1.6789964E-3,1.4847793E-2,-4.3914057E-3,-1.8270506E-2,-2.5250379E-2,-9.945337E-3,-3.7295125E-2,-1.8202113E-2,-2.3319626E-3,1.0115343E-2,-1.3415607E-2,-3.3373162E-2,2.7148126E-2,-7.3730044E-2],"categories":[],"categories_nodes":[],"categories_segments":[],"categories_sizes":[],"default_left":[0,0,0,0,0,0,0,0,0,0,0,0,0,0,0,0,0,0,0,0,0,0,0,0,0,0,0,0,0,0,0,0,0,0,0,0,0,0,0],"id":8,"left_children":[1,3,5,7,9,11,13,15,17,-1,-1,19,21,23,25,-1,27,-1,-1,29,31,33,35,-1,37,-1,-1,-1,-1,-1,-1,-1,-1,-1,-1,-1,-1,-1,-1],"loss_changes":[8.556997E3,6.822627E2,3.819596E3,6.4586716E0,8.5649414E1,2.7587622E2,3.8969043E2,4.9274883E0,5.3480797E0,0E0,0E0,1.7356439E2,6.513964E2,3.8773804E0,8.140137E0,0E0,4.412019E0,0E0,0E0,5.575728E1,5.8158813E1,8.406141E1,1.4471936E2,0E0,1.3467421E1,0E0,0E0,0E0,0E0,0E0,0E0,0E0,0E0,0E0,0E0,0E0,0E0,0E0,0E0],"parents":[2147483647,0,0,1,1,2,2,3,3,4,4,5,5,6,6,7,7,8,8,11,11,12,12,13,13,14,14,16,16,19,19,20,20,21,21,22,22,24,24],"right_children":[2,4,6,8,10,12,14,16,18,-1,-1,20,22,24,26,-1,28,-1,-1,30,32,34,36,-1,38,-1,-1,-1,-1,-1,-1,-1,-1,-1,-1,-1,-1,-1,-1],"split_conditions":[5.988973E-1,5.979123E-1,9.9620986E-1,5.9634244E-1,5.98204E-1,6.203922E-1,9.9994075E-1,5.9251684E-1,5.973095E-1,-8.342166E-2,-3.50861E-2,6.0892016E-1,6.8723387E-1,9.972914E-1,1E0,-2.4332242E-2,5.950266E-1,-3.545766E-2,-1.7356398E-2,6.030616E-1,6.1626244E-1,6.374446E-1,9.7071683E-1,-7.709545E-2,9.9749905E-1,1.6789964E-3,1.4847793E-2,-4.3914057E-3,-1.8270506E-2,-2.5250379E-2,-9.945337E-3,-3.7295125E-2,-1.8202113E-2,-2.3319626E-3,1.0115343E-2,-1.3415607E-2,-3.3373162E-2,2.7148126E-2,-7.3730044E-2],"split_indices":[2,2,2,2,2,2,1,2,2,0,0,2,2,1,2,0,2,0,0,2,2,2,2,0,1,0,0,0,0,0,0,0,0,0,0,0,0,0,0],"split_type":[0,0,0,0,0,0,0,0,0,0,0,0,0,0,0,0,0,0,0,0,0,0,0,0,0,0,0,0,0,0,0,0,0,0,0,0,0,0,0],"sum_hessian":[6.3622953E4,3.7282468E3,5.9894707E4,5.0035355E2,3.227893E3,2.3123998E4,3.6770707E4,3.2957507E2,1.7077849E2,3.1314268E3,9.646645E1,5.2159463E3,1.7908053E4,1.23820404E2,3.6646887E4,9.911312E1,2.3046196E2,9.062271E1,8.015577E1,3.0828372E3,2.1331094E3,5.752855E3,1.2155197E4,1.1012969E2,1.3690716E1,1.17995476E2,3.652889E4,1.2265321E2,1.0780874E2,8.060423E2,2.2767947E3,1.5975009E3,5.356084E2,2.1889233E3,3.5639316E3,1.1166753E4,9.884436E2,4.2057457E0,9.48497E0],"tree_param":{"num_deleted":"0","num_feature":"3","num_nodes":"39","size_leaf_vector":"1"}},{"base_weights":[-3.932187E-3,-1.4547086E0,8.249548E-2,-4.1538355E-1,-8.111697E-2,-2.2400968E-1,2.7742127E-1,-3.1836355E-1,-6.020758E-1,-4.2571595E-1,-1.6177756E-1,-1.4271839E0,1.4154822E-2,-2.8348615E-2,-2.1103582E-1,-3.7381463E-2,-2.1164572E-2,-3.0059457E-1,-5.945359E-1,1.2534319E-1,-2.8719205E-1,-7.4784465E-2,-7.8279567E-1,-2.0803455E-3,-2.0660924E-2,-2.4617655E-2,-1.1148301E-2,-3.489884E-2,-1.8568365E-2,5.8475835E-4,1.0308287E-2,-6.2876674E-3,-1.7808253E-2,3.2644838E-2,-7.121697E-2],"categories":[],"categories_nodes":[],"categories_segments":[],"categories_sizes":[],"default_left":[0,0,0,0,0,0,0,0,0,0,0,0,0,0,0,0,0,0,0,0,0,0,0,0,0,0,0,0,0,0,0,0,0,0,0],"id":9,"left_children":[1,3,5,7,-1,9,11,13,15,17,19,21,-1,-1,23,-1,-1,25,27,29,31,-1,33,-1,-1,-1,-1,-1,-1,-1,-1,-1,-1,-1,-1],"loss_changes":[7.963036E3,6.214136E2,3.5810413E3,8.815155E0,0E0,2.9241187E2,3.5483325E2,8.667915E0,4.079399E0,1.1585443E2,6.4129224E2,4.2032166E0,0E0,0E0,7.9171762E0,0E0,0E0,4.688443E1,5.3695923E1,4.9731926E1,1.3796826E2,0E0,1.3637373E1,0E0,0E0,0E0,0E0,0E0,0E0,0E0,0E0,0E0,0E0,0E0,0E0],"parents":[2147483647,0,0,1,1,2,2,3,3,5,5,6,6,7,7,8,8,9,9,10,10,11,11,14,14,17,17,18,18,19,19,20,20,22,22],"right_children":[2,4,6,8,-1,10,12,14,16,18,20,22,-1,-1,24,-1,-1,26,28,30,32,-1,34,-1,-1,-1,-1,-1,-1,-1,-1,-1,-1,-1,-1],"split_conditions":[5.98204E-1,5.979123E-1,1E0,5.9634244E-1,-8.111697E-2,6.2226063E-1,9.9994075E-1,5.9251684E-1,5.973095E-1,6.0892016E-1,6.849185E-1,9.972914E-1,1.4154822E-2,-2.8348615E-2,5.950266E-1,-3.7381463E-2,-2.1164572E-2,6.030616E-1,6.1626244E-1,6.396685E-1,7.633898E-1,-7.4784465E-2,9.9749905E-1,-2.0803455E-3,-2.0660924E-2,-2.4617655E-2,-1.1148301E-2,-3.489884E-2,-1.8568365E-2,5.8475835E-4,1.0308287E-2,-6.2876674E-3,-1.7808253E-2,3.2644838E-2,-7.121697E-2],"split_indices":[2,2,2,2,0,2,1,2,2,2,2,1,0,0,2,0,0,2,2,2,2,0,1,0,0,0,0,0,0,0,0,0,0,0,0],"split_type":[0,0,0,0,0,0,0,0,0,0,0,0,0,0,0,0,0,0,0,0,0,0,0,0,0,0,0,0,0,0,0,0,0,0,0],"sum_hessian":[6.3505598E4,3.5696448E3,5.9935953E4,4.9626096E2,3.073384E3,2.3299389E4,3.6636566E4,3.2833664E2,1.679243E2,5.492217E3,1.780717E4,1.2073895E2,3.651583E4,9.7714E1,2.3062263E2,9.081088E1,7.711343E1,3.1559531E3,2.336264E3,5.413544E3,1.2393627E4,1.0794242E2,1.2796533E1,1.2613087E2,1.04491776E2,9.0790283E2,2.2480503E3,1.5948893E3,7.413747E2,2.2503606E3,3.163183E3,3.7108374E3,8.682789E3,3.946678E0,8.849854E0],"tree_param":{"num_deleted":"0","num_feature":"3","num_nodes":"35","size_leaf_vector":"1"}},{"base_weights":[-1.7038075E-3,-1.3853692E0,4.3081407E-5,-7.261624E-2,-7.813924E-1,4.9693736E-1,-6.9268905E-2,3.829817E-2,7.123018E-3],"categories":[],"categories_nodes":[],"categories_segments":[],"categories_sizes":[],"default_left":[0,0,0,0,0,0,0,0,0],"id":10,"left_children":[1,3,-1,-1,5,7,-1,-1,-1],"loss_changes":[2.2477673E2,3.6042175E0,0E0,0E0,1.1389224E1,3.8516212E-1,0E0,0E0,0E0],"parents":[2147483647,0,0,1,1,4,4,5,5],"right_children":[2,4,-1,-1,6,8,-1,-1,-1],"split_conditions":[9.9994075E-1,9.972914E-1,4.3081407E-5,-7.261624E-2,9.9749905E-1,9.9731743E-1,-6.9268905E-2,3.829817E-2,7.123018E-3],"split_indices":[1,1,0,0,1,1,0,0,0],"split_type":[0,0,0,0,0,0,0,0,0],"sum_hessian":[6.332132E4,1.1618842E2,6.3205133E4,1.0332898E2,1.2859444E1,4.1831293E0,8.676314E0,1.7182543E0,2.4648747E0],"tree_param":{"num_deleted":"0","num_feature":"3","num_nodes":"9","size_leaf_vector":"1"}},{"base_weights":[-1.3988534E-3,-1.3944925E0,8.0209926E-2,-3.756357E-1,-7.822475E-2,-2.118404E-1,1.3318518E-2,-3.0203366E-1,-5.125422E-1,-1.3628998E-1,-3.3912247E-1,-2.6851004E-2,-2.0112136E-1,-3.3758726E-2,-1.5969737E-2,-3.7822646E-1,1.1360761E-2,-8.5155165E-1,-2.4124154E-1,-4.2642397E-3,-1.6556805E-2,-1.3287522E-2,-2.9481534E-2,5.466481E-3,-7.020051E-3,-3.0344367E-2,-8.5448466E-2,-9.157694E-3,-2.8398788E-2],"categories":[],"categories_nodes":[],"categories_segments":[],"categories_sizes":[],"default_left":[0,0,0,0,0,0,0,0,0,0,0,0,0,0,0,0,0,0,0,0,0,0,0,0,0,0,0,0,0],"id":11,"left_children":[1,3,5,7,-1,9,-1,11,13,15,17,-1,19,-1,-1,21,23,25,27,-1,-1,-1,-1,-1,-1,-1,-1,-1,-1],"loss_changes":[7.194301E3,6.059717E2,3.2501252E3,4.9044037E0,0E0,2.2373828E2,0E0,7.6927433E0,5.2535095E0,5.2173016E2,4.3452856E2,0E0,3.4617834E0,0E0,0E0,1.3146039E2,1.3488028E2,2.9048962E2,1.380415E2,0E0,0E0,0E0,0E0,0E0,0E0,0E0,0E0,0E0,0E0],"parents":[2147483647,0,0,1,1,2,2,3,3,5,5,7,7,8,8,9,9,10,10,12,12,15,15,16,16,17,17,18,18],"right_children":[2,4,6,8,-1,10,-1,12,14,16,18,-1,20,-1,-1,22,24,26,28,-1,-1,-1,-1,-1,-1,-1,-1,-1,-1],"split_conditions":[5.98204E-1,5.979123E-1,1E0,5.9634244E-1,-7.822475E-2,7.633898E-1,1.3318518E-2,5.9251684E-1,5.973095E-1,6.2226063E-1,7.882209E-1,-2.6851004E-2,5.950266E-1,-3.3758726E-2,-1.5969737E-2,6.1021155E-1,6.8723387E-1,7.8683823E-1,9.7071683E-1,-4.2642397E-3,-1.6556805E-2,-1.3287522E-2,-2.9481534E-2,5.466481E-3,-7.020051E-3,-3.0344367E-2,-8.5448466E-2,-9.157694E-3,-2.8398788E-2],"split_indices":[2,2,2,2,0,2,0,2,2,2,2,0,2,0,0,2,2,2,2,0,0,0,0,0,0,0,0,0,0],"split_type":[0,0,0,0,0,0,0,0,0,0,0,0,0,0,0,0,0,0,0,0,0,0,0,0,0,0,0,0,0],"sum_hessian":[6.3278742E4,3.5009016E3,5.977784E4,5.0107498E2,2.9998264E3,2.3270584E4,3.6507258E4,3.279647E2,1.731103E2,1.4604128E4,8.666455E3,9.723039E1,2.3073428E2,9.262413E1,8.0486176E1,5.5342676E3,9.06986E3,1.3886825E3,7.277773E3,1.2289606E2,1.0783823E2,3.613819E3,1.9204481E3,5.5119414E3,3.5579194E3,1.0817211E3,3.0696152E2,6.1805405E3,1.0972324E3],"tree_param":{"num_deleted":"0","num_feature":"3","num_nodes":"29","size_leaf_vector":"1"}},{"base_weights":[1.5088526E-3,-1.35106E0,1.9744833E-4,-7.105296E-2,-6.8322957E-1,7.559754E-1,-6.742463E-2,1.4551642E-2,5.268193E-2],"categories":[],"categories_nodes":[],"categories_segments":[],"categories_sizes":[],"default_left":[0,0,0,0,0,0,0,0,0],"id":12,"left_children":[1,3,-1,-1,5,7,-1,-1,-1],"loss_changes":[2.091248E2,4.36322E0,0E0,0E0,1.32281885E1,3.3990526E-1,0E0,0E0,0E0],"parents":[2147483647,0,0,1,1,4,4,5,5],"right_children":[2,4,-1,-1,6,8,-1,-1,-1],"split_conditions":[9.9994075E-1,9.972914E-1,1.9744833E-4,-7.105296E-2,9.9749905E-1,9.974427E-1,-6.742463E-2,1.4551642E-2,5.268193E-2],"split_indices":[1,1,0,0,1,1,0,0,0],"split_type":[0,0,0,0,0,0,0,0,0],"sum_hessian":[6.336042E4,1.1310482E2,6.3247316E4,1.01353485E2,1.1751332E1,3.6717186E0,8.079614E0,2.2051125E0,1.4666063E0],"tree_param":{"num_deleted":"0","num_feature":"3","num_nodes":"9","size_leaf_vector":"1"}},{"base_weights":[1.7542348E-3,-1.3212172E0,2.0567687E-4,-6.9308035E-2,-7.198804E-1,4.488404E-1,-6.576409E-2,3.641462E-2,4.969355E-3],"categories":[],"categories_nodes":[],"categories_segments":[],"categories_sizes":[],"default_left":[0,0,0,0,0,0,0,0,0],"id":13,"left_children":[1,3,-1,-1,5,7,-1,-1,-1],"loss_changes":[1.9730708E2,3.3967438E0,0E0,0E0,9.670551E0,4.3050933E-1,0E0,0E0,0E0],"parents":[2147483647,0,0,1,1,4,4,5,5],"right_children":[2,4,-1,-1,6,8,-1,-1,-1],"split_conditions":[9.9994075E-1,9.972914E-1,2.0567687E-4,-6.9308035E-2,9.9749905E-1,9.9731743E-1,-6.576409E-2,3.641462E-2,4.969355E-3],"split_indices":[1,1,0,0,1,1,0,0,0],"split_type":[0,0,0,0,0,0,0,0,0],"sum_hessian":[6.321058E4,1.1152991E2,6.309905E4,9.948099E1,1.2048923E1,4.14966E0,7.899263E0,1.7033939E0,2.4462662E0],"tree_param":{"num_deleted":"0","num_feature":"3","num_nodes":"9","size_leaf_vector":"1"}},{"base_weights":[-2.9716745E-3,-1.3507956E0,7.468163E-2,-3.5511273E-1,-7.580893E-2,-2.0245814E-1,2.5083074E-1,-2.5606525E-1,-5.459796E-1,-3.8601273E-1,-1.4884597E-1,-1.2913698E0,1.2777263E-2,-2.6257971E-2,-1.3807473E-1,-3.3319373E-2,-2.0100407E-2,-2.4917595E-1,-5.924168E-1,1.043477E-1,-2.680494E-1,-6.7771845E-2,-6.707684E-1,-1.8541942E-3,-1.2822094E-2,-2.4723958E-2,-8.288615E-3,-3.542714E-2,-1.856597E-2,-1.7873993E-3,9.517745E-3,-6.2521747E-3,-1.6356474E-2,2.1770988E-2,-6.379752E-2],"categories":[],"categories_nodes":[],"categories_segments":[],"categories_sizes":[],"default_left":[0,0,0,0,0,0,0,0,0,0,0,0,0,0,0,0,0,0,0,0,0,0,0,0,0,0,0,0,0,0,0,0,0,0,0],"id":14,"left_children":[1,3,5,7,-1,9,11,13,15,17,19,21,-1,-1,23,-1,-1,25,27,29,31,-1,33,-1,-1,-1,-1,-1,-1,-1,-1,-1,-1,-1,-1],"loss_changes":[6.6195996E3,5.668096E2,2.9194333E3,9.162693E0,0E0,2.286372E2,2.6616943E2,1.0273087E1,2.631073E0,1.482088E2,5.4292786E2,3.527954E0,0E0,0E0,2.7145019E0,0E0,0E0,6.457715E1,5.348352E1,6.939323E1,1.03289856E2,0E0,8.871651E0,0E0,0E0,0E0,0E0,0E0,0E0,0E0,0E0,0E0,0E0,0E0,0E0],"parents":[2147483647,0,0,1,1,2,2,3,3,5,5,6,6,7,7,8,8,9,9,10,10,11,11,14,14,17,17,18,18,19,19,20,20,22,22],"right_children":[2,4,6,8,-1,10,12,14,16,18,20,22,-1,-1,24,-1,-1,26,28,30,32,-1,34,-1,-1,-1,-1,-1,-1,-1,-1,-1,-1,-1,-1],"split_conditions":[5.98204E-1,5.979123E-1,1E0,5.9634244E-1,-7.580893E-2,6.203922E-1,9.9994075E-1,5.9251684E-1,5.973095E-1,6.0892016E-1,6.8723387E-1,9.972914E-1,1.2777263E-2,-2.6257971E-2,5.950266E-1,-3.3319373E-2,-2.0100407E-2,6.0267144E-1,6.150414E-1,6.374446E-1,7.633898E-1,-6.7771845E-2,9.9749905E-1,-1.8541942E-3,-1.2822094E-2,-2.4723958E-2,-8.288615E-3,-3.542714E-2,-1.856597E-2,-1.7873993E-3,9.517745E-3,-6.2521747E-3,-1.6356474E-2,2.1770988E-2,-6.379752E-2],"split_indices":[2,2,2,2,0,2,1,2,2,2,2,1,0,0,2,0,0,2,2,2,2,0,1,0,0,0,0,0,0,0,0,0,0,0,0],"split_type":[0,0,0,0,0,0,0,0,0,0,0,0,0,0,0,0,0,0,0,0,0,0,0,0,0,0,0,0,0,0,0,0,0,0,0],"sum_hessian":[6.324484E4,3.4443887E3,5.9800453E4,4.9106894E2,2.9533198E3,2.3238535E4,3.6561918E4,3.2483984E2,1.6622911E2,5.2517305E3,1.7986805E4,1.10597824E2,3.645132E4,9.796526E1,2.2687457E2,8.85464E1,7.768271E1,3.1593972E3,2.092333E3,5.757573E3,1.2229231E4,9.917548E1,1.1422344E1,1.2313181E2,1.0374277E2,8.0039154E2,2.3590059E3,1.3703739E3,7.219591E2,2.1903438E3,3.5672295E3,3.5761416E3,8.65309E3,4.138415E0,7.2839293E0],"tree_param":{"num_deleted":"0","num_feature":"3","num_nodes":"35","size_leaf_vector":"1"}},{"base_weights":[-1.6121848E-3,-1.2894077E0,7.317126E-2,-3.3488438E-1,-1.4503273E0,-1.9509159E-1,2.4135618E-1,-2.395063E-1,-5.178459E-1,-7.38925E-2,-3.173488E-2,-3.671126E-1,-1.4830647E-1,1.9441016E-3,1.2101211E-2,-1.915115E-2,-1.7775905E-1,-3.3705294E-2,-1.6533038E-2,-2.5460684E-1,-6.320601E-1,6.984785E-2,-2.5532043E-1,-2.8266709E-3,-1.6148856E-2,-2.2450594E-2,-1.0284858E-2,-3.858717E-2,-2.5298644E-2,-4.2037223E-3,8.654839E-3,-1.12228105E-2,-3.0692358E-2],"categories":[],"categories_nodes":[],"categories_segments":[],"categories_sizes":[],"default_left":[0,0,0,0,0,0,0,0,0,0,0,0,0,0,0,0,0,0,0,0,0,0,0,0,0,0,0,0,0,0,0,0,0],"id":15,"left_children":[1,3,5,7,9,11,13,15,17,-1,-1,19,21,-1,-1,-1,23,-1,-1,25,27,29,31,-1,-1,-1,-1,-1,-1,-1,-1,-1,-1],"loss_changes":[6.0869585E3,5.323428E2,2.6951846E3,8.631626E0,6.569092E1,1.8520795E2,4.956787E0,2.871109E0,4.7808228E0,0E0,0E0,1.4653625E2,4.2255524E2,0E0,0E0,0E0,4.0969663E0,0E0,0E0,3.276982E1,2.5432922E1,9.469E1,1.3423181E2,0E0,0E0,0E0,0E0,0E0,0E0,0E0,0E0,0E0,0E0],"parents":[2147483647,0,0,1,1,2,2,3,3,4,4,5,5,6,6,7,7,8,8,11,11,12,12,16,16,19,19,20,20,21,21,22,22],"right_children":[2,4,6,8,10,12,14,16,18,-1,-1,20,22,-1,-1,-1,24,-1,-1,26,28,30,32,-1,-1,-1,-1,-1,-1,-1,-1,-1,-1],"split_conditions":[5.988973E-1,5.979123E-1,9.9620986E-1,5.9634244E-1,5.98204E-1,6.183716E-1,1E0,5.9251684E-1,5.973095E-1,-7.38925E-2,-3.173488E-2,6.1021155E-1,6.8723387E-1,1.9441016E-3,1.2101211E-2,-1.915115E-2,5.950266E-1,-3.3705294E-2,-1.6533038E-2,6.0267144E-1,6.135537E-1,6.374446E-1,9.7071683E-1,-2.8266709E-3,-1.6148856E-2,-2.2450594E-2,-1.0284858E-2,-3.858717E-2,-2.5298644E-2,-4.2037223E-3,8.654839E-3,-1.12228105E-2,-3.0692358E-2],"split_indices":[2,2,2,2,2,2,2,2,2,0,0,2,2,0,0,0,2,0,0,2,2,2,2,0,0,0,0,0,0,0,0,0,0],"split_type":[0,0,0,0,0,0,0,0,0,0,0,0,0,0,0,0,0,0,0,0,0,0,0,0,0,0,0,0,0,0,0,0,0],"sum_hessian":[6.320251E4,3.4678997E3,5.9734613E4,5.007418E2,2.9671577E3,2.3018639E4,3.6715973E4,3.3067148E2,1.7007033E2,2.8695173E3,9.764055E1,4.9203804E3,1.809826E4,1.2093488E2,3.659504E4,9.7907036E1,2.3276443E2,9.127433E1,7.8796005E1,3.4551614E3,1.4652188E3,5.956311E3,1.2141948E4,1.27619286E2,1.0514515E2,6.9289185E2,2.7622695E3,6.927018E2,7.72517E2,2.3914104E3,3.5649006E3,1.118104E4,9.609082E2],"tree_param":{"num_deleted":"0","num_feature":"3","num_nodes":"33","size_leaf_vector":"1"}},{"base_weights":[5.560333E-4,-1.2746364E0,7.064805E-2,-3.1242236E-1,-7.2068624E-2,-1.7351705E-1,2.2536157E-1,-1.8153135E-1,-5.742431E-1,-3.4410083E-1,-1.2592655E-1,-6.5310776E-2,2.298095E-1,-1.8110706E-2,-1.07524194E-1,-3.5307165E-2,-2.104014E-2,-2.355887E-1,-6.0645235E-1,9.4339795E-2,-2.3060822E-1,3.7922368E-3,1.1515449E-2,-1.2302792E-3,-9.988691E-3,-2.0453082E-2,-8.848454E-3,-3.702957E-2,-2.4209429E-2,-2.0136747E-3,9.486868E-3,-1.0097879E-2,-2.8072456E-2],"categories":[],"categories_nodes":[],"categories_segments":[],"categories_sizes":[],"default_left":[0,0,0,0,0,0,0,0,0,0,0,0,0,0,0,0,0,0,0,0,0,0,0,0,0,0,0,0,0,0,0,0,0],"id":16,"left_children":[1,3,5,7,-1,9,11,13,15,17,19,-1,21,-1,23,-1,-1,25,27,29,31,-1,-1,-1,-1,-1,-1,-1,-1,-1,-1,-1,-1],"loss_changes":[5.636509E3,5.266836E2,2.2581191E3,1.656939E1,0E0,1.8818427E2,2.4957117E2,4.318079E0,2.9754868E0,1.4382129E2,4.1806027E2,0E0,2.788208E0,0E0,1.774122E0,0E0,0E0,3.6322067E1,2.3897644E1,7.501991E1,1.1637842E2,0E0,0E0,0E0,0E0,0E0,0E0,0E0,0E0,0E0,0E0,0E0,0E0],"parents":[2147483647,0,0,1,1,2,2,3,3,5,5,6,6,7,7,8,8,9,9,10,10,12,12,14,14,17,17,18,18,19,19,20,20],"right_children":[2,4,6,8,-1,10,12,14,16,18,20,-1,22,-1,24,-1,-1,26,28,30,32,-1,-1,-1,-1,-1,-1,-1,-1,-1,-1,-1,-1],"split_conditions":[5.98204E-1,5.979123E-1,9.9620986E-1,5.9634244E-1,-7.2068624E-2,6.183716E-1,9.9994075E-1,5.9251684E-1,5.973095E-1,6.1021155E-1,6.849185E-1,-6.5310776E-2,1E0,-1.8110706E-2,5.950266E-1,-3.5307165E-2,-2.104014E-2,6.030616E-1,6.135537E-1,6.374446E-1,9.7071683E-1,3.7922368E-3,1.1515449E-2,-1.2302792E-3,-9.988691E-3,-2.0453082E-2,-8.848454E-3,-3.702957E-2,-2.4209429E-2,-2.0136747E-3,9.486868E-3,-1.0097879E-2,-2.8072456E-2],"split_indices":[2,2,2,2,0,2,1,2,2,2,2,0,2,0,2,0,0,2,2,2,2,0,0,0,0,0,0,0,0,0,0,0,0],"split_type":[0,0,0,0,0,0,0,0,0,0,0,0,0,0,0,0,0,0,0,0,0,0,0,0,0,0,0,0,0,0,0,0,0],"sum_hessian":[6.3059727E4,3.2846426E3,5.9775082E4,4.8553732E2,2.7991055E3,2.3184984E4,3.6590098E4,3.2483646E2,1.6070085E2,5.055996E3,1.8128988E4,1.05107834E2,3.648499E4,9.325856E1,2.315779E2,8.447905E1,7.6221794E1,3.5779893E3,1.4780068E3,5.8402666E3,1.2288722E4,1.18475624E2,3.6366516E4,1.22624E2,1.08953896E2,9.02183E2,2.6758064E3,7.023648E2,7.7564197E2,2.4225046E3,3.4177622E3,1.1310821E4,9.7790027E2],"tree_param":{"num_deleted":"0","num_feature":"3","num_nodes":"33","size_leaf_vector":"1"}},{"base_weights":[5.710312E-4,-1.2436811E0,6.7740664E-2,-3.2534292E-1,-7.041201E-2,-1.688919E-1,2.1690044E-1,-2.1145307E-1,-5.473692E-1,-3.3245373E-1,-1.2093448E-1,1.4888252E-3,1.08752325E-2,-1.7392827E-2,-1.5183501E-1,-3.8709525E-2,-1.4492931E-2,-2.2075233E-1,-5.0155526E-1,9.022381E-2,-2.1802652E-1,-2.8150936E-3,-1.2987743E-2,-1.9405251E-2,-7.7137053E-3,-2.8536672E-2,-1.47434175E-2,-2.724849E-3,9.093615E-3,-9.518246E-3,-2.7106155E-2],"categories":[],"categories_nodes":[],"categories_segments":[],"categories_sizes":[],"default_left":[0,0,0,0,0,0,0,0,0,0,0,0,0,0,0,0,0,0,0,0,0,0,0,0,0,0,0,0,0,0,0],"id":17,"left_children":[1,3,5,7,-1,9,11,13,15,17,19,-1,-1,-1,21,-1,-1,23,25,27,29,-1,-1,-1,-1,-1,-1,-1,-1,-1,-1],"loss_changes":[5.259315E3,4.86625E2,2.1074028E3,1.230233E1,0E0,1.8103552E2,4.1341553E0,2.6000557E0,9.464012E0,9.87417E1,3.660226E2,0E0,0E0,0E0,2.3440714E0,0E0,0E0,3.502217E1,2.9586487E1,7.460045E1,1.09534424E2,0E0,0E0,0E0,0E0,0E0,0E0,0E0,0E0,0E0,0E0],"parents":[2147483647,0,0,1,1,2,2,3,3,5,5,6,6,7,7,8,8,9,9,10,10,14,14,17,17,18,18,19,19,20,20],"right_children":[2,4,6,8,-1,10,12,14,16,18,20,-1,-1,-1,22,-1,-1,24,26,28,30,-1,-1,-1,-1,-1,-1,-1,-1,-1,-1],"split_conditions":[5.98204E-1,5.979123E-1,9.9620986E-1,5.9634244E-1,-7.041201E-2,6.203922E-1,1E0,5.9251684E-1,5.973095E-1,6.0892016E-1,6.849185E-1,1.4888252E-3,1.08752325E-2,-1.7392827E-2,5.950266E-1,-3.8709525E-2,-1.4492931E-2,6.030616E-1,6.1626244E-1,6.374446E-1,9.7071683E-1,-2.8150936E-3,-1.2987743E-2,-1.9405251E-2,-7.7137053E-3,-2.8536672E-2,-1.47434175E-2,-2.724849E-3,9.093615E-3,-9.518246E-3,-2.7106155E-2],"split_indices":[2,2,2,2,0,2,2,2,2,2,2,0,0,0,2,0,0,2,2,2,2,0,0,0,0,0,0,0,0,0,0],"split_type":[0,0,0,0,0,0,0,0,0,0,0,0,0,0,0,0,0,0,0,0,0,0,0,0,0,0,0,0,0,0,0],"sum_hessian":[6.292656E4,3.2221345E3,5.9704426E4,4.9009427E2,2.7320403E3,2.3083607E4,3.6620816E4,3.252219E2,1.6487236E2,5.2323643E3,1.7851244E4,1.1802758E2,3.650279E4,9.744268E1,2.2777922E2,8.659289E1,7.827947E1,3.1523555E3,2.080009E3,5.6227695E3,1.2228474E4,1.2163067E2,1.0614856E2,8.948403E2,2.2575151E3,1.5570892E3,5.229197E2,2.180298E3,3.4424714E3,1.12683125E4,9.601619E2],"tree_param":{"num_deleted":"0","num_feature":"3","num_nodes":"31","size_leaf_vector":"1"}},{"base_weights":[2.3402984E-3,-1.2390159E0,2.2362874E-4,-6.539982E-2,-6.178986E-1,7.3657E-1,-6.248177E-2,5.1306963E-2,1.4223955E-2],"categories":[],"categories_nodes":[],"categories_segments":[],"categories_sizes":[],"default_left":[0,0,0,0,0,0,0,0,0],"id":18,"left_children":[1,3,-1,-1,5,7,-1,-1,-1],"loss_changes":[1.6630429E2,3.8077698E0,0E0,0E0,1.1757057E1,3.1777406E-1,0E0,0E0,0E0],"parents":[2147483647,0,0,1,1,4,4,5,5],"right_children":[2,4,-1,-1,6,8,-1,-1,-1],"split_conditions":[9.9994075E-1,9.972914E-1,2.2362874E-4,-6.539982E-2,9.9749905E-1,9.9731743E-1,-6.248177E-2,5.1306963E-2,1.4223955E-2],"split_indices":[1,1,0,0,1,1,0,0,0],"split_type":[0,0,0,0,0,0,0,0,0],"sum_hessian":[6.2826395E4,1.067371E2,6.2719656E4,9.5072586E1,1.1664513E1,3.6572595E0,8.007254E0,1.455337E0,2.2019224E0],"tree_param":{"num_deleted":"0","num_feature":"3","num_nodes":"9","size_leaf_vector":"1"}},{"base_weights":[-3.701518E-3,-1.214075E0,-8.576351E-5,-6.399714E-2,-6.2748647E-1,4.2891186E-1,-6.062747E-2,3.6997683E-3,3.6054775E-2],"categories":[],"categories_nodes":[],"categories_segments":[],"categories_sizes":[],"default_left":[0,0,0,0,0,0,0,0,0],"id":19,"left_children":[1,3,-1,-1,5,7,-1,-1,-1],"loss_changes":[1.5062553E2,3.1628723E0,0E0,0E0,8.137257E0,4.7877705E-1,0E0,0E0,0E0],"parents":[2147483647,0,0,1,1,4,4,5,5],"right_children":[2,4,-1,-1,6,8,-1,-1,-1],"split_conditions":[9.9994075E-1,9.972914E-1,-8.576351E-5,-6.399714E-2,9.9749905E-1,9.974427E-1,-6.062747E-2,3.6997683E-3,3.6054775E-2],"split_indices":[1,1,0,0,1,1,0,0,0],"split_type":[0,0,0,0,0,0,0,0,0],"sum_hessian":[6.2653426E4,1.0164734E2,6.2551777E4,9.0323E1,1.1324345E1,4.1314445E0,7.1929007E0,2.4313383E0,1.7001059E0],"tree_param":{"num_deleted":"0","num_feature":"3","num_nodes":"9","size_leaf_vector":"1"}},{"base_weights":[1.5540828E-3,-1.2094611E0,6.540803E-2,-3.0439606E-1,-6.889602E-2,-1.5628497E-1,1.0334401E-2,-2.0515819E-1,-5.055139E-1,-3.0890328E-1,-1.11870445E-1,-2.6474645E-2,-7.626858E-2,-3.0220551E-2,-1.9362895E-2,-1.7263085E-1,-4.4564864E-1,2.2348817E-2,-2.5671372E-1,3.105169E-3,-1.1958715E-2,-1.924397E-2,-4.082655E-3,-2.5059318E-2,-1.4957534E-2,4.549223E-3,-3.7837948E-3,-3.7771605E-2,-8.095973E-3],"categories":[],"categories_nodes":[],"categories_segments":[],"categories_sizes":[],"default_left":[0,0,0,0,0,0,0,0,0,0,0,0,0,0,0,0,0,0,0,0,0,0,0,0,0,0,0,0,0],"id":20,"left_children":[1,3,5,7,-1,9,-1,11,13,15,17,-1,19,-1,-1,21,23,25,27,-1,-1,-1,-1,-1,-1,-1,-1,-1,-1],"loss_changes":[4.857433E3,4.7927637E2,1.868932E3,9.775688E0,0E0,1.574007E2,0E0,1.3885678E1,1.6706657E0,9.7473724E1,3.4978122E2,0E0,5.414989E0,0E0,0E0,5.0630478E1,2.1104126E1,6.2841797E1,4.0897913E2,0E0,0E0,0E0,0E0,0E0,0E0,0E0,0E0,0E0,0E0],"parents":[2147483647,0,0,1,1,2,2,3,3,5,5,7,7,8,8,9,9,10,10,12,12,15,15,16,16,17,17,18,18],"right_children":[2,4,6,8,-1,10,-1,12,14,16,18,-1,20,-1,-1,22,24,26,28,-1,-1,-1,-1,-1,-1,-1,-1,-1,-1],"split_conditions":[5.98204E-1,5.979123E-1,1E0,5.9634244E-1,-6.889602E-2,6.203922E-1,1.0334401E-2,5.9251684E-1,5.973095E-1,6.0746616E-1,7.633898E-1,-2.6474645E-2,5.950266E-1,-3.0220551E-2,-1.9362895E-2,6.0267144E-1,6.150414E-1,6.828722E-1,7.882209E-1,3.105169E-3,-1.1958715E-2,-1.924397E-2,-4.082655E-3,-2.5059318E-2,-1.4957534E-2,4.549223E-3,-3.7837948E-3,-3.7771605E-2,-8.095973E-3],"split_indices":[2,2,2,2,0,2,0,2,2,2,2,0,2,0,0,2,2,2,2,0,0,0,0,0,0,0,0,0,0],"split_type":[0,0,0,0,0,0,0,0,0,0,0,0,0,0,0,0,0,0,0,0,0,0,0,0,0,0,0,0,0],"sum_hessian":[6.2813863E4,3.1452385E3,5.9668625E4,4.9399695E2,2.6512417E3,2.322478E4,3.6443844E4,3.3213245E2,1.6186452E2,5.2339146E3,1.7990865E4,9.356914E1,2.385633E2,8.590849E1,7.595603E1,2.6226235E3,2.611291E3,9.338331E3,8.652534E3,1.2932962E2,1.0923368E2,7.8590314E2,1.8367205E3,1.891716E3,7.195751E2,5.4925737E3,3.8457573E3,1.3808467E3,7.271687E3],"tree_param":{"num_deleted":"0","num_feature":"3","num_nodes":"29","size_leaf_vector":"1"}},{"base_weights":[-1.12821224E-4,-1.1824462E0,6.0367603E-2,-2.840397E-1,-6.750147E-2,-1.475872E-1,1.9189131E-1,-1.7849062E-1,-4.96148E-1,-1.3090779E-1,-5.351863E-1,1.4221783E-3,9.621146E-3,-1.6293367E-2,-1.1645333E-1,-2.788333E-2,-2.101969E-2,-2.94948E-1,-8.292546E-2,-7.0364125E-2,-1.024785E-1,4.4808272E-4,-1.3631964E-2,-9.851032E-3,-2.684826E-2,4.00475E-3,-8.345445E-3,-7.714921E-3,-2.5908095E-3],"categories":[],"categories_nodes":[],"categories_segments":[],"categories_sizes":[],"default_left":[0,0,0,0,0,0,0,0,0,0,0,0,0,0,0,0,0,0,0,0,0,0,0,0,0,0,0,0,0],"id":21,"left_children":[1,3,5,7,-1,9,11,13,15,17,19,-1,-1,-1,21,-1,-1,23,25,-1,27,-1,-1,-1,-1,-1,-1,-1,-1],"loss_changes":[4.4768164E3,4.5831348E2,1.6290293E3,1.0662701E1,0E0,1.4911118E2,3.164795E0,2.9080858E0,5.065689E-1,1.741203E2,3.5899426E2,0E0,0E0,0E0,4.4748425E0,0E0,0E0,1.18551544E2,2.3439206E2,0E0,1.6647882E0,0E0,0E0,0E0,0E0,0E0,0E0,0E0,0E0],"parents":[2147483647,0,0,1,1,2,2,3,3,5,5,6,6,7,7,8,8,9,9,10,10,14,14,17,17,18,18,20,20],"right_children":[2,4,6,8,-1,10,12,14,16,18,20,-1,-1,-1,22,-1,-1,24,26,-1,28,-1,-1,-1,-1,-1,-1,-1,-1],"split_conditions":[5.98204E-1,5.979123E-1,9.9620986E-1,5.9634244E-1,-6.750147E-2,9.7071683E-1,1E0,5.9251684E-1,5.973095E-1,6.183716E-1,9.727552E-1,1.4221783E-3,9.621146E-3,-1.6293367E-2,5.950266E-1,-2.788333E-2,-2.101969E-2,6.1021155E-1,6.849185E-1,-7.0364125E-2,9.8413694E-1,4.4808272E-4,-1.3631964E-2,-9.851032E-3,-2.684826E-2,4.00475E-3,-8.345445E-3,-7.714921E-3,-2.5908095E-3],"split_indices":[2,2,2,2,0,2,2,2,2,2,2,0,0,0,2,0,0,2,2,0,2,0,0,0,0,0,0,0,0],"split_type":[0,0,0,0,0,0,0,0,0,0,0,0,0,0,0,0,0,0,0,0,0,0,0,0,0,0,0,0,0],"sum_hessian":[6.260379E4,3.0456543E3,5.9558133E4,4.7922763E2,2.5664268E3,2.3074482E4,3.6483652E4,3.212227E2,1.5800496E2,2.2123775E4,9.507061E2,1.1845589E2,3.6365195E4,9.389992E1,2.2732275E2,8.368467E1,7.43203E1,5.0056157E3,1.711816E4,3.1453262E2,6.361735E2,1.2660415E2,1.0071861E2,3.564946E3,1.4406697E3,5.8203364E3,1.1297824E4,3.1348242E2,3.2269107E2],"tree_param":{"num_deleted":"0","num_feature":"3","num_nodes":"29","size_leaf_vector":"1"}},{"base_weights":[4.543516E-3,-1.1590326E0,6.269766E-2,-3.189404E-1,-6.599187E-2,-1.4846325E-1,9.815232E-3,-2.6567128E-1,-3.607238E-1,-9.523737E-2,-2.4568827E-1,-1.7287474E-2,-9.903117E-3,-4.0852097E-1,-1.2110551E-2,-2.6818365E-1,7.657024E-3,-9.8404574E-1,-1.4952128E-1,-1.780427E-2,-2.3135811E-2,-8.376415E-3,-2.006994E-2,3.984198E-3,-4.161254E-3,-3.5009056E-2,-7.8904256E-2,-4.896897E-3,-2.2380345E-2],"categories":[],"categories_nodes":[],"categories_segments":[],"categories_sizes":[],"default_left":[0,0,0,0,0,0,0,0,0,0,0,0,0,0,0,0,0,0,0,0,0,0,0,0,0,0,0,0,0],"id":22,"left_children":[1,3,5,7,-1,9,-1,11,13,15,17,-1,-1,19,-1,21,23,25,27,-1,-1,-1,-1,-1,-1,-1,-1,-1,-1],"loss_changes":[4.239681E3,4.0247168E2,1.6835532E3,9.735756E-1,0E0,1.1964813E2,0E0,1.0955381E0,1.4104881E0,2.6596634E2,5.807202E2,0E0,0E0,3.7070656E-1,0E0,7.468884E1,6.13534E1,1.5782849E2,1.112659E2,0E0,0E0,0E0,0E0,0E0,0E0,0E0,0E0,0E0,0E0],"parents":[2147483647,0,0,1,1,2,2,3,3,5,5,7,7,8,8,9,9,10,10,13,13,15,15,16,16,17,17,18,18],"right_children":[2,4,6,8,-1,10,-1,12,14,16,18,-1,-1,20,-1,22,24,26,28,-1,-1,-1,-1,-1,-1,-1,-1,-1,-1],"split_conditions":[5.98204E-1,5.979123E-1,1E0,5.950266E-1,-6.599187E-2,7.751165E-1,9.815232E-3,5.9251684E-1,5.973095E-1,6.232674E-1,7.882209E-1,-1.7287474E-2,-9.903117E-3,5.9634244E-1,-1.2110551E-2,6.0892016E-1,6.849185E-1,7.8683823E-1,9.7071683E-1,-1.780427E-2,-2.3135811E-2,-8.376415E-3,-2.006994E-2,3.984198E-3,-4.161254E-3,-3.5009056E-2,-7.8904256E-2,-4.896897E-3,-2.2380345E-2],"split_indices":[2,2,2,2,0,2,0,2,2,2,2,0,0,2,0,2,2,2,2,0,0,0,0,0,0,0,0,0,0],"split_type":[0,0,0,0,0,0,0,0,0,0,0,0,0,0,0,0,0,0,0,0,0,0,0,0,0,0,0,0,0],"sum_hessian":[6.265322E4,2.9813809E3,5.967184E4,4.7947037E2,2.5019106E3,2.3124426E4,3.6547414E4,2.1400133E2,2.6546906E2,1.4944844E4,8.179582E3,9.60833E1,1.1791802E2,1.8743E2,7.803906E1,5.574143E3,9.3707E3,9.4151587E2,7.238066E3,9.910923E1,8.832076E1,3.176378E3,2.3977651E3,5.2277036E3,4.1429966E3,6.3855695E2,3.0295892E2,6.1714355E3,1.0666305E3],"tree_param":{"num_deleted":"0","num_feature":"3","num_nodes":"29","size_leaf_vector":"1"}},{"base_weights":[-1.8006821E-4,-1.1993443E0,8.741658E-5,-6.3306496E-2,-5.997163E-1,5.2567625E-1,-6.0015716E-2,1.1271756E-2,3.4233168E-2],"categories":[],"categories_nodes":[],"categories_segments":[],"categories_sizes":[],"default_left":[0,0,0,0,0,0,0,0,0],"id":23,"left_children":[1,3,-1,-1,5,7,-1,-1,-1],"loss_changes":[1.443624E2,3.2545624E0,0E0,0E0,8.7044525E0,7.7252984E-2,0E0,0E0,0E0],"parents":[2147483647,0,0,1,1,4,4,5,5],"right_children":[2,4,-1,-1,6,8,-1,-1,-1],"split_conditions":[9.9994075E-1,9.972914E-1,8.741658E-5,-6.3306496E-2,9.9749905E-1,9.974427E-1,-6.0015716E-2,1.1271756E-2,3.4233168E-2],"split_indices":[1,1,0,0,1,1,0,0,0],"split_type":[0,0,0,0,0,0,0,0,0],"sum_hessian":[6.242594E4,9.923028E1,6.2326715E4,8.8285645E1,1.0944632E1,3.8518434E0,7.0927887E0,2.1706324E0,1.6812109E0],"tree_param":{"num_deleted":"0","num_feature":"3","num_nodes":"9","size_leaf_vector":"1"}},{"base_weights":[-2.2902808E-3,-1.1338308E0,5.282205E-2,-2.8940836E-1,-6.493072E-2,-1.4394712E-1,1.7781572E-1,-2.0182829E-1,-4.6919087E-1,-2.8074628E-1,-1.0531039E-1,-1.1785882E0,9.076078E-3,-1.648527E-2,-7.291498E-3,-2.5837502E-2,-2.034416E-2,-1.9346733E-1,-4.8209566E-1,5.9189446E-2,-1.842006E-1,-6.21758E-2,-6.2879014E-1,-1.7436719E-2,-7.0600756E-3,-3.0043E-2,-1.4651534E-2,-2.7055615E-3,6.656869E-3,-8.1135705E-3,-2.0577753E-2,2.5521567E-2,-5.9618574E-2],"categories":[],"categories_nodes":[],"categories_segments":[],"categories_sizes":[],"default_left":[0,0,0,0,0,0,0,0,0,0,0,0,0,0,0,0,0,0,0,0,0,0,0,0,0,0,0,0,0,0,0,0,0],"id":24,"left_children":[1,3,5,7,-1,9,11,13,15,17,19,21,-1,-1,-1,-1,-1,23,25,27,29,-1,31,-1,-1,-1,-1,-1,-1,-1,-1,-1,-1],"loss_changes":[3.8870981E3,4.024392E2,1.461861E3,7.3680687E0,0E0,1.22009735E2,1.8292126E2,2.246725E0,2.4757767E-1,8.9259125E1,2.3368367E2,2.7581635E0,0E0,0E0,0E0,0E0,0E0,2.874858E1,3.4332367E1,4.8912354E1,6.060919E1,0E0,8.632386E0,0E0,0E0,0E0,0E0,0E0,0E0,0E0,0E0,0E0,0E0],"parents":[2147483647,0,0,1,1,2,2,3,3,5,5,6,6,7,7,8,8,9,9,10,10,11,11,17,17,18,18,19,19,20,20,22,22],"right_children":[2,4,6,8,-1,10,12,14,16,18,20,22,-1,-1,-1,-1,-1,24,26,28,30,-1,32,-1,-1,-1,-1,-1,-1,-1,-1,-1,-1],"split_conditions":[5.98204E-1,5.979123E-1,1E0,5.9634244E-1,-6.493072E-2,6.193973E-1,9.9994075E-1,5.9251684E-1,5.973095E-1,6.1021155E-1,6.8723387E-1,9.972914E-1,9.076078E-3,-1.648527E-2,-7.291498E-3,-2.5837502E-2,-2.034416E-2,6.030616E-1,6.150414E-1,6.374446E-1,9.7071683E-1,-6.21758E-2,9.9749905E-1,-1.7436719E-2,-7.0600756E-3,-3.0043E-2,-1.4651534E-2,-2.7055615E-3,6.656869E-3,-8.1135705E-3,-2.0577753E-2,2.5521567E-2,-5.9618574E-2],"split_indices":[2,2,2,2,0,2,1,2,2,2,2,1,0,0,0,0,0,2,2,2,2,0,1,0,0,0,0,0,0,0,0,0,0],"split_type":[0,0,0,0,0,0,0,0,0,0,0,0,0,0,0,0,0,0,0,0,0,0,0,0,0,0,0,0,0,0,0,0,0],"sum_hessian":[6.232941E4,2.893888E3,5.943552E4,4.729654E2,2.4209226E3,2.3088574E4,3.634695E4,3.1946323E2,1.5350214E2,5.083481E3,1.8005092E4,9.816936E1,3.6248777E4,9.580236E1,2.2366087E2,8.29178E1,7.058434E1,3.5476443E3,1.5358367E3,5.836086E3,1.2169006E4,8.667214E1,1.1497217E1,8.92023E2,2.6556213E3,9.4195416E2,5.938825E2,2.304884E3,3.5312021E3,1.1100076E4,1.0689304E3,3.8364787E0,7.660738E0],"tree_param":{"num_deleted":"0","num_feature":"3","num_nodes":"33","size_leaf_vector":"1"}},{"base_weights":[-3.4548782E-3,-1.1085113E0,4.906274E-2,-2.6002744E-1,-6.4088956E-2,-1.3772708E-1,8.391197E-3,-2.1026136E-1,-3.5715806E-1,-8.614138E-2,-2.3150918E-1,-1.5708648E-2,-1.6738103E-1,-2.2102227E-2,-1.2968736E-2,-2.475234E-1,1.226077E-2,-9.710111E-1,-1.363616E-1,-5.9549278E-3,-1.1006269E-2,-6.5555437E-3,-1.7005427E-2,4.4870023E-3,-3.911147E-3,-3.6361653E-2,-7.452869E-2,-4.3172874E-3,-2.1433605E-2],"categories":[],"categories_nodes":[],"categories_segments":[],"categories_sizes":[],"default_left":[0,0,0,0,0,0,0,0,0,0,0,0,0,0,0,0,0,0,0,0,0,0,0,0,0,0,0,0,0],"id":25,"left_children":[1,3,5,7,-1,9,-1,11,13,15,17,-1,19,-1,-1,21,23,25,27,-1,-1,-1,-1,-1,-1,-1,-1,-1,-1],"loss_changes":[3.607256E3,4.1424365E2,1.3163126E3,2.2425308E0,0E0,1.11556915E2,0E0,1.3708496E0,1.2217388E0,2.3631342E2,5.756939E2,0E0,5.551286E-1,0E0,0E0,6.0707214E1,6.4820625E1,1.17058044E2,1.05988754E2,0E0,0E0,0E0,0E0,0E0,0E0,0E0,0E0,0E0,0E0],"parents":[2147483647,0,0,1,1,2,2,3,3,5,5,7,7,8,8,9,9,10,10,12,12,15,15,16,16,17,17,18,18],"right_children":[2,4,6,8,-1,10,-1,12,14,16,18,-1,20,-1,-1,22,24,26,28,-1,-1,-1,-1,-1,-1,-1,-1,-1,-1],"split_conditions":[5.98204E-1,5.979123E-1,1E0,5.9634244E-1,-6.4088956E-2,7.751165E-1,8.391197E-3,5.9251684E-1,5.973095E-1,6.2425774E-1,7.882209E-1,-1.5708648E-2,5.950266E-1,-2.2102227E-2,-1.2968736E-2,6.0719776E-1,6.828722E-1,7.8683823E-1,9.7071683E-1,-5.9549278E-3,-1.1006269E-2,-6.5555437E-3,-1.7005427E-2,4.4870023E-3,-3.911147E-3,-3.6361653E-2,-7.452869E-2,-4.3172874E-3,-2.1433605E-2],"split_indices":[2,2,2,2,0,2,0,2,2,2,2,0,2,0,0,2,2,2,2,0,0,0,0,0,0,0,0,0,0],"split_type":[0,0,0,0,0,0,0,0,0,0,0,0,0,0,0,0,0,0,0,0,0,0,0,0,0,0,0,0,0],"sum_hessian":[6.2154703E4,2.818965E3,5.933574E4,4.784617E2,2.3405032E3,2.306248E4,3.6273258E4,3.184597E2,1.60002E2,1.487969E4,8.18279E3,9.117914E1,2.2728055E2,8.376463E1,7.623737E1,5.635618E3,9.244072E3,9.3176447E2,7.251026E3,1.20360146E2,1.069204E2,2.4976267E3,3.1379915E3,4.979899E3,4.2641733E3,6.358325E2,2.9593195E2,6.1927153E3,1.0583107E3],"tree_param":{"num_deleted":"0","num_feature":"3","num_nodes":"29","size_leaf_vector":"1"}},{"base_weights":[4.017476E-3,-1.0771942E0,5.3490084E-2,-2.4938072E-1,-6.2663175E-2,-1.2402476E-1,1.6439827E-1,-1.646843E-1,-4.222843E-1,-1.0984709E-1,-4.9347174E-1,1.1758511E-3,1.6481538E-1,-1.8740652E-2,-7.9653576E-2,-2.3927128E-2,-1.7688654E-2,-2.4988142E-1,-6.78651E-2,-6.29502E-2,-3.518875E-2,6.1430386E-3,8.247278E-3,-5.850043E-4,-8.080636E-3,-8.368308E-3,-2.2153674E-2,1.0943403E-3,-9.011191E-3,1.8502808E-3,-1.7400915E-2],"categories":[],"categories_nodes":[],"categories_segments":[],"categories_sizes":[],"default_left":[0,0,0,0,0,0,0,0,0,0,0,0,0,0,0,0,0,0,0,0,0,0,0,0,0,0,0,0,0,0,0],"id":26,"left_children":[1,3,5,7,-1,9,11,13,15,17,19,-1,21,-1,23,-1,-1,25,27,-1,29,-1,-1,-1,-1,-1,-1,-1,-1,-1,-1],"loss_changes":[3.3235854E3,3.9593872E2,1.1697849E3,6.9314575E0,0E0,1.196203E2,2.1449585E0,5.73281E0,4.3408012E-1,1.2934698E2,2.9609296E2,0E0,1.7889404E-1,0E0,1.283974E0,0E0,0E0,8.082794E1,1.7074011E2,0E0,1.1961006E1,0E0,0E0,0E0,0E0,0E0,0E0,0E0,0E0,0E0,0E0],"parents":[2147483647,0,0,1,1,2,2,3,3,5,5,6,6,7,7,8,8,9,9,10,10,12,12,14,14,17,17,18,18,20,20],"right_children":[2,4,6,8,-1,10,12,14,16,18,20,-1,22,-1,24,-1,-1,26,28,-1,30,-1,-1,-1,-1,-1,-1,-1,-1,-1,-1],"split_conditions":[5.98204E-1,5.979123E-1,9.9209136E-1,5.9634244E-1,-6.2663175E-2,9.7071683E-1,9.9620986E-1,5.9251684E-1,5.973095E-1,6.193973E-1,9.727552E-1,1.1758511E-3,1E0,-1.8740652E-2,5.950266E-1,-2.3927128E-2,-1.7688654E-2,6.1021155E-1,7.633898E-1,-6.29502E-2,9.881623E-1,6.1430386E-3,8.247278E-3,-5.850043E-4,-8.080636E-3,-8.368308E-3,-2.2153674E-2,1.0943403E-3,-9.011191E-3,1.8502808E-3,-1.7400915E-2],"split_indices":[2,2,2,2,0,2,2,2,2,2,2,0,2,0,2,0,0,2,2,0,2,0,0,0,0,0,0,0,0,0,0],"split_type":[0,0,0,0,0,0,0,0,0,0,0,0,0,0,0,0,0,0,0,0,0,0,0,0,0,0,0,0,0,0,0],"sum_hessian":[6.2132215E4,2.7176594E3,5.9414555E4,4.7706952E2,2.24059E3,2.2846814E4,3.656774E4,3.2152414E2,1.5554538E2,2.200371E4,8.4310376E2,1.0811492E2,3.6459625E4,9.1644196E1,2.2987996E2,8.2124054E1,7.3421326E1,5.0740044E3,1.6929707E4,3.1506342E2,5.2804034E2,1.1570019E2,3.6343926E4,1.26303055E2,1.03576904E2,3.556735E3,1.5172694E3,9.412125E3,7.5175806E3,4.297459E2,9.829445E1],"tree_param":{"num_deleted":"0","num_feature":"3","num_nodes":"31","size_leaf_vector":"1"}},{"base_weights":[1.964961E-3,-1.0588212E0,4.9236927E-2,-2.4665652E-1,-6.1853368E-2,-1.2509993E-1,1.5653396E-1,-2.0953983E-2,-2.0490389E-1,-1.1103675E-1,-6.169131E-1,-1.1611695E0,1.5991326E-1,-1.272941E-1,-3.1052727E-1,-2.4022292E-1,-7.636967E-2,-6.2242508E-2,-2.5764788E-2,-6.124875E-2,-6.02567E-1,5.7941318E-2,8.057769E-3,-4.4840137E-3,-8.441656E-3,-1.8324962E-2,-1.2216478E-2,-8.16773E-3,-2.4265764E-2,2.2502278E-3,-7.0333453E-3,1.5781211E-3,-7.24125E-3,1.7344316E-2,-5.7853665E-2,1.4879472E-2,-1.4556102E-3],"categories":[],"categories_nodes":[],"categories_segments":[],"categories_sizes":[],"default_left":[0,0,0,0,0,0,0,0,0,0,0,0,0,0,0,0,0,0,0,0,0,0,0,0,0,0,0,0,0,0,0,0,0,0,0,0,0],"id":27,"left_children":[1,3,5,7,-1,9,11,-1,13,15,17,19,21,23,25,27,29,-1,31,-1,33,35,-1,-1,-1,-1,-1,-1,-1,-1,-1,-1,-1,-1,-1,-1,-1],"loss_changes":[3.1087358E3,3.825703E2,1.1102017E3,3.3498344E0,0E0,1.5632343E2,1.637815E2,0E0,3.125986E0,9.843805E1,2.3322287E2,2.6157227E0,4.632263E0,3.3530545E-1,5.139084E-1,8.754135E1,1.352843E2,0E0,2.2207034E0,0E0,6.516168E0,9.2417555E0,0E0,0E0,0E0,0E0,0E0,0E0,0E0,0E0,0E0,0E0,0E0,0E0,0E0,0E0,0E0],"parents":[2147483647,0,0,1,1,2,2,3,3,5,5,6,6,8,8,9,9,10,10,11,11,12,12,13,13,14,14,15,15,16,16,18,18,20,20,21,21],"right_children":[2,4,6,8,-1,10,12,-1,14,16,18,20,22,24,26,28,30,-1,32,-1,34,36,-1,-1,-1,-1,-1,-1,-1,-1,-1,-1,-1,-1,-1,-1,-1],"split_conditions":[5.98204E-1,5.979123E-1,9.8413694E-1,5.9251684E-1,-6.1853368E-2,9.7071683E-1,9.9994075E-1,-2.0953983E-2,5.9634244E-1,6.1626244E-1,9.727552E-1,9.972914E-1,1E0,5.950266E-1,5.973095E-1,6.1021155E-1,6.828722E-1,-6.2242508E-2,9.8038334E-1,-6.124875E-2,9.9749905E-1,9.881623E-1,8.057769E-3,-4.4840137E-3,-8.441656E-3,-1.8324962E-2,-1.2216478E-2,-8.16773E-3,-2.4265764E-2,2.2502278E-3,-7.0333453E-3,1.5781211E-3,-7.24125E-3,1.7344316E-2,-5.7853665E-2,1.4879472E-2,-1.4556102E-3],"split_indices":[2,2,2,2,0,2,1,0,2,2,2,1,2,2,2,2,2,0,2,0,1,2,0,0,0,0,0,0,0,0,0,0,0,0,0,0,0],"split_type":[0,0,0,0,0,0,0,0,0,0,0,0,0,0,0,0,0,0,0,0,0,0,0,0,0,0,0,0,0,0,0,0,0,0,0,0,0],"sum_hessian":[6.1992336E4,2.6438037E3,5.934853E4,4.7623947E2,2.1675642E3,2.2610572E4,3.6737957E4,9.107905E1,3.8516043E2,2.19832E4,6.27374E2,9.309868E1,3.664486E4,2.2329396E2,1.6186646E2,4.649817E3,1.733338E4,3.0368454E2,3.2368948E2,8.248414E1,1.0614537E1,4.4157495E2,3.6203285E4,1.18841354E2,1.04452614E2,8.524936E1,7.66171E1,3.5409385E3,1.1088783E3,6.002579E3,1.1330803E4,2.1898409E2,1.04705414E2,4.051603E0,6.5629344E0,1.1701845E2,3.245565E2],"tree_param":{"num_deleted":"0","num_feature":"3","num_nodes":"37","size_leaf_vector":"1"}},{"base_weights":[-1.7896716E-3,-1.034278E0,4.344542E-2,-2.1620753E-1,-6.112014E-2,-1.20193444E-1,1.4425524E-1,-1.7927933E-2,-1.8182908E-1,-1.0697449E-1,-5.9198934E-1,4.0413354E-2,7.2752656E-3,-1.7470667E-3,-2.5028482E-1,-2.3947404E-1,-6.654694E-2,-5.762806E-2,-3.195561E-2,1.4714526E-2,-5.311152E-2,-8.772648E-3,-1.4885443E-2,-6.1918176E-3,-1.7922046E-2,1.0145359E-3,-8.708077E-3,1.465876E-3,-8.050393E-3,-1.3164557E-2,2.0120554E-3],"categories":[],"categories_nodes":[],"categories_segments":[],"categories_sizes":[],"default_left":[0,0,0,0,0,0,0,0,0,0,0,0,0,0,0,0,0,0,0,0,0,0,0,0,0,0,0,0,0,0,0],"id":28,"left_children":[1,3,5,7,-1,9,11,-1,13,15,17,19,-1,-1,21,23,25,-1,27,-1,29,-1,-1,-1,-1,-1,-1,-1,-1,-1,-1],"loss_changes":[2.8804727E3,3.9812524E2,9.747164E2,2.3092957E0,0E0,1.4041342E2,4.7402954E0,0E0,3.9414625E0,1.173571E2,1.9262015E2,1.037489E1,0E0,0E0,8.981514E-1,7.04223E1,1.5691074E2,0E0,2.4403207E0,0E0,6.2830667E0,0E0,0E0,0E0,0E0,0E0,0E0,0E0,0E0,0E0,0E0],"parents":[2147483647,0,0,1,1,2,2,3,3,5,5,6,6,8,8,9,9,10,10,11,11,14,14,15,15,16,16,18,18,20,20],"right_children":[2,4,6,8,-1,10,12,-1,14,16,18,20,-1,-1,22,24,26,-1,28,-1,30,-1,-1,-1,-1,-1,-1,-1,-1,-1,-1],"split_conditions":[5.98204E-1,5.979123E-1,9.8413694E-1,5.9251684E-1,-6.112014E-2,9.7071683E-1,1E0,-1.7927933E-2,5.950266E-1,6.203922E-1,9.727552E-1,9.881623E-1,7.2752656E-3,-1.7470667E-3,5.9634244E-1,6.0746616E-1,7.633898E-1,-5.762806E-2,9.8038334E-1,1.4714526E-2,9.9209136E-1,-8.772648E-3,-1.4885443E-2,-6.1918176E-3,-1.7922046E-2,1.0145359E-3,-8.708077E-3,1.465876E-3,-8.050393E-3,-1.3164557E-2,2.0120554E-3],"split_indices":[2,2,2,2,0,2,2,0,2,2,2,2,0,0,2,2,2,0,2,0,2,0,0,0,0,0,0,0,0,0,0],"split_type":[0,0,0,0,0,0,0,0,0,0,0,0,0,0,0,0,0,0,0,0,0,0,0,0,0,0,0,0,0,0,0],"sum_hessian":[6.1672184E4,2.5876377E3,5.9084543E4,4.8420337E2,2.1034343E3,2.2523396E4,3.656115E4,9.235571E1,3.9184766E2,2.191072E4,6.1267615E2,4.3529276E2,3.6125855E4,1.2504498E2,2.6680267E2,5.12122E3,1.6789502E4,3.056622E2,3.0701395E2,1.16608215E2,3.1868454E2,1.0531792E2,1.6148476E2,2.5979814E3,2.5232385E3,9.292166E3,7.497335E3,2.0869824E2,9.831569E1,9.745291E1,2.2123161E2],"tree_param":{"num_deleted":"0","num_feature":"3","num_nodes":"31","size_leaf_vector":"1"}},{"base_weights":[-3.7944857E-3,-1.1492493E0,-1.00814985E-4,-6.048121E-2,-6.360409E-1,3.2853338E-1,-5.774453E-2,3.153908E-2,-2.4238853E-4],"categories":[],"categories_nodes":[],"categories_segments":[],"categories_sizes":[],"default_left":[0,0,0,0,0,0,0,0,0],"id":29,"left_children":[1,3,-1,-1,5,7,-1,-1,-1],"loss_changes":[1.2545707E2,2.1887436E0,0E0,0E0,6.464093E0,5.099959E-1,0E0,0E0,0E0],"parents":[2147483647,0,0,1,1,4,4,5,5],"right_children":[2,4,-1,-1,6,8,-1,-1,-1],"split_conditions":[9.9994075E-1,9.972914E-1,-1.00814985E-4,-6.048121E-2,9.9749905E-1,9.9731743E-1,-5.774453E-2,3.153908E-2,-2.4238853E-4],"split_indices":[1,1,0,0,1,1,0,0,0],"split_type":[0,0,0,0,0,0,0,0,0],"sum_hessian":[6.1594355E4,9.446969E1,6.1499887E4,8.3311745E1,1.1157943E1,4.0309515E0,7.126991E0,1.6463097E0,2.3846416E0],"tree_param":{"num_deleted":"0","num_feature":"3","num_nodes":"9","size_leaf_vector":"1"}},{"base_weights":[8.169646E-4,-1.1226575E0,1.238438E-4,-5.9451085E-2,-5.309152E-1,4.652738E-1,-5.5940162E-2,4.6716552E-2,-2.338431E-4],"categories":[],"categories_nodes":[],"categories_segments":[],"categories_sizes":[],"default_left":[0,0,0,0,0,0,0,0,0],"id":30,"left_children":[1,3,-1,-1,5,7,-1,-1,-1],"loss_changes":[1.1508355E2,2.9440155E0,0E0,0E0,6.9553976E0,1.058931E0,0E0,0E0,0E0],"parents":[2147483647,0,0,1,1,4,4,5,5],"right_children":[2,4,-1,-1,6,8,-1,-1,-1],"split_conditions":[9.9994075E-1,9.972914E-1,1.238438E-4,-5.9451085E-2,9.9749905E-1,9.9731743E-1,-5.5940162E-2,4.6716552E-2,-2.338431E-4],"split_indices":[1,1,0,0,1,1,0,0,0],"split_type":[0,0,0,0,0,0,0,0,0],"sum_hessian":[6.1708863E4,9.004279E1,6.161882E4,8.005522E1,9.987576E0,3.7840269E0,6.2035484E0,1.3992698E0,2.384757E0],"tree_param":{"num_deleted":"0","num_feature":"3","num_nodes":"9","size_leaf_vector":"1"}},{"base_weights":[-1.0449057E-3,-1.0106604E0,4.1681457E-2,-2.0732747E-1,-6.0139477E-2,-1.1423262E-1,1.3752475E-1,-1.540698E-1,-3.136894E-1,-1.0073367E-1,-6.0010254E-1,-1.1078969E0,1.4053772E-1,-1.0407164E-2,-1.3054554E-1,-2.1930518E-2,-8.981891E-3,-2.1253629E-1,-7.069917E-2,-6.0032547E-2,-5.1721435E-2,-5.850467E-2,-5.731516E-1,3.4875967E-2,1.414856E-1,-3.6641993E-3,-9.905063E-3,-7.2554224E-3,-2.5897179E-2,2.5831263E-3,-7.0090564E-3,2.5182855E-4,-8.7558E-3,1.5266626E-2,-5.521975E-2,1.2934933E-2,-4.6660053E-3,4.5941803E-3,7.0824265E-3],"categories":[],"categories_nodes":[],"categories_segments":[],"categories_sizes":[],"default_left":[0,0,0,0,0,0,0,0,0,0,0,0,0,0,0,0,0,0,0,0,0,0,0,0,0,0,0,0,0,0,0,0,0,0,0,0,0,0,0],"id":31,"left_children":[1,3,5,7,-1,9,11,13,15,17,19,21,23,-1,25,-1,-1,27,29,-1,31,-1,33,35,37,-1,-1,-1,-1,-1,-1,-1,-1,-1,-1,-1,-1,-1,-1],"loss_changes":[2.6605364E3,3.8624707E2,8.842425E2,2.6962624E0,0E0,1.4768927E2,1.3766681E2,3.8601303E-1,2.612197E0,7.3588974E1,2.0041829E2,2.2746124E0,3.6565552E0,0E0,8.7145805E-1,0E0,0E0,9.5496994E1,1.469155E2,0E0,2.2367344E0,0E0,5.5579414E0,9.38881E0,2.7978516E-1,0E0,0E0,0E0,0E0,0E0,0E0,0E0,0E0,0E0,0E0,0E0,0E0,0E0,0E0],"parents":[2147483647,0,0,1,1,2,2,3,3,5,5,6,6,7,7,8,8,9,9,10,10,11,11,12,12,14,14,17,17,18,18,20,20,22,22,23,23,24,24],"right_children":[2,4,6,8,-1,10,12,14,16,18,20,22,24,-1,26,-1,-1,28,30,-1,32,-1,34,36,38,-1,-1,-1,-1,-1,-1,-1,-1,-1,-1,-1,-1,-1,-1],"split_conditions":[5.98204E-1,5.979123E-1,9.8413694E-1,5.9634244E-1,-6.0139477E-2,9.7071683E-1,9.9994075E-1,5.9251684E-1,5.973095E-1,6.1626244E-1,9.727552E-1,9.972914E-1,9.9620986E-1,-1.0407164E-2,5.950266E-1,-2.1930518E-2,-8.981891E-3,6.113302E-1,6.8723387E-1,-6.0032547E-2,9.8038334E-1,-5.850467E-2,9.9749905E-1,9.881623E-1,1E0,-3.6641993E-3,-9.905063E-3,-7.2554224E-3,-2.5897179E-2,2.5831263E-3,-7.0090564E-3,2.5182855E-4,-8.7558E-3,1.5266626E-2,-5.521975E-2,1.2934933E-2,-4.6660053E-3,4.5941803E-3,7.0824265E-3],"split_indices":[2,2,2,2,0,2,1,2,2,2,2,1,2,0,2,0,0,2,2,0,2,0,1,2,2,0,0,0,0,0,0,0,0,0,0,0,0,0,0],"split_type":[0,0,0,0,0,0,0,0,0,0,0,0,0,0,0,0,0,0,0,0,0,0,0,0,0,0,0,0,0,0,0,0,0,0,0,0,0,0,0],"sum_hessian":[6.167418E4,2.5031272E3,5.917105E4,4.835173E2,2.0196099E3,2.2526172E4,3.664488E4,3.238215E2,1.5969579E2,2.191842E4,6.0775336E2,8.755395E1,3.6557324E4,9.578937E1,2.2803215E2,8.148707E1,7.820872E1,4.6400137E3,1.7278406E4,2.895114E2,3.1824194E2,7.736719E1,1.0186753E1,3.253725E2,3.6231953E4,1.24547775E2,1.0348437E2,3.802068E3,8.379456E2,6.257987E3,1.1020419E4,2.1863515E2,9.96068E1,3.9990401E0,6.187713E0,1.1812147E2,2.0725104E2,1.2046856E2,3.6111484E4],"tree_param":{"num_deleted":"0","num_feature":"3","num_nodes":"39","size_leaf_vector":"1"}},{"base_weights":[8.2416815E-4,-9.9606705E-1,4.180278E-2,-1.9573484E-1,-5.9516918E-2,-1.0449766E-1,1.3046627E-1,-1.339057E-1,-3.2353553E-1,-9.021906E-2,-9.1210634E-1,-1.088292E0,1.3329242E-1,-1.4105059E-2,-7.262628E-2,-2.0367106E-2,-1.1370039E-2,-2.0456325E-1,-5.6951728E-2,-5.643372E-2,-1.2650663E-2,-5.758821E-2,-5.366042E-1,2.6074756E-2,6.7611374E-3,6.9991074E-4,-8.874801E-3,-5.9306896E-3,-1.7801275E-2,2.8881514E-3,-5.8340854E-3,1.4698535E-2,-5.3871717E-2,5.2951346E-3,-2.883444E-3],"categories":[],"categories_nodes":[],"categories_segments":[],"categories_sizes":[],"default_left":[0,0,0,0,0,0,0,0,0,0,0,0,0,0,0,0,0,0,0,0,0,0,0,0,0,0,0,0,0,0,0,0,0,0,0],"id":32,"left_children":[1,3,5,7,-1,9,11,13,15,17,19,21,23,-1,25,-1,-1,27,29,-1,-1,-1,31,33,-1,-1,-1,-1,-1,-1,-1,-1,-1,-1,-1],"loss_changes":[2.5079753E3,3.766543E2,7.649291E2,3.7073917E0,0E0,2.5652222E2,1.2661456E2,2.9001245E0,1.1485844E0,8.3168594E1,5.4880096E1,2.3603287E0,7.578308E0,0E0,2.081612E0,0E0,0E0,6.4108154E1,1.16079216E2,0E0,0E0,0E0,5.0999546E0,4.3454857E0,0E0,0E0,0E0,0E0,0E0,0E0,0E0,0E0,0E0,0E0,0E0],"parents":[2147483647,0,0,1,1,2,2,3,3,5,5,6,6,7,7,8,8,9,9,10,10,11,11,12,12,14,14,17,17,18,18,22,22,23,23],"right_children":[2,4,6,8,-1,10,12,14,16,18,20,22,24,-1,26,-1,-1,28,30,-1,-1,-1,32,34,-1,-1,-1,-1,-1,-1,-1,-1,-1,-1,-1],"split_conditions":[5.98204E-1,5.979123E-1,9.767161E-1,5.9634244E-1,-5.9516918E-2,9.7071683E-1,9.9994075E-1,5.9251684E-1,5.973095E-1,6.183716E-1,9.727552E-1,9.972914E-1,1E0,-1.4105059E-2,5.950266E-1,-2.0367106E-2,-1.1370039E-2,6.0892016E-1,6.849185E-1,-5.643372E-2,-1.2650663E-2,-5.758821E-2,9.9749905E-1,9.881623E-1,6.7611374E-3,6.9991074E-4,-8.874801E-3,-5.9306896E-3,-1.7801275E-2,2.8881514E-3,-5.8340854E-3,1.4698535E-2,-5.3871717E-2,5.2951346E-3,-2.883444E-3],"split_indices":[2,2,2,2,0,2,1,2,2,2,2,1,2,0,2,0,0,2,2,0,0,0,1,2,0,0,0,0,0,0,0,0,0,0,0],"split_type":[0,0,0,0,0,0,0,0,0,0,0,0,0,0,0,0,0,0,0,0,0,0,0,0,0,0,0,0,0,0,0,0,0,0,0],"sum_hessian":[6.139089E4,2.4229998E3,5.896789E4,4.736655E2,1.9493344E3,2.225143E4,3.671646E4,3.206061E2,1.5305937E2,2.186595E4,3.8548056E2,8.405545E1,3.6632406E4,9.273538E1,2.2787074E2,8.004343E1,7.301594E1,4.926786E3,1.6939162E4,2.8960745E2,9.5873116E1,7.4407135E1,9.648312E0,6.481137E2,3.5984293E4,1.2526548E2,1.02605255E2,3.1442937E3,1.7824923E3,5.7999907E3,1.1139172E4,3.984932E0,5.663379E0,3.316789E2,3.1643484E2],"tree_param":{"num_deleted":"0","num_feature":"3","num_nodes":"35","size_leaf_vector":"1"}},{"base_weights":[-2.2859433E-4,-1.0675988E0,6.010487E-5,-5.670469E-2,-5.261105E-1,4.1804367E-1,-5.389417E-2,5.7625547E-3,3.0734364E-2],"categories":[],"categories_nodes":[],"categories_segments":[],"categories_sizes":[],"default_left":[0,0,0,0,0,0,0,0,0],"id":33,"left_children":[1,3,-1,-1,5,7,-1,-1,-1],"loss_changes":[9.38049E1,2.3640213E0,0E0,0E0,6.1074123E0,2.1053475E-1,0E0,0E0,0E0],"parents":[2147483647,0,0,1,1,4,4,5,5],"right_children":[2,4,-1,-1,6,8,-1,-1,-1],"split_conditions":[9.9994075E-1,9.972914E-1,6.010487E-5,-5.670469E-2,9.9749905E-1,9.974427E-1,-5.389417E-2,5.7625547E-3,3.0734364E-2],"split_indices":[1,1,0,0,1,1,0,0,0],"split_type":[0,0,0,0,0,0,0,0,0],"sum_hessian":[6.1425887E4,8.122686E1,6.1344656E4,7.136839E1,9.858465E0,3.7256916E0,6.1327734E0,2.0914145E0,1.634277E0],"tree_param":{"num_deleted":"0","num_feature":"3","num_nodes":"9","size_leaf_vector":"1"}},{"base_weights":[-4.021271E-3,-9.717594E-1,3.4676272E-2,-1.842401E-1,-5.8631636E-2,-1.058359E-1,1.2014037E-1,-1.5651967E-2,-1.5335317E-1,-9.334908E-2,-8.073634E-1,3.38633E-2,6.084164E-3,-8.229572E-2,-2.585999E-1,-1.93111E-1,-5.9224404E-2,-5.372485E-2,-3.5948472E-3,1.1571701E-2,-1.0645626E-2,-1.8944545E-3,-6.663942E-3,-1.7416105E-2,-7.79425E-3,-5.5455635E-3,-1.5340823E-2,8.0624176E-4,-7.1236216E-3,-1.0340016E-2,1.7220778E-3],"categories":[],"categories_nodes":[],"categories_segments":[],"categories_sizes":[],"default_left":[0,0,0,0,0,0,0,0,0,0,0,0,0,0,0,0,0,0,0,0,0,0,0,0,0,0,0,0,0,0,0],"id":34,"left_children":[1,3,5,7,-1,9,11,-1,13,15,17,19,-1,21,23,25,27,-1,-1,-1,29,-1,-1,-1,-1,-1,-1,-1,-1,-1,-1],"loss_changes":[2.2982773E3,3.730703E2,7.0866223E2,1.8645439E0,0E0,1.9543141E2,4.880371E0,0E0,2.8933172E0,7.464346E1,7.6580505E1,5.6836567E0,0E0,5.2499175E-1,1.3889742E0,5.220247E1,1.02507065E2,0E0,0E0,0E0,4.6787996E0,0E0,0E0,0E0,0E0,0E0,0E0,0E0,0E0,0E0,0E0],"parents":[2147483647,0,0,1,1,2,2,3,3,5,5,6,6,8,8,9,9,10,10,11,11,13,13,14,14,15,15,16,16,20,20],"right_children":[2,4,6,8,-1,10,12,-1,14,16,18,20,-1,22,24,26,28,-1,-1,-1,30,-1,-1,-1,-1,-1,-1,-1,-1,-1,-1],"split_conditions":[5.98204E-1,5.979123E-1,9.767161E-1,5.9251684E-1,-5.8631636E-2,9.7071683E-1,1E0,-1.5651967E-2,5.9634244E-1,6.2425774E-1,9.727552E-1,9.8038334E-1,6.084164E-3,5.950266E-1,5.973095E-1,6.092303E-1,7.5770175E-1,-5.372485E-2,-3.5948472E-3,1.1571701E-2,9.8413694E-1,-1.8944545E-3,-6.663942E-3,-1.7416105E-2,-7.79425E-3,-5.5455635E-3,-1.5340823E-2,8.0624176E-4,-7.1236216E-3,-1.0340016E-2,1.7220778E-3],"split_indices":[2,2,2,2,0,2,2,0,2,2,2,2,0,2,2,2,2,0,0,0,2,0,0,0,0,0,0,0,0,0,0],"split_type":[0,0,0,0,0,0,0,0,0,0,0,0,0,0,0,0,0,0,0,0,0,0,0,0,0,0,0,0,0,0,0],"sum_hessian":[6.136882E4,2.3587097E3,5.9010113E4,4.7975577E2,1.878954E3,2.2317502E4,3.669261E4,9.1028725E1,3.8872705E2,2.1928322E4,3.8917972E2,6.450556E2,3.6047555E4,2.3311864E2,1.556084E2,5.5878467E3,1.6340475E4,2.851482E2,1.04031525E2,1.1782819E2,5.272274E2,1.2552696E2,1.07591675E2,8.178098E1,7.382742E1,3.2443923E3,2.343454E3,8.577571E3,7.7629033E3,9.786644E1,4.2936096E2],"tree_param":{"num_deleted":"0","num_feature":"3","num_nodes":"31","size_leaf_vector":"1"}},{"base_weights":[4.906937E-3,-1.0541286E0,3.1329444E-4,-5.587817E-2,-5.574014E-1,2.6660445E-1,-5.3167094E-2,-3.602727E-3,2.97712E-2],"categories":[],"categories_nodes":[],"categories_segments":[],"categories_sizes":[],"default_left":[0,0,0,0,0,0,0,0,0],"id":35,"left_children":[1,3,-1,-1,5,7,-1,-1,-1],"loss_changes":[8.8380974E1,1.856926E0,0E0,0E0,4.8307934E0,5.9400964E-1,0E0,0E0,0E0],"parents":[2147483647,0,0,1,1,4,4,5,5],"right_children":[2,4,-1,-1,6,8,-1,-1,-1],"split_conditions":[9.9994075E-1,9.972914E-1,3.1329444E-4,-5.587817E-2,9.9749905E-1,9.974427E-1,-5.3167094E-2,-3.602727E-3,2.97712E-2],"split_indices":[1,1,0,0,1,1,0,0,0],"split_type":[0,0,0,0,0,0,0,0,0],"sum_hessian":[6.140514E4,7.7701126E1,6.1327438E4,6.7793655E1,9.907471E0,3.9489763E0,5.9584947E0,2.330061E0,1.6189153E0],"tree_param":{"num_deleted":"0","num_feature":"3","num_nodes":"9","size_leaf_vector":"1"}},{"base_weights":[-4.7457325E-3,-1.0299226E0,-1.7453128E-4,-5.5024207E-2,-4.821823E-1,4.0854752E-1,-5.2170873E-2,4.485646E-2,-3.0003279E-3],"categories":[],"categories_nodes":[],"categories_segments":[],"categories_sizes":[],"default_left":[0,0,0,0,0,0,0,0,0],"id":36,"left_children":[1,3,-1,-1,5,7,-1,-1,-1],"loss_changes":[7.876955E1,2.3625336E0,0E0,0E0,5.5866356E0,1.1317732E0,0E0,0E0,0E0],"parents":[2147483647,0,0,1,1,4,4,5,5],"right_children":[2,4,-1,-1,6,8,-1,-1,-1],"split_conditions":[9.9994075E-1,9.972914E-1,-1.7453128E-4,-5.5024207E-2,9.9749905E-1,9.9731743E-1,-5.2170873E-2,4.485646E-2,-3.0003279E-3],"split_indices":[1,1,0,0,1,1,0,0,0],"split_type":[0,0,0,0,0,0,0,0,0],"sum_hessian":[6.121974E4,7.38565E1,6.1145883E4,6.453391E1,9.322582E0,3.7086627E0,5.6139197E0,1.3677621E0,2.3409007E0],"tree_param":{"num_deleted":"0","num_feature":"3","num_nodes":"9","size_leaf_vector":"1"}},{"base_weights":[-5.968391E-4,-9.482366E-1,3.6238108E-2,-1.5789717E-1,-5.7785835E-2,-1.0171362E-1,1.1975947E-1,-8.8975705E-2,-2.159551E-1,-8.9967646E-2,-7.7490926E-1,-1.0219938E0,1.2204049E-1,-1.2905276E-2,1.7528431E-3,-2.9384023E-1,-1.304867E-3,-2.0496194E-1,-5.8521036E-2,-5.2792866E-2,-2.2601548E-3,-5.4344922E-2,-5.2150655E-1,1.51856495E-2,1.23288065E-1,-1.2689697E-2,-1.6974086E-2,-6.9684284E-3,-1.9985419E-2,4.285885E-4,-6.8928725E-3,1.2358416E-2,-5.1414467E-2,5.114732E-3,-1.3472721E-2,7.003698E-3,6.158963E-3],"categories":[],"categories_nodes":[],"categories_segments":[],"categories_sizes":[],"default_left":[0,0,0,0,0,0,0,0,0,0,0,0,0,0,0,0,0,0,0,0,0,0,0,0,0,0,0,0,0,0,0,0,0,0,0,0,0],"id":37,"left_children":[1,3,5,7,-1,9,11,13,15,17,19,21,23,-1,-1,25,-1,27,29,-1,-1,-1,31,33,35,-1,-1,-1,-1,-1,-1,-1,-1,-1,-1,-1,-1],"loss_changes":[2.1403293E3,3.7602124E2,6.800621E2,1.8942747E0,0E0,1.7593881E2,9.587274E1,4.631365E0,3.820056E0,7.910388E1,7.8180435E1,1.8177872E0,4.8895264E0,0E0,0E0,2.4916172E-1,0E0,5.995343E1,9.145698E1,0E0,0E0,0E0,4.285798E0,1.0555171E1,4.8950195E-2,0E0,0E0,0E0,0E0,0E0,0E0,0E0,0E0,0E0,0E0,0E0,0E0],"parents":[2147483647,0,0,1,1,2,2,3,3,5,5,6,6,7,7,8,8,9,9,10,10,11,11,12,12,15,15,17,17,18,18,22,22,23,23,24,24],"right_children":[2,4,6,8,-1,10,12,14,16,18,20,22,24,-1,-1,26,-1,28,30,-1,-1,-1,32,34,36,-1,-1,-1,-1,-1,-1,-1,-1,-1,-1,-1,-1],"split_conditions":[5.98204E-1,5.979123E-1,9.767161E-1,5.950266E-1,-5.7785835E-2,9.7071683E-1,9.9994075E-1,5.9251684E-1,5.973095E-1,6.168624E-1,9.727552E-1,9.972914E-1,9.9209136E-1,-1.2905276E-2,1.7528431E-3,5.9634244E-1,-1.304867E-3,6.1021155E-1,7.5477946E-1,-5.2792866E-2,-2.2601548E-3,-5.4344922E-2,9.9749905E-1,9.881623E-1,1E0,-1.2689697E-2,-1.6974086E-2,-6.9684284E-3,-1.9985419E-2,4.285885E-4,-6.8928725E-3,1.2358416E-2,-5.1414467E-2,5.114732E-3,-1.3472721E-2,7.003698E-3,6.158963E-3],"split_indices":[2,2,2,2,0,2,1,2,2,2,2,1,2,0,0,2,0,2,2,0,0,0,1,2,2,0,0,0,0,0,0,0,0,0,0,0,0],"split_type":[0,0,0,0,0,0,0,0,0,0,0,0,0,0,0,0,0,0,0,0,0,0,0,0,0,0,0,0,0,0,0,0,0,0,0,0,0],"sum_hessian":[6.1314508E4,2.293208E3,5.90213E4,4.7720087E2,1.8160071E3,2.2257879E4,3.676342E4,2.1934528E2,2.5785562E2,2.1877295E4,3.805833E2,7.240909E1,3.669101E4,9.234433E1,1.2700094E2,1.8245827E2,7.539734E1,4.696729E3,1.7180566E4,2.7446368E2,1.06119644E2,6.3059643E1,9.349442E0,4.2359088E2,3.626742E4,1.00680626E2,8.177764E1,3.5146577E3,1.182071E3,9.309039E3,7.8715273E3,3.918398E0,5.4310436E0,3.2482474E2,9.876616E1,2.2529018E2,3.6042133E4],"tree_param":{"num_deleted":"0","num_feature":"3","num_nodes":"37","size_leaf_vector":"1"}},{"base_weights":[1.8162642E-3,-1.0054322E0,1.5001463E-4,-5.3720262E-2,-4.7431767E-1,3.733749E-1,-5.090033E-2,3.98601E-3,2.875786E-2],"categories":[],"categories_nodes":[],"categories_segments":[],"categories_sizes":[],"default_left":[0,0,0,0,0,0,0,0,0],"id":38,"left_children":[1,3,-1,-1,5,7,-1,-1,-1],"loss_changes":[7.303931E1,2.1245346E0,0E0,0E0,5.0144005E0,2.3032159E-1,0E0,0E0,0E0],"parents":[2147483647,0,0,1,1,4,4,5,5],"right_children":[2,4,-1,-1,6,8,-1,-1,-1],"split_conditions":[9.9994075E-1,9.972914E-1,1.5001463E-4,-5.3720262E-2,9.9749905E-1,9.974427E-1,-5.090033E-2,3.98601E-3,2.875786E-2],"split_indices":[1,1,0,0,1,1,0,0,0],"split_type":[0,0,0,0,0,0,0,0,0],"sum_hessian":[6.1239664E4,7.0907326E1,6.1168754E4,6.1852016E1,9.055311E0,3.6608121E0,5.394499E0,2.059171E0,1.6016412E0],"tree_param":{"num_deleted":"0","num_feature":"3","num_nodes":"9","size_leaf_vector":"1"}},{"base_weights":[-6.4074155E-3,-9.960856E-1,-2.635882E-4,-5.3074297E-2,-4.8817447E-1,2.2746867E-1,-4.9752805E-2,-5.1220492E-3,2.8019456E-2],"categories":[],"categories_nodes":[],"categories_segments":[],"categories_sizes":[],"default_left":[0,0,0,0,0,0,0,0,0],"id":39,"left_children":[1,3,-1,-1,5,7,-1,-1,-1],"loss_changes":[6.858683E1,1.8051987E0,0E0,0E0,3.7922902E0,5.944724E-1,0E0,0E0,0E0],"parents":[2147483647,0,0,1,1,4,4,5,5],"right_children":[2,4,-1,-1,6,8,-1,-1,-1],"split_conditions":[9.9994075E-1,9.972914E-1,-2.635882E-4,-5.3074297E-2,9.9749905E-1,9.974427E-1,-4.9752805E-2,-5.1220492E-3,2.8019456E-2],"split_indices":[1,1,0,0,1,1,0,0,0],"split_type":[0,0,0,0,0,0,0,0,0],"sum_hessian":[6.1027812E4,6.894471E1,6.0958867E4,6.01143E1,8.830412E0,3.889808E0,4.9406037E0,2.3014586E0,1.5883493E0],"tree_param":{"num_deleted":"0","num_feature":"3","num_nodes":"9","size_leaf_vector":"1"}},{"base_weights":[-8.4352813E-4,-9.8142445E-1,1.1946159E-5,-5.2376844E-2,-4.84967E-1,2.2128566E-1,-4.9303424E-2,-4.9387966E-3,2.7304888E-2],"categories":[],"categories_nodes":[],"categories_segments":[],"categories_sizes":[],"default_left":[0,0,0,0,0,0,0,0,0],"id":40,"left_children":[1,3,-1,-1,5,7,-1,-1,-1],"loss_changes":[6.492831E1,1.7058563E0,0E0,0E0,3.6824987E0,5.612104E-1,0E0,0E0,0E0],"parents":[2147483647,0,0,1,1,4,4,5,5],"right_children":[2,4,-1,-1,6,8,-1,-1,-1],"split_conditions":[9.9994075E-1,9.972914E-1,1.1946159E-5,-5.2376844E-2,9.9749905E-1,9.974427E-1,-4.9303424E-2,-4.9387966E-3,2.7304888E-2],"split_indices":[1,1,0,0,1,1,0,0,0],"split_type":[0,0,0,0,0,0,0,0,0],"sum_hessian":[6.1169316E4,6.645095E1,6.1102867E4,5.7662155E1,8.788796E0,3.8794703E0,4.909326E0,2.3045366E0,1.5749338E0],"tree_param":{"num_deleted":"0","num_feature":"3","num_nodes":"9","size_leaf_vector":"1"}},{"base_weights":[-2.0821034E-3,-9.404102E-1,3.313791E-2,-1.7753562E-1,-5.7290763E-2,-9.764411E-2,1.1444328E-1,-1.4573945E-1,-2.4078111E-1,-2.0181426E-1,-6.497232E-2,-9.6811354E-1,1.16389714E-1,-1.1250666E-2,-1.1283369E-1,-1.653901E-2,-6.8588713E-3,-1.2822074E-1,-3.3621746E-1,1.8315194E-2,-1.5491547E-1,-5.175075E-2,-4.7231543E-1,5.7565164E-2,5.837474E-3,-3.8605002E-3,-7.7021415E-3,-1.3085713E-2,-4.148396E-3,-2.3051176E-2,-1.139121E-2,-3.6847367E-4,8.010513E-3,-3.0717928E-2,-3.320861E-3,1.0765488E-2,-4.8644397E-2,2.1747404E-3,3.5070279E-3],"categories":[],"categories_nodes":[],"categories_segments":[],"categories_sizes":[],"default_left":[0,0,0,0,0,0,0,0,0,0,0,0,0,0,0,0,0,0,0,0,0,0,0,0,0,0,0,0,0,0,0,0,0,0,0,0,0,0,0],"id":41,"left_children":[1,3,5,7,-1,9,11,13,15,17,19,21,23,-1,25,-1,-1,27,29,31,33,-1,35,37,-1,-1,-1,-1,-1,-1,-1,-1,-1,-1,-1,-1,-1,-1,-1],"loss_changes":[2.0225015E3,3.4672607E2,6.272163E2,9.11767E-1,0E0,7.694835E1,7.6755554E1,7.985492E-1,1.4090967E0,5.3354492E1,1.2896617E2,1.6800652E0,7.616577E-1,0E0,3.1872416E-1,0E0,0E0,2.1061298E1,2.5726685E1,3.2580822E1,3.3650592E2,0E0,3.5185647E0,3.6350667E-2,0E0,0E0,0E0,0E0,0E0,0E0,0E0,0E0,0E0,0E0,0E0,0E0,0E0,0E0,0E0],"parents":[2147483647,0,0,1,1,2,2,3,3,5,5,6,6,7,7,8,8,9,9,10,10,11,11,12,12,14,14,17,17,18,18,19,19,20,20,22,22,23,23],"right_children":[2,4,6,8,-1,10,12,14,16,18,20,22,24,-1,26,-1,-1,28,30,32,34,-1,36,38,-1,-1,-1,-1,-1,-1,-1,-1,-1,-1,-1,-1,-1,-1,-1],"split_conditions":[5.98204E-1,5.979123E-1,9.9209136E-1,5.9634244E-1,-5.7290763E-2,6.232674E-1,9.9994075E-1,5.9251684E-1,5.973095E-1,6.1021155E-1,7.633898E-1,9.972914E-1,1E0,-1.1250666E-2,5.950266E-1,-1.653901E-2,-6.8588713E-3,6.030616E-1,6.150414E-1,7.316718E-1,7.882209E-1,-5.175075E-2,9.9749905E-1,9.9620986E-1,5.837474E-3,-3.8605002E-3,-7.7021415E-3,-1.3085713E-2,-4.148396E-3,-2.3051176E-2,-1.139121E-2,-3.6847367E-4,8.010513E-3,-3.0717928E-2,-3.320861E-3,1.0765488E-2,-4.8644397E-2,2.1747404E-3,3.5070279E-3],"split_indices":[2,2,2,2,0,2,1,2,2,2,2,1,2,0,2,0,0,2,2,2,2,0,1,2,0,0,0,0,0,0,0,0,0,0,0,0,0,0,0],"split_type":[0,0,0,0,0,0,0,0,0,0,0,0,0,0,0,0,0,0,0,0,0,0,0,0,0,0,0,0,0,0,0,0,0,0,0,0,0,0,0],"sum_hessian":[6.1197094E4,2.212995E3,5.8984098E4,4.6984717E2,1.743148E3,2.261194E4,3.6372156E4,3.1485873E2,1.5498843E2,5.3974937E3,1.7214447E4,6.4388794E1,3.6307766E4,9.0645325E1,2.2421342E2,8.1766396E1,7.322204E1,3.489012E3,1.9084819E3,8.938332E3,8.276115E3,5.577511E1,8.61369E0,2.216819E2,3.6086086E4,1.21797676E2,1.0241575E2,8.820944E2,2.6069175E3,8.855684E2,1.0229135E3,7.5691714E3,1.3691605E3,1.3357192E3,6.9403955E3,3.868918E0,4.7447724E0,1.06726494E2,1.149554E2],"tree_param":{"num_deleted":"0","num_feature":"3","num_nodes":"39","size_leaf_vector":"1"}},{"base_weights":[-8.386324E-4,-9.1970736E-1,3.2709774E-2,-1.6686271E-1,-5.6668352E-2,-8.7804385E-2,1.0569459E-1,-8.274934E-2,-3.415439E-1,-7.569243E-2,-8.0679405E-1,3.508704E-2,5.3483755E-3,-7.1809525E-3,-2.8559547E-3,-2.1494154E-2,-1.2197836E-2,-1.6079037E-1,-4.8220262E-2,-5.016904E-2,-1.2685333E-2,1.24707274E-1,-5.7476643E-2,-3.7912105E-3,-1.4140441E-2,3.3074256E-3,-5.0675236E-3,3.3542893E-3,1.1495959E-2,-9.136728E-3,7.028667E-5],"categories":[],"categories_nodes":[],"categories_segments":[],"categories_sizes":[],"default_left":[0,0,0,0,0,0,0,0,0,0,0,0,0,0,0,0,0,0,0,0,0,0,0,0,0,0,0,0,0,0,0],"id":42,"left_children":[1,3,5,7,-1,9,11,13,15,17,19,21,-1,-1,-1,-1,-1,23,25,-1,-1,27,29,-1,-1,-1,-1,-1,-1,-1,-1],"loss_changes":[1.8837573E3,3.4604675E2,5.185664E2,6.9805307E0,0E0,1.9359332E2,3.2964783E0,4.9617147E-1,1.2289295E0,5.112149E1,3.9790817E1,5.413718E0,0E0,0E0,0E0,0E0,0E0,5.530896E1,1.004775E2,0E0,0E0,1.993979E0,2.3699188E0,0E0,0E0,0E0,0E0,0E0,0E0,0E0,0E0],"parents":[2147483647,0,0,1,1,2,2,3,3,5,5,6,6,7,7,8,8,9,9,10,10,11,11,17,17,18,18,21,21,22,22],"right_children":[2,4,6,8,-1,10,12,14,16,18,20,22,-1,-1,-1,-1,-1,24,26,-1,-1,28,30,-1,-1,-1,-1,-1,-1,-1,-1],"split_conditions":[5.98204E-1,5.979123E-1,9.767161E-1,5.9634244E-1,-5.6668352E-2,9.7071683E-1,1E0,5.9251684E-1,5.973095E-1,6.2226063E-1,9.727552E-1,9.881623E-1,5.3483755E-3,-7.1809525E-3,-2.8559547E-3,-2.1494154E-2,-1.2197836E-2,6.0892016E-1,6.828722E-1,-5.016904E-2,-1.2685333E-2,9.8413694E-1,9.9209136E-1,-3.7912105E-3,-1.4140441E-2,3.3074256E-3,-5.0675236E-3,3.3542893E-3,1.1495959E-2,-9.136728E-3,7.028667E-5],"split_indices":[2,2,2,2,0,2,2,2,2,2,2,2,0,0,0,0,0,2,2,0,0,2,2,0,0,0,0,0,0,0,0],"split_type":[0,0,0,0,0,0,0,0,0,0,0,0,0,0,0,0,0,0,0,0,0,0,0,0,0,0,0,0,0,0,0],"sum_hessian":[6.110624E4,2.1515054E3,5.8954734E4,4.7601492E2,1.6754906E3,2.2236736E4,3.6717996E4,3.2229535E2,1.5371956E2,2.1869434E4,3.6730267E2,6.507388E2,3.6067258E4,9.413323E1,2.2816212E2,7.889555E1,7.482401E1,5.335941E3,1.6533494E4,2.703844E2,9.691829E1,3.304498E2,3.20289E2,3.1465193E3,2.1894219E3,5.2443003E3,1.1289193E4,2.1457239E2,1.158774E2,1.0174593E2,2.1854308E2],"tree_param":{"num_deleted":"0","num_feature":"3","num_nodes":"31","size_leaf_vector":"1"}},{"base_weights":[2.4442043E-4,-9.5405245E-1,6.1254155E-5,-5.10709E-2,-4.7464803E-1,2.0327997E-1,-4.8301157E-2,2.6784465E-2,-5.900738E-3],"categories":[],"categories_nodes":[],"categories_segments":[],"categories_sizes":[],"default_left":[0,0,0,0,0,0,0,0,0],"id":43,"left_children":[1,3,-1,-1,5,7,-1,-1,-1],"loss_changes":[5.704587E1,1.5361176E0,0E0,0E0,3.386939E0,5.8132017E-1,0E0,0E0,0E0],"parents":[2147483647,0,0,1,1,4,4,5,5],"right_children":[2,4,-1,-1,6,8,-1,-1,-1],"split_conditions":[9.9994075E-1,9.972914E-1,6.1254155E-5,-5.10709E-2,9.9749905E-1,9.9731743E-1,-4.8301157E-2,2.6784465E-2,-5.900738E-3],"split_indices":[1,1,0,0,1,1,0,0,0],"split_type":[0,0,0,0,0,0,0,0,0],"sum_hessian":[6.0954402E4,6.157649E1,6.0892824E4,5.299857E1,8.577916E0,3.8510711E0,4.726845E0,1.5648279E0,2.2862434E0],"tree_param":{"num_deleted":"0","num_feature":"3","num_nodes":"9","size_leaf_vector":"1"}},{"base_weights":[3.6814155E-3,-8.894935E-1,3.5295244E-2,-1.3225405E-1,-5.5877566E-2,-7.8807674E-2,1.0692724E-1,-9.3831226E-2,-2.0759998E-1,-6.9065325E-2,-3.1490156E-1,4.297451E-3,5.3496445E-3,-8.58033E-3,-3.0976597E-3,-1.3491668E-2,-6.898475E-3,-1.6160549E-1,-3.763385E-2,-4.9860906E-2,-2.7892927E-2,-3.185664E-3,-1.2129595E-2,3.8645302E-3,-4.52261E-3,1.2295133E-3,-6.9383644E-3],"categories":[],"categories_nodes":[],"categories_segments":[],"categories_sizes":[],"default_left":[0,0,0,0,0,0,0,0,0,0,0,0,0,0,0,0,0,0,0,0,0,0,0,0,0,0,0],"id":44,"left_children":[1,3,5,7,-1,9,11,13,15,17,19,-1,-1,-1,-1,-1,-1,21,23,-1,25,-1,-1,-1,-1,-1,-1],"loss_changes":[1.722221E3,3.5992322E2,4.814818E2,1.3809347E0,0E0,5.2234894E1,4.0618896E-2,7.881794E-1,6.671362E-1,6.3461555E1,1.7623315E2,0E0,0E0,0E0,0E0,0E0,0E0,4.3841248E1,9.8884445E1,0E0,3.6961436E0,0E0,0E0,0E0,0E0,0E0,0E0],"parents":[2147483647,0,0,1,1,2,2,3,3,5,5,6,6,7,7,8,8,9,9,10,10,17,17,18,18,20,20],"right_children":[2,4,6,8,-1,10,12,14,16,18,20,-1,-1,-1,-1,-1,-1,22,24,-1,26,-1,-1,-1,-1,-1,-1],"split_conditions":[5.98204E-1,5.979123E-1,9.9620986E-1,5.9634244E-1,-5.5877566E-2,9.7071683E-1,1E0,5.9251684E-1,5.973095E-1,6.2425774E-1,9.727552E-1,4.297451E-3,5.3496445E-3,-8.58033E-3,-3.0976597E-3,-1.3491668E-2,-6.898475E-3,6.0719776E-1,6.849185E-1,-4.9860906E-2,9.881623E-1,-3.185664E-3,-1.2129595E-2,3.8645302E-3,-4.52261E-3,1.2295133E-3,-6.9383644E-3],"split_indices":[2,2,2,2,0,2,2,2,2,2,2,0,0,0,0,0,0,2,2,0,2,0,0,0,0,0,0],"split_type":[0,0,0,0,0,0,0,0,0,0,0,0,0,0,0,0,0,0,0,0,0,0,0,0,0,0,0],"sum_hessian":[6.0990227E4,2.0840183E3,5.890621E4,4.827344E2,1.6012838E3,2.2718197E4,3.618801E4,3.2118878E2,1.615456E2,2.1819129E4,8.99068E2,1.16968956E2,3.6071043E4,9.210054E1,2.2908826E2,8.378563E1,7.7759964E1,5.5309194E3,1.6288209E4,2.654734E2,6.335946E2,2.504905E3,3.0260144E3,5.1286367E3,1.1159572E4,4.3056277E2,2.0303183E2],"tree_param":{"num_deleted":"0","num_feature":"3","num_nodes":"27","size_leaf_vector":"1"}},{"base_weights":[5.3252447E-6,-9.0173113E-1,3.0696098E-2,-2.0039059E-1,-5.569145E-2,-7.341109E-2,9.4973356E-2,-1.7270876E-2,-1.665293E-1,-6.383154E-2,-4.3674645E-1,1.2435931E-2,9.445667E-2,-8.2364544E-2,-2.8839839E-1,-1.4826043E-1,-3.507041E-2,-4.6305574E-2,-2.7751658E-2,-6.3339523E-3,9.5087506E-2,-2.4214007E-3,-6.031387E-3,-1.7176095E-2,-1.1301345E-2,-2.9589636E-3,-1.1037338E-2,4.0341257E-3,-4.3249805E-3,2.3440037E-4,-4.7165956E-3,1.9608343E-3,4.7714575E-3],"categories":[],"categories_nodes":[],"categories_segments":[],"categories_sizes":[],"default_left":[0,0,0,0,0,0,0,0,0,0,0,0,0,0,0,0,0,0,0,0,0,0,0,0,0,0,0,0,0,0,0,0,0],"id":45,"left_children":[1,3,5,7,-1,9,11,-1,13,15,17,-1,19,21,23,25,27,-1,29,-1,31,-1,-1,-1,-1,-1,-1,-1,-1,-1,-1,-1,-1],"loss_changes":[1.6839093E3,2.9768982E2,3.9376913E2,2.2321358E0,0E0,7.815565E1,2.8665466E0,0E0,3.8731709E0,5.3141983E1,1.1543115E2,0E0,5.0704346E0,2.8778708E-1,4.545765E-1,3.589556E1,9.720174E1,0E0,6.8136203E-1,0E0,6.864929E-1,0E0,0E0,0E0,0E0,0E0,0E0,0E0,0E0,0E0,0E0,0E0,0E0],"parents":[2147483647,0,0,1,1,2,2,3,3,5,5,6,6,8,8,9,9,10,10,12,12,13,13,14,14,15,15,16,16,18,18,20,20],"right_children":[2,4,6,8,-1,10,12,-1,14,16,18,-1,20,22,24,26,28,-1,30,-1,32,-1,-1,-1,-1,-1,-1,-1,-1,-1,-1,-1,-1],"split_conditions":[5.98204E-1,5.979123E-1,9.8413694E-1,5.9251684E-1,-5.569145E-2,9.7071683E-1,9.881623E-1,-1.7270876E-2,5.9634244E-1,6.2425774E-1,9.727552E-1,1.2435931E-2,9.9209136E-1,5.950266E-1,5.973095E-1,6.0719776E-1,6.828722E-1,-4.6305574E-2,9.8038334E-1,-6.3339523E-3,1E0,-2.4214007E-3,-6.031387E-3,-1.7176095E-2,-1.1301345E-2,-2.9589636E-3,-1.1037338E-2,4.0341257E-3,-4.3249805E-3,2.3440037E-4,-4.7165956E-3,1.9608343E-3,4.7714575E-3],"split_indices":[2,2,2,2,0,2,2,0,2,2,2,0,2,2,2,2,2,0,2,0,2,0,0,0,0,0,0,0,0,0,0,0,0],"split_type":[0,0,0,0,0,0,0,0,0,0,0,0,0,0,0,0,0,0,0,0,0,0,0,0,0,0,0,0,0,0,0,0,0],"sum_hessian":[6.0843887E4,2.0017378E3,5.8842152E4,4.652496E2,1.5364882E3,2.246171E4,3.6380438E4,8.632427E1,3.7892532E2,2.1885854E4,5.758582E2,1.20242546E2,3.6260195E4,2.2512572E2,1.5379962E2,5.560051E3,1.6325803E4,2.615944E2,3.1426382E2,1.0257639E2,3.615762E4,1.2050904E2,1.0461668E2,7.925068E1,7.454894E1,2.4952998E3,3.064751E3,5.02203E3,1.1303772E4,2.1193369E2,1.0233013E2,2.2045927E2,3.593716E4],"tree_param":{"num_deleted":"0","num_feature":"3","num_nodes":"33","size_leaf_vector":"1"}},{"base_weights":[3.1366173E-4,-8.725073E-1,2.9182268E-2,-1.635327E-1,-5.4950964E-2,-8.1149496E-2,9.816968E-2,-1.477811E-2,-1.3240875E-1,-4.469006E-2,-1.4936398E-1,4.3680324E-4,4.92274E-3,1.4651975E-3,-2.1057089E-1,-1.271485E-1,3.4595437E-2,-8.315183E-1,-6.2028788E-2,-1.1528267E-2,-7.997143E-3,-1.3016026E-2,-5.4540476E-3,7.1440227E-3,-1.6665636E-3,-2.9142452E-2,-6.852E-2,-1.2735757E-3,-1.4363097E-2],"categories":[],"categories_nodes":[],"categories_segments":[],"categories_sizes":[],"default_left":[0,0,0,0,0,0,0,0,0,0,0,0,0,0,0,0,0,0,0,0,0,0,0,0,0,0,0,0,0],"id":46,"left_children":[1,3,5,7,-1,9,11,-1,13,15,17,-1,-1,-1,19,21,23,25,27,-1,-1,-1,-1,-1,-1,-1,-1,-1,-1],"loss_changes":[1.5308096E3,3.1218433E2,4.476271E2,1.9010372E0,0E0,5.626352E1,9.2181396E-1,0E0,4.8584332E0,9.640968E1,4.694226E2,0E0,0E0,0E0,2.2522259E-1,1.7364143E1,5.530582E1,1.19041504E2,5.752249E1,0E0,0E0,0E0,0E0,0E0,0E0,0E0,0E0,0E0,0E0],"parents":[2147483647,0,0,1,1,2,2,3,3,5,5,6,6,8,8,9,9,10,10,14,14,15,15,16,16,17,17,18,18],"right_children":[2,4,6,8,-1,10,12,-1,14,16,18,-1,-1,-1,20,22,24,26,28,-1,-1,-1,-1,-1,-1,-1,-1,-1,-1],"split_conditions":[5.98204E-1,5.979123E-1,9.9620986E-1,5.9251684E-1,-5.4950964E-2,7.751165E-1,1E0,-1.477811E-2,5.950266E-1,6.374446E-1,7.882209E-1,4.3680324E-4,4.92274E-3,1.4651975E-3,5.973095E-1,6.030616E-1,6.7705727E-1,7.8683823E-1,9.679136E-1,-1.1528267E-2,-7.997143E-3,-1.3016026E-2,-5.4540476E-3,7.1440227E-3,-1.6665636E-3,-2.9142452E-2,-6.852E-2,-1.2735757E-3,-1.4363097E-2],"split_indices":[2,2,2,2,0,2,2,0,2,2,2,0,0,0,2,2,2,2,2,0,0,0,0,0,0,0,0,0,0],"split_type":[0,0,0,0,0,0,0,0,0,0,0,0,0,0,0,0,0,0,0,0,0,0,0,0,0,0,0,0,0],"sum_hessian":[6.0751336E4,1.9440869E3,5.880725E4,4.7114423E2,1.4729426E3,2.2624172E4,3.618308E4,8.8256996E1,3.8288724E2,1.4744925E4,7.8792466E3,1.15089615E2,3.606799E4,1.2496577E2,2.5792148E2,7.2275405E3,7.517384E3,8.933082E2,6.9859385E3,1.8235162E2,7.556985E1,8.6182245E2,6.3657183E3,2.8974019E3,4.619982E3,6.126704E2,2.806378E2,6.011357E3,9.745817E2],"tree_param":{"num_deleted":"0","num_feature":"3","num_nodes":"29","size_leaf_vector":"1"}},{"base_weights":[-1.1387097E-3,-8.5963833E-1,2.6607843E-2,-1.6558996E-1,-5.4454714E-2,-7.392423E-2,8.8348806E-2,-1.09663986E-1,-2.8415316E-1,-6.437843E-2,-4.4139716E-1,3.664185E-2,8.881103E-2,-1.4438924E-2,-4.0936474E-2,-2.1475744E-2,-6.661646E-3,-1.4728954E-1,-3.9279386E-2,-4.583819E-2,-4.528113E-2,6.176646E-3,-1.0105606E-2,7.394115E-3,4.430566E-3,2.7977244E-3,-8.016541E-3,-4.3486E-3,-1.259151E-2,8.611611E-4,-5.030045E-3,1.4456401E-3,-1.0528493E-2,-2.617616E-3,1.4961011E-3],"categories":[],"categories_nodes":[],"categories_segments":[],"categories_sizes":[],"default_left":[0,0,0,0,0,0,0,0,0,0,0,0,0,0,0,0,0,0,0,0,0,0,0,0,0,0,0,0,0,0,0,0,0,0,0],"id":47,"left_children":[1,3,5,7,-1,9,11,13,15,17,19,21,23,-1,25,-1,-1,27,29,-1,31,-1,33,-1,-1,-1,-1,-1,-1,-1,-1,-1,-1,-1,-1],"loss_changes":[1.4441946E3,3.0210706E2,3.6454272E2,3.1038542E0,0E0,7.835743E1,8.66333E-1,3.9629738E0,3.2534275E0,4.5321106E1,1.0646334E2,1.3176426E0,4.12323E-1,0E0,2.7219071E0,0E0,0E0,3.1891739E1,5.793804E1,0E0,3.8025422E0,0E0,3.594569E-1,0E0,0E0,0E0,0E0,0E0,0E0,0E0,0E0,0E0,0E0,0E0,0E0],"parents":[2147483647,0,0,1,1,2,2,3,3,5,5,6,6,7,7,8,8,9,9,10,10,11,11,12,12,14,14,17,17,18,18,20,20,22,22],"right_children":[2,4,6,8,-1,10,12,14,16,18,20,22,24,-1,26,-1,-1,28,30,-1,32,-1,34,-1,-1,-1,-1,-1,-1,-1,-1,-1,-1,-1,-1],"split_conditions":[5.98204E-1,5.979123E-1,9.8413694E-1,5.9634244E-1,-5.4454714E-2,9.7071683E-1,9.9620986E-1,5.9251684E-1,5.973095E-1,6.203922E-1,9.727552E-1,9.881623E-1,1E0,-1.4438924E-2,5.950266E-1,-2.1475744E-2,-6.661646E-3,6.092303E-1,7.48932E-1,-4.583819E-2,9.8038334E-1,6.176646E-3,9.9209136E-1,7.394115E-3,4.430566E-3,2.7977244E-3,-8.016541E-3,-4.3486E-3,-1.259151E-2,8.611611E-4,-5.030045E-3,1.4456401E-3,-1.0528493E-2,-2.617616E-3,1.4961011E-3],"split_indices":[2,2,2,2,0,2,2,2,2,2,2,2,2,0,2,0,0,2,2,0,2,0,2,0,0,0,0,0,0,0,0,0,0,0,0],"split_type":[0,0,0,0,0,0,0,0,0,0,0,0,0,0,0,0,0,0,0,0,0,0,0,0,0,0,0,0,0,0,0,0,0,0,0],"sum_hessian":[6.06265E4,1.8971528E3,5.8729348E4,4.717986E2,1.4253542E3,2.234502E4,3.638433E4,3.218892E2,1.4990941E2,2.1780408E4,5.6461163E2,3.2308044E2,3.6061246E4,8.837321E1,2.3351599E2,7.542062E1,7.448879E1,5.060129E3,1.672028E4,2.5603616E2,3.0857547E2,1.1244067E2,2.1063979E2,1.1901419E2,3.5942234E4,1.2919939E2,1.04316605E2,3.2099143E3,1.8502147E3,8.702437E3,8.0178438E3,2.135454E2,9.503007E1,1.0232943E2,1.08310356E2],"tree_param":{"num_deleted":"0","num_feature":"3","num_nodes":"35","size_leaf_vector":"1"}},{"base_weights":[3.156705E-4,-8.351991E-1,2.6356224E-2,-9.288815E-2,-5.4384243E-2,-6.121284E-2,8.037637E-2,-3.849518E-2,-2.0458183E-1,-5.183886E-2,-4.2631355E-1,-9.503724E-1,8.214192E-2,-9.350783E-3,1.8908463E-2,-1.2187838E-2,-7.940049E-3,-1.3375577E-1,-2.4258658E-2,-4.6611276E-2,-2.458249E-2,-5.0811507E-2,-4.6870914E-1,1.1030299E-2,8.16921E-2,8.094672E-4,1.0964646E-3,-2.718943E-3,-9.949097E-3,3.6742946E-3,-3.3867506E-3,3.4831713E-3,-1.1618948E-2,9.164906E-3,-4.7698755E-2,-9.103857E-3,4.1197254E-3],"categories":[],"categories_nodes":[],"categories_segments":[],"categories_sizes":[],"default_left":[0,0,0,0,0,0,0,0,0,0,0,0,0,0,0,0,0,0,0,0,0,0,0,0,0,0,0,0,0,0,0,0,0,0,0,0,0],"id":48,"left_children":[1,3,5,7,-1,9,11,13,15,17,19,21,23,-1,25,-1,-1,27,29,-1,31,-1,33,-1,35,-1,-1,-1,-1,-1,-1,-1,-1,-1,-1,-1,-1],"loss_changes":[1.3160911E3,3.4256555E2,2.7750235E2,2.817946E0,0E0,7.6577385E1,6.6103546E1,2.6808534E0,2.3407078E-1,4.9299717E1,1.1381676E2,1.4941559E0,2.2378998E0,0E0,1.5128404E-3,0E0,0E0,2.8446587E1,6.938764E1,0E0,6.150563E0,0E0,3.1261666E0,0E0,6.704117E0,0E0,0E0,0E0,0E0,0E0,0E0,0E0,0E0,0E0,0E0,0E0,0E0],"parents":[2147483647,0,0,1,1,2,2,3,3,5,5,6,6,7,7,8,8,9,9,10,10,11,11,12,12,14,14,17,17,18,18,20,20,22,22,24,24],"right_children":[2,4,6,8,-1,10,12,14,16,18,20,22,24,-1,26,-1,-1,28,30,-1,32,-1,34,-1,36,-1,-1,-1,-1,-1,-1,-1,-1,-1,-1,-1,-1],"split_conditions":[5.98204E-1,5.979123E-1,9.8413694E-1,5.9634244E-1,-5.4384243E-2,9.7071683E-1,9.9994075E-1,5.9251684E-1,5.973095E-1,6.2425774E-1,9.727552E-1,9.972914E-1,9.881623E-1,-9.350783E-3,5.950266E-1,-1.2187838E-2,-7.940049E-3,6.0719776E-1,6.828722E-1,-4.6611276E-2,9.8038334E-1,-5.0811507E-2,9.9749905E-1,1.1030299E-2,9.9209136E-1,8.094672E-4,1.0964646E-3,-2.718943E-3,-9.949097E-3,3.6742946E-3,-3.3867506E-3,3.4831713E-3,-1.1618948E-2,9.164906E-3,-4.7698755E-2,-9.103857E-3,4.1197254E-3],"split_indices":[2,2,2,2,0,2,1,2,2,2,2,1,2,0,2,0,0,2,2,0,2,0,1,0,2,0,0,0,0,0,0,0,0,0,0,0,0],"split_type":[0,0,0,0,0,0,0,0,0,0,0,0,0,0,0,0,0,0,0,0,0,0,0,0,0,0,0,0,0,0,0,0,0,0,0,0,0],"sum_hessian":[6.0487715E4,1.827305E3,5.866041E4,4.641289E2,1.363176E3,2.2380496E4,3.6279914E4,3.130321E2,1.510968E2,2.1821373E4,5.591229E2,6.1118244E1,3.6218797E4,8.6631775E1,2.2640034E2,7.909248E1,7.200431E1,5.4954116E3,1.6325961E4,2.4688844E2,3.122345E2,5.279039E1,8.327855E0,1.156968E2,3.6103098E4,1.2249707E2,1.0390328E2,2.4796448E3,3.015767E3,5.025908E3,1.1300054E4,2.1526567E2,9.696883E1,3.8189526E0,4.5089025E0,9.5199875E1,3.60079E4],"tree_param":{"num_deleted":"0","num_feature":"3","num_nodes":"37","size_leaf_vector":"1"}},{"base_weights":[-2.303532E-3,-8.459549E-1,2.3101533E-2,-2.024313E-1,-5.3465765E-2,-6.838185E-2,7.840399E-2,-2.1741895E-1,-6.2017497E-3,-5.8978263E-2,-6.61125E-1,-5.0242662E-2,7.995076E-2,-1.8916662E-1,-1.6432518E-2,-1.3671738E-1,-3.8416818E-2,-4.4284273E-2,-5.741235E-3,1.0144745E-2,7.956323E-2,-1.3352896E-2,-7.833922E-3,-3.836523E-3,-1.6892763E-2,2.043484E-3,-3.8175283E-3,-7.650891E-3,4.009237E-3],"categories":[],"categories_nodes":[],"categories_segments":[],"categories_sizes":[],"default_left":[0,0,0,0,0,0,0,0,0,0,0,0,0,0,0,0,0,0,0,0,0,0,0,0,0,0,0,0,0],"id":49,"left_children":[1,3,5,7,-1,9,11,13,-1,15,17,-1,19,21,-1,23,25,-1,-1,-1,27,-1,-1,-1,-1,-1,-1,-1,-1],"loss_changes":[1.2937838E3,2.5342566E2,2.9647534E2,5.0870895E-1,0E0,1.2302336E2,6.127527E1,1.1364136E0,0E0,3.473591E1,4.2184387E1,0E0,1.7214966E0,7.3378944E-1,0E0,5.4822205E1,5.1703617E1,0E0,0E0,0E0,5.2678833E0,0E0,0E0,0E0,0E0,0E0,0E0,0E0,0E0],"parents":[2147483647,0,0,1,1,2,2,3,3,5,5,6,6,7,7,9,9,10,10,12,12,13,13,15,15,16,16,20,20],"right_children":[2,4,6,8,-1,10,12,14,-1,16,18,-1,20,22,-1,24,26,-1,-1,-1,28,-1,-1,-1,-1,-1,-1,-1,-1],"split_conditions":[5.98204E-1,5.979123E-1,9.767161E-1,5.973095E-1,-5.3465765E-2,9.7071683E-1,9.972914E-1,5.9634244E-1,-6.2017497E-3,6.1626244E-1,9.727552E-1,-5.0242662E-2,9.8038334E-1,5.9251684E-1,-1.6432518E-2,6.1021155E-1,6.7705727E-1,-4.4284273E-2,-5.741235E-3,1.0144745E-2,9.8413694E-1,-1.3352896E-2,-7.833922E-3,-3.836523E-3,-1.6892763E-2,2.043484E-3,-3.8175283E-3,-7.650891E-3,4.009237E-3],"split_indices":[2,2,2,2,0,2,1,2,0,2,2,0,2,2,0,2,2,0,0,0,2,0,0,0,0,0,0,0,0],"split_type":[0,0,0,0,0,0,0,0,0,0,0,0,0,0,0,0,0,0,0,0,0,0,0,0,0,0,0,0,0],"sum_hessian":[6.036215E4,1.7636182E3,5.859853E4,4.5490305E2,1.3087151E3,2.2077262E4,3.652127E4,3.8040466E2,7.449837E1,2.1733568E4,3.4369336E2,5.1149117E1,3.647012E4,3.0550757E2,7.489709E1,4.5448105E3,1.7188758E4,2.4313135E2,1.0056201E2,1.1295196E2,3.6357168E4,8.779542E1,2.1771216E2,3.5018179E3,1.0429929E3,5.5624434E3,1.1626313E4,9.624216E1,3.6260926E4],"tree_param":{"num_deleted":"0","num_feature":"3","num_nodes":"29","size_leaf_vector":"1"}},{"base_weights":[1.7110986E-4,-8.1233567E-1,2.4083883E-2,-1.4340676E-1,-5.3007867E-2,-6.496526E-2,7.768675E-2,-8.695716E-2,-1.3304785E-2,-5.605674E-2,-6.289709E-1,9.626698E-3,7.731535E-2,-6.132213E-3,-3.6088105E-3,-8.285893E-2,2.1532468E-2,-4.2049557E-2,-6.185208E-3,-3.1519484E-2,7.8268096E-2,-1.9219186E-3,-2.6779657E-2,1.3325422E-2,-4.2584693E-4,8.0847164E-4,-6.6703022E-3,2.157871E-3,3.9185574E-3],"categories":[],"categories_nodes":[],"categories_segments":[],"categories_sizes":[],"default_left":[0,0,0,0,0,0,0,0,0,0,0,0,0,0,0,0,0,0,0,0,0,0,0,0,0,0,0,0,0],"id":50,"left_children":[1,3,5,7,-1,9,11,13,-1,15,17,-1,19,-1,-1,21,23,-1,-1,25,27,-1,-1,-1,-1,-1,-1,-1,-1],"loss_changes":[1.1726E3,2.858822E2,2.798474E2,3.2152452E0,0E0,1.1065407E2,1.5461426E0,1.6085577E-1,0E0,4.5104645E1,3.6582504E1,0E0,3.785263E0,0E0,0E0,3.2417108E2,4.0999943E1,0E0,0E0,1.5438709E0,1.2748718E-1,0E0,0E0,0E0,0E0,0E0,0E0,0E0,0E0],"parents":[2147483647,0,0,1,1,2,2,3,3,5,5,6,6,7,7,9,9,10,10,12,12,15,15,16,16,19,19,20,20],"right_children":[2,4,6,8,-1,10,12,14,-1,16,18,-1,20,-1,-1,22,24,-1,-1,26,28,-1,-1,-1,-1,-1,-1,-1,-1],"split_conditions":[5.98204E-1,5.979123E-1,9.767161E-1,5.9634244E-1,-5.3007867E-2,9.7071683E-1,9.8038334E-1,5.9251684E-1,-1.3304785E-2,8.02878E-1,9.727552E-1,9.626698E-3,9.9209136E-1,-6.132213E-3,-3.6088105E-3,7.751165E-1,8.185206E-1,-4.2049557E-2,-6.185208E-3,9.881623E-1,9.9620986E-1,-1.9219186E-3,-2.6779657E-2,1.3325422E-2,-4.2584693E-4,8.0847164E-4,-6.6703022E-3,2.157871E-3,3.9185574E-3],"split_indices":[2,2,2,2,0,2,2,2,0,2,2,0,2,0,0,2,2,0,0,2,2,0,0,0,0,0,0,0,0],"split_type":[0,0,0,0,0,0,0,0,0,0,0,0,0,0,0,0,0,0,0,0,0,0,0,0,0,0,0,0,0],"sum_hessian":[6.0350168E4,1.7244353E3,5.8625734E4,4.6658664E2,1.2578486E3,2.2029104E4,3.659663E4,3.2072754E2,1.4585909E2,2.1687645E4,3.4145905E2,1.1629749E2,3.6480332E4,9.17966E1,2.2893095E2,1.6119354E4,5.5682905E3,2.4006036E2,1.0139868E2,3.1629956E2,3.6164035E4,1.4680085E4,1.439269E3,6.075344E2,4.9607563E3,2.1602733E2,1.0027223E2,1.07061775E2,3.6056973E4],"tree_param":{"num_deleted":"0","num_feature":"3","num_nodes":"29","size_leaf_vector":"1"}},{"base_weights":[-2.6882263E-3,-9.2673165E-1,-8.968782E-5,-4.963203E-2,-4.7291818E-1,1.7049305E-1,-4.74174E-2,-7.24577E-3,2.5436793E-2],"categories":[],"categories_nodes":[],"categories_segments":[],"categories_sizes":[],"default_left":[0,0,0,0,0,0,0,0,0],"id":51,"left_children":[1,3,-1,-1,5,7,-1,-1,-1],"loss_changes":[4.9798496E1,1.2733078E0,0E0,0E0,3.0061996E0,5.857049E-1,0E0,0E0,0E0],"parents":[2147483647,0,0,1,1,4,4,5,5],"right_children":[2,4,-1,-1,6,8,-1,-1,-1],"split_conditions":[9.9994075E-1,9.972914E-1,-8.968782E-5,-4.963203E-2,9.9749905E-1,9.974427E-1,-4.74174E-2,-7.24577E-3,2.5436793E-2],"split_indices":[1,1,0,0,1,1,0,0,0],"split_type":[0,0,0,0,0,0,0,0,0],"sum_hessian":[6.025116E4,5.7265488E1,6.0193895E4,4.896656E1,8.298928E0,3.7990153E0,4.4999127E0,2.2616296E0,1.5373857E0],"tree_param":{"num_deleted":"0","num_feature":"3","num_nodes":"9","size_leaf_vector":"1"}},{"base_weights":[-5.558592E-4,-7.894207E-1,2.1895038E-2,-1.14884935E-1,-5.2541893E-2,-5.708118E-2,6.9594875E-2,-5.7740647E-2,-2.3706965E-1,-4.8701167E-2,-6.026213E-1,-9.0872926E-1,7.110444E-2,-9.249813E-3,-8.903899E-3,-1.5614952E-2,-7.83405E-3,-7.558539E-2,2.8917504E-2,-4.2874858E-2,-1.7338687E-3,-4.907314E-2,-4.1754174E-1,8.950564E-3,7.074365E-2,-1.3398927E-3,6.312867E-4,-1.8575011E-3,-2.3333682E-2,1.3086802E-2,5.148009E-6,1.5139817E-2,-4.7041353E-2,-6.581522E-3,3.5639186E-3],"categories":[],"categories_nodes":[],"categories_segments":[],"categories_sizes":[],"default_left":[0,0,0,0,0,0,0,0,0,0,0,0,0,0,0,0,0,0,0,0,0,0,0,0,0,0,0,0,0,0,0,0,0,0,0],"id":52,"left_children":[1,3,5,7,-1,9,11,13,15,17,19,21,23,-1,25,-1,-1,27,29,-1,-1,-1,31,-1,33,-1,-1,-1,-1,-1,-1,-1,-1,-1,-1],"loss_changes":[1.0671246E3,2.9388904E2,2.207053E2,3.2457147E0,0E0,1.0082543E2,5.4007294E1,1.9832588E0,8.487301E-1,4.534306E1,4.8269714E1,1.6031761E0,1.4071655E0,0E0,8.96623E-2,0E0,0E0,2.425751E2,3.7504253E1,0E0,0E0,0E0,3.680275E0,0E0,3.9429932E0,0E0,0E0,0E0,0E0,0E0,0E0,0E0,0E0,0E0,0E0],"parents":[2147483647,0,0,1,1,2,2,3,3,5,5,6,6,7,7,8,8,9,9,10,10,11,11,12,12,14,14,17,17,18,18,22,22,24,24],"right_children":[2,4,6,8,-1,10,12,14,16,18,20,22,24,-1,26,-1,-1,28,30,-1,-1,-1,32,-1,34,-1,-1,-1,-1,-1,-1,-1,-1,-1,-1],"split_conditions":[5.98204E-1,5.979123E-1,9.767161E-1,5.9634244E-1,-5.2541893E-2,9.7071683E-1,9.9994075E-1,5.9251684E-1,5.973095E-1,8.02878E-1,9.727552E-1,9.972914E-1,9.8038334E-1,-9.249813E-3,5.950266E-1,-1.5614952E-2,-7.83405E-3,7.751165E-1,8.185206E-1,-4.2874858E-2,-1.7338687E-3,-4.907314E-2,9.9749905E-1,8.950564E-3,9.8413694E-1,-1.3398927E-3,6.312867E-4,-1.8575011E-3,-2.3333682E-2,1.3086802E-2,5.148009E-6,1.5139817E-2,-4.7041353E-2,-6.581522E-3,3.5639186E-3],"split_indices":[2,2,2,2,0,2,1,2,2,2,2,1,2,0,2,0,0,2,2,0,0,0,1,0,2,0,0,0,0,0,0,0,0,0,0],"split_type":[0,0,0,0,0,0,0,0,0,0,0,0,0,0,0,0,0,0,0,0,0,0,0,0,0,0,0,0,0,0,0,0,0,0,0],"sum_hessian":[6.0251047E4,1.6663341E3,5.8584715E4,4.6581903E2,1.2005151E3,2.2059986E4,3.652473E4,3.183863E2,1.4743277E2,2.1727322E4,3.326631E2,5.5345192E1,3.6469383E4,8.752674E1,2.3085954E2,7.467007E1,7.2762695E1,1.6137812E4,5.589511E3,2.292658E2,1.033973E2,4.733746E1,8.007733E0,1.1987919E2,3.6349504E4,1.2594117E2,1.04918365E2,1.4694737E4,1.4430743E3,6.147017E2,4.9748096E3,3.5467477E0,4.460986E0,9.514472E1,3.625436E4],"tree_param":{"num_deleted":"0","num_feature":"3","num_nodes":"35","size_leaf_vector":"1"}},{"base_weights":[-5.172948E-4,-9.044528E-1,1.544421E-5,-4.852504E-2,-4.700078E-1,1.5473753E-1,-4.667431E-2,2.499518E-2,-8.0968365E-3],"categories":[],"categories_nodes":[],"categories_segments":[],"categories_sizes":[],"default_left":[0,0,0,0,0,0,0,0,0],"id":53,"left_children":[1,3,-1,-1,5,7,-1,-1,-1],"loss_changes":[4.4940308E1,1.1205902E0,0E0,0E0,2.8056252E0,6.0256785E-1,0E0,0E0,0E0],"parents":[2147483647,0,0,1,1,4,4,5,5],"right_children":[2,4,-1,-1,6,8,-1,-1,-1],"split_conditions":[9.9994075E-1,9.972914E-1,1.544421E-5,-4.852504E-2,9.9749905E-1,9.9731743E-1,-4.667431E-2,2.499518E-2,-8.0968365E-3],"split_indices":[1,1,0,0,1,1,0,0,0],"split_type":[0,0,0,0,0,0,0,0,0],"sum_hessian":[6.0174777E4,5.3949577E1,6.012083E4,4.5759026E1,8.190555E0,3.7720973E0,4.418457E0,1.5280073E0,2.24409E0],"tree_param":{"num_deleted":"0","num_feature":"3","num_nodes":"9","size_leaf_vector":"1"}},{"base_weights":[-2.6304042E-4,-7.823481E-1,2.1468524E-2,-8.690978E-2,-5.3150304E-2,-5.6604087E-2,6.874655E-2,-7.769108E-3,-7.01463E-2,-4.9366847E-2,-5.253728E-1,2.548289E-2,3.4688078E-3,-1.015426E-3,-9.39553E-2,-1.2287733E-1,-3.1037131E-2,-3.7239946E-2,-1.649385E-3,7.288548E-2,-5.056928E-2,-3.9391895E-3,-5.188477E-3,-3.773963E-3,-2.0620782E-2,1.9653249E-3,-3.616765E-3,1.5607708E-3,7.2879344E-3,-5.783697E-3,4.3724856E-4],"categories":[],"categories_nodes":[],"categories_segments":[],"categories_sizes":[],"default_left":[0,0,0,0,0,0,0,0,0,0,0,0,0,0,0,0,0,0,0,0,0,0,0,0,0,0,0,0,0,0,0],"id":54,"left_children":[1,3,5,7,-1,9,11,-1,13,15,17,19,-1,-1,21,23,25,-1,-1,27,29,-1,-1,-1,-1,-1,-1,-1,-1,-1,-1],"loss_changes":[1.0211994E3,3.1696332E2,2.157886E2,5.264728E-1,0E0,7.4780304E1,9.90036E-1,0E0,4.4651544E-1,2.9256535E1,3.618519E1,1.8922597E0,0E0,0E0,2.9862404E-2,5.9443306E1,5.050152E1,0E0,0E0,9.766717E-1,7.8004944E-1,0E0,0E0,0E0,0E0,0E0,0E0,0E0,0E0,0E0,0E0],"parents":[2147483647,0,0,1,1,2,2,3,3,5,5,6,6,8,8,9,9,10,10,11,11,14,14,15,15,16,16,19,19,20,20],"right_children":[2,4,6,8,-1,10,12,-1,14,16,18,20,-1,-1,22,24,26,-1,-1,28,30,-1,-1,-1,-1,-1,-1,-1,-1,-1,-1],"split_conditions":[5.98204E-1,5.979123E-1,9.767161E-1,5.9251684E-1,-5.3150304E-2,9.7071683E-1,9.9620986E-1,-7.769108E-3,5.950266E-1,6.150414E-1,9.727552E-1,9.881623E-1,3.4688078E-3,-1.015426E-3,5.9634244E-1,6.113302E-1,6.8723387E-1,-3.7239946E-2,-1.649385E-3,9.8413694E-1,9.9209136E-1,-3.9391895E-3,-5.188477E-3,-3.773963E-3,-2.0620782E-2,1.9653249E-3,-3.616765E-3,1.5607708E-3,7.2879344E-3,-5.783697E-3,4.3724856E-4],"split_indices":[2,2,2,2,0,2,2,0,2,2,2,2,0,0,2,2,2,0,0,2,2,0,0,0,0,0,0,0,0,0,0],"split_type":[0,0,0,0,0,0,0,0,0,0,0,0,0,0,0,0,0,0,0,0,0,0,0,0,0,0,0,0,0,0,0],"sum_hessian":[6.008294E4,1.6234246E3,5.8459516E4,4.671615E2,1.1562631E3,2.204888E4,3.6410637E4,9.025112E1,3.769104E2,2.1714736E4,3.341448E2,5.228661E2,3.588777E4,1.22449036E2,2.5446136E2,4.3327476E3,1.7381988E4,2.3078522E2,1.0335958E2,3.2212827E2,2.0073785E2,1.0349672E2,1.5096463E2,3.7243274E3,6.0842004E2,6.4299062E3,1.0952083E4,2.058489E2,1.1627936E2,9.5244804E1,1.0549304E2],"tree_param":{"num_deleted":"0","num_feature":"3","num_nodes":"31","size_leaf_vector":"1"}},{"base_weights":[2.5819265E-4,-5.4547776E-2,1.0459961E-3,-4.3590096E-1,5.546775E-5,1.4822987E-1,-4.544534E-2,-8.181039E-3,2.4540467E-2],"categories":[],"categories_nodes":[],"categories_segments":[],"categories_sizes":[],"default_left":[0,0,0,0,0,0,0,0,0],"id":55,"left_children":[1,-1,3,5,-1,7,-1,-1,-1],"loss_changes":[5.1704643E1,0E0,1.6643634E0,2.5429947E0,0E0,5.8881027E-1,0E0,0E0,0E0],"parents":[2147483647,0,0,2,2,3,3,5,5],"right_children":[2,-1,4,6,-1,8,-1,-1,-1],"split_conditions":[9.972914E-1,-5.4547776E-2,9.9994075E-1,9.9749905E-1,5.546775E-5,9.974427E-1,-4.544534E-2,-8.181039E-3,2.4540467E-2],"split_indices":[1,0,1,1,0,1,0,0,0],"split_type":[0,0,0,0,0,0,0,0,0],"sum_hessian":[6.014299E4,4.239068E1,6.0100598E4,7.716217E0,6.0092883E4,3.759771E0,3.956446E0,2.241613E0,1.5181582E0],"tree_param":{"num_deleted":"0","num_feature":"3","num_nodes":"9","size_leaf_vector":"1"}},{"base_weights":[1.3472615E-3,-8.726838E-1,1.03681035E-4,-9.4429237E-1,