{"learner":{"attributes":{"scikit_learn":"{\"_estimator_type\": \"classifier\"}"},"feature_names":["residual_mean","residual_max","residual_std","residual_min","residual_range","residual_score","Temperature_Room_residual","Humidity_Room_residual","CO_Room_residual","CO2_Room_residual","PM25_Room_residual","PM10_Room_residual","VOC_Room_RAW_residual","top1_residual","top2_residual","risk_tcn","iso_score","ae_score"],"feature_types":["float","float","float","float","float","float","float","float","float","float","float","float","float","float","float","float","float","float"],"gradient_booster":{"model":{"cats":{"enc":[],"feature_segments":[],"sorted_idx":[]},"gbtree_model_param":{"num_parallel_tree":"1","num_trees":"300"},"iteration_indptr":[0,1,2,3,4,5,6,7,8,9,10,11,12,13,14,15,16,17,18,19,20,21,22,23,24,25,26,27,28,29,30,31,32,33,34,35,36,37,38,39,40,41,42,43,44,45,46,47,48,49,50,51,52,53,54,55,56,57,58,59,60,61,62,63,64,65,66,67,68,69,70,71,72,73,74,75,76,77,78,79,80,81,82,83,84,85,86,87,88,89,90,91,92,93,94,95,96,97,98,99,100,101,102,103,104,105,106,107,108,109,110,111,112,113,114,115,116,117,118,119,120,121,122,123,124,125,126,127,128,129,130,131,132,133,134,135,136,137,138,139,140,141,142,143,144,145,146,147,148,149,150,151,152,153,154,155,156,157,158,159,160,161,162,163,164,165,166,167,168,169,170,171,172,173,174,175,176,177,178,179,180,181,182,183,184,185,186,187,188,189,190,191,192,193,194,195,196,197,198,199,200,201,202,203,204,205,206,207,208,209,210,211,212,213,214,215,216,217,218,219,220,221,222,223,224,225,226,227,228,229,230,231,232,233,234,235,236,237,238,239,240,241,242,243,244,245,246,247,248,249,250,251,252,253,254,255,256,257,258,259,260,261,262,263,264,265,266,267,268,269,270,271,272,273,274,275,276,277,278,279,280,281,282,283,284,285,286,287,288,289,290,291,292,293,294,295,296,297,298,299,300],"tree_info":[0,0,0,0,0,0,0,0,0,0,0,0,0,0,0,0,0,0,0,0,0,0,0,0,0,0,0,0,0,0,0,0,0,0,0,0,0,0,0,0,0,0,0,0,0,0,0,0,0,0,0,0,0,0,0,0,0,0,0,0,0,0,0,0,0,0,0,0,0,0,0,0,0,0,0,0,0,0,0,0,0,0,0,0,0,0,0,0,0,0,0,0,0,0,0,0,0,0,0,0,0,0,0,0,0,0,0,0,0,0,0,0,0,0,0,0,0,0,0,0,0,0,0,0,0,0,0,0,0,0,0,0,0,0,0,0,0,0,0,0,0,0,0,0,0,0,0,0,0,0,0,0,0,0,0,0,0,0,0,0,0,0,0,0,0,0,0,0,0,0,0,0,0,0,0,0,0,0,0,0,0,0,0,0,0,0,0,0,0,0,0,0,0,0,0,0,0,0,0,0,0,0,0,0,0,0,0,0,0,0,0,0,0,0,0,0,0,0,0,0,0,0,0,0,0,0,0,0,0,0,0,0,0,0,0,0,0,0,0,0,0,0,0,0,0,0,0,0,0,0,0,0,0,0,0,0,0,0,0,0,0,0,0,0,0,0,0,0,0,0,0,0,0,0,0,0,0,0,0,0,0,0,0,0,0,0,0,0,0,0,0,0,0,0,0,0,0,0,0,0],"trees":[{"base_weights":[3.6884453E-3,-1.0932623E0,1.3558335E0,-1.5295225E0,-5.518192E-1,4.7564784E-1,1.9316224E0,-1.5860476E0,2.5624853E-1,-3.5043845E-1,-1.2059916E0,5.015699E-1,-1.7293329E0,1.6076497E0,1.9578114E0,-1.7180183E0,-1.2654496E0,-3.765665E-1,1.124108E0,-8.597203E-1,-1.9652604E-1,-1.7431412E0,-9.3189317E-1,4.2244563E-1,1.4436424E0,-1.852118E0,8.026984E-2,1.6475842E0,2.4759671E-1,1.7304543E0,1.9669085E0,-8.831984E-2,-5.3225685E-2,-5.7558186E-2,-8.318394E-2,-4.1042464E-3,-6.750815E-2,5.8793034E-2,-8.0000006E-2,-3.51205E-2,-9.307065E-2,-1.7540103E-2,2.1986553E-2,-8.969166E-2,-3.548805E-2,-1.6569769E-2,-5.7271488E-2,2.604348E-2,-2.7619237E-2,7.89805E-2,-1.7186912E-2,-9.913607E-2,3.6104543E-3,1.796503E-2,8.365302E-2,-6.683905E-2,6.492417E-2,8.706406E-2,-6.363636E-2,9.517972E-2,9.8852836E-2],"categories":[],"categories_nodes":[],"categories_segments":[],"categories_sizes":[],"default_left":[0,0,0,0,0,0,0,0,0,0,0,0,0,0,0,0,0,0,0,0,0,0,0,0,0,0,0,0,0,0,0,0,0,0,0,0,0,0,0,0,0,0,0,0,0,0,0,0,0,0,0,0,0,0,0,0,0,0,0,0,0],"id":0,"left_children":[1,3,5,7,9,11,13,15,17,19,21,23,25,27,29,31,33,35,37,39,41,43,45,47,49,51,-1,53,55,57,59,-1,-1,-1,-1,-1,-1,-1,-1,-1,-1,-1,-1,-1,-1,-1,-1,-1,-1,-1,-1,-1,-1,-1,-1,-1,-1,-1,-1,-1,-1],"loss_changes":[9.18096E4,8.0713906E3,1.4049738E4,1.9106797E3,2.0086172E3,6.2761914E2,1.3904688E2,7.7396094E2,3.1978256E2,9.1396045E2,5.268218E2,8.073142E2,5.5234894E1,6.797632E1,2.8664062E1,4.08875E2,2.4171094E2,9.652088E1,3.648694E1,4.2512793E2,8.793537E2,6.219287E1,3.0463306E2,9.5978235E2,2.0453613E2,3.1198822E1,0E0,3.953784E1,6.349388E1,2.187854E1,5.8046875E0,0E0,0E0,0E0,0E0,0E0,0E0,0E0,0E0,0E0,0E0,0E0,0E0,0E0,0E0,0E0,0E0,0E0,0E0,0E0,0E0,0E0,0E0,0E0,0E0,0E0,0E0,0E0,0E0,0E0,0E0],"parents":[2147483647,0,0,1,1,2,2,3,3,4,4,5,5,6,6,7,7,8,8,9,9,10,10,11,11,12,12,13,13,14,14,15,15,16,16,17,17,18,18,19,19,20,20,21,21,22,22,23,23,24,24,25,25,27,27,28,28,29,29,30,30],"right_children":[2,4,6,8,10,12,14,16,18,20,22,24,26,28,30,32,34,36,38,40,42,44,46,48,50,52,-1,54,56,58,60,-1,-1,-1,-1,-1,-1,-1,-1,-1,-1,-1,-1,-1,-1,-1,-1,-1,-1,-1,-1,-1,-1,-1,-1,-1,-1,-1,-1,-1,-1],"split_conditions":[1.3150406E-1,7.45098E-2,2.6982242E-1,9.780323E-2,3.8773865E-2,7.2878623E-1,4.2937267E-1,1.15472205E-1,1.4348546E-1,1.18698E-1,1.3082398E-1,5.207821E-1,5.783422E-1,7.6743215E-1,2.4545114E-1,6.698714E-2,3.8773865E-2,3.4970503E-2,5.3682875E-2,1.1617839E-1,6.4833865E-2,1.10456124E-1,1.2825507E-1,2.400985E-1,7.6743215E-1,1.3009304E-1,8.026984E-2,4.95031E-6,3.982188E-1,6.6738E-1,8.932835E-1,-8.831984E-2,-5.3225685E-2,-5.7558186E-2,-8.318394E-2,-4.1042464E-3,-6.750815E-2,5.8793034E-2,-8.0000006E-2,-3.51205E-2,-9.307065E-2,-1.7540103E-2,2.1986553E-2,-8.969166E-2,-3.548805E-2,-1.6569769E-2,-5.7271488E-2,2.604348E-2,-2.7619237E-2,7.89805E-2,-1.7186912E-2,-9.913607E-2,3.6104543E-3,1.796503E-2,8.365302E-2,-6.683905E-2,6.492417E-2,8.706406E-2,-6.363636E-2,9.517972E-2,9.8852836E-2],"split_indices":[14,14,11,8,10,8,11,4,8,1,1,14,10,12,0,8,10,10,10,9,11,8,9,12,12,3,0,17,10,9,11,0,0,0,0,0,0,0,0,0,0,0,0,0,0,0,0,0,0,0,0,0,0,0,0,0,0,0,0,0,0],"split_type":[0,0,0,0,0,0,0,0,0,0,0,0,0,0,0,0,0,0,0,0,0,0,0,0,0,0,0,0,0,0,0,0,0,0,0,0,0,0,0,0,0,0,0,0,0,0,0,0,0,0,0,0,0,0,0,0,0,0,0,0,0],"sum_hessian":[6.1896152E4,3.4172953E4,2.77232E4,1.8923656E4,1.5249297E4,1.0964314E4,1.6758885E4,1.834315E4,5.805049E2,1.1661079E4,3.588217E3,1.0837677E4,1.26636765E2,1.2580791E3,1.5500807E4,1.2991137E4,5.3520146E3,3.3604086E2,2.4446404E2,2.7052087E3,8.955871E3,1.2105493E3,2.377668E3,9.999289E3,8.383881E2,1.2256838E2,4.0683837E0,1.2219872E3,3.609192E1,6.037211E2,1.4897085E4,1.2094114E4,8.970218E2,4.1615894E3,1.1904254E3,2.588357E2,7.7205154E1,2.4046404E2,4E0,2.3395037E3,3.6570514E2,7.208454E3,1.7474165E3,1.1532416E3,5.7307728E1,6.243766E2,1.7532913E3,9.082716E3,9.1657324E2,7.792278E2,5.91603E1,1.1475E2,7.8183837E0,2.3989344E1,1.1979978E3,1.4284192E1,2.1807726E1,6.019711E2,1.75E0,2.083942E3,1.2813144E4],"tree_param":{"num_deleted":"0","num_feature":"18","num_nodes":"61","size_leaf_vector":"1"}},{"base_weights":[-2.9483377E-3,-1.0391686E0,1.2842671E0,-1.4426707E0,-5.1006895E-1,5.399705E-1,1.7565638E0,-1.4911914E0,2.9194975E-1,-7.546654E-1,3.9152168E-2,1.20504476E-1,1.1264846E0,9.7902983E-1,1.7909062E0,-1.6164541E0,-1.1936392E0,-3.4064904E-1,8.5043424E-1,-5.247916E-1,-1.2337596E0,2.2947408E-1,-5.438308E-1,2.0876046E-1,-7.911266E-1,9.4584703E-1,1.5405412E0,1.0144484E0,-8.825322E-2,1.5167215E0,1.8313786E0,-8.3213754E-2,-5.1031947E-2,-6.4503744E-2,-2.663733E-2,-4.899658E-3,-9.384969E-2,4.5415077E-2,-8.231663E-2,-7.2795294E-2,-2.200189E-2,-8.014504E-2,-5.0352126E-2,-2.0758903E-2,1.7658392E-2,-6.7167245E-2,-1.3820809E-2,-2.514483E-3,2.2639992E-2,-2.335549E-2,-7.2074234E-2,5.4900076E-2,2.1702848E-2,7.9241045E-2,-3.6547385E-2,3.448383E-2,6.5132424E-2,7.9162024E-2,-6.526946E-2,9.2460304E-2,6.3728325E-2],"categories":[],"categories_nodes":[],"categories_segments":[],"categories_sizes":[],"default_left":[0,0,0,0,0,0,0,0,0,0,0,0,0,0,0,0,0,0,0,0,0,0,0,0,0,0,0,0,0,0,0,0,0,0,0,0,0,0,0,0,0,0,0,0,0,0,0,0,0,0,0,0,0,0,0,0,0,0,0,0,0],"id":1,"left_children":[1,3,5,7,9,11,13,15,17,19,21,23,25,27,29,31,33,35,37,39,41,43,45,47,49,51,53,55,-1,57,59,-1,-1,-1,-1,-1,-1,-1,-1,-1,-1,-1,-1,-1,-1,-1,-1,-1,-1,-1,-1,-1,-1,-1,-1,-1,-1,-1,-1,-1,-1],"loss_changes":[8.258174E4,7.3221875E3,9.705559E3,1.6382383E3,1.993884E3,2.6374429E3,4.493164E2,7.036328E2,1.8765805E2,1.1302812E3,5.0765338E2,5.0315622E2,3.3288672E2,7.145331E1,1.7673438E2,3.7779688E2,3.5698682E2,9.2787674E1,4.2232864E1,5.4711926E2,2.7697705E2,2.7517825E2,2.4038608E2,3.6040976E2,1.156521E2,2.4208936E2,1.375686E2,6.539398E1,0E0,3.9375684E2,1.3751562E2,0E0,0E0,0E0,0E0,0E0,0E0,0E0,0E0,0E0,0E0,0E0,0E0,0E0,0E0,0E0,0E0,0E0,0E0,0E0,0E0,0E0,0E0,0E0,0E0,0E0,0E0,0E0,0E0,0E0,0E0],"parents":[2147483647,0,0,1,1,2,2,3,3,4,4,5,5,6,6,7,7,8,8,9,9,10,10,11,11,12,12,13,13,14,14,15,15,16,16,17,17,18,18,19,19,20,20,21,21,22,22,23,23,24,24,25,25,26,26,27,27,29,29,30,30],"right_children":[2,4,6,8,10,12,14,16,18,20,22,24,26,28,30,32,34,36,38,40,42,44,46,48,50,52,54,56,-1,58,60,-1,-1,-1,-1,-1,-1,-1,-1,-1,-1,-1,-1,-1,-1,-1,-1,-1,-1,-1,-1,-1,-1,-1,-1,-1,-1,-1,-1,-1,-1],"split_conditions":[1.3150406E-1,7.584775E-2,7.1392967E-3,1.0096633E-1,8.5555196E-2,1.5083298E-1,3.0344245E-1,1.15472205E-1,1.3150784E-1,3.222998E-2,3.4970503E-2,2.400985E-1,2.7385825E-1,3.1556836E-1,9.9591585E-3,6.698714E-2,6.385836E-2,4.3888282E-2,5.4335285E-2,4.2797517E-2,1.3640897E-1,5.4643247E-2,1.3232917E-1,6.262952E-2,3.4441936E-1,4.742943E-2,3.5365552E-1,1.3836063E-1,-8.825322E-2,6.39849E-1,9.671118E-1,-8.3213754E-2,-5.1031947E-2,-6.4503744E-2,-2.663733E-2,-4.899658E-3,-9.384969E-2,4.5415077E-2,-8.231663E-2,-7.2795294E-2,-2.200189E-2,-8.014504E-2,-5.0352126E-2,-2.0758903E-2,1.7658392E-2,-6.7167245E-2,-1.3820809E-2,-2.514483E-3,2.2639992E-2,-2.335549E-2,-7.2074234E-2,5.4900076E-2,2.1702848E-2,7.9241045E-2,-3.6547385E-2,3.448383E-2,6.5132424E-2,7.9162024E-2,-6.526946E-2,9.2460304E-2,6.3728325E-2],"split_indices":[14,14,15,8,6,6,14,4,8,10,10,12,6,12,15,8,6,10,10,0,1,0,1,6,12,10,8,6,0,12,8,0,0,0,0,0,0,0,0,0,0,0,0,0,0,0,0,0,0,0,0,0,0,0,0,0,0,0,0,0,0],"split_type":[0,0,0,0,0,0,0,0,0,0,0,0,0,0,0,0,0,0,0,0,0,0,0,0,0,0,0,0,0,0,0,0,0,0,0,0,0,0,0,0,0,0,0,0,0,0,0,0,0,0,0,0,0,0,0,0,0,0,0,0,0],"sum_hessian":[6.191084E4,3.4299566E4,2.7611273E4,1.945844E4,1.4841127E4,1.0719872E4,1.68914E4,1.8929096E4,5.2934283E2,1.026792E4,4.573207E3,6.2506836E3,4.4691885E3,7.157562E2,1.6175645E4,1.331806E4,5.611037E3,2.483853E2,2.809575E2,6.940094E3,3.3278254E3,3.4481294E3,1.1250776E3,5.699664E3,5.510196E2,3.113965E3,1.3552236E3,7.072578E2,8.49838E0,2.0855215E3,1.4090123E4,1.2326894E4,9.911657E2,4.895716E3,7.153214E2,2.1542421E2,3.29611E1,2.752151E2,5.742417E0,5.776618E2,6.3624326E3,1.2638892E3,2.0639363E3,5.547248E2,2.8934048E3,2.809806E2,8.440971E2,2.7651863E3,2.9344778E3,3.689314E2,1.8208818E2,2.3994626E3,7.145023E2,1.3296069E3,2.5616655E1,3.341257E2,3.731321E2,2.0379253E3,4.7596172E1,1.3650745E4,4.3937845E2],"tree_param":{"num_deleted":"0","num_feature":"18","num_nodes":"61","size_leaf_vector":"1"}},{"base_weights":[-5.5166786E-3,-9.22789E-1,1.3242545E0,-1.3652685E0,-3.7522867E-1,6.305565E-1,1.6928451E0,-1.4139699E0,2.4830604E-1,-1.9910817E-1,-8.545457E-1,9.768101E-1,3.8950074E-1,1.1444386E0,1.723785E0,-1.6760429E0,-1.2728256E0,-3.1261924E-1,9.77337E-1,-5.405102E-1,9.0588406E-2,-1.4755833E0,-6.3595724E-1,1.0612419E0,-4.9182948E-1,4.877078E-1,-6.205974E-1,1.2034475E0,-9.191783E-2,1.7390108E0,1.1910493E0,-8.4593385E-2,-3.245571E-2,-4.9282394E-2,-7.4327566E-2,-7.385788E-3,-7.207377E-2,5.2317675E-2,-4.9192455E-2,-7.324867E-2,-2.2504792E-2,-8.435558E-3,1.0872215E-2,-7.624582E-2,-3.4214865E-2,-5.927739E-3,-4.3258443E-2,3.805291E-2,7.696031E-2,-5.548892E-2,3.0812098E-2,2.6500124E-2,-5.8842577E-2,-9.802022E-2,3.9219516E-3,8.6734734E-2,3.8052894E-2,7.690882E-2,8.872048E-2,-9.657257E-2,7.6588474E-2],"categories":[],"categories_nodes":[],"categories_segments":[],"categories_sizes":[],"default_left":[0,0,0,0,0,0,0,0,0,0,0,0,0,0,0,0,0,0,0,0,0,0,0,0,0,0,0,0,0,0,0,0,0,0,0,0,0,0,0,0,0,0,0,0,0,0,0,0,0,0,0,0,0,0,0,0,0,0,0,0,0],"id":2,"left_children":[1,3,5,7,9,11,13,15,17,19,21,23,25,27,29,31,33,35,37,39,41,43,45,47,49,51,53,55,-1,57,59,-1,-1,-1,-1,-1,-1,-1,-1,-1,-1,-1,-1,-1,-1,-1,-1,-1,-1,-1,-1,-1,-1,-1,-1,-1,-1,-1,-1,-1,-1],"loss_changes":[7.511766E4,8.829418E3,6.426828E3,1.5842734E3,1.3749553E3,7.27813E2,2.765625E2,7.2160156E2,2.4213985E2,1.1783549E3,5.9322095E2,4.4446362E2,5.107005E2,1.5704321E2,1.2396094E2,1.1015039E2,7.793086E2,6.2144714E1,3.586937E1,4.5646375E2,2.120619E2,4.3407715E1,3.8403845E2,4.846223E2,1.3442404E2,3.3079858E2,4.2756592E2,2.0154846E2,0E0,1.0464844E2,4.656441E2,0E0,0E0,0E0,0E0,0E0,0E0,0E0,0E0,0E0,0E0,0E0,0E0,0E0,0E0,0E0,0E0,0E0,0E0,0E0,0E0,0E0,0E0,0E0,0E0,0E0,0E0,0E0,0E0,0E0,0E0],"parents":[2147483647,0,0,1,1,2,2,3,3,4,4,5,5,6,6,7,7,8,8,9,9,10,10,11,11,12,12,13,13,14,14,15,15,16,16,17,17,18,18,19,19,20,20,21,21,22,22,23,23,24,24,25,25,26,26,27,27,29,29,30,30],"right_children":[2,4,6,8,10,12,14,16,18,20,22,24,26,28,30,32,34,36,38,40,42,44,46,48,50,52,54,56,-1,58,60,-1,-1,-1,-1,-1,-1,-1,-1,-1,-1,-1,-1,-1,-1,-1,-1,-1,-1,-1,-1,-1,-1,-1,-1,-1,-1,-1,-1,-1,-1],"split_conditions":[1.4957473E-1,7.806884E-2,7.427584E-3,1.0096633E-1,3.5338912E-2,2.0964825E-1,3.5076752E-1,3.7801114E-1,1.4348546E-1,7.8349954E-1,1.3082398E-1,3.1556836E-1,9.773654E-2,3.8281524E-1,9.671118E-1,7.302665E-2,2.1802053E-2,4.4893596E-2,6.9286644E-2,9.995162E-4,1.0366678E-1,1.10456124E-1,1.3391513E-1,3.1064004E-1,3.5076752E-1,2.9791725E-1,1.3637349E-1,3.5163248E-1,-9.191783E-2,3.937592E-1,9.66892E-1,-8.4593385E-2,-3.245571E-2,-4.9282394E-2,-7.4327566E-2,-7.385788E-3,-7.207377E-2,5.2317675E-2,-4.9192455E-2,-7.324867E-2,-2.2504792E-2,-8.435558E-3,1.0872215E-2,-7.624582E-2,-3.4214865E-2,-5.927739E-3,-4.3258443E-2,3.805291E-2,7.696031E-2,-5.548892E-2,3.0812098E-2,2.6500124E-2,-5.8842577E-2,-9.802022E-2,3.9219516E-3,8.6734734E-2,3.8052894E-2,7.690882E-2,8.872048E-2,-9.657257E-2,7.6588474E-2],"split_indices":[14,14,15,8,10,9,14,16,8,16,1,12,10,12,8,8,10,10,12,15,14,8,9,1,14,8,0,9,0,0,14,0,0,0,0,0,0,0,0,0,0,0,0,0,0,0,0,0,0,0,0,0,0,0,0,0,0,0,0,0,0],"split_type":[0,0,0,0,0,0,0,0,0,0,0,0,0,0,0,0,0,0,0,0,0,0,0,0,0,0,0,0,0,0,0,0,0,0,0,0,0,0,0,0,0,0,0,0,0,0,0,0,0,0,0,0,0,0,0,0,0,0,0,0,0],"sum_hessian":[6.1581848E4,3.644352E4,2.5138328E4,2.0154953E4,1.6288566E4,8.723384E3,1.6414943E4,1.9564572E4,5.903804E2,1.1912754E4,4.375813E3,3.5791807E3,5.1442026E3,8.786648E2,1.5536279E4,6.844681E3,1.2719892E4,3.3398184E2,2.563985E2,5.467978E3,6.444776E3,1.1377032E3,3.2381099E3,3.384863E3,1.9431763E2,4.6888457E3,4.553571E2,8.6220435E2,1.6460505E1,1.5102383E4,4.3389642E2,6.7401685E3,1.045128E2,5.429724E3,7.290168E3,2.9239902E2,4.158284E1,2.4813289E2,8.265616E0,4.857818E2,4.9821963E3,2.1170645E3,4.3277114E3,1.0700624E3,6.764076E1,9.945703E2,2.2435396E3,2.0806875E3,1.3041758E3,1.2474715E2,6.957048E1,4.5733237E3,1.1552178E2,1.5550476E2,2.9985233E2,3.904309E2,4.717734E2,2.2696978E3,1.2832685E4,4.2228447E1,3.9166797E2],"tree_param":{"num_deleted":"0","num_feature":"18","num_nodes":"61","size_leaf_vector":"1"}},{"base_weights":[3.1623105E-3,-9.1939163E-1,1.2209718E0,-1.3205457E0,-4.206444E-1,4.351272E-1,1.6988752E0,-1.4122207E0,-5.229891E-1,-6.5774274E-1,1.2114635E-1,-5.91697E-2,9.09305E-1,1.4905095E0,1.7287741E0,-1.5256935E0,-1.1253338E0,-7.552148E-1,8.0735135E-1,-4.4041947E-1,-1.081757E0,2.6176032E-1,-5.58744E-1,6.0910396E-2,-1.1288226E0,9.685127E-1,-8.6967605E-1,1.2102561E0,1.6816299E0,1.4877962E0,1.7310344E0,-7.97778E-2,-6.349967E-2,-6.0344875E-2,-2.698215E-2,-2.706647E-2,-6.3196406E-2,4.5721304E-2,-1.873502E-2,-7.836049E-2,-1.8969545E-2,-5.7850312E-2,-4.7630477E-3,-2.2531232E-2,1.8590147E-2,-3.5287846E-2,2.9640058E-2,7.3163095E-3,-5.6744445E-2,-6.211443E-2,2.5456924E-2,3.9400857E-2,7.575861E-2,-7.4609675E-2,6.4935066E-2,6.452506E-2,-6.0345978E-2,8.491669E-2,1.7407786E-2,5.1557656E-2,7.827348E-2,8.403088E-2,8.697697E-2],"categories":[],"categories_nodes":[],"categories_segments":[],"categories_sizes":[],"default_left":[0,0,0,0,0,0,0,0,0,0,0,0,0,0,0,0,0,0,0,0,0,0,0,0,0,0,0,0,0,0,0,0,0,0,0,0,0,0,0,0,0,0,0,0,0,0,0,0,0,0,0,0,0,0,0,0,0,0,0,0,0,0,0],"id":3,"left_children":[1,3,5,7,9,11,13,15,17,19,21,23,25,27,29,31,33,35,37,39,41,43,45,47,49,51,53,55,57,59,61,-1,-1,-1,-1,-1,-1,-1,-1,-1,-1,-1,-1,-1,-1,-1,-1,-1,-1,-1,-1,-1,-1,-1,-1,-1,-1,-1,-1,-1,-1,-1,-1],"loss_changes":[6.8885414E4,6.9791895E3,9.92441E3,1.4128945E3,1.9979409E3,2.3428118E3,9.9796875E1,5.6277344E2,6.168907E2,9.964297E2,4.5283844E2,6.2877606E2,5.381875E2,1.0880713E2,5.25E0,2.1989258E2,2.3431055E2,1.8416443E2,3.792711E1,4.9137683E2,2.7197412E2,3.0780878E2,1.3785118E2,4.4975754E2,9.2459595E1,4.860088E2,2.2445773E2,1.6499744E2,2.6756836E1,3.3729553E0,3.1796875E0,0E0,0E0,0E0,0E0,0E0,0E0,0E0,0E0,0E0,0E0,0E0,0E0,0E0,0E0,0E0,0E0,0E0,0E0,0E0,0E0,0E0,0E0,0E0,0E0,0E0,0E0,0E0,0E0,0E0,0E0,0E0,0E0],"parents":[2147483647,0,0,1,1,2,2,3,3,4,4,5,5,6,6,7,7,8,8,9,9,10,10,11,11,12,12,13,13,14,14,15,15,16,16,17,17,18,18,19,19,20,20,21,21,22,22,23,23,24,24,25,25,26,26,27,27,28,28,29,29,30,30],"right_children":[2,4,6,8,10,12,14,16,18,20,22,24,26,28,30,32,34,36,38,40,42,44,46,48,50,52,54,56,58,60,62,-1,-1,-1,-1,-1,-1,-1,-1,-1,-1,-1,-1,-1,-1,-1,-1,-1,-1,-1,-1,-1,-1,-1,-1,-1,-1,-1,-1,-1,-1,-1,-1],"split_conditions":[1.3876149E-1,7.6325215E-2,2.6982242E-1,6.698714E-2,8.7899774E-2,1.4627957E-1,5.625787E-1,3.878677E-2,1.3150784E-1,3.089502E-2,4.1589905E-2,2.5432348E-1,5.2133954E-1,2.7385825E-1,1.9860816E-1,4.7396243E-2,6.385836E-2,3.323442E-2,7.2806716E-2,8.9740753E-4,1.2465776E-1,5.5045847E-2,1.5590602E-1,1.0484557E-1,2.2109462E-1,3.6568052E-1,1.3152587E0,5.483577E-1,1.7034944E0,6.34543E-2,2.097342E-1,-7.97778E-2,-6.349967E-2,-6.0344875E-2,-2.698215E-2,-2.706647E-2,-6.3196406E-2,4.5721304E-2,-1.873502E-2,-7.836049E-2,-1.8969545E-2,-5.7850312E-2,-4.7630477E-3,-2.2531232E-2,1.8590147E-2,-3.5287846E-2,2.9640058E-2,7.3163095E-3,-5.6744445E-2,-6.211443E-2,2.5456924E-2,3.9400857E-2,7.575861E-2,-7.4609675E-2,6.4935066E-2,6.452506E-2,-6.0345978E-2,8.491669E-2,1.7407786E-2,5.1557656E-2,7.827348E-2,8.403088E-2,8.697697E-2],"split_indices":[14,14,11,8,6,6,11,2,8,10,10,12,8,6,2,6,6,10,14,7,8,0,6,10,11,6,6,12,12,12,6,0,0,0,0,0,0,0,0,0,0,0,0,0,0,0,0,0,0,0,0,0,0,0,0,0,0,0,0,0,0,0,0],"split_type":[0,0,0,0,0,0,0,0,0,0,0,0,0,0,0,0,0,0,0,0,0,0,0,0,0,0,0,0,0,0,0,0,0,0,0,0,0,0,0,0,0,0,0,0,0,0,0,0,0,0,0,0,0,0,0,0,0,0,0,0,0,0,0],"sum_hessian":[6.1311504E4,3.4884742E4,2.642676E4,1.9333062E4,1.5551681E4,9.99436E3,1.64324E4,1.7339234E4,1.9938289E3,1.0817511E4,4.7341704E3,4.893797E3,5.100563E3,2.0684165E3,1.4363984E4,1.2421733E4,4.917501E3,1.6978777E3,2.9595114E2,7.1532427E3,3.6642678E3,3.923361E3,8.108091E2,4.4007124E3,4.9308447E2,4.936716E3,1.6384746E2,8.416211E2,1.2267954E3,1.3960648E2,1.4224377E4,9.752039E3,2.669694E3,4.315466E3,6.020354E2,1.196768E3,5.0110977E2,2.7157706E2,2.4374063E1,3.6625604E2,6.786987E3,3.4044087E3,2.598592E2,5.2454016E2,3.398821E3,7.193587E2,9.145038E1,4.1081455E3,2.925667E2,4.6136594E2,3.1718513E1,3.713152E3,1.2235637E3,1.2754307E2,3.6304386E1,8.1502997E2,2.6591106E1,1.2113478E3,1.544756E1,2.2369776E1,1.172367E2,2.0818723E3,1.2142505E4],"tree_param":{"num_deleted":"0","num_feature":"18","num_nodes":"63","size_leaf_vector":"1"}},{"base_weights":[-1.8446083E-4,-6.7846423E-1,1.4954482E0,-1.1592611E0,-6.78682E-2,6.7992055E-1,1.6358057E0,-1.2806135E0,-4.5327067E-1,1.4827143E-1,-3.9638546E-1,7.962503E-1,-1.4096744E0,1.2058758E0,1.6505743E0,-1.4560057E0,-1.0124646E0,-5.8183783E-1,8.98422E-1,-1.1712305E-1,4.1524485E-1,-6.0998803E-1,4.1398203E-1,6.589754E-1,1.4352642E0,-9.3238525E-2,1.5201337E0,1.8154833E-1,1.2873269E0,-7.7320926E-2,1.6514851E0,-8.318498E-2,-6.853065E-2,-4.015324E-2,-7.355234E-2,-1.900453E-2,-6.3685425E-2,5.152768E-2,-1.1455165E-2,-1.1000489E-2,2.7124757E-2,2.253293E-2,-7.0206605E-2,-4.031281E-2,1.7517868E-2,1.1912051E-2,6.1392237E-2,4.4642057E-2,1.1615371E-3,7.598962E-2,-8.8874824E-2,8.458697E-2,1.9664092E-2,5.4140616E-2,-6.729446E-2,6.708045E-2,-2.3968255E-2,7.732787E-2,8.3522476E-2],"categories":[],"categories_nodes":[],"categories_segments":[],"categories_sizes":[],"default_left":[0,0,0,0,0,0,0,0,0,0,0,0,0,0,0,0,0,0,0,0,0,0,0,0,0,0,0,0,0,0,0,0,0,0,0,0,0,0,0,0,0,0,0,0,0,0,0,0,0,0,0,0,0,0,0,0,0,0,0],"id":4,"left_children":[1,3,5,7,9,11,13,15,17,19,21,23,25,27,29,31,33,35,37,39,41,43,45,47,49,-1,51,53,55,-1,57,-1,-1,-1,-1,-1,-1,-1,-1,-1,-1,-1,-1,-1,-1,-1,-1,-1,-1,-1,-1,-1,-1,-1,-1,-1,-1,-1,-1],"loss_changes":[6.178512E4,1.2301152E4,2.1740469E3,2.0078281E3,1.3108425E3,6.7980383E2,1.0094531E2,9.393125E2,5.9834393E2,7.8902124E2,1.2683553E3,2.3110901E2,1.996319E2,4.4996033E1,4.8179688E1,2.1216602E2,7.587178E2,4.3806653E2,4.48078E1,3.7914688E2,3.5831244E2,1.0931526E3,2.1837222E2,3.2401593E2,1.2950964E2,0E0,3.278553E0,5.803094E1,4.8786377E1,0E0,2.859375E1,0E0,0E0,0E0,0E0,0E0,0E0,0E0,0E0,0E0,0E0,0E0,0E0,0E0,0E0,0E0,0E0,0E0,0E0,0E0,0E0,0E0,0E0,0E0,0E0,0E0,0E0,0E0,0E0],"parents":[2147483647,0,0,1,1,2,2,3,3,4,4,5,5,6,6,7,7,8,8,9,9,10,10,11,11,12,12,13,13,14,14,15,15,16,16,17,17,18,18,19,19,20,20,21,21,22,22,23,23,24,24,26,26,27,27,28,28,30,30],"right_children":[2,4,6,8,10,12,14,16,18,20,22,24,26,28,30,32,34,36,38,40,42,44,46,48,50,-1,52,54,56,-1,58,-1,-1,-1,-1,-1,-1,-1,-1,-1,-1,-1,-1,-1,-1,-1,-1,-1,-1,-1,-1,-1,-1,-1,-1,-1,-1,-1,-1],"split_conditions":[1.0932312E-1,7.637723E-1,2.6982242E-1,6.8397194E-2,3.154268E-2,2.6804805E-1,3.3372808E-1,6.407717E-1,1.5361854E-1,8.2792646E-1,1.3746667E-1,4.1541135E-1,5.8200717E-2,1.166416E-1,3.5414357E-6,1.7868552E-1,3.3888232E-2,3.222998E-2,6.5698946E-6,6.7008495E-2,3.2235274E-1,1.3899213E-1,4.1541135E-1,7.25227E-2,9.671118E-1,-9.3238525E-2,6.691298E-2,3.089502E-2,7.6743215E-1,-7.7320926E-2,7.185848E-1,-8.318498E-2,-6.853065E-2,-4.015324E-2,-7.355234E-2,-1.900453E-2,-6.3685425E-2,5.152768E-2,-1.1455165E-2,-1.1000489E-2,2.7124757E-2,2.253293E-2,-7.0206605E-2,-4.031281E-2,1.7517868E-2,1.1912051E-2,6.1392237E-2,4.4642057E-2,1.1615371E-3,7.598962E-2,-8.8874824E-2,8.458697E-2,1.9664092E-2,5.4140616E-2,-6.729446E-2,6.708045E-2,-2.3968255E-2,7.732787E-2,8.3522476E-2],"split_indices":[11,16,11,8,10,11,11,16,8,16,7,7,12,0,17,16,10,10,17,11,8,8,7,10,8,0,10,10,12,0,11,0,0,0,0,0,0,0,0,0,0,0,0,0,0,0,0,0,0,0,0,0,0,0,0,0,0,0,0],"split_type":[0,0,0,0,0,0,0,0,0,0,0,0,0,0,0,0,0,0,0,0,0,0,0,0,0,0,0,0,0,0,0,0,0,0,0,0,0,0,0,0,0,0,0,0,0,0,0,0,0,0,0,0,0,0,0,0,0,0,0],"sum_hessian":[6.0902598E4,4.190083E4,1.900177E4,2.3441541E4,1.8459287E4,2.7909841E3,1.6210785E4,2.0002502E4,3.4390388E3,1.1134303E4,7.3249844E3,2.6443875E3,1.4659668E2,5.4111194E2,1.5669673E4,1.2090113E4,7.912389E3,3.140863E3,2.9817575E2,5.583944E3,5.5503584E3,5.797171E3,1.5278134E3,2.1784397E3,4.659477E2,1.2720158E2,1.9395096E1,4.009588E1,5.0101608E2,3.9794338E0,1.5665693E4,3.5171528E3,8.57296E3,5.433892E3,2.4784973E3,2.432967E3,7.078961E2,2.6697562E2,3.1200123E1,4.831065E3,7.528793E2,5.4451226E3,1.0523584E2,4.81357E3,9.83601E2,1.2575563E3,2.7025708E2,1.5922928E3,5.86147E2,4.5451627E2,1.1431425E1,1.6396772E1,2.9983234E0,2.5399817E1,1.4696061E1,4.8631454E2,1.4701552E1,2.4106194E3,1.3255074E4],"tree_param":{"num_deleted":"0","num_feature":"18","num_nodes":"59","size_leaf_vector":"1"}},{"base_weights":[-1.0006971E-3,-8.0276906E-1,1.1711237E0,-1.2528166E0,-3.9040685E-1,4.3374762E-1,1.5781101E0,-1.4930071E0,-1.1017416E0,-6.475962E-1,1.2121277E-1,-9.61922E-2,8.733366E-1,1.3767095E0,1.6071905E0,-1.6420605E0,-1.3903168E0,-7.5463563E-1,-1.3562912E0,-4.4227007E-1,-1.0216979E0,2.6797232E-1,-4.9619356E-1,6.5834746E-2,-1.0321085E0,7.579803E-1,1.4345198E0,1.099713E0,1.5593272E0,-3.695493E-2,1.607602E0,-3.1866796E-2,-8.255314E-2,-6.6069864E-2,-8.1094526E-2,-7.778665E-2,-3.4245558E-2,-6.1794933E-2,-7.633763E-2,-2.7842706E-2,4.803803E-3,-6.1022785E-2,-3.9078172E-2,8.391277E-3,3.7872534E-2,-3.314345E-2,3.3664525E-2,8.732445E-3,-5.4877687E-2,-3.6502834E-2,-8.2666755E-2,4.3070417E-2,-1.4358918E-2,7.3973075E-2,-6.5165356E-2,5.9312858E-2,-7.280331E-2,7.877793E-2,1.4007064E-2,5.6453932E-2,-7.166809E-2,7.75037E-2,8.0863915E-2],"categories":[],"categories_nodes":[],"categories_segments":[],"categories_sizes":[],"default_left":[0,0,0,0,0,0,0,0,0,0,0,0,0,0,0,0,0,0,0,0,0,0,0,0,0,0,0,0,0,0,0,0,0,0,0,0,0,0,0,0,0,0,0,0,0,0,0,0,0,0,0,0,0,0,0,0,0,0,0,0,0,0,0],"id":5,"left_children":[1,3,5,7,9,11,13,15,17,19,21,23,25,27,29,31,33,35,37,39,41,43,45,47,49,51,53,55,57,59,61,-1,-1,-1,-1,-1,-1,-1,-1,-1,-1,-1,-1,-1,-1,-1,-1,-1,-1,-1,-1,-1,-1,-1,-1,-1,-1,-1,-1,-1,-1,-1,-1],"loss_changes":[5.667469E4,6.64541E3,7.3505586E3,6.1968164E2,2.4592866E3,2.0298695E3,9.022656E1,9.886914E1,9.2804297E2,9.548989E2,5.667187E2,5.992878E2,3.0722998E2,9.937549E1,9.390625E0,2.3280273E1,6.0410156E1,2.4754956E2,1.2258301E2,4.9550476E2,2.0936523E2,2.4755688E2,2.3459924E2,4.267224E2,1.0822534E2,4.2753125E2,1.0171094E2,1.781087E2,2.451587E1,8.826133E0,5.1640625E0,0E0,0E0,0E0,0E0,0E0,0E0,0E0,0E0,0E0,0E0,0E0,0E0,0E0,0E0,0E0,0E0,0E0,0E0,0E0,0E0,0E0,0E0,0E0,0E0,0E0,0E0,0E0,0E0,0E0,0E0,0E0,0E0],"parents":[2147483647,0,0,1,1,2,2,3,3,4,4,5,5,6,6,7,7,8,8,9,9,10,10,11,11,12,12,13,13,14,14,15,15,16,16,17,17,18,18,19,19,20,20,21,21,22,22,23,23,24,24,25,25,26,26,27,27,28,28,29,29,30,30],"right_children":[2,4,6,8,10,12,14,16,18,20,22,24,26,28,30,32,34,36,38,40,42,44,46,48,50,52,54,56,58,60,62,-1,-1,-1,-1,-1,-1,-1,-1,-1,-1,-1,-1,-1,-1,-1,-1,-1,-1,-1,-1,-1,-1,-1,-1,-1,-1,-1,-1,-1,-1,-1,-1],"split_conditions":[1.4957473E-1,7.0375574E-1,2.6982242E-1,3.7801114E-1,8.011222E-2,1.5083298E-1,5.625787E-1,1.3996601E-1,1.9231785E-2,3.222998E-2,4.1589905E-2,2.400985E-1,6.1629677E-1,2.7385825E-1,1.6409814E-1,2.419916E-10,3.3888232E-2,8.9740753E-4,4.0059056E-2,6.4833865E-2,7.9964983E-1,7.099618E-2,1.5590602E-1,9.773654E-2,3.8281524E-1,2.9000452E-1,1.969127E-3,5.483577E-1,1.7034944E0,1.02331825E-1,2.097342E-1,-3.1866796E-2,-8.255314E-2,-6.6069864E-2,-8.1094526E-2,-7.778665E-2,-3.4245558E-2,-6.1794933E-2,-7.633763E-2,-2.7842706E-2,4.803803E-3,-6.1022785E-2,-3.9078172E-2,8.391277E-3,3.7872534E-2,-3.314345E-2,3.3664525E-2,8.732445E-3,-5.4877687E-2,-3.6502834E-2,-8.2666755E-2,4.3070417E-2,-1.4358918E-2,7.3973075E-2,-6.5165356E-2,5.9312858E-2,-7.280331E-2,7.877793E-2,1.4007064E-2,5.6453932E-2,-7.166809E-2,7.75037E-2,8.0863915E-2],"split_indices":[14,16,11,16,6,6,11,16,10,10,10,12,6,6,14,17,10,7,10,11,16,11,6,10,12,12,17,12,12,12,6,0,0,0,0,0,0,0,0,0,0,0,0,0,0,0,0,0,0,0,0,0,0,0,0,0,0,0,0,0,0,0,0],"split_type":[0,0,0,0,0,0,0,0,0,0,0,0,0,0,0,0,0,0,0,0,0,0,0,0,0,0,0,0,0,0,0,0,0,0,0,0,0,0,0,0,0,0,0,0,0,0,0,0,0,0,0,0,0,0,0,0,0,0,0,0,0,0,0],"sum_hessian":[6.0304832E4,3.581002E4,2.4494814E4,1.7121629E4,1.868839E4,8.712183E3,1.5782631E4,6.607554E3,1.0514074E4,1.2436395E4,6.2519966E3,3.9504993E3,4.7616836E3,1.9974382E3,1.3785193E4,2.6892104E3,3.9183438E3,4.4499937E3,6.0640806E3,8.030842E3,4.405553E3,5.0517456E3,1.2002509E3,3.3683042E3,5.821951E2,3.951722E3,8.099614E2,7.9642865E2,1.2010095E3,3.4266684E0,1.3781767E4,2.4518814E1,2.6646917E3,3.0248196E3,8.935242E2,3.5459338E2,4.0954004E3,3.558823E3,2.5052573E3,6.6214644E3,1.4093772E3,2.4082102E3,1.9973428E3,4.19483E3,8.569152E2,1.0509081E3,1.4934273E2,3.0809834E3,2.873209E2,3.9319272E2,1.8900241E2,3.596037E3,3.556849E2,7.9733276E2,1.2628662E1,7.708615E2,2.5567175E1,1.1857322E3,1.5277329E1,1.9716952E0,1.4549733E0,2.0075618E3,1.1774205E4],"tree_param":{"num_deleted":"0","num_feature":"18","num_nodes":"63","size_leaf_vector":"1"}},{"base_weights":[5.1423204E-3,-8.301077E-1,1.0499772E0,-1.1704469E0,-3.8774234E-1,3.706182E-1,1.5292736E0,-1.206593E0,5.1740205E-1,-6.5414435E-1,-1.9098852E-2,-1.9828157E-2,8.1454813E-1,1.2568572E0,1.5516535E0,-1.3169923E0,-9.310873E-1,3.3337224E-2,8.455713E-1,-5.2846044E-1,-1.2299886E0,-5.757938E-1,1.3772957E-1,8.78427E-2,-9.804378E-1,8.5587835E-1,-1.6568458E0,9.526428E-1,1.5041106E0,1.2957938E0,1.5567828E0,-6.839065E-2,-3.9451387E-2,-5.0995506E-2,-1.5130691E-2,-4.698452E-2,2.042716E-2,4.5016605E-2,-8.076949E-2,-4.0380687E-2,-1.6707476E-2,-4.299422E-2,-7.422774E-2,-6.4675803E-3,-4.4175155E-2,1.20762335E-2,-2.3481485E-2,6.507501E-3,-7.89034E-2,-5.5922817E-2,5.2957353E-3,3.5825778E-2,7.4313544E-2,-9.4597705E-2,2.0104183E-2,5.1706787E-2,-7.298743E-2,7.64834E-2,2.9881736E-2,6.863596E-2,5.238874E-2,7.469759E-2,7.836435E-2],"categories":[],"categories_nodes":[],"categories_segments":[],"categories_sizes":[],"default_left":[0,0,0,0,0,0,0,0,0,0,0,0,0,0,0,0,0,0,0,0,0,0,0,0,0,0,0,0,0,0,0,0,0,0,0,0,0,0,0,0,0,0,0,0,0,0,0,0,0,0,0,0,0,0,0,0,0,0,0,0,0,0,0],"id":6,"left_children":[1,3,5,7,9,11,13,15,17,19,21,23,25,27,29,31,33,35,37,39,41,43,45,47,49,51,53,55,57,59,61,-1,-1,-1,-1,-1,-1,-1,-1,-1,-1,-1,-1,-1,-1,-1,-1,-1,-1,-1,-1,-1,-1,-1,-1,-1,-1,-1,-1,-1,-1,-1,-1],"loss_changes":[5.229974E4,5.013715E3,8.668613E3,1.1489688E3,1.4223447E3,1.9092196E3,9.322266E1,5.5927734E2,6.2773834E1,6.07834E2,5.30613E2,6.063286E2,5.279053E2,8.810205E1,1.690625E1,3.5185742E2,2.941748E2,5.9079456E1,3.320073E1,3.7416406E2,1.4056616E2,1.8339417E2,2.9904816E2,3.7174536E2,8.870801E1,4.4437476E2,4.1965897E1,1.0696625E2,1.4258423E1,4.0828247E0,6.984375E0,0E0,0E0,0E0,0E0,0E0,0E0,0E0,0E0,0E0,0E0,0E0,0E0,0E0,0E0,0E0,0E0,0E0,0E0,0E0,0E0,0E0,0E0,0E0,0E0,0E0,0E0,0E0,0E0,0E0,0E0,0E0,0E0],"parents":[2147483647,0,0,1,1,2,2,3,3,4,4,5,5,6,6,7,7,8,8,9,9,10,10,11,11,12,12,13,13,14,14,15,15,16,16,17,17,18,18,19,19,20,20,21,21,22,22,23,23,24,24,25,25,26,26,27,27,28,28,29,29,30,30],"right_children":[2,4,6,8,10,12,14,16,18,20,22,24,26,28,30,32,34,36,38,40,42,44,46,48,50,52,54,56,58,60,62,-1,-1,-1,-1,-1,-1,-1,-1,-1,-1,-1,-1,-1,-1,-1,-1,-1,-1,-1,-1,-1,-1,-1,-1,-1,-1,-1,-1,-1,-1,-1,-1],"split_conditions":[1.3150406E-1,7.6325215E-2,2.6982242E-1,1.1519887E-1,7.2665274E-2,1.4627957E-1,4.2937267E-1,3.878677E-2,1.4348546E-1,4.689667E-2,3.850286E-2,2.400985E-1,7.2878623E-1,2.7385825E-1,2.0881939E-1,6.698714E-2,6.4523935E-2,2.2716284E-2,4.7979895E-2,4.7999136E-2,5.4161914E-2,1.8716265E-2,4.3436352E-2,2.6804805E-1,1.6274732E-1,5.490064E-1,1.6194755E0,5.483577E-1,9.558096E-1,7.89295E-2,2.097342E-1,-6.839065E-2,-3.9451387E-2,-5.0995506E-2,-1.5130691E-2,-4.698452E-2,2.042716E-2,4.5016605E-2,-8.076949E-2,-4.0380687E-2,-1.6707476E-2,-4.299422E-2,-7.422774E-2,-6.4675803E-3,-4.4175155E-2,1.20762335E-2,-2.3481485E-2,6.507501E-3,-7.89034E-2,-5.5922817E-2,5.2957353E-3,3.5825778E-2,7.4313544E-2,-9.4597705E-2,2.0104183E-2,5.1706787E-2,-7.298743E-2,7.64834E-2,2.9881736E-2,6.863596E-2,5.238874E-2,7.469759E-2,7.836435E-2],"split_indices":[14,14,11,8,6,6,11,2,8,10,2,12,8,6,0,8,6,6,10,8,11,10,10,11,11,6,6,12,12,10,6,0,0,0,0,0,0,0,0,0,0,0,0,0,0,0,0,0,0,0,0,0,0,0,0,0,0,0,0,0,0,0,0],"split_type":[0,0,0,0,0,0,0,0,0,0,0,0,0,0,0,0,0,0,0,0,0,0,0,0,0,0,0,0,0,0,0,0,0,0,0,0,0,0,0,0,0,0,0,0,0,0,0,0,0,0,0,0,0,0,0,0,0,0,0,0,0,0,0],"sum_hessian":[5.992678E4,3.330371E4,2.6623068E4,1.8821506E4,1.4482205E4,1.1013795E4,1.5609273E4,1.8427164E4,3.943414E2,8.406461E3,6.0757437E3,5.860398E3,5.1533965E3,1.1893389E3,1.4419935E4,1.3152843E4,5.2743223E3,1.5977194E2,2.3456944E2,6.9019565E3,1.5045044E3,1.3348271E3,4.7409165E3,5.270552E3,5.898463E2,5.0692744E3,8.412208E1,5.3542206E2,6.539168E2,2.883845E2,1.4131551E4,1.1996495E4,1.1563479E3,4.6206567E3,6.536653E2,4.4044968E1,1.1572698E2,2.3008382E2,4.4856257E0,2.8312854E3,4.070671E3,6.1490106E2,8.896034E2,5.452164E2,7.896107E2,4.0494802E3,6.9143646E2,5.1409155E3,1.2963635E2,5.2332904E2,6.6517296E1,4.153241E3,9.160333E2,7.557347E1,8.548604E0,5.1847864E2,1.6943373E1,6.353171E2,1.8599768E1,2.1665292E2,7.173157E1,2.0446368E3,1.2086913E4],"tree_param":{"num_deleted":"0","num_feature":"18","num_nodes":"63","size_leaf_vector":"1"}},{"base_weights":[3.4014902E-3,-8.1074035E-1,9.911923E-1,-1.1335915E0,-4.059872E-1,3.4208068E-1,1.4818616E0,-1.2103351E0,-4.3059996E-1,-6.12056E-1,1.528182E-2,-1.8907562E-2,8.120805E-1,1.1930331E0,1.5050688E0,-1.3243408E0,-9.46002E-1,-6.0076296E-1,7.7369606E-1,-6.6054237E-1,3.3471763E-1,-4.119178E-1,1.9295552E-1,8.019343E-2,-9.7964746E-1,8.8019216E-1,-6.469122E-1,8.706401E-1,1.4690108E0,1.2962737E0,1.5120093E0,-6.998034E-2,-5.619066E-2,-5.2125018E-2,-2.9306618E-2,-4.37875E-2,-1.9350551E-2,4.243247E-2,-2.9949758E-2,-4.627456E-2,-2.6694292E-2,-5.0550685E-3,2.8825412E-2,-2.5152637E-2,2.88815E-2,1.6773181E-2,-8.760976E-3,5.8235046E-3,-7.597064E-2,-5.4203775E-2,1.2910202E-2,3.5158005E-2,6.561637E-2,-5.3074725E-2,6.0542148E-2,4.795165E-2,-7.313044E-2,7.404571E-2,8.590649E-3,5.886629E-2,7.126924E-2,7.218327E-2,7.6166056E-2],"categories":[],"categories_nodes":[],"categories_segments":[],"categories_sizes":[],"default_left":[0,0,0,0,0,0,0,0,0,0,0,0,0,0,0,0,0,0,0,0,0,0,0,0,0,0,0,0,0,0,0,0,0,0,0,0,0,0,0,0,0,0,0,0,0,0,0,0,0,0,0,0,0,0,0,0,0,0,0,0,0,0,0],"id":7,"left_children":[1,3,5,7,9,11,13,15,17,19,21,23,25,27,29,31,33,35,37,39,41,43,45,47,49,51,53,55,57,59,61,-1,-1,-1,-1,-1,-1,-1,-1,-1,-1,-1,-1,-1,-1,-1,-1,-1,-1,-1,-1,-1,-1,-1,-1,-1,-1,-1,-1,-1,-1,-1,-1],"loss_changes":[4.7618992E4,4.2411836E3,8.520385E3,9.736074E2,1.2504624E3,1.9542826E3,1.00328125E2,4.893047E2,3.6496368E2,4.4425977E2,3.5929068E2,6.204403E2,4.9781177E2,9.996948E1,1.846875E1,1.7004102E2,1.6985254E2,9.129974E1,2.320993E1,3.083003E2,4.978557E1,1.2568431E2,1.7546484E2,3.429721E2,7.9045715E1,3.6483032E2,1.7361725E2,1.1015463E2,9.190186E0,5.3953247E0,8.347656E0,0E0,0E0,0E0,0E0,0E0,0E0,0E0,0E0,0E0,0E0,0E0,0E0,0E0,0E0,0E0,0E0,0E0,0E0,0E0,0E0,0E0,0E0,0E0,0E0,0E0,0E0,0E0,0E0,0E0,0E0,0E0,0E0],"parents":[2147483647,0,0,1,1,2,2,3,3,4,4,5,5,6,6,7,7,8,8,9,9,10,10,11,11,12,12,13,13,14,14,15,15,16,16,17,17,18,18,19,19,20,20,21,21,22,22,23,23,24,24,25,25,26,26,27,27,28,28,29,29,30,30],"right_children":[2,4,6,8,10,12,14,16,18,20,22,24,26,28,30,32,34,36,38,40,42,44,46,48,50,52,54,56,58,60,62,-1,-1,-1,-1,-1,-1,-1,-1,-1,-1,-1,-1,-1,-1,-1,-1,-1,-1,-1,-1,-1,-1,-1,-1,-1,-1,-1,-1,-1,-1,-1,-1],"split_conditions":[1.2808686E-1,7.492185E-2,2.6982242E-1,6.698714E-2,8.218199E-2,1.5083298E-1,4.2937267E-1,1.15472205E-1,1.4348546E-1,1.27897E-1,1.2086852E-1,2.400985E-1,4.4990978E-1,2.9634327E-1,2.0413199E-1,4.35822E-2,5.381787E-2,8.470221E-2,7.2806716E-2,1.1582625E-1,1.5092841E-1,8.488874E-2,3.2915798E-1,2.6804805E-1,1.8733087E-1,3.2533666E-1,1.3152587E0,5.483577E-1,7.2878623E-1,1.27897E-1,2.097342E-1,-6.998034E-2,-5.619066E-2,-5.2125018E-2,-2.9306618E-2,-4.37875E-2,-1.9350551E-2,4.243247E-2,-2.9949758E-2,-4.627456E-2,-2.6694292E-2,-5.0550685E-3,2.8825412E-2,-2.5152637E-2,2.88815E-2,1.6773181E-2,-8.760976E-3,5.8235046E-3,-7.597064E-2,-5.4203775E-2,1.2910202E-2,3.5158005E-2,6.561637E-2,-5.3074725E-2,6.0542148E-2,4.795165E-2,-7.313044E-2,7.404571E-2,8.590649E-3,5.886629E-2,7.126924E-2,7.218327E-2,7.6166056E-2],"split_indices":[14,14,11,8,6,6,11,4,8,8,4,12,8,6,2,12,6,4,14,4,1,11,4,11,11,6,6,12,8,8,6,0,0,0,0,0,0,0,0,0,0,0,0,0,0,0,0,0,0,0,0,0,0,0,0,0,0,0,0,0,0,0,0],"split_type":[0,0,0,0,0,0,0,0,0,0,0,0,0,0,0,0,0,0,0,0,0,0,0,0,0,0,0,0,0,0,0,0,0,0,0,0,0,0,0,0,0,0,0,0,0,0,0,0,0,0,0,0,0,0,0,0,0,0,0,0,0,0,0],"sum_hessian":[5.9210734E4,3.245848E4,2.6752254E4,1.8055066E4,1.4403414E4,1.1517427E4,1.5234827E4,1.6277387E4,1.77768E3,9.671856E3,4.7315576E3,6.5147017E3,5.0027246E3,1.1369637E3,1.4097863E4,1.1369683E4,4.907704E3,1.558036E3,2.1964413E2,9.200957E3,4.7089902E2,1.3894464E3,3.342111E3,5.9063716E3,6.0832983E2,4.779973E3,2.2275182E2,5.2630133E2,6.106624E2,4.595835E2,1.363828E4,8.262476E3,3.1072078E3,3.8684817E3,1.0392222E3,6.800587E2,8.7797723E2,2.0863382E2,1.1010313E1,2.9738164E3,6.227141E3,1.6823795E2,3.0266104E2,1.2727234E3,1.16723045E2,2.4095461E3,9.3256494E2,5.7763013E3,1.3007062E2,5.6111694E2,4.7212883E1,3.392713E3,1.3872601E3,1.8246172E2,4.02901E1,5.0765817E2,1.8643162E1,6.0496954E2,5.6929135E0,2.4447287E2,2.1511061E2,1.955038E3,1.1683242E4],"tree_param":{"num_deleted":"0","num_feature":"18","num_nodes":"63","size_leaf_vector":"1"}},{"base_weights":[-2.0062146E-3,-5.6788516E-1,1.3102113E0,-9.9251884E-1,-4.732214E-2,5.88103E-1,1.4406945E0,-1.2156054E0,-7.21402E-1,-3.393154E-1,4.6826884E-1,2.436598E-1,1.1856973E0,1.1630055E0,1.4646627E0,-1.3135892E0,-9.172992E-1,-4.5818505E-1,-1.0563639E0,-9.574303E-2,-6.439969E-1,2.823095E-1,7.5356674E-1,6.648279E-1,-8.352472E-1,1.203024E0,-7.7835664E-2,8.464016E-1,1.4111252E0,1.1673907E0,1.4695108E0,-7.4055664E-2,-6.1020847E-2,-1.0253711E-3,-5.3300697E-2,-1.9706054E-2,-6.0899235E-2,-6.0209908E-2,-3.899448E-2,-1.0842296E-2,2.1876205E-2,-3.8682576E-2,-1.3648606E-2,2.1575391E-2,-3.0538082E-2,5.0006557E-2,2.5385803E-2,-7.694425E-4,3.978167E-2,-5.6492914E-2,7.0144854E-2,4.6199854E-2,6.944706E-2,5.8387913E-2,2.7810706E-2,-4.362328E-3,7.090219E-2,6.861728E-2,4.3987773E-2,6.962264E-2,7.394059E-2],"categories":[],"categories_nodes":[],"categories_segments":[],"categories_sizes":[],"default_left":[0,0,0,0,0,0,0,0,0,0,0,0,0,0,0,0,0,0,0,0,0,0,0,0,0,0,0,0,0,0,0,0,0,0,0,0,0,0,0,0,0,0,0,0,0,0,0,0,0,0,0,0,0,0,0,0,0,0,0,0,0],"id":8,"left_children":[1,3,5,7,9,11,13,15,17,19,21,23,25,27,29,31,33,35,37,39,41,43,45,47,49,51,-1,53,55,57,59,-1,-1,-1,-1,-1,-1,-1,-1,-1,-1,-1,-1,-1,-1,-1,-1,-1,-1,-1,-1,-1,-1,-1,-1,-1,-1,-1,-1,-1,-1],"loss_changes":[4.3435934E4,9.034272E3,1.6598164E3,1.3605293E3,2.7645718E3,5.5527625E2,9.7646484E1,3.596836E2,8.9558203E2,8.6997546E2,3.5203967E2,7.7914343E2,4.875354E1,9.2355225E1,1.8080078E1,1.4322363E2,4.0756055E2,2.766239E2,1.8181543E2,4.209239E2,2.5033423E2,5.360609E2,1.5827368E2,1.0971277E2,3.190881E2,4.960608E1,0E0,4.837622E1,7.029419E0,1.2074341E1,7.6289062E0,0E0,0E0,0E0,0E0,0E0,0E0,0E0,0E0,0E0,0E0,0E0,0E0,0E0,0E0,0E0,0E0,0E0,0E0,0E0,0E0,0E0,0E0,0E0,0E0,0E0,0E0,0E0,0E0,0E0,0E0],"parents":[2147483647,0,0,1,1,2,2,3,3,4,4,5,5,6,6,7,7,8,8,9,9,10,10,11,11,12,12,13,13,14,14,15,15,16,16,17,17,18,18,19,19,20,20,21,21,22,22,23,23,24,24,25,25,27,27,28,28,29,29,30,30],"right_children":[2,4,6,8,10,12,14,16,18,20,22,24,26,28,30,32,34,36,38,40,42,44,46,48,50,52,-1,54,56,58,60,-1,-1,-1,-1,-1,-1,-1,-1,-1,-1,-1,-1,-1,-1,-1,-1,-1,-1,-1,-1,-1,-1,-1,-1,-1,-1,-1,-1,-1,-1],"split_conditions":[1.0932312E-1,7.637723E-1,2.6982242E-1,6.2394805E-2,1.0909015E-1,2.3637633E-1,4.2937267E-1,3.6620293E-2,2.1802053E-2,2.8625686E-2,1.8213212E-1,7.25227E-2,1.969127E-3,2.7385825E-1,2.6978032E-5,1.7868552E-1,1.1088306E-1,9.3155555E-2,1.1554247E-1,6.552081E-2,1.3686913E-1,4.7979895E-2,2.0964825E-1,2.1524327E-3,3.0068153E-1,4.1949368E-1,-7.7835664E-2,3.7195046E-2,1.0125465E-1,4.1589905E-2,1.6189265E-1,-7.4055664E-2,-6.1020847E-2,-1.0253711E-3,-5.3300697E-2,-1.9706054E-2,-6.0899235E-2,-6.0209908E-2,-3.899448E-2,-1.0842296E-2,2.1876205E-2,-3.8682576E-2,-1.3648606E-2,2.1575391E-2,-3.0538082E-2,5.0006557E-2,2.5385803E-2,-7.694425E-4,3.978167E-2,-5.6492914E-2,7.0144854E-2,4.6199854E-2,6.944706E-2,5.8387913E-2,2.7810706E-2,-4.362328E-3,7.090219E-2,6.861728E-2,4.3987773E-2,6.962264E-2,7.394059E-2],"split_indices":[11,16,11,14,6,6,11,2,10,10,6,10,17,6,17,16,9,11,1,11,14,10,9,15,10,6,0,10,2,10,6,0,0,0,0,0,0,0,0,0,0,0,0,0,0,0,0,0,0,0,0,0,0,0,0,0,0,0,0,0,0],"split_type":[0,0,0,0,0,0,0,0,0,0,0,0,0,0,0,0,0,0,0,0,0,0,0,0,0,0,0,0,0,0,0,0,0,0,0,0,0,0,0,0,0,0,0,0,0,0,0,0,0,0,0,0,0,0,0,0,0,0,0,0,0],"sum_hessian":[5.8493137E4,4.086929E4,1.762385E4,2.2508086E4,1.8361203E4,2.6980496E3,1.4925801E4,1.2345884E4,1.0162202E4,1.1722674E4,6.638529E3,1.7124375E3,9.856121E2,1.1898679E3,1.3735933E4,9.290767E3,3.055117E3,5.69185E3,4.470352E3,6.51538E3,5.2072944E3,4.0201523E3,2.6183765E3,1.2319215E3,4.8051593E2,9.799819E2,5.6302595E0,5.2472437E2,6.651435E2,2.2429633E2,1.3511637E4,3.3151743E3,5.975592E3,4.3472717E2,2.62039E3,5.25065E3,4.4119995E2,2.9106418E3,1.5597102E3,5.3100757E3,1.2053042E3,3.858023E3,1.3492712E3,3.44512E3,5.750321E2,1.3057589E3,1.3126176E3,1.9883249E2,1.0330891E3,4.250597E2,5.5456223E1,3.9425256E2,5.857293E2,2.4755511E2,2.7716928E2,3.0037942E0,6.621397E2,1.2877005E2,9.552628E1,1.4714634E3,1.2040173E4],"tree_param":{"num_deleted":"0","num_feature":"18","num_nodes":"61","size_leaf_vector":"1"}},{"base_weights":[1.974426E-3,-5.3541946E-1,1.2908657E0,-9.185825E-1,2.6014931E-2,6.5759104E-1,1.4195256E0,-1.0400689E0,-3.052955E-1,-2.1693835E-1,2.1481705E-1,3.719396E-2,8.777834E-1,-7.3846325E-2,1.420331E0,-1.2028326E0,-7.5098825E-1,-4.2543337E-1,7.126101E-1,-3.6918428E-2,-6.151076E-1,2.6920572E-1,-7.666124E-1,5.3369725E-1,-9.670254E-1,9.283587E-1,-1.0530616E0,1.3067108E0,1.4409413E0,-7.352444E-2,-5.6935854E-2,-4.9427465E-2,-2.8412107E-2,-1.293657E-2,-4.5308437E-2,3.829012E-2,-1.4714365E-2,-8.575893E-3,2.712433E-2,-3.3857767E-2,2.8923659E-2,1.0598584E-2,3.921403E-2,-4.5371097E-2,5.9322067E-2,-4.2005938E-2,3.1602386E-2,-5.687678E-2,8.084162E-2,5.6899603E-2,3.3684734E-2,-7.994459E-2,7.1738444E-2,6.578526E-2,9.944183E-3,7.276391E-2,7.06267E-2],"categories":[],"categories_nodes":[],"categories_segments":[],"categories_sizes":[],"default_left":[0,0,0,0,0,0,0,0,0,0,0,0,0,0,0,0,0,0,0,0,0,0,0,0,0,0,0,0,0,0,0,0,0,0,0,0,0,0,0,0,0,0,0,0,0,0,0,0,0,0,0,0,0,0,0,0,0],"id":9,"left_children":[1,3,5,7,9,11,13,15,17,19,21,23,25,-1,27,29,31,33,35,37,39,41,43,45,47,49,51,53,55,-1,-1,-1,-1,-1,-1,-1,-1,-1,-1,-1,-1,-1,-1,-1,-1,-1,-1,-1,-1,-1,-1,-1,-1,-1,-1,-1,-1],"loss_changes":[4.005935E4,8.780645E3,1.3856797E3,1.8072168E3,7.595586E2,3.9279175E2,3.508789E1,9.51834E2,4.9099643E2,5.1900696E2,4.975779E2,3.7661063E2,2.0822461E2,0E0,3.1230469E1,2.2061328E2,3.1621045E2,2.8743506E2,2.2932373E1,3.8906635E2,1.6735455E2,2.6011932E2,1.3569833E2,6.881729E1,1.1194377E2,1.0966992E2,7.64904E1,2.1479736E1,2.8164062E0,0E0,0E0,0E0,0E0,0E0,0E0,0E0,0E0,0E0,0E0,0E0,0E0,0E0,0E0,0E0,0E0,0E0,0E0,0E0,0E0,0E0,0E0,0E0,0E0,0E0,0E0,0E0,0E0],"parents":[2147483647,0,0,1,1,2,2,3,3,4,4,5,5,6,6,7,7,8,8,9,9,10,10,11,11,12,12,14,14,15,15,16,16,17,17,18,18,19,19,20,20,21,21,22,22,23,23,24,24,25,25,26,26,27,27,28,28],"right_children":[2,4,6,8,10,12,14,16,18,20,22,24,26,-1,28,30,32,34,36,38,40,42,44,46,48,50,52,54,56,-1,-1,-1,-1,-1,-1,-1,-1,-1,-1,-1,-1,-1,-1,-1,-1,-1,-1,-1,-1,-1,-1,-1,-1,-1,-1,-1,-1],"split_conditions":[1.18450105E-1,9.3479745E-2,3.3372808E-1,6.7689165E-2,1.2643254E-1,8.750814E-1,3.406501E-6,1.1582625E-1,1.3899213E-1,3.089502E-2,2.777665E-1,4.742943E-2,6.053985E-1,-7.3846325E-2,7.185848E-1,1.3996601E-1,6.359863E-2,3.4607682E-2,5.1244933E-2,6.4833865E-2,1.4348546E-1,2.283045E-1,3.0068153E-1,6.3886546E-2,3.0068153E-1,7.25227E-2,5.783422E-1,7.2878623E-1,5.783422E-1,-7.352444E-2,-5.6935854E-2,-4.9427465E-2,-2.8412107E-2,-1.293657E-2,-4.5308437E-2,3.829012E-2,-1.4714365E-2,-8.575893E-3,2.712433E-2,-3.3857767E-2,2.8923659E-2,1.0598584E-2,3.921403E-2,-4.5371097E-2,5.9322067E-2,-4.2005938E-2,3.1602386E-2,-5.687678E-2,8.084162E-2,5.6899603E-2,3.3684734E-2,-7.994459E-2,7.1738444E-2,6.578526E-2,9.944183E-3,7.276391E-2,7.06267E-2],"split_indices":[11,14,11,8,14,16,17,4,8,10,8,10,8,0,11,16,14,10,10,11,8,7,10,5,10,10,10,8,10,0,0,0,0,0,0,0,0,0,0,0,0,0,0,0,0,0,0,0,0,0,0,0,0,0,0,0,0],"split_type":[0,0,0,0,0,0,0,0,0,0,0,0,0,0,0,0,0,0,0,0,0,0,0,0,0,0,0,0,0,0,0,0,0,0,0,0,0,0,0,0,0,0,0,0,0,0,0,0,0,0,0,0,0,0,0,0,0],"sum_hessian":[5.7833562E4,4.081615E4,1.7017414E4,2.4259258E4,1.655689E4,2.8745854E3,1.4142828E4,2.0247686E4,4.011571E3,7.24009E3,9.316801E3,7.533038E2,2.1212815E3,3.4218123E0,1.4139406E4,1.2952028E4,7.295658E3,3.5886091E3,4.2296188E2,4.9866313E3,2.2534585E3,8.828283E3,4.8851837E2,5.0439215E2,2.489116E2,2.0676423E3,5.3639202E1,2.180922E3,1.1958484E4,2.498764E3,1.0453264E4,3.170175E3,4.1254834E3,2.6657573E3,9.228517E2,4.019663E2,2.0995579E1,4.0471558E3,9.394756E2,2.1425137E3,1.1094489E2,7.946677E3,8.816062E2,4.5616556E2,3.235283E1,3.319287E1,4.7119928E2,2.3402774E2,1.4883865E1,1.1321854E3,9.35457E2,4.4281216E1,9.357986E0,2.1631716E3,1.7750324E1,7.91413E3,4.0443542E3],"tree_param":{"num_deleted":"0","num_feature":"18","num_nodes":"57","size_leaf_vector":"1"}},{"base_weights":[9.804111E-4,-5.1942587E-1,1.2566332E0,-8.860476E-1,1.3698669E-2,5.6227803E-1,1.369677E0,-1.0050155E0,-2.744682E-1,-1.7395903E-1,2.0806651E-1,6.734503E-1,-1.2062671E0,1.158162E0,1.400772E0,-1.1709582E0,-7.1706206E-1,-4.2349634E-1,6.3356996E-1,2.0049214E-2,-4.6461597E-1,4.3992218E-1,-1.3391854E-1,7.247923E-1,-1.314292E0,-7.8550205E-2,1.4042597E0,1.167096E0,-1.02985084E-1,1.2241431E0,1.4045452E0,-6.376725E-2,-4.9145173E-2,-2.9965619E-2,-5.51172E-2,-1.1391874E-2,-4.9794517E-2,3.6378916E-2,-2.230681E-2,-5.3792666E-3,3.1247323E-2,-2.6470209E-2,2.7004987E-2,2.3794372E-2,-5.1720645E-2,-1.0050947E-2,4.24587E-2,-1.3013385E-2,4.0081237E-2,-8.8311516E-2,6.9882736E-2,3.226376E-2,7.514491E-2,5.214954E-2,6.7902885E-2,6.1995197E-2,-8.418499E-3,7.102064E-2,6.8652175E-2],"categories":[],"categories_nodes":[],"categories_segments":[],"categories_sizes":[],"default_left":[0,0,0,0,0,0,0,0,0,0,0,0,0,0,0,0,0,0,0,0,0,0,0,0,0,0,0,0,0,0,0,0,0,0,0,0,0,0,0,0,0,0,0,0,0,0,0,0,0,0,0,0,0,0,0,0,0,0,0],"id":10,"left_children":[1,3,5,7,9,11,13,15,17,19,21,23,25,27,29,31,33,35,37,39,41,43,45,47,49,-1,51,53,-1,55,57,-1,-1,-1,-1,-1,-1,-1,-1,-1,-1,-1,-1,-1,-1,-1,-1,-1,-1,-1,-1,-1,-1,-1,-1,-1,-1,-1,-1],"loss_changes":[3.7259195E4,7.8791816E3,1.310627E3,1.737625E3,5.9920416E2,4.610611E2,9.287695E1,9.5463477E2,5.268307E2,4.7133276E2,6.399133E2,2.2578699E2,1.3437033E2,5.550879E1,6.623047E0,2.4773633E2,3.3110547E2,3.7418683E2,5.6047333E1,3.8713757E2,2.1807733E2,2.5551129E2,2.153023E2,1.6279797E2,7.0891525E1,0E0,3.4365845E-1,4.2255615E1,0E0,6.12735E0,4.1757812E0,0E0,0E0,0E0,0E0,0E0,0E0,0E0,0E0,0E0,0E0,0E0,0E0,0E0,0E0,0E0,0E0,0E0,0E0,0E0,0E0,0E0,0E0,0E0,0E0,0E0,0E0,0E0,0E0],"parents":[2147483647,0,0,1,1,2,2,3,3,4,4,5,5,6,6,7,7,8,8,9,9,10,10,11,11,12,12,13,13,14,14,15,15,16,16,17,17,18,18,19,19,20,20,21,21,22,22,23,23,24,24,26,26,27,27,29,29,30,30],"right_children":[2,4,6,8,10,12,14,16,18,20,22,24,26,28,30,32,34,36,38,40,42,44,46,48,50,-1,52,54,-1,56,58,-1,-1,-1,-1,-1,-1,-1,-1,-1,-1,-1,-1,-1,-1,-1,-1,-1,-1,-1,-1,-1,-1,-1,-1,-1,-1,-1,-1],"split_conditions":[1.18450105E-1,9.3479745E-2,2.6982242E-1,6.8397194E-2,1.3492483E-1,2.6804805E-1,5.625787E-1,1.1582625E-1,1.2465776E-1,2.5303517E-2,1.35346E-1,7.6743215E-1,5.8200717E-2,2.2026558E0,6.9402695E-1,3.9116092E-2,3.8773865E-2,3.4607682E-2,7.17991E-2,6.622724E-2,1.3899213E-1,3.2235274E-1,4.1541135E-1,2.206143E-3,5.783422E-1,-7.8550205E-2,1.4876528E-1,2.639304E-1,-1.02985084E-1,2.5892115E-1,5.783422E-1,-6.376725E-2,-4.9145173E-2,-2.9965619E-2,-5.51172E-2,-1.1391874E-2,-4.9794517E-2,3.6378916E-2,-2.230681E-2,-5.3792666E-3,3.1247323E-2,-2.6470209E-2,2.7004987E-2,2.3794372E-2,-5.1720645E-2,-1.0050947E-2,4.24587E-2,-1.3013385E-2,4.0081237E-2,-8.8311516E-2,6.9882736E-2,3.226376E-2,7.514491E-2,5.214954E-2,6.7902885E-2,6.1995197E-2,-8.418499E-3,7.102064E-2,6.8652175E-2],"split_indices":[11,14,11,8,14,11,11,4,8,10,12,12,12,12,1,0,10,10,7,11,8,8,7,15,10,0,0,7,0,2,10,0,0,0,0,0,0,0,0,0,0,0,0,0,0,0,0,0,0,0,0,0,0,0,0,0,0,0,0],"split_type":[0,0,0,0,0,0,0,0,0,0,0,0,0,0,0,0,0,0,0,0,0,0,0,0,0,0,0,0,0,0,0,0,0,0,0,0,0,0,0,0,0,0,0,0,0,0,0,0,0,0,0,0,0,0,0,0,0,0,0],"sum_hessian":[5.701724E4,4.031093E4,1.6706309E4,2.3884945E4,1.6425982E4,2.339884E3,1.4366425E4,1.99948E4,3.8901453E3,8.357304E3,8.0686797E3,2.2020786E3,1.3780534E2,1.846225E3,1.2520199E4,1.2682833E4,7.3119673E3,3.3421602E3,5.479851E2,5.012489E3,3.3448145E3,4.808425E3,3.260255E3,2.147252E3,5.4826653E1,1.21261215E2,1.6544136E1,1.8417489E3,4.476126E0,2.6867453E2,1.2251525E4,8.1519927E3,4.5308403E3,5.602339E3,1.7096285E3,2.491798E3,8.5036206E2,5.043944E2,4.35907E1,4.1398037E3,8.7268494E2,3.1426375E3,2.0217708E2,4.6945815E3,1.13843445E2,3.052691E3,2.0756409E2,1.5519002E2,1.992062E3,4.7293972E1,7.5326834E0,2.770217E0,1.3773919E1,1.1201984E3,7.2155054E2,2.65776E2,2.898532E0,8.1182207E3,4.133304E3],"tree_param":{"num_deleted":"0","num_feature":"18","num_nodes":"59","size_leaf_vector":"1"}},{"base_weights":[8.6534955E-4,-5.782141E-1,1.0520352E0,-9.9630684E-1,-2.6027045E-1,5.3878635E-1,1.2756653E0,-1.1006359E0,-4.4676903E-1,-3.9597985E-1,4.3141314E-1,4.404537E-1,1.1059042E0,1.0363978E0,1.3479565E0,-1.198095E0,-7.4748296E-1,-1.9754517E-1,-9.7832865E-1,-5.5979085E-1,2.747385E-2,2.9837587E-1,1.1350511E0,5.5578303E-1,-2.4332646E-1,1.1470034E0,1.7606395E-1,8.767568E-1,1.2416798E0,1.3578013E0,1.018285E0,-6.296563E-2,-4.588424E-2,-2.8794548E-2,-7.0340976E-2,-5.6093663E-2,-8.236385E-3,-5.3458054E-2,1.8104492E-2,-3.7000585E-2,-1.460851E-2,-3.084183E-4,4.2582087E-2,2.036901E-2,-2.3703452E-2,6.0183357E-2,8.988553E-3,1.3888356E-3,3.2165334E-2,-1.6711308E-2,5.4516267E-2,4.8079498E-2,6.5035544E-2,-6.833008E-2,6.016892E-2,4.6008524E-2,-4.317668E-2,6.3345015E-2,-1.4852243E-2,6.465609E-2,6.913646E-2,-2.2502577E-2,6.607021E-2],"categories":[],"categories_nodes":[],"categories_segments":[],"categories_sizes":[],"default_left":[0,0,0,0,0,0,0,0,0,0,0,0,0,0,0,0,0,0,0,0,0,0,0,0,0,0,0,0,0,0,0,0,0,0,0,0,0,0,0,0,0,0,0,0,0,0,0,0,0,0,0,0,0,0,0,0,0,0,0,0,0,0,0],"id":11,"left_children":[1,3,5,7,9,11,13,15,17,19,21,23,25,27,29,31,33,35,37,39,41,43,45,47,49,51,53,55,57,59,61,-1,-1,-1,-1,-1,-1,-1,-1,-1,-1,-1,-1,-1,-1,-1,-1,-1,-1,-1,-1,-1,-1,-1,-1,-1,-1,-1,-1,-1,-1,-1,-1],"loss_changes":[3.4151414E4,4.8085693E3,2.2866992E3,8.954092E2,1.9291868E3,3.3688635E2,2.386875E2,4.5109375E2,3.3033466E2,1.1917412E3,3.152351E2,4.0685358E2,3.393628E1,1.0459668E2,3.320117E1,1.7549023E2,3.2083252E2,5.1378372E1,9.731952E1,5.972661E2,1.3290463E2,2.3902354E2,3.4895996E1,2.0394092E2,9.068393E1,2.3125244E1,6.344279E1,1.3811353E2,5.503247E1,1.4890625E1,1.3989883E2,0E0,0E0,0E0,0E0,0E0,0E0,0E0,0E0,0E0,0E0,0E0,0E0,0E0,0E0,0E0,0E0,0E0,0E0,0E0,0E0,0E0,0E0,0E0,0E0,0E0,0E0,0E0,0E0,0E0,0E0,0E0,0E0],"parents":[2147483647,0,0,1,1,2,2,3,3,4,4,5,5,6,6,7,7,8,8,9,9,10,10,11,11,12,12,13,13,14,14,15,15,16,16,17,17,18,18,19,19,20,20,21,21,22,22,23,23,24,24,25,25,26,26,27,27,28,28,29,29,30,30],"right_children":[2,4,6,8,10,12,14,16,18,20,22,24,26,28,30,32,34,36,38,40,42,44,46,48,50,52,54,56,58,60,62,-1,-1,-1,-1,-1,-1,-1,-1,-1,-1,-1,-1,-1,-1,-1,-1,-1,-1,-1,-1,-1,-1,-1,-1,-1,-1,-1,-1,-1,-1,-1,-1],"split_conditions":[1.2000358E-1,1.1582625E-1,2.2158933E-1,6.91178E-2,1.3150784E-1,3.1828794E-1,3.6568052E-1,5.5854917E-2,3.222998E-2,6.756449E-2,9.9591585E-3,5.498152E-2,7.2878623E-1,3.3799198E-1,9.671118E-1,5.8803737E-2,4.1143883E-2,3.3990294E-3,1.4111531E-1,5.1350467E-2,3.0068415E-1,2.6040664E-1,9.671118E-1,1.4062709E-1,3.0068153E-1,4.7438055E-1,2.4219567E-1,4.834032E-1,9.671118E-1,6.1629677E-1,1.6159819E-1,-6.296563E-2,-4.588424E-2,-2.8794548E-2,-7.0340976E-2,-5.6093663E-2,-8.236385E-3,-5.3458054E-2,1.8104492E-2,-3.7000585E-2,-1.460851E-2,-3.084183E-4,4.2582087E-2,2.036901E-2,-2.3703452E-2,6.0183357E-2,8.988553E-3,1.3888356E-3,3.2165334E-2,-1.6711308E-2,5.4516267E-2,4.8079498E-2,6.5035544E-2,-6.833008E-2,6.016892E-2,4.6008524E-2,-4.317668E-2,6.3345015E-2,-1.4852243E-2,6.465609E-2,6.913646E-2,-2.2502577E-2,6.607021E-2],"split_indices":[6,4,6,8,8,0,6,6,10,6,15,10,8,2,8,12,10,6,1,8,0,8,8,4,10,0,10,12,8,6,10,0,0,0,0,0,0,0,0,0,0,0,0,0,0,0,0,0,0,0,0,0,0,0,0,0,0,0,0,0,0,0,0],"split_type":[0,0,0,0,0,0,0,0,0,0,0,0,0,0,0,0,0,0,0,0,0,0,0,0,0,0,0,0,0,0,0,0,0,0,0,0,0,0,0,0,0,0,0,0,0,0,0,0,0,0,0,0,0,0,0,0,0,0,0,0,0,0,0],"sum_hessian":[5.610249E4,3.617466E4,1.9927826E4,1.5625352E4,2.054931E4,6.048787E3,1.387904E4,1.3131375E4,2.4939768E3,1.717916E4,3.370151E3,5.156481E3,8.9230634E2,3.2239255E3,1.0655114E4,1.0289423E4,2.841952E3,1.6988403E3,7.951365E2,1.238699E4,4.792169E3,2.8354707E3,5.346801E2,4.412446E3,7.4403503E2,8.543121E2,3.7994293E1,1.8165359E3,1.4073896E3,1.0343128E4,3.1198618E2,8.442755E3,1.8466683E3,2.2565574E3,5.853944E2,5.7110023E1,1.6417302E3,7.448637E2,5.0272755E1,7.4011504E3,4.9858403E3,4.6051797E3,1.8698917E2,2.4852366E3,3.5023407E2,4.9860617E2,3.607395E1,6.276032E2,3.7848425E3,6.972602E2,4.677482E1,3.9050815E2,4.638039E2,1.505568E1,2.2938612E1,1.772783E3,4.3752922E1,1.3848676E3,2.2522104E1,2.8920728E3,7.451055E3,5.330195E1,2.5868423E2],"tree_param":{"num_deleted":"0","num_feature":"18","num_nodes":"63","size_leaf_vector":"1"}},{"base_weights":[8.293022E-5,-4.6805182E-1,1.2333158E0,-7.0286196E-1,3.1796613E-1,6.8019426E-1,1.3274596E0,-1.0165471E0,-4.2573857E-1,9.215308E-2,5.8423835E-1,3.596289E-1,1.1917348E0,1.1149929E0,1.3422964E0,-1.1241536E0,-4.8823586E-1,-5.484482E-1,-1.4160033E-2,2.3236361E-1,-4.6834433E-1,6.383288E-1,-1.4207025E0,7.8358305E-1,-6.2935007E-1,1.2502663E0,-4.0945342E-1,-7.514655E-2,1.1279806E0,1.2698895E0,1.3546094E0,-5.0197165E-2,-6.427141E-2,-1.2134267E-2,-5.2450057E-2,-4.568087E-2,-2.1475982E-2,1.204621E-2,-2.7601043E-2,-2.392294E-2,1.4503653E-2,-6.065714E-2,-1.502838E-2,2.7910857E-2,6.200996E-2,-8.690418E-2,3.988434E-2,4.1130707E-2,-7.1261875E-2,-5.017927E-2,4.6597075E-2,6.405962E-2,-1.6941068E-3,-7.055902E-2,6.4698264E-2,5.8625232E-2,2.6879791E-2,5.427704E-2,6.632963E-2,6.793872E-2,6.458046E-2],"categories":[],"categories_nodes":[],"categories_segments":[],"categories_sizes":[],"default_left":[0,0,0,0,0,0,0,0,0,0,0,0,0,0,0,0,0,0,0,0,0,0,0,0,0,0,0,0,0,0,0,0,0,0,0,0,0,0,0,0,0,0,0,0,0,0,0,0,0,0,0,0,0,0,0,0,0,0,0,0,0],"id":12,"left_children":[1,3,5,7,9,11,13,15,17,19,21,23,25,27,29,31,33,35,37,39,41,43,45,47,49,51,53,-1,55,57,59,-1,-1,-1,-1,-1,-1,-1,-1,-1,-1,-1,-1,-1,-1,-1,-1,-1,-1,-1,-1,-1,-1,-1,-1,-1,-1,-1,-1,-1,-1],"loss_changes":[3.2095113E4,7.437588E3,7.956406E2,2.6968184E3,5.5731305E2,3.6474707E2,3.970508E1,8.2679785E2,8.3209717E2,3.9439255E2,4.6220056E2,5.7509467E2,8.087488E1,3.0904419E1,9.167969E0,2.3309277E2,3.390816E2,5.5080005E2,5.194362E2,1.6479254E2,1.25126236E2,1.9904785E2,8.0278824E1,8.390924E1,2.4152225E2,3.2906006E1,5.4711426E1,0E0,2.185498E1,1.728125E1,9.785156E-1,0E0,0E0,0E0,0E0,0E0,0E0,0E0,0E0,0E0,0E0,0E0,0E0,0E0,0E0,0E0,0E0,0E0,0E0,0E0,0E0,0E0,0E0,0E0,0E0,0E0,0E0,0E0,0E0,0E0,0E0],"parents":[2147483647,0,0,1,1,2,2,3,3,4,4,5,5,6,6,7,7,8,8,9,9,10,10,11,11,12,12,13,13,14,14,15,15,16,16,17,17,18,18,19,19,20,20,21,21,22,22,23,23,24,24,25,25,26,26,28,28,29,29,30,30],"right_children":[2,4,6,8,10,12,14,16,18,20,22,24,26,28,30,32,34,36,38,40,42,44,46,48,50,52,54,-1,56,58,60,-1,-1,-1,-1,-1,-1,-1,-1,-1,-1,-1,-1,-1,-1,-1,-1,-1,-1,-1,-1,-1,-1,-1,-1,-1,-1,-1,-1,-1,-1],"split_conditions":[1.4343022E-1,9.571409E-2,3.3372808E-1,1.1582625E-1,1.5083298E-1,2.7385825E-1,6.4417434E-1,6.698714E-2,9.334288E-2,4.0689867E-2,5.2133954E-1,8.4588334E-2,7.6743215E-1,4.0198747E-6,2.097342E-1,2.5874268E-2,3.2916587E-2,6.438942E-2,1.0170633E-5,4.750342E-2,1.0042995E-1,5.490064E-1,2.4219567E-1,5.483577E-1,3.0068153E-1,6.053985E-1,5.783422E-1,-7.514655E-2,3.0068153E-1,8.932835E-1,2.2026558E0,-5.0197165E-2,-6.427141E-2,-1.2134267E-2,-5.2450057E-2,-4.568087E-2,-2.1475982E-2,1.204621E-2,-2.7601043E-2,-2.392294E-2,1.4503653E-2,-6.065714E-2,-1.502838E-2,2.7910857E-2,6.200996E-2,-8.690418E-2,3.988434E-2,4.1130707E-2,-7.1261875E-2,-5.017927E-2,4.6597075E-2,6.405962E-2,-1.6941068E-3,-7.055902E-2,6.4698264E-2,5.8625232E-2,2.6879791E-2,5.427704E-2,6.632963E-2,6.793872E-2,6.458046E-2],"split_indices":[11,6,11,4,6,6,4,8,8,10,8,10,12,17,6,10,10,14,17,0,14,6,10,12,10,8,10,0,10,11,12,0,0,0,0,0,0,0,0,0,0,0,0,0,0,0,0,0,0,0,0,0,0,0,0,0,0,0,0,0,0],"split_type":[0,0,0,0,0,0,0,0,0,0,0,0,0,0,0,0,0,0,0,0,0,0,0,0,0,0,0,0,0,0,0,0,0,0,0,0,0,0,0,0,0,0,0,0,0,0,0,0,0,0,0,0,0,0,0,0,0,0,0,0,0],"sum_hessian":[5.559136E4,4.0295734E4,1.5295627E4,3.1027021E4,9.268714E3,2.225923E3,1.3069703E4,1.4552216E4,1.6474805E4,5.0161216E3,4.2525923E3,1.3694424E3,8.5648065E2,8.5807056E2,1.2211633E4,1.2088832E4,2.4633833E3,1.2690791E4,3.7840142E3,4.012872E3,1.0032495E3,4.141541E3,1.1105114E2,9.586831E2,4.107593E2,8.2648755E2,2.999311E1,3.6696193E0,8.5440094E2,1.7899462E3,1.0421687E4,6.930344E3,5.1584883E3,1.7141959E3,7.491875E2,3.116113E3,9.574678E3,2.5671008E3,1.2169133E3,3.007812E2,3.7120908E3,1.8330168E2,8.199478E2,3.65674E3,4.8480093E2,9.734121E1,1.3709929E1,9.426535E2,1.6029627E1,3.316269E2,7.9132416E1,8.070536E2,1.9433979E1,1.8994566E1,1.0998546E1,7.935677E2,6.083325E1,4.257915E2,1.3641547E3,9.756129E3,6.6555817E2],"tree_param":{"num_deleted":"0","num_feature":"18","num_nodes":"61","size_leaf_vector":"1"}},{"base_weights":[2.042856E-3,-5.5982506E-1,9.4089985E-1,-9.495827E-1,-2.0190817E-1,4.4089988E-1,1.216219E0,-1.0243962E0,-2.11201E-1,-2.7329943E-1,8.681884E-1,3.6211228E-1,1.0664722E0,9.6815026E-1,1.2926313E0,-1.1658753E0,-8.6693656E-1,-3.855079E-1,7.566859E-1,-5.6678677E-1,-9.971183E-2,-9.451639E-2,9.9476594E-1,3.9046952E-1,-8.815557E-1,1.1147186E0,2.3667592E-1,8.093637E-1,1.1724803E0,1.302086E0,9.7454405E-1,-6.895801E-2,-5.4705556E-2,-3.521734E-2,-4.8773035E-2,-4.3737568E-2,-1.24299E-2,4.0175404E-2,-4.0425472E-2,-3.7669133E-2,-1.4014706E-2,-1.0353586E-2,1.0407957E-2,2.51991E-2,-3.1669203E-2,-4.71743E-2,5.0712604E-2,1.9310731E-3,2.4354812E-2,-5.4701287E-2,4.6872918E-2,5.9147127E-2,3.663626E-2,-6.723889E-2,5.1216073E-2,4.2332247E-2,-7.218091E-2,5.9751928E-2,-1.1972797E-2,6.1613686E-2,6.646922E-2,-5.3807028E-2,5.8783855E-2],"categories":[],"categories_nodes":[],"categories_segments":[],"categories_sizes":[],"default_left":[0,0,0,0,0,0,0,0,0,0,0,0,0,0,0,0,0,0,0,0,0,0,0,0,0,0,0,0,0,0,0,0,0,0,0,0,0,0,0,0,0,0,0,0,0,0,0,0,0,0,0,0,0,0,0,0,0,0,0,0,0,0,0],"id":13,"left_children":[1,3,5,7,9,11,13,15,17,19,21,23,25,27,29,31,33,35,37,39,41,43,45,47,49,51,53,55,57,59,61,-1,-1,-1,-1,-1,-1,-1,-1,-1,-1,-1,-1,-1,-1,-1,-1,-1,-1,-1,-1,-1,-1,-1,-1,-1,-1,-1,-1,-1,-1,-1,-1],"loss_changes":[2.8857604E4,4.7740205E3,2.8189238E3,9.047832E2,1.3632687E3,3.5815942E2,2.4910938E2,3.3036914E2,2.5478392E2,8.5209607E2,1.36099E2,2.2825378E2,3.229242E1,1.0009375E2,2.908789E1,1.1837598E2,1.2360303E2,8.5447845E1,1.7544952E1,3.3209778E2,3.474777E2,4.2441666E1,3.821582E1,2.14815E2,5.682383E1,1.9154663E1,5.8617706E1,1.4868909E2,4.3590942E1,1.7039062E1,1.230889E2,0E0,0E0,0E0,0E0,0E0,0E0,0E0,0E0,0E0,0E0,0E0,0E0,0E0,0E0,0E0,0E0,0E0,0E0,0E0,0E0,0E0,0E0,0E0,0E0,0E0,0E0,0E0,0E0,0E0,0E0,0E0,0E0],"parents":[2147483647,0,0,1,1,2,2,3,3,4,4,5,5,6,6,7,7,8,8,9,9,10,10,11,11,12,12,13,13,14,14,15,15,16,16,17,17,18,18,19,19,20,20,21,21,22,22,23,23,24,24,25,25,26,26,27,27,28,28,29,29,30,30],"right_children":[2,4,6,8,10,12,14,16,18,20,22,24,26,28,30,32,34,36,38,40,42,44,46,48,50,52,54,56,58,60,62,-1,-1,-1,-1,-1,-1,-1,-1,-1,-1,-1,-1,-1,-1,-1,-1,-1,-1,-1,-1,-1,-1,-1,-1,-1,-1,-1,-1,-1,-1,-1,-1],"split_conditions":[1.0909015E-1,7.584775E-2,2.2158933E-1,6.984542E-2,2.8621134E-1,9.27092E-3,3.6568052E-1,9.501903E-9,1.4348546E-1,4.3061677E-2,1.5473747E-1,3.4441936E-1,7.2878623E-1,3.3799198E-1,9.671118E-1,7.969603E-2,6.195031E-3,2.4920689E-2,6.9286644E-2,6.262952E-2,1.21784404E-1,5.423639E-3,7.4800706E-1,5.1733777E-2,4.1566044E-1,7.6743215E-1,8.2678884E-1,5.483577E-1,9.671118E-1,6.1629677E-1,1.0863798E0,-6.895801E-2,-5.4705556E-2,-3.521734E-2,-4.8773035E-2,-4.3737568E-2,-1.24299E-2,4.0175404E-2,-4.0425472E-2,-3.7669133E-2,-1.4014706E-2,-1.0353586E-2,1.0407957E-2,2.51991E-2,-3.1669203E-2,-4.71743E-2,5.0712604E-2,1.9310731E-3,2.4354812E-2,-5.4701287E-2,4.6872918E-2,5.9147127E-2,3.663626E-2,-6.723889E-2,5.1216073E-2,4.2332247E-2,-7.218091E-2,5.9751928E-2,-1.1972797E-2,6.1613686E-2,6.646922E-2,-5.3807028E-2,5.8783855E-2],"split_indices":[6,14,6,8,0,15,6,17,8,8,14,12,8,2,8,16,3,2,12,6,8,3,1,2,2,12,0,12,8,6,14,0,0,0,0,0,0,0,0,0,0,0,0,0,0,0,0,0,0,0,0,0,0,0,0,0,0,0,0,0,0,0,0],"split_type":[0,0,0,0,0,0,0,0,0,0,0,0,0,0,0,0,0,0,0,0,0,0,0,0,0,0,0,0,0,0,0,0,0,0,0,0,0,0,0,0,0,0,0,0,0,0,0,0,0,0,0,0,0,0,0,0,0,0,0,0,0,0,0],"sum_hessian":[5.470295E4,3.4222543E4,2.0480404E4,1.6381773E4,1.784077E4,7.2736025E3,1.3206801E4,1.4874309E4,1.5074652E3,1.6725666E4,1.1151045E3,6.461402E3,8.1220105E2,3.113301E3,1.00935E4,7.831351E3,7.042958E3,1.2779252E3,2.2954004E2,6.215223E3,1.0510442E4,1.2960762E2,9.854968E2,6.3180283E3,1.4337321E2,7.67248E2,4.4953022E1,1.7546836E3,1.3586176E3,9.799142E3,2.9435843E2,1.9670397E3,5.864311E3,2.822223E3,4.220735E3,2.78243E2,9.996821E2,2.233454E2,6.194636E0,3.7628237E3,2.4523994E3,7.793161E3,2.7172815E3,6.1436897E1,6.817072E1,9.337047E0,9.761598E2,1.3615603E3,4.9564683E3,1.287349E2,1.46383295E1,6.492037E2,1.1804433E2,1.4710196E1,3.0242826E1,1.7267346E3,2.7948944E1,1.3374038E3,2.1213768E1,2.767578E3,7.031564E3,2.5903612E1,2.684548E2],"tree_param":{"num_deleted":"0","num_feature":"18","num_nodes":"63","size_leaf_vector":"1"}},{"base_weights":[-5.012504E-3,-4.3491045E-1,1.1981905E0,-8.0831194E-1,-3.0681366E-2,1.3942196E-2,1.2361944E0,-1.0865273E0,-6.2321794E-1,2.0993716E-1,-2.3863626E-1,6.4830923E-1,-1.2200207E0,8.5533625E-1,1.281675E0,-1.1250436E0,-3.1918377E-1,-4.226457E-1,-1.0677973E0,5.4676656E-2,6.652962E-1,-3.6935556E-1,1.7410712E-1,-5.1021606E-1,8.370091E-1,-7.5934604E-2,4.801851E-1,9.3423134E-1,-4.341365E-1,1.1685672E0,1.3024173E0,-5.8679592E-2,-3.285193E-2,-1.457341E-3,-7.129658E-2,-2.4549743E-2,5.802968E-3,-5.4855704E-2,1.4095835E-2,-1.3728355E-2,6.7886743E-3,3.450856E-2,-5.8419477E-2,-2.50236E-2,1.0202483E-2,4.96192E-3,6.5082505E-2,1.7017677E-2,-9.9775195E-2,-7.690693E-5,5.1888634E-2,-8.885578E-2,4.5817774E-2,4.804911E-2,-6.1240345E-2,-7.413297E-2,2.3824168E-2,5.9323736E-2,1.4267913E-3,6.5969296E-2,6.3456796E-2],"categories":[],"categories_nodes":[],"categories_segments":[],"categories_sizes":[],"default_left":[0,0,0,0,0,0,0,0,0,0,0,0,0,0,0,0,0,0,0,0,0,0,0,0,0,0,0,0,0,0,0,0,0,0,0,0,0,0,0,0,0,0,0,0,0,0,0,0,0,0,0,0,0,0,0,0,0,0,0,0,0],"id":14,"left_children":[1,3,5,7,9,11,13,15,17,19,21,23,25,27,29,31,33,35,37,39,41,43,45,47,49,-1,51,53,55,57,59,-1,-1,-1,-1,-1,-1,-1,-1,-1,-1,-1,-1,-1,-1,-1,-1,-1,-1,-1,-1,-1,-1,-1,-1,-1,-1,-1,-1,-1,-1],"loss_changes":[2.7896818E4,5.997607E3,6.389414E2,1.0629834E3,9.5482446E2,3.4713452E2,2.3717578E2,2.434873E2,1.1057695E3,6.253944E2,5.523171E2,6.445349E1,7.719171E1,1.499972E2,2.7304688E1,1.7771777E2,1.26987E2,3.1488794E2,1.5289551E2,1.7621082E2,1.03401245E2,5.845759E2,2.0776456E2,5.3288456E1,4.2464813E1,0E0,2.452819E1,8.122522E1,8.230649E1,3.9034424E1,4.1835938E0,0E0,0E0,0E0,0E0,0E0,0E0,0E0,0E0,0E0,0E0,0E0,0E0,0E0,0E0,0E0,0E0,0E0,0E0,0E0,0E0,0E0,0E0,0E0,0E0,0E0,0E0,0E0,0E0,0E0,0E0],"parents":[2147483647,0,0,1,1,2,2,3,3,4,4,5,5,6,6,7,7,8,8,9,9,10,10,11,11,12,12,13,13,14,14,15,15,16,16,17,17,18,18,19,19,20,20,21,21,22,22,23,23,24,24,26,26,27,27,28,28,29,29,30,30],"right_children":[2,4,6,8,10,12,14,16,18,20,22,24,26,28,30,32,34,36,38,40,42,44,46,48,50,-1,52,54,56,58,60,-1,-1,-1,-1,-1,-1,-1,-1,-1,-1,-1,-1,-1,-1,-1,-1,-1,-1,-1,-1,-1,-1,-1,-1,-1,-1,-1,-1,-1,-1],"split_conditions":[1.6274732E-1,7.637723E-1,9.703975E-6,3.9445665E-2,2.3096804E-2,7.651518E-2,3.3372808E-1,7.391603E-2,3.1877507E-2,6.622724E-2,1.23147905E-1,1.8534098E-2,2.838533E-1,6.39849E-1,7.185848E-1,5.8803737E-2,2.6364002E-2,9.4776526E-2,1.1757305E-1,2.5446273E-2,3.5365552E-1,1.3150784E-1,2.4219567E-1,2.5874268E-2,8.472852E-2,-7.5934604E-2,3.5741687E-2,7.2878623E-1,3.2191157E-1,1.282443E0,5.783422E-1,-5.8679592E-2,-3.285193E-2,-1.457341E-3,-7.129658E-2,-2.4549743E-2,5.802968E-3,-5.4855704E-2,1.4095835E-2,-1.3728355E-2,6.7886743E-3,3.450856E-2,-5.8419477E-2,-2.50236E-2,1.0202483E-2,4.96192E-3,6.5082505E-2,1.7017677E-2,-9.9775195E-2,-7.690693E-5,5.1888634E-2,-8.885578E-2,4.5817774E-2,4.804911E-2,-6.1240345E-2,-7.413297E-2,2.3824168E-2,5.9323736E-2,1.4267913E-3,6.5969296E-2,6.3456796E-2],"split_indices":[11,16,17,0,10,10,11,8,10,11,7,8,1,12,11,12,10,8,8,8,8,8,10,10,0,0,12,8,7,12,10,0,0,0,0,0,0,0,0,0,0,0,0,0,0,0,0,0,0,0,0,0,0,0,0,0,0,0,0,0,0],"split_type":[0,0,0,0,0,0,0,0,0,0,0,0,0,0,0,0,0,0,0,0,0,0,0,0,0,0,0,0,0,0,0,0,0,0,0,0,0,0,0,0,0,0,0,0,0,0,0,0,0,0,0,0,0,0,0,0,0,0,0,0,0],"sum_hessian":[5.3930477E4,3.9734273E4,1.4196203E4,2.0654209E4,1.9080064E4,4.4145023E2,1.3754753E4,8.249497E3,1.2404712E4,8.8453545E3,1.023471E4,2.91875E2,1.495752E2,1.4694319E3,1.2285321E4,7.854766E3,3.9473038E2,8.549535E3,3.8551765E3,6.5971064E3,2.2482478E3,7.773031E3,2.4616794E3,4.0642986E1,2.5123203E2,1.2731654E2,2.2258656E1,1.3849695E3,8.446244E1,1.9126997E3,1.0372621E4,7.11517E3,7.3959644E2,3.1357938E2,8.115101E1,7.587009E3,9.625266E2,3.7734026E3,8.17739E1,1.3033341E3,5.293772E3,2.2187725E3,2.9475292E1,6.3265186E3,1.4465122E3,2.309422E3,1.5225735E2,2.633357E1,1.4309415E1,4.8722164E1,2.0250986E2,3.1066306E0,1.9152023E1,1.3685676E3,1.6401882E1,3.8966602E1,4.549584E1,1.8830798E3,2.9619888E1,6.844367E3,3.5282542E3],"tree_param":{"num_deleted":"0","num_feature":"18","num_nodes":"61","size_leaf_vector":"1"}},{"base_weights":[1.0322485E-2,-3.933467E-1,1.1730872E0,-6.337398E-1,2.3377822E-1,6.471882E-1,1.253193E0,-8.048563E-1,-1.7514046E-1,8.414616E-2,6.228081E-1,-2.958723E-1,8.461788E-1,1.0300877E0,1.2697183E0,-1.033418E0,-5.477827E-1,-3.091378E-1,1.2294264E-1,2.251306E-1,-4.9392727E-1,6.867487E-1,-9.426522E-1,-1.3094755E0,4.2368215E-1,5.970766E-1,1.1991645E0,1.0712041E0,4.3340802E-1,1.1958826E0,1.2827842E0,-6.667984E-2,-4.8662987E-2,-2.1354087E-2,-4.645E-2,-7.3586777E-3,-3.7225716E-2,1.921885E-2,-3.0296614E-2,-3.245478E-2,1.39854355E-2,-1.637239E-2,-4.6562653E-2,8.335148E-3,3.991435E-2,-7.110861E-2,5.258612E-2,-7.429453E-2,3.626598E-2,-6.9036963E-3,3.4255683E-2,3.5758607E-2,-6.830048E-2,6.263667E-2,-2.6128203E-2,-6.047371E-2,5.3989876E-2,-1.1096486E-1,3.1143745E-2,4.751668E-2,6.188935E-2,6.4396806E-2,6.008285E-2],"categories":[],"categories_nodes":[],"categories_segments":[],"categories_sizes":[],"default_left":[0,0,0,0,0,0,0,0,0,0,0,0,0,0,0,0,0,0,0,0,0,0,0,0,0,0,0,0,0,0,0,0,0,0,0,0,0,0,0,0,0,0,0,0,0,0,0,0,0,0,0,0,0,0,0,0,0,0,0,0,0,0,0],"id":15,"left_children":[1,3,5,7,9,11,13,15,17,19,21,23,25,27,29,31,33,35,37,39,41,43,45,47,49,51,53,55,57,59,61,-1,-1,-1,-1,-1,-1,-1,-1,-1,-1,-1,-1,-1,-1,-1,-1,-1,-1,-1,-1,-1,-1,-1,-1,-1,-1,-1,-1,-1,-1,-1,-1],"loss_changes":[2.5064143E4,5.975884E3,5.789043E2,2.248502E3,6.39381E2,3.4199518E2,4.2716797E1,1.2255713E3,3.1110007E2,6.467651E2,3.060641E2,2.3251923E2,1.3153333E2,1.986792E1,9.1875E0,1.9816113E2,4.5161353E2,3.787633E2,4.6058423E2,3.045684E2,1.1298157E2,1.6994153E2,1.16406906E2,4.8564728E1,2.752208E1,2.0586102E2,5.7955505E1,1.6488342E1,2.9078909E1,1.6168213E1,2.3925781E0,0E0,0E0,0E0,0E0,0E0,0E0,0E0,0E0,0E0,0E0,0E0,0E0,0E0,0E0,0E0,0E0,0E0,0E0,0E0,0E0,0E0,0E0,0E0,0E0,0E0,0E0,0E0,0E0,0E0,0E0,0E0,0E0],"parents":[2147483647,0,0,1,1,2,2,3,3,4,4,5,5,6,6,7,7,8,8,9,9,10,10,11,11,12,12,13,13,14,14,15,15,16,16,17,17,18,18,19,19,20,20,21,21,22,22,23,23,24,24,25,25,26,26,27,27,28,28,29,29,30,30],"right_children":[2,4,6,8,10,12,14,16,18,20,22,24,26,28,30,32,34,36,38,40,42,44,46,48,50,52,54,56,58,60,62,-1,-1,-1,-1,-1,-1,-1,-1,-1,-1,-1,-1,-1,-1,-1,-1,-1,-1,-1,-1,-1,-1,-1,-1,-1,-1,-1,-1,-1,-1,-1,-1],"split_conditions":[1.6274732E-1,8.5555196E-2,3.3372808E-1,6.8397194E-2,1.8213212E-1,3.420794E-2,6.4417434E-1,1.1582625E-1,1.21784404E-1,4.1589905E-2,5.2133954E-1,2.2541538E-2,2.9634327E-1,3.0068153E-1,2.097342E-1,7.969603E-2,3.7617434E-2,3.3888232E-2,1.12853E-1,4.514237E-2,6.9419235E-2,6.352353E-2,1.6194755E0,1.4608319E-1,6.895387E-2,4.834032E-1,9.558096E-1,9.948998E-2,4.2537284E-1,7.185848E-1,2.2026558E0,-6.667984E-2,-4.8662987E-2,-2.1354087E-2,-4.645E-2,-7.3586777E-3,-3.7225716E-2,1.921885E-2,-3.0296614E-2,-3.245478E-2,1.39854355E-2,-1.637239E-2,-4.6562653E-2,8.335148E-3,3.991435E-2,-7.110861E-2,5.258612E-2,-7.429453E-2,3.626598E-2,-6.9036963E-3,3.4255683E-2,3.5758607E-2,-6.830048E-2,6.263667E-2,-2.6128203E-2,-6.047371E-2,5.3989876E-2,-1.1096486E-1,3.1143745E-2,4.751668E-2,6.188935E-2,6.4396806E-2,6.008285E-2],"split_indices":[11,6,11,8,6,12,4,4,8,10,8,8,6,10,6,16,10,10,0,0,10,7,6,0,7,12,12,0,1,11,12,0,0,0,0,0,0,0,0,0,0,0,0,0,0,0,0,0,0,0,0,0,0,0,0,0,0,0,0,0,0,0,0],"split_type":[0,0,0,0,0,0,0,0,0,0,0,0,0,0,0,0,0,0,0,0,0,0,0,0,0,0,0,0,0,0,0,0,0,0,0,0,0,0,0,0,0,0,0,0,0,0,0,0,0,0,0,0,0,0,0,0,0,0,0,0,0,0,0],"sum_hessian":[5.3397293E4,3.9637332E4,1.3759962E4,2.8653643E4,1.0983688E4,1.8200828E3,1.1939879E4,2.0866865E4,7.7867773E3,7.933466E3,3.0502227E3,3.1704584E2,1.503037E3,8.277598E2,1.1112119E4,1.1044387E4,9.822478E3,5.3719062E3,2.4148708E3,6.3784556E3,1.5550103E3,2.9310657E3,1.1915692E2,1.3128743E2,1.857584E2,8.827624E2,6.2027454E2,7.7365326E2,5.4106583E1,1.6846567E3,9.427463E3,1.8403251E3,9.204062E3,7.4619854E3,2.3604924E3,3.9163315E3,1.455575E3,1.7777107E3,6.371602E2,3.7416867E2,6.0042866E3,1.1275338E3,4.2747644E2,5.1806946E2,2.4129963E3,9.6291794E1,2.2865126E1,1.2106129E2,1.02261505E1,5.9143826E1,1.26614586E2,8.3327014E2,4.949226E1,6.0182214E2,1.8452366E1,2.379572E0,7.712737E2,2.8927093E0,5.1213875E1,2.4903769E2,1.4356191E3,8.850546E3,5.7691705E2],"tree_param":{"num_deleted":"0","num_feature":"18","num_nodes":"63","size_leaf_vector":"1"}},{"base_weights":[2.2535755E-3,-3.936992E-1,1.152026E0,-8.35027E-1,-7.182898E-2,-6.7555934E-2,1.1862382E0,-1.1179525E0,-7.03839E-1,-2.8524038E-1,3.2545987E-1,5.7730687E-1,-1.3117402E0,8.160459E-1,1.2347935E0,-1.3007464E0,-1.0064465E0,-4.247055E-1,-9.3328255E-1,-1.6081527E-1,-5.509967E-1,1.7786548E-1,5.7409436E-1,-8.5467905E-2,9.461424E-1,2.3217086E-1,-7.219969E-2,8.9223796E-1,-5.924289E-1,1.1084688E0,1.25868E0,-6.524272E-2,6.4754896E-2,-5.3830903E-2,-3.4724295E-2,-2.4756229E-2,5.144519E-4,-3.8918205E-2,-5.521937E-2,-4.802213E-2,-6.2180893E-3,-5.0196003E-2,-2.0332856E-2,1.4801656E-2,-2.6325693E-2,2.9988125E-2,-6.764762E-2,-9.2601515E-2,8.004139E-3,5.490095E-2,-2.2246387E-2,-7.094597E-2,5.9479803E-2,3.1832214E-2,5.9534635E-2,-6.752735E-2,4.3991085E-2,5.6088846E-2,-5.2295025E-2,6.383478E-2,6.1197784E-2],"categories":[],"categories_nodes":[],"categories_segments":[],"categories_sizes":[],"default_left":[0,0,0,0,0,0,0,0,0,0,0,0,0,0,0,0,0,0,0,0,0,0,0,0,0,0,0,0,0,0,0,0,0,0,0,0,0,0,0,0,0,0,0,0,0,0,0,0,0,0,0,0,0,0,0,0,0,0,0,0,0],"id":16,"left_children":[1,3,5,7,9,11,13,15,17,19,21,23,25,27,29,31,33,35,37,39,41,43,45,47,49,51,-1,53,55,57,59,-1,-1,-1,-1,-1,-1,-1,-1,-1,-1,-1,-1,-1,-1,-1,-1,-1,-1,-1,-1,-1,-1,-1,-1,-1,-1,-1,-1,-1,-1],"loss_changes":[2.3851328E4,5.5357217E3,5.600449E2,6.092334E2,1.9108525E3,2.9533194E2,2.3364062E2,1.0478027E2,7.189253E2,4.8471716E2,2.8891827E2,5.9363747E1,2.5989273E1,1.6328705E2,3.3421875E1,2.2682373E1,7.0118164E1,1.5527423E2,1.6251953E2,2.910067E2,3.0521716E2,4.1163245E2,1.4590277E2,3.8305576E1,3.3423096E1,1.872061E1,0E0,1.0902966E2,8.873187E1,5.4020264E1,4.5039062E0,0E0,0E0,0E0,0E0,0E0,0E0,0E0,0E0,0E0,0E0,0E0,0E0,0E0,0E0,0E0,0E0,0E0,0E0,0E0,0E0,0E0,0E0,0E0,0E0,0E0,0E0,0E0,0E0,0E0,0E0],"parents":[2147483647,0,0,1,1,2,2,3,3,4,4,5,5,6,6,7,7,8,8,9,9,10,10,11,11,12,12,13,13,14,14,15,15,16,16,17,17,18,18,19,19,20,20,21,21,22,22,23,23,24,24,25,25,27,27,28,28,29,29,30,30],"right_children":[2,4,6,8,10,12,14,16,18,20,22,24,26,28,30,32,34,36,38,40,42,44,46,48,50,52,-1,54,56,58,60,-1,-1,-1,-1,-1,-1,-1,-1,-1,-1,-1,-1,-1,-1,-1,-1,-1,-1,-1,-1,-1,-1,-1,-1,-1,-1,-1,-1,-1,-1],"split_conditions":[1.6274732E-1,7.762042E-2,7.806125E-6,3.7801114E-1,1.0369277E-1,8.746177E-2,3.3372808E-1,1.2176742E-1,2.1802053E-2,3.222998E-2,1.8213212E-1,9.014075E-2,6.9901586E-2,6.39849E-1,7.185848E-1,3.4525471E-9,4.637807E-2,5.7035565E-2,3.9592464E-2,4.212671E-2,1.3640897E-1,4.8507635E-2,7.6743215E-1,8.44178E-3,3.0084133E-1,2.6804805E-1,-7.219969E-2,2.7385825E-1,6.9868076E-1,1.7034944E0,5.783422E-1,-6.524272E-2,6.4754896E-2,-5.3830903E-2,-3.4724295E-2,-2.4756229E-2,5.144519E-4,-3.8918205E-2,-5.521937E-2,-4.802213E-2,-6.2180893E-3,-5.0196003E-2,-2.0332856E-2,1.4801656E-2,-2.6325693E-2,2.9988125E-2,-6.764762E-2,-9.2601515E-2,8.004139E-3,5.490095E-2,-2.2246387E-2,-7.094597E-2,5.9479803E-2,3.1832214E-2,5.9534635E-2,-6.752735E-2,4.3991085E-2,5.6088846E-2,-5.2295025E-2,6.383478E-2,6.1197784E-2],"split_indices":[11,14,17,16,6,10,11,16,10,10,6,0,9,12,11,17,12,11,10,0,1,10,12,10,9,11,0,6,6,12,10,0,0,0,0,0,0,0,0,0,0,0,0,0,0,0,0,0,0,0,0,0,0,0,0,0,0,0,0,0,0],"split_type":[0,0,0,0,0,0,0,0,0,0,0,0,0,0,0,0,0,0,0,0,0,0,0,0,0,0,0,0,0,0,0,0,0,0,0,0,0,0,0,0,0,0,0,0,0,0,0,0,0,0,0,0,0,0,0,0,0,0,0,0,0],"sum_hessian":[5.2389074E4,3.8969586E4,1.3419489E4,1.6434314E4,2.253527E4,3.6614987E2,1.3053339E4,5.2038813E3,1.1230433E4,1.4660422E4,7.874848E3,2.4151053E2,1.2463933E2,1.5156486E3,1.153769E4,1.9676346E3,3.2362466E3,5.067873E3,6.162559E3,9.986447E3,4.6739746E3,4.9425605E3,2.9322874E3,8.6622856E1,1.5488768E2,9.774745E0,1.14864586E2,1.4382142E3,7.74343E1,1.842248E3,9.695442E3,1.9650223E3,2.6123378E0,2.639968E3,5.962786E2,4.36165E3,7.0622345E2,3.2371716E3,2.9253875E3,4.3430835E2,9.55214E3,1.1281129E3,3.5458616E3,4.2330054E3,7.0955505E2,2.8944226E3,3.7864803E1,9.772723E0,7.6850136E1,1.3983157E2,1.50561075E1,3.4107878E0,6.363957E0,7.764248E2,6.6178937E2,5.1168404E1,2.6265898E1,1.8314142E3,1.083389E1,6.359994E3,3.3354485E3],"tree_param":{"num_deleted":"0","num_feature":"18","num_nodes":"61","size_leaf_vector":"1"}},{"base_weights":[-1.288739E-3,-3.8101125E-1,1.1250693E0,-6.275624E-1,1.6195318E-1,5.850812E-1,1.2106924E0,-9.0086216E-1,-3.903158E-1,-1.3902652E-2,4.82621E-1,2.714753E-1,1.1273059E0,1.0656477E0,1.2394162E0,-1.0521827E0,-6.9625497E-1,-2.781923E-1,-6.1665136E-1,8.368934E-2,-5.4985356E-1,5.514648E-1,-1.5656856E-1,6.8079823E-1,-5.675945E-1,1.173795E0,-6.1131036E-1,1.0759794E0,-1.6225554E0,1.256559E0,1.2060711E0,-6.0638726E-2,-4.621832E-2,-1.787418E-2,-5.401638E-2,-1.9083481E-2,2.2521688E-2,-4.1521218E-2,-2.0601247E-2,-3.472669E-2,6.974954E-3,-6.2456973E-2,-1.9314198E-2,8.301848E-3,3.262728E-2,-5.254502E-2,4.648909E-2,-3.693449E-3,4.2172987E-2,-4.8369236E-2,4.1016918E-2,4.7992993E-2,6.212106E-2,-9.452401E-2,3.2865107E-2,4.531175E-2,6.1722804E-2,-1.302362E-1,4.8102066E-2,4.059085E-2,6.289121E-2,4.5896154E-2,6.1460733E-2],"categories":[],"categories_nodes":[],"categories_segments":[],"categories_sizes":[],"default_left":[0,0,0,0,0,0,0,0,0,0,0,0,0,0,0,0,0,0,0,0,0,0,0,0,0,0,0,0,0,0,0,0,0,0,0,0,0,0,0,0,0,0,0,0,0,0,0,0,0,0,0,0,0,0,0,0,0,0,0,0,0,0,0],"id":17,"left_children":[1,3,5,7,9,11,13,15,17,19,21,23,25,27,29,31,33,35,37,39,41,43,45,47,49,51,53,55,57,59,61,-1,-1,-1,-1,-1,-1,-1,-1,-1,-1,-1,-1,-1,-1,-1,-1,-1,-1,-1,-1,-1,-1,-1,-1,-1,-1,-1,-1,-1,-1,-1,-1],"loss_changes":[2.2052875E4,5.1622334E3,6.0034766E2,1.7191553E3,6.7911304E2,3.0256866E2,4.542383E1,3.8079102E2,3.60135E2,4.0689627E2,1.8777582E2,3.884131E2,5.3445312E1,5.3453613E1,3.8330078E0,1.4424072E2,6.816443E2,7.161546E2,2.0536609E2,2.859321E2,1.365863E2,1.4991467E2,4.046594E2,9.3332794E1,2.0664397E2,8.140686E0,2.9879211E1,4.878784E1,2.1612507E1,2.4433594E0,2.0229492E1,0E0,0E0,0E0,0E0,0E0,0E0,0E0,0E0,0E0,0E0,0E0,0E0,0E0,0E0,0E0,0E0,0E0,0E0,0E0,0E0,0E0,0E0,0E0,0E0,0E0,0E0,0E0,0E0,0E0,0E0,0E0,0E0],"parents":[2147483647,0,0,1,1,2,2,3,3,4,4,5,5,6,6,7,7,8,8,9,9,10,10,11,11,12,12,13,13,14,14,15,15,16,16,17,17,18,18,19,19,20,20,21,21,22,22,23,23,24,24,25,25,26,26,27,27,28,28,29,29,30,30],"right_children":[2,4,6,8,10,12,14,16,18,20,22,24,26,28,30,32,34,36,38,40,42,44,46,48,50,52,54,56,58,60,62,-1,-1,-1,-1,-1,-1,-1,-1,-1,-1,-1,-1,-1,-1,-1,-1,-1,-1,-1,-1,-1,-1,-1,-1,-1,-1,-1,-1,-1,-1,-1,-1],"split_conditions":[1.6274732E-1,7.8180134E-2,3.3372808E-1,1.1582625E-1,1.5083298E-1,2.9634327E-1,7.185848E-1,3.9116092E-2,3.0556623E-2,4.742943E-2,2.7081603E-1,8.746177E-2,9.558096E-1,2.2026558E0,5.783422E-1,9.464264E-3,3.154268E-2,6.622724E-2,7.9964983E-1,3.768125E-8,1.0862619E-1,5.0853513E-2,5.490064E-1,8.3150035E-1,3.0068153E-1,4.1949368E-1,6.9868076E-1,3.6568052E-1,1.4963872E0,2.5572277E-5,1.5379076E0,-6.0638726E-2,-4.621832E-2,-1.787418E-2,-5.401638E-2,-1.9083481E-2,2.2521688E-2,-4.1521218E-2,-2.0601247E-2,-3.472669E-2,6.974954E-3,-6.2456973E-2,-1.9314198E-2,8.301848E-3,3.262728E-2,-5.254502E-2,4.648909E-2,-3.693449E-3,4.2172987E-2,-4.8369236E-2,4.1016918E-2,4.7992993E-2,6.212106E-2,-9.452401E-2,3.2865107E-2,4.531175E-2,6.1722804E-2,-1.302362E-1,4.8102066E-2,4.059085E-2,6.289121E-2,4.5896154E-2,6.1460733E-2],"split_indices":[11,6,11,4,6,6,11,0,10,10,12,10,12,12,10,7,10,11,16,17,4,7,6,16,10,6,6,6,0,17,11,0,0,0,0,0,0,0,0,0,0,0,0,0,0,0,0,0,0,0,0,0,0,0,0,0,0,0,0,0,0,0,0],"split_type":[0,0,0,0,0,0,0,0,0,0,0,0,0,0,0,0,0,0,0,0,0,0,0,0,0,0,0,0,0,0,0,0,0,0,0,0,0,0,0,0,0,0,0,0,0,0,0,0,0,0,0,0,0,0,0,0,0,0,0,0,0,0,0],"sum_hessian":[5.1559125E4,3.856021E4,1.2998916E4,2.651846E4,1.2041749E4,1.7801451E3,1.1218771E4,1.2321605E4,1.41968545E4,7.777491E3,4.2642583E3,1.1287892E3,6.5135596E2,1.8607529E3,9.358019E3,7.080769E3,5.240837E3,9.495263E3,4.7015913E3,6.5801475E3,1.1973436E3,3.849758E3,4.1450012E2,7.588086E2,3.6998053E2,6.347092E2,1.6646727E1,1.8542262E3,6.526723E0,6.156356E3,3.2016626E3,3.1342822E3,3.9464868E3,2.7856685E3,2.4551685E3,8.314884E3,1.1803788E3,2.29791E3,2.4036816E3,4.3954813E2,6.140599E3,2.2571967E2,9.7162396E2,8.0040454E2,3.0493535E3,2.2735997E2,1.8714017E2,1.3464937E2,6.2415924E2,2.8747668E2,8.250384E1,1.5779279E2,4.7691647E2,8.044791E0,8.601935E0,8.985293E2,9.5569696E2,4.723838E0,1.8028853E0,1.9284948E1,6.137071E3,2.4105673E2,2.960606E3],"tree_param":{"num_deleted":"0","num_feature":"18","num_nodes":"63","size_leaf_vector":"1"}},{"base_weights":[7.552666E-3,-4.1305315E-1,9.0954775E-1,-8.0627245E-1,-1.1960677E-1,5.233253E-1,1.1400527E0,-1.0667797E0,-6.7771226E-1,-1.6842148E-1,8.472874E-1,4.3267652E-1,9.908919E-1,9.436527E-1,1.193665E0,-1.1245077E0,-6.596029E-1,-4.1726217E-1,-8.944015E-1,-3.4520912E-1,-1.5618986E-2,-1.5923443E-1,9.212259E-1,5.2302456E-1,-2.1501023E-1,1.0820473E0,7.833744E-1,-3.531757E-1,9.7140074E-1,1.1530515E0,1.2309195E0,-6.383161E-2,-5.1351488E-2,-2.0667195E-2,-5.8937218E-2,-1.6124727E-2,-4.1666698E-2,-5.208977E-2,-3.451957E-2,-1.0695657E-2,-4.3340664E-2,2.469129E-4,-5.1943053E-2,-4.2008165E-2,2.361243E-2,-6.8463483E-3,4.8492845E-2,3.364977E-3,2.8812407E-2,-1.8753204E-2,4.761323E-2,4.662491E-2,5.82676E-2,-1.6068874E-2,5.1983338E-2,3.076886E-2,-6.901782E-2,4.9921546E-2,-5.8444003E-3,5.8642752E-2,5.2425753E-2,3.7749056E-2,6.165048E-2],"categories":[],"categories_nodes":[],"categories_segments":[],"categories_sizes":[],"default_left":[0,0,0,0,0,0,0,0,0,0,0,0,0,0,0,0,0,0,0,0,0,0,0,0,0,0,0,0,0,0,0,0,0,0,0,0,0,0,0,0,0,0,0,0,0,0,0,0,0,0,0,0,0,0,0,0,0,0,0,0,0,0,0],"id":18,"left_children":[1,3,5,7,9,11,13,15,17,19,21,23,25,27,29,31,33,35,37,39,41,43,45,47,49,51,53,55,57,59,61,-1,-1,-1,-1,-1,-1,-1,-1,-1,-1,-1,-1,-1,-1,-1,-1,-1,-1,-1,-1,-1,-1,-1,-1,-1,-1,-1,-1,-1,-1,-1,-1],"loss_changes":[1.9353482E4,4.0142866E3,1.4436572E3,4.971963E2,9.4051514E2,2.566411E2,1.0583789E2,1.1469141E2,5.615923E2,5.12362E2,7.1418945E1,2.9749982E2,1.7769043E1,7.890332E1,1.0649414E1,6.2447754E1,7.777994E1,1.781123E2,1.6269482E2,6.02021E2,2.1403026E2,2.8944109E1,4.6049866E1,1.081449E2,1.1672E2,7.399353E0,8.6405396E1,4.7079296E1,6.3000854E1,6.7026367E0,3.192871E0,0E0,0E0,0E0,0E0,0E0,0E0,0E0,0E0,0E0,0E0,0E0,0E0,0E0,0E0,0E0,0E0,0E0,0E0,0E0,0E0,0E0,0E0,0E0,0E0,0E0,0E0,0E0,0E0,0E0,0E0,0E0,0E0],"parents":[2147483647,0,0,1,1,2,2,3,3,4,4,5,5,6,6,7,7,8,8,9,9,10,10,11,11,12,12,13,13,14,14,15,15,16,16,17,17,18,18,19,19,20,20,21,21,22,22,23,23,24,24,25,25,26,26,27,27,28,28,29,29,30,30],"right_children":[2,4,6,8,10,12,14,16,18,20,22,24,26,28,30,32,34,36,38,40,42,44,46,48,50,52,54,56,58,60,62,-1,-1,-1,-1,-1,-1,-1,-1,-1,-1,-1,-1,-1,-1,-1,-1,-1,-1,-1,-1,-1,-1,-1,-1,-1,-1,-1,-1,-1,-1,-1,-1],"split_conditions":[1.3149321E-1,7.492185E-2,2.7385825E-1,3.7801114E-1,3.1828794E-1,9.27092E-3,3.6520645E-1,3.688073E-2,2.1802053E-2,1.0366678E-1,1.6742522E-1,6.5776214E-2,4.2953837E-1,1.3418971E-5,9.438373E-1,7.969603E-2,2.6912395E-2,1.3538361E-2,1.15472205E-1,4.1589905E-2,3.4441936E-1,2.177607E0,1.0655259E0,5.1018216E-2,3.0068153E-1,5.722618E-1,1.6686846E0,1.0258775E-2,4.834032E-1,9.558096E-1,8.881098E-1,-6.383161E-2,-5.1351488E-2,-2.0667195E-2,-5.8937218E-2,-1.6124727E-2,-4.1666698E-2,-5.208977E-2,-3.451957E-2,-1.0695657E-2,-4.3340664E-2,2.469129E-4,-5.1943053E-2,-4.2008165E-2,2.361243E-2,-6.8463483E-3,4.8492845E-2,3.364977E-3,2.8812407E-2,-1.8753204E-2,4.761323E-2,4.662491E-2,5.82676E-2,-1.6068874E-2,5.1983338E-2,3.076886E-2,-6.901782E-2,4.9921546E-2,-5.8444003E-3,5.8642752E-2,5.2425753E-2,3.7749056E-2,6.165048E-2],"split_indices":[6,14,6,16,5,15,5,7,10,14,14,10,12,17,6,16,10,3,4,10,12,4,1,2,10,14,1,10,12,12,16,0,0,0,0,0,0,0,0,0,0,0,0,0,0,0,0,0,0,0,0,0,0,0,0,0,0,0,0,0,0,0,0],"split_type":[0,0,0,0,0,0,0,0,0,0,0,0,0,0,0,0,0,0,0,0,0,0,0,0,0,0,0,0,0,0,0,0,0,0,0,0,0,0,0,0,0,0,0,0,0,0,0,0,0,0,0,0,0,0,0,0,0,0,0,0,0,0,0],"sum_hessian":[5.1010867E4,3.478906E4,1.6221809E4,1.4866348E4,1.9922713E4,6.064203E3,1.0157605E4,4.909899E3,9.956449E3,1.8966018E4,9.5669415E2,5.0810474E3,9.831557E2,2.1821746E3,7.975431E3,4.2986865E3,6.11212E2,4.522975E3,5.4334746E3,8.79232E3,1.0173697E4,6.538994E1,8.913042E2,4.4592095E3,6.21838E2,6.8016675E2,3.0298892E2,4.546783E1,2.1367068E3,3.8309785E3,4.144452E3,1.6740525E3,2.6246343E3,4.1577972E2,1.9543227E2,3.6853477E3,8.376273E2,3.1520579E3,2.2814165E3,7.0253413E3,1.7669794E3,9.974306E3,1.9939165E2,3.1304161E1,3.4085773E1,3.9083214E1,8.52221E2,4.6656058E2,3.9926487E3,5.4745154E2,7.438652E1,2.476953E2,4.3247147E2,5.7006714E1,2.4598221E2,2.3608099E1,2.185973E1,2.0850034E3,5.1703297E1,3.21223E3,6.187488E2,1.970544E1,4.124747E3],"tree_param":{"num_deleted":"0","num_feature":"18","num_nodes":"63","size_leaf_vector":"1"}},{"base_weights":[-2.3915027E-3,-4.0797997E-1,8.8598317E-1,-7.8421175E-1,-1.2121356E-1,4.9922332E-1,1.1236082E0,-1.0795745E0,-6.7181695E-1,-1.7225401E-1,7.700625E-1,4.0806243E-1,9.754212E-1,9.423262E-1,1.182548E0,-6.297138E-2,-9.914059E-1,-4.678605E-1,-8.736884E-1,-7.7534206E-2,-4.3441594E-1,-1.48506E-1,8.6900276E-1,5.2447176E-1,-1.7020956E-2,8.050191E-1,1.0884143E0,1.0189859E0,4.1598785E-1,1.1322814E0,1.2043235E0,-4.2104673E-2,-6.204018E-2,-3.144158E-2,-1.1554074E-2,-5.1009264E-2,-3.3902492E-2,-1.147524E-2,4.3104123E-3,-3.436618E-2,-4.6329643E-3,6.920781E-3,-6.303065E-2,-1.0262524E-1,4.415063E-2,2.253367E-3,2.905552E-2,2.1214697E-3,-6.353962E-2,5.5235602E-2,1.554574E-2,4.2075075E-2,5.734867E-2,-2.9550989E-3,5.2518077E-2,2.713232E-3,3.8948353E-2,5.331413E-2,5.930313E-2,1.6189776E-2,6.0269784E-2],"categories":[],"categories_nodes":[],"categories_segments":[],"categories_sizes":[],"default_left":[0,0,0,0,0,0,0,0,0,0,0,0,0,0,0,0,0,0,0,0,0,0,0,0,0,0,0,0,0,0,0,0,0,0,0,0,0,0,0,0,0,0,0,0,0,0,0,0,0,0,0,0,0,0,0,0,0,0,0,0,0],"id":19,"left_children":[1,3,5,7,9,11,13,15,17,19,21,23,25,27,29,-1,31,33,35,37,39,41,43,45,47,49,51,53,55,57,59,-1,-1,-1,-1,-1,-1,-1,-1,-1,-1,-1,-1,-1,-1,-1,-1,-1,-1,-1,-1,-1,-1,-1,-1,-1,-1,-1,-1,-1,-1],"loss_changes":[1.8023213E4,3.7050767E3,1.4403848E3,4.9237793E2,8.867185E2,2.5870996E2,1.02646484E2,6.3649902E1,4.4269775E2,4.5772772E2,9.608496E1,2.479939E2,1.75755E1,9.591284E1,6.654297E0,0E0,1.0139844E2,2.03979E2,1.5429053E2,3.3702298E2,4.228045E2,3.3206097E1,4.0830383E1,1.0679651E2,8.042908E1,5.6805405E1,7.3253174E0,7.053345E1,4.0033394E1,6.652588E0,4.419922E0,0E0,0E0,0E0,0E0,0E0,0E0,0E0,0E0,0E0,0E0,0E0,0E0,0E0,0E0,0E0,0E0,0E0,0E0,0E0,0E0,0E0,0E0,0E0,0E0,0E0,0E0,0E0,0E0,0E0,0E0],"parents":[2147483647,0,0,1,1,2,2,3,3,4,4,5,5,6,6,7,7,8,8,9,9,10,10,11,11,12,12,13,13,14,14,16,16,17,17,18,18,19,19,20,20,21,21,22,22,23,23,24,24,25,25,26,26,27,27,28,28,29,29,30,30],"right_children":[2,4,6,8,10,12,14,16,18,20,22,24,26,28,30,-1,32,34,36,38,40,42,44,46,48,50,52,54,56,58,60,-1,-1,-1,-1,-1,-1,-1,-1,-1,-1,-1,-1,-1,-1,-1,-1,-1,-1,-1,-1,-1,-1,-1,-1,-1,-1,-1,-1,-1,-1],"split_conditions":[1.3149321E-1,7.584775E-2,2.7385825E-1,6.33808E-2,3.0068415E-1,9.27092E-3,5.722618E-1,7.969603E-2,2.1802053E-2,3.7617434E-2,1.6742522E-1,4.7979895E-2,1.8776689E0,5.4034567E-1,6.9868076E-1,-6.297138E-2,3.222998E-2,6.231606E-2,1.15472205E-1,5.7850778E-2,1.2355858E-1,3.7195046E-2,7.4800706E-1,5.1018216E-2,1.1320803E-4,1.743246E-4,9.773654E-2,1.4700841E-5,3.4015468E-1,1.9648833E0,8.6082137E-1,-4.2104673E-2,-6.204018E-2,-3.144158E-2,-1.1554074E-2,-5.1009264E-2,-3.3902492E-2,-1.147524E-2,4.3104123E-3,-3.436618E-2,-4.6329643E-3,6.920781E-3,-6.303065E-2,-1.0262524E-1,4.415063E-2,2.253367E-3,2.905552E-2,2.1214697E-3,-6.353962E-2,5.5235602E-2,1.554574E-2,4.2075075E-2,5.734867E-2,-2.9550989E-3,5.2518077E-2,2.713232E-3,3.8948353E-2,5.331413E-2,5.930313E-2,1.6189776E-2,6.0269784E-2],"split_indices":[6,14,6,4,0,15,14,16,10,10,14,10,1,9,6,0,10,14,4,6,14,10,1,2,17,17,10,17,0,4,16,0,0,0,0,0,0,0,0,0,0,0,0,0,0,0,0,0,0,0,0,0,0,0,0,0,0,0,0,0,0],"split_type":[0,0,0,0,0,0,0,0,0,0,0,0,0,0,0,0,0,0,0,0,0,0,0,0,0,0,0,0,0,0,0,0,0,0,0,0,0,0,0,0,0,0,0,0,0,0,0,0,0,0,0,0,0,0,0,0,0,0,0,0,0],"sum_hessian":[5.0018773E4,3.4340926E4,1.5677847E4,1.485272E4,1.9488205E4,5.9677695E3,9.710077E3,4.0916494E3,1.076107E4,1.8433393E4,1.054813E3,5.010451E3,9.573182E2,2.3865923E3,7.323485E3,1.3416211E3,2.7500283E3,5.3545415E3,5.406529E3,1.3541947E4,4.891446E3,1.0251895E2,9.52294E2,3.933128E3,1.0773234E3,3.8493365E2,5.723845E2,2.0823655E3,3.042267E2,2.2296184E3,5.093866E3,1.7229113E3,1.0271171E3,3.1865508E3,2.1679907E3,3.0891309E3,2.317398E3,7.023232E3,6.5187153E3,2.8105579E3,2.0808877E3,8.21897E1,2.0329258E1,3.8504045E0,9.484436E2,4.1576633E2,3.5173616E3,1.0294747E3,4.7848667E1,2.3883525E2,1.4609839E2,1.1267277E2,4.597118E2,5.8864273E1,2.0235013E3,1.5295273E2,1.5127397E2,1.0104484E3,1.21917E3,6.563465E0,5.0873027E3],"tree_param":{"num_deleted":"0","num_feature":"18","num_nodes":"61","size_leaf_vector":"1"}},{"base_weights":[6.238607E-3,-3.2601067E-1,1.094263E0,-7.437666E-1,-4.581385E-2,5.8733E-1,1.1628063E0,-8.274523E-1,-1.6604164E-1,-2.2902584E-1,3.0361328E-1,-2.507774E-1,7.7659285E-1,9.717691E-1,1.1856666E0,-1.1732719E0,-7.5409347E-1,-3.2477388E-1,7.525863E-1,-4.4671676E-1,-1.0410474E-1,3.389441E-1,-1.0706717E0,5.8795923E-1,-1.1596001E0,8.382739E-1,-1.0366024E0,7.4562126E-1,1.1308464E0,1.1234057E0,1.1974033E0,-6.0002763E-2,-3.80639E-2,-3.1993255E-2,-5.507637E-2,-8.402507E-3,-4.0090345E-2,4.007674E-2,-7.52039E-2,-4.20461E-2,-1.5498671E-2,8.102671E-4,-2.1641245E-2,1.4410476E-2,5.3872522E-2,-7.3684E-2,2.8701438E-2,-6.5074E-2,3.4734808E-2,-6.52085E-2,5.5733394E-2,3.1162966E-2,5.845778E-2,-8.615073E-2,6.29465E-2,4.0199887E-2,-9.29153E-2,5.76754E-2,-1.4146037E-2,6.1540227E-2,5.225518E-2,6.0188085E-2,5.5833172E-2],"categories":[],"categories_nodes":[],"categories_segments":[],"categories_sizes":[],"default_left":[0,0,0,0,0,0,0,0,0,0,0,0,0,0,0,0,0,0,0,0,0,0,0,0,0,0,0,0,0,0,0,0,0,0,0,0,0,0,0,0,0,0,0,0,0,0,0,0,0,0,0,0,0,0,0,0,0,0,0,0,0,0,0],"id":20,"left_children":[1,3,5,7,9,11,13,15,17,19,21,23,25,27,29,31,33,35,37,39,41,43,45,47,49,51,53,55,57,59,61,-1,-1,-1,-1,-1,-1,-1,-1,-1,-1,-1,-1,-1,-1,-1,-1,-1,-1,-1,-1,-1,-1,-1,-1,-1,-1,-1,-1,-1,-1,-1,-1],"loss_changes":[1.7935562E4,4.4489917E3,4.0260938E2,7.375742E2,1.4565563E3,2.1979956E2,4.3495117E1,3.372256E2,2.819403E2,4.0584717E2,3.8035205E2,1.9566853E2,1.2720856E2,3.8662354E1,5.323242E0,2.480371E1,4.357744E2,1.23068405E2,3.2679153E1,2.9308105E2,3.7511987E2,2.8559204E2,1.3102061E2,2.7866379E1,4.1930145E1,7.703473E1,6.1432247E1,7.087187E1,2.0918396E1,1.1022339E1,2.5888672E0,0E0,0E0,0E0,0E0,0E0,0E0,0E0,0E0,0E0,0E0,0E0,0E0,0E0,0E0,0E0,0E0,0E0,0E0,0E0,0E0,0E0,0E0,0E0,0E0,0E0,0E0,0E0,0E0,0E0,0E0,0E0,0E0],"parents":[2147483647,0,0,1,1,2,2,3,3,4,4,5,5,6,6,7,7,8,8,9,9,10,10,11,11,12,12,13,13,14,14,15,15,16,16,17,17,18,18,19,19,20,20,21,21,22,22,23,23,24,24,25,25,26,26,27,27,28,28,29,29,30,30],"right_children":[2,4,6,8,10,12,14,16,18,20,22,24,26,28,30,32,34,36,38,40,42,44,46,48,50,52,54,56,58,60,62,-1,-1,-1,-1,-1,-1,-1,-1,-1,-1,-1,-1,-1,-1,-1,-1,-1,-1,-1,-1,-1,-1,-1,-1,-1,-1,-1,-1,-1,-1,-1,-1],"split_conditions":[1.8733087E-1,7.762042E-2,3.3372808E-1,6.698714E-2,1.0548043E-1,3.3285245E-2,5.625787E-1,1.7868552E-1,1.349037E-1,4.3061677E-2,4.4990978E-1,2.5496662E-2,7.6743215E-1,2.7385825E-1,2.097342E-1,1.3580345E-9,3.9592464E-2,3.4607682E-2,5.3682875E-2,1.2378657E-1,1.12853E-1,5.490064E-1,2.0533651E-1,7.9544075E-3,3.6568052E-1,3.2533666E-1,8.7634134E-1,6.39849E-1,1.7034944E0,1.05301894E-1,3.7756195E0,-6.0002763E-2,-3.80639E-2,-3.1993255E-2,-5.507637E-2,-8.402507E-3,-4.0090345E-2,4.007674E-2,-7.52039E-2,-4.20461E-2,-1.5498671E-2,8.102671E-4,-2.1641245E-2,1.4410476E-2,5.3872522E-2,-7.3684E-2,2.8701438E-2,-6.5074E-2,3.4734808E-2,-6.52085E-2,5.5733394E-2,3.1162966E-2,5.845778E-2,-8.615073E-2,6.29465E-2,4.0199887E-2,-9.29153E-2,5.76754E-2,-1.4146037E-2,6.1540227E-2,5.225518E-2,6.0188085E-2,5.5833172E-2],"split_indices":[11,14,11,8,6,12,11,16,8,8,8,12,12,6,6,17,10,10,10,4,0,6,10,10,6,6,10,12,12,10,14,0,0,0,0,0,0,0,0,0,0,0,0,0,0,0,0,0,0,0,0,0,0,0,0,0,0,0,0,0,0,0,0],"split_type":[0,0,0,0,0,0,0,0,0,0,0,0,0,0,0,0,0,0,0,0,0,0,0,0,0,0,0,0,0,0,0,0,0,0,0,0,0,0,0,0,0,0,0,0,0,0,0,0,0,0,0,0,0,0,0,0,0,0,0,0,0,0,0],"sum_hessian":[4.961294E4,3.800736E4,1.1605583E4,1.5257591E4,2.2749768E4,1.3834479E3,1.0222135E4,1.332673E4,1.9308605E3,1.4924751E4,7.8250156E3,2.5479987E2,1.128648E3,1.0971414E3,9.124993E3,2.3296372E3,1.0997093E4,1.6469296E3,2.83931E2,5.440832E3,9.483919E3,7.629623E3,1.953929E2,1.3269293E2,1.2210694E2,1.0920369E3,3.661109E1,4.5540894E2,6.417325E2,1.4626564E3,7.662337E3,2.1856382E3,1.4399916E2,8.278239E3,2.718854E3,1.2406729E3,4.0625665E2,2.785342E2,5.396771E0,1.3999347E3,4.0408972E3,6.9435586E3,2.5403604E3,7.1404707E3,4.8915234E2,1.5702126E2,3.837163E1,6.496668E0,1.26196266E2,1.1520987E2,6.8970685E0,6.6365936E2,4.2837753E2,2.83756E1,8.235491E0,4.4609924E2,9.3096895E0,6.317894E2,9.943E0,6.105335E2,8.5212286E2,7.0900713E3,5.722658E2],"tree_param":{"num_deleted":"0","num_feature":"18","num_nodes":"63","size_leaf_vector":"1"}},{"base_weights":[-2.7575175E-4,-3.182539E-1,1.0746039E0,-6.31099E-1,2.109404E-2,5.620377E-1,1.1455249E0,-9.2367834E-1,-4.7275046E-1,1.9647405E-1,-1.4569502E-1,-3.9887658E-1,7.733059E-1,9.908448E-1,1.1761818E0,-9.6631145E-1,-1.5191588E-1,-3.3384374E-1,-9.9012774E-1,6.2622204E-2,5.566624E-1,-3.9320377E-1,5.4290306E-2,-1.1895208E0,3.762761E-1,8.457485E-1,-3.7664944E-1,1.0078264E0,-2.1764569E-1,1.1976029E0,1.1341683E0,-5.072642E-2,-2.5642028E-2,5.9785326E-3,-6.866932E-2,-1.9155545E-2,7.514113E-3,-5.1137824E-2,2.0725198E-2,9.915555E-3,-8.126369E-3,2.9017428E-2,-5.987407E-2,-9.146063E-3,-3.423286E-2,8.352158E-3,-2.3003643E-2,-6.91387E-2,1.759098E-2,-2.8359253E-2,3.0423468E-2,4.332464E-2,-5.2010693E-2,-8.754297E-2,1.3116846E-2,-4.536903E-2,5.0717723E-2,-1.18218936E-1,5.353562E-2,4.45145E-2,5.9958797E-2,4.053144E-2,5.806286E-2],"categories":[],"categories_nodes":[],"categories_segments":[],"categories_sizes":[],"default_left":[0,0,0,0,0,0,0,0,0,0,0,0,0,0,0,0,0,0,0,0,0,0,0,0,0,0,0,0,0,0,0,0,0,0,0,0,0,0,0,0,0,0,0,0,0,0,0,0,0,0,0,0,0,0,0,0,0,0,0,0,0,0,0],"id":21,"left_children":[1,3,5,7,9,11,13,15,17,19,21,23,25,27,29,31,33,35,37,39,41,43,45,47,49,51,53,55,57,59,61,-1,-1,-1,-1,-1,-1,-1,-1,-1,-1,-1,-1,-1,-1,-1,-1,-1,-1,-1,-1,-1,-1,-1,-1,-1,-1,-1,-1,-1,-1,-1,-1],"loss_changes":[1.6641842E4,3.9890852E3,4.034287E2,9.0534814E2,5.2728455E2,2.7498853E2,4.5132812E1,2.2571289E2,9.114795E2,4.2358438E2,4.5735034E2,1.5030872E2,9.274713E1,3.3493286E1,5.970703E0,1.4170947E2,1.19723114E2,2.3865771E2,1.234751E2,1.957728E2,9.9600586E1,2.5294214E2,2.9650226E2,3.6615753E1,2.7559835E1,4.174817E1,5.8804234E1,2.0913086E1,6.694621E1,1.53125E0,2.3324951E1,0E0,0E0,0E0,0E0,0E0,0E0,0E0,0E0,0E0,0E0,0E0,0E0,0E0,0E0,0E0,0E0,0E0,0E0,0E0,0E0,0E0,0E0,0E0,0E0,0E0,0E0,0E0,0E0,0E0,0E0,0E0,0E0],"parents":[2147483647,0,0,1,1,2,2,3,3,4,4,5,5,6,6,7,7,8,8,9,9,10,10,11,11,12,12,13,13,14,14,15,15,16,16,17,17,18,18,19,19,20,20,21,21,22,22,23,23,24,24,25,25,26,26,27,27,28,28,29,29,30,30],"right_children":[2,4,6,8,10,12,14,16,18,20,22,24,26,28,30,32,34,36,38,40,42,44,46,48,50,52,54,56,58,60,62,-1,-1,-1,-1,-1,-1,-1,-1,-1,-1,-1,-1,-1,-1,-1,-1,-1,-1,-1,-1,-1,-1,-1,-1,-1,-1,-1,-1,-1,-1,-1,-1],"split_conditions":[1.8733087E-1,7.728554E-1,3.3372808E-1,3.9116092E-2,2.507506E-2,3.4717232E-2,7.185848E-1,7.391603E-2,3.8403008E-2,6.552081E-2,1.24926925E-1,3.3308566E-2,6.39849E-1,1.282443E0,5.783422E-1,5.8803737E-2,2.7426358E-2,1.0272003E-1,1.1757305E-1,3.426082E-1,3.966518E-1,4.689667E-2,2.1869612E-1,2.4691212E-1,1.6662534E-2,7.2878623E-1,6.304902E-1,7.728554E-1,1.0863798E0,2.0881939E-1,1.5379076E0,-5.072642E-2,-2.5642028E-2,5.9785326E-3,-6.866932E-2,-1.9155545E-2,7.514113E-3,-5.1137824E-2,2.0725198E-2,9.915555E-3,-8.126369E-3,2.9017428E-2,-5.987407E-2,-9.146063E-3,-3.423286E-2,8.352158E-3,-2.3003643E-2,-6.91387E-2,1.759098E-2,-2.8359253E-2,3.0423468E-2,4.332464E-2,-5.2010693E-2,-8.754297E-2,1.3116846E-2,-4.536903E-2,5.0717723E-2,-1.18218936E-1,5.353562E-2,4.45145E-2,5.9958797E-2,4.053144E-2,5.806286E-2],"split_indices":[11,16,11,0,10,12,11,8,10,11,14,8,12,12,10,12,10,8,8,1,8,10,12,14,10,8,14,16,14,0,11,0,0,0,0,0,0,0,0,0,0,0,0,0,0,0,0,0,0,0,0,0,0,0,0,0,0,0,0,0,0,0,0],"split_type":[0,0,0,0,0,0,0,0,0,0,0,0,0,0,0,0,0,0,0,0,0,0,0,0,0,0,0,0,0,0,0,0,0,0,0,0,0,0,0,0,0,0,0,0,0,0,0,0,0,0,0,0,0,0,0,0,0,0,0,0,0,0,0],"sum_hessian":[4.8688504E4,3.7573855E4,1.1114646E4,1.9549916E4,1.802394E4,1.3520331E3,9.762613E3,6.8634805E3,1.2686436E4,8.785616E3,9.238323E3,2.4352353E2,1.1085096E3,1.6203639E3,8.14225E3,6.5039424E3,3.5953766E2,1.0002567E4,2.6838687E3,6.406158E3,2.3794585E3,4.1281797E3,5.1101436E3,1.2029245E2,1.2323108E2,1.0430652E3,6.5444405E1,1.5980739E3,2.2290026E1,5.3745E3,2.7677498E3,5.8777334E3,6.2620935E2,2.9489566E2,6.4642006E1,9.078864E3,9.2370294E2,2.623205E3,6.066349E1,3.9972751E3,2.4088828E3,2.348417E3,3.10415E1,2.3989639E3,1.7292155E3,4.191915E3,9.182287E2,1.0698193E2,1.3310514E1,2.4053354E1,9.917773E1,1.0322517E3,1.0813482E1,2.0219692E1,4.5224712E1,4.959848E0,1.593114E3,8.046807E0,1.4243219E1,3.0258118E1,5.3442417E3,2.1622029E2,2.5515295E3],"tree_param":{"num_deleted":"0","num_feature":"18","num_nodes":"63","size_leaf_vector":"1"}},{"base_weights":[3.0486414E-3,-3.024562E-1,1.0571806E0,-7.118614E-1,-6.039058E-2,6.3293046E-1,1.1437541E0,-7.8877E-1,-1.2848195E-1,-2.7754685E-1,7.817291E-2,-1.0586974E-1,7.7606785E-1,9.214501E-1,1.155456E0,-1.1419942E0,-7.1137893E-1,-2.8230128E-1,5.431208E-1,-1.785431E-1,-8.42286E-1,2.5668857E-1,-8.240978E-2,5.612263E-1,-1.043317E0,8.39208E-1,-1.6173534E-1,8.1727254E-1,1.13754E0,1.0813597E0,1.16782E0,-5.928546E-2,-4.2368237E-2,-2.457858E-2,-4.5698825E-2,-8.648981E-3,-4.183424E-2,-7.550897E-2,2.919032E-2,-1.02117695E-2,3.0700196E-2,-4.7463667E-2,4.241887E-2,4.574242E-3,2.4706595E-2,-5.7909894E-3,6.573552E-2,-5.3198706E-2,3.3185434E-2,-6.2970705E-2,2.8357986E-2,4.2933878E-2,-4.383366E-2,-7.2444044E-2,2.4188433E-2,5.0207354E-2,2.5597429E-2,5.7531364E-2,-3.314328E-3,5.473862E-2,-9.3705006E-2,5.9318192E-2,5.6179453E-2],"categories":[],"categories_nodes":[],"categories_segments":[],"categories_sizes":[],"default_left":[0,0,0,0,0,0,0,0,0,0,0,0,0,0,0,0,0,0,0,0,0,0,0,0,0,0,0,0,0,0,0,0,0,0,0,0,0,0,0,0,0,0,0,0,0,0,0,0,0,0,0,0,0,0,0,0,0,0,0,0,0,0,0],"id":22,"left_children":[1,3,5,7,9,11,13,15,17,19,21,23,25,27,29,31,33,35,37,39,41,43,45,47,49,51,53,55,57,59,61,-1,-1,-1,-1,-1,-1,-1,-1,-1,-1,-1,-1,-1,-1,-1,-1,-1,-1,-1,-1,-1,-1,-1,-1,-1,-1,-1,-1,-1,-1,-1,-1],"loss_changes":[1.5457494E4,3.6879038E3,3.9539746E2,6.202803E2,7.0373865E2,1.936117E2,2.2234375E1,3.331411E2,1.6665569E2,5.092129E2,4.093195E2,1.8688101E2,9.0919495E1,9.263489E0,6.5283203E0,2.7252197E1,4.4592188E2,7.9373665E1,2.600161E1,1.5798645E2,2.465495E2,2.6519138E2,3.5104138E2,2.9802479E1,4.393901E1,4.8746338E1,8.175258E1,1.7120026E1,2.3565216E0,5.079419E1,4.6347656E0,0E0,0E0,0E0,0E0,0E0,0E0,0E0,0E0,0E0,0E0,0E0,0E0,0E0,0E0,0E0,0E0,0E0,0E0,0E0,0E0,0E0,0E0,0E0,0E0,0E0,0E0,0E0,0E0,0E0,0E0,0E0,0E0],"parents":[2147483647,0,0,1,1,2,2,3,3,4,4,5,5,6,6,7,7,8,8,9,9,10,10,11,11,12,12,13,13,14,14,15,15,16,16,17,17,18,18,19,19,20,20,21,21,22,22,23,23,24,24,25,25,26,26,27,27,28,28,29,29,30,30],"right_children":[2,4,6,8,10,12,14,16,18,20,22,24,26,28,30,32,34,36,38,40,42,44,46,48,50,52,54,56,58,60,62,-1,-1,-1,-1,-1,-1,-1,-1,-1,-1,-1,-1,-1,-1,-1,-1,-1,-1,-1,-1,-1,-1,-1,-1,-1,-1,-1,-1,-1,-1,-1,-1],"split_conditions":[1.8733087E-1,7.492185E-2,4.2937267E-1,6.698714E-2,7.9964983E-1,3.1842306E-2,6.4417434E-1,1.7868552E-1,1.2465776E-1,3.8403008E-2,2.5303517E-2,2.5973469E-2,6.39849E-1,2.4473712E-1,8.932835E-1,7.024152E-10,2.1802053E-2,4.294874E-2,3.2087937E-9,9.491868E-2,1.2465776E-1,5.616066E-2,3.0068153E-1,7.6987356E-1,2.8511915E-1,7.2878623E-1,2.8904438E-1,2.2186463E-1,6.5101033E-1,2.2026558E0,8.7634134E-1,-5.928546E-2,-4.2368237E-2,-2.457858E-2,-4.5698825E-2,-8.648981E-3,-4.183424E-2,-7.550897E-2,2.919032E-2,-1.02117695E-2,3.0700196E-2,-4.7463667E-2,4.241887E-2,4.574242E-3,2.4706595E-2,-5.7909894E-3,6.573552E-2,-5.3198706E-2,3.3185434E-2,-6.2970705E-2,2.8357986E-2,4.2933878E-2,-4.383366E-2,-7.2444044E-2,2.4188433E-2,5.0207354E-2,2.5597429E-2,5.7531364E-2,-3.314328E-3,5.473862E-2,-9.3705006E-2,5.9318192E-2,5.6179453E-2],"split_indices":[11,14,11,8,16,12,4,16,8,10,10,12,12,7,11,17,10,10,17,11,8,11,10,16,14,8,7,9,9,12,10,0,0,0,0,0,0,0,0,0,0,0,0,0,0,0,0,0,0,0,0,0,0,0,0,0,0,0,0,0,0,0,0],"split_type":[0,0,0,0,0,0,0,0,0,0,0,0,0,0,0,0,0,0,0,0,0,0,0,0,0,0,0,0,0,0,0,0,0,0,0,0,0,0,0,0,0,0,0,0,0,0,0,0,0,0,0,0,0,0,0,0,0,0,0,0,0,0,0],"sum_hessian":[4.7996324E4,3.7212297E4,1.0784025E4,1.3826173E4,2.3386125E4,1.8290675E3,8.954958E3,1.2215426E4,1.6107476E3,9.109205E3,1.4276921E4,2.9689767E2,1.5321698E3,4.517937E2,8.503164E3,2.1929094E3,1.0022517E4,1.3110526E3,2.996949E2,7.7515977E3,1.357607E3,6.7606646E3,7.516256E3,1.736956E2,1.2320207E2,1.4356179E3,9.655182E1,3.080595E2,1.4373419E2,1.2286222E3,7.274542E3,1.9069467E3,2.8596283E2,4.808731E3,5.2137856E3,1.0961996E3,2.1485306E2,5.1212206E0,2.9457367E2,7.5089204E3,2.4267706E2,1.2772214E3,8.038565E1,3.9876206E3,2.773044E3,7.3416094E3,1.746464E2,9.746718E0,1.6394888E2,1.0881856E2,1.4383515E1,1.4200052E3,1.56126995E1,3.1832573E1,6.4719246E1,1.896778E2,1.1838171E2,1.4223213E2,1.502065E0,1.2236984E3,4.923843E0,5.107429E3,2.1671125E3],"tree_param":{"num_deleted":"0","num_feature":"18","num_nodes":"63","size_leaf_vector":"1"}},{"base_weights":[2.897125E-3,-2.9009664E-1,1.0393345E0,-6.908619E-1,-4.6104047E-2,6.0132957E-1,1.1285189E0,-7.615122E-1,-8.510353E-2,-2.1031676E-1,2.966892E-1,-2.5608484E-3,7.897598E-1,1.0141579E0,1.1549164E0,-1.1250113E0,-6.832759E-1,-2.5071952E-1,7.5072205E-1,-3.9956844E-1,-6.974337E-2,3.363838E-1,-8.685609E-1,-8.3675206E-1,5.3323406E-1,8.559266E-1,-2.2989556E-1,1.0232615E0,-1.6435763E0,1.1614159E0,1.0750169E0,4.0423557E-2,-5.6599062E-2,-3.7513774E-2,-2.1100445E-2,-4.127157E-2,-9.325053E-3,4.1018043E-2,-9.069147E-2,-3.7314024E-2,-1.4675016E-2,2.2343348E-3,-1.9657735E-2,1.0241388E-2,3.0754868E-2,-7.119825E-2,1.0049607E-2,-5.328079E-2,3.8995422E-2,3.03995E-2,-8.722117E-2,3.266879E-2,5.628273E-2,-4.602635E-2,5.0517946E-2,4.39281E-2,5.7680774E-2,-1.262084E-1,3.7043907E-2,5.6643296E-2,5.8747333E-2,2.7126202E-2,5.4122556E-2],"categories":[],"categories_nodes":[],"categories_segments":[],"categories_sizes":[],"default_left":[0,0,0,0,0,0,0,0,0,0,0,0,0,0,0,0,0,0,0,0,0,0,0,0,0,0,0,0,0,0,0,0,0,0,0,0,0,0,0,0,0,0,0,0,0,0,0,0,0,0,0,0,0,0,0,0,0,0,0,0,0,0,0],"id":23,"left_children":[1,3,5,7,9,11,13,15,17,19,21,23,25,27,29,31,33,35,37,39,41,43,45,47,49,51,53,55,57,59,61,-1,-1,-1,-1,-1,-1,-1,-1,-1,-1,-1,-1,-1,-1,-1,-1,-1,-1,-1,-1,-1,-1,-1,-1,-1,-1,-1,-1,-1,-1,-1,-1],"loss_changes":[1.4389515E4,3.6123093E3,4.0726953E2,5.9822754E2,1.2926941E3,2.0127924E2,2.5018555E1,3.5527002E2,2.0247026E2,4.1303308E2,3.443282E2,1.889098E2,9.115399E1,4.1244873E1,2.4091797E0,3.0775635E1,1.8006445E2,4.488688E1,4.469246E1,2.4313074E2,3.297653E2,2.636396E2,1.4600769E2,6.1990776E1,4.4881226E1,6.844299E1,7.19744E1,2.9735474E1,1.4396223E1,1.1796875E0,1.5628662E0,0E0,0E0,0E0,0E0,0E0,0E0,0E0,0E0,0E0,0E0,0E0,0E0,0E0,0E0,0E0,0E0,0E0,0E0,0E0,0E0,0E0,0E0,0E0,0E0,0E0,0E0,0E0,0E0,0E0,0E0,0E0,0E0],"parents":[2147483647,0,0,1,1,2,2,3,3,4,4,5,5,6,6,7,7,8,8,9,9,10,10,11,11,12,12,13,13,14,14,15,15,16,16,17,17,18,18,19,19,20,20,21,21,22,22,23,23,24,24,25,25,26,26,27,27,28,28,29,29,30,30],"right_children":[2,4,6,8,10,12,14,16,18,20,22,24,26,28,30,32,34,36,38,40,42,44,46,48,50,52,54,56,58,60,62,-1,-1,-1,-1,-1,-1,-1,-1,-1,-1,-1,-1,-1,-1,-1,-1,-1,-1,-1,-1,-1,-1,-1,-1,-1,-1,-1,-1,-1,-1,-1,-1],"split_conditions":[1.8733087E-1,7.6325215E-2,4.2937267E-1,6.984542E-2,1.0909015E-1,7.5295955E-2,8.932835E-1,1.891854E-1,1.4348546E-1,5.1233515E-2,3.966518E-1,3.0259661E-2,6.39849E-1,2.2026558E0,3.7756195E0,5.7789683E-4,5.7197765E-2,6.058461E-3,6.9286644E-2,1.17112175E-1,3.0322962E-3,1.9972086E-1,6.1629677E-1,1.275078E-1,5.483577E-1,3.6568052E-1,8.0759805E-1,3.6568052E-1,1.4963872E0,2.4473712E-1,3.668833E0,4.0423557E-2,-5.6599062E-2,-3.7513774E-2,-2.1100445E-2,-4.127157E-2,-9.325053E-3,4.1018043E-2,-9.069147E-2,-3.7314024E-2,-1.4675016E-2,2.2343348E-3,-1.9657735E-2,1.0241388E-2,3.0754868E-2,-7.119825E-2,1.0049607E-2,-5.328079E-2,3.8995422E-2,3.03995E-2,-8.722117E-2,3.266879E-2,5.628273E-2,-4.602635E-2,5.0517946E-2,4.39281E-2,5.7680774E-2,-1.262084E-1,3.7043907E-2,5.6643296E-2,5.8747333E-2,2.7126202E-2,5.4122556E-2],"split_indices":[11,14,11,8,6,6,11,16,8,8,8,8,12,12,14,6,6,6,12,4,15,6,6,12,12,6,6,6,0,7,11,0,0,0,0,0,0,0,0,0,0,0,0,0,0,0,0,0,0,0,0,0,0,0,0,0,0,0,0,0,0,0,0],"split_type":[0,0,0,0,0,0,0,0,0,0,0,0,0,0,0,0,0,0,0,0,0,0,0,0,0,0,0,0,0,0,0,0,0,0,0,0,0,0,0,0,0,0,0,0,0,0,0,0,0,0,0,0,0,0,0,0,0,0,0,0,0,0,0],"sum_hessian":[4.7383426E4,3.694114E4,1.0442287E4,1.3978763E4,2.2962377E4,1.7678287E3,8.674459E3,1.2518462E4,1.4603003E3,1.5525419E4,7.436957E3,4.206609E2,1.3471678E3,1.6341729E3,7.0402856E3,2.214792E3,1.030367E4,1.2193837E3,2.4091666E2,6.6162397E3,8.90918E3,7.192649E3,2.4430832E2,1.6429875E2,2.5636215E2,1.2652262E3,8.194159E1,1.6292073E3,4.9655857E0,6.4981514E3,5.421346E2,7.5423293E0,2.2072498E3,8.19919E3,2.10448E3,1.2136801E2,1.0980156E3,2.352098E2,5.706862E0,1.5485042E3,5.067736E3,6.5813975E3,2.327782E3,4.887451E3,2.305198E3,1.6058658E2,8.372173E1,1.4422263E2,2.0076128E1,2.4892514E2,7.4370084E0,7.245509E2,5.406753E2,5.279864E1,2.9142948E1,7.7578564E2,8.5342163E2,3.5835633E0,1.3820223E0,2.1166775E3,4.3814736E3,8.483203E0,5.3365137E2],"tree_param":{"num_deleted":"0","num_feature":"18",