{"learner":{"attributes":{"scikit_learn":"{\"_estimator_type\": \"classifier\"}"},"feature_names":["residual_mean","residual_max","residual_std","residual_min","residual_range","residual_score","CO_residual","CNG_residual","LPG_residual","Smoke_residual","Flame_residual","top1_residual","top2_residual","risk_tcn","iso_score","ae_score","drift_score","drift_flag"],"feature_types":["float","float","float","float","float","float","float","float","float","float","float","float","float","float","float","float","float","int"],"gradient_booster":{"model":{"cats":{"enc":[],"feature_segments":[],"sorted_idx":[]},"gbtree_model_param":{"num_parallel_tree":"1","num_trees":"200"},"iteration_indptr":[0,1,2,3,4,5,6,7,8,9,10,11,12,13,14,15,16,17,18,19,20,21,22,23,24,25,26,27,28,29,30,31,32,33,34,35,36,37,38,39,40,41,42,43,44,45,46,47,48,49,50,51,52,53,54,55,56,57,58,59,60,61,62,63,64,65,66,67,68,69,70,71,72,73,74,75,76,77,78,79,80,81,82,83,84,85,86,87,88,89,90,91,92,93,94,95,96,97,98,99,100,101,102,103,104,105,106,107,108,109,110,111,112,113,114,115,116,117,118,119,120,121,122,123,124,125,126,127,128,129,130,131,132,133,134,135,136,137,138,139,140,141,142,143,144,145,146,147,148,149,150,151,152,153,154,155,156,157,158,159,160,161,162,163,164,165,166,167,168,169,170,171,172,173,174,175,176,177,178,179,180,181,182,183,184,185,186,187,188,189,190,191,192,193,194,195,196,197,198,199,200],"tree_info":[0,0,0,0,0,0,0,0,0,0,0,0,0,0,0,0,0,0,0,0,0,0,0,0,0,0,0,0,0,0,0,0,0,0,0,0,0,0,0,0,0,0,0,0,0,0,0,0,0,0,0,0,0,0,0,0,0,0,0,0,0,0,0,0,0,0,0,0,0,0,0,0,0,0,0,0,0,0,0,0,0,0,0,0,0,0,0,0,0,0,0,0,0,0,0,0,0,0,0,0,0,0,0,0,0,0,0,0,0,0,0,0,0,0,0,0,0,0,0,0,0,0,0,0,0,0,0,0,0,0,0,0,0,0,0,0,0,0,0,0,0,0,0,0,0,0,0,0,0,0,0,0,0,0,0,0,0,0,0,0,0,0,0,0,0,0,0,0,0,0,0,0,0,0,0,0,0,0,0,0,0,0,0,0,0,0,0,0,0,0,0,0,0,0,0,0,0,0,0,0],"trees":[{"base_weights":[-2.5699643E-2,-8.066324E-1,1.8127648E0,-1.426776E0,3.2950062E-1,8.125786E-1,9.921237E-2,-1.6698245E0,-7.267953E-1,-1.0847121E0,6.8659484E-1,1.1838894E0,-7.333334E-2,-2.8360529E-2,-8.88392E-2,-1.3456139E-2,-9.411765E-2,-9.3650796E-2,7.920406E-3,5.7594474E-2,-3.440729E-2,-5.555556E-2,6.935728E-2],"categories":[],"categories_nodes":[],"categories_segments":[],"categories_sizes":[],"default_left":[0,0,0,0,0,0,0,0,0,0,0,0,0,0,0,0,0,0,0,0,0,0,0],"id":0,"left_children":[1,3,5,7,9,11,-1,13,15,17,19,21,-1,-1,-1,-1,-1,-1,-1,-1,-1,-1,-1],"loss_changes":[7.201359E2,2.4849368E2,2.4036743E1,3.756067E1,6.392737E1,2.1692745E1,0E0,1.885254E1,3.149547E1,2.5393545E1,6.50798E1,1.1258152E1,0E0,0E0,0E0,0E0,0E0,0E0,0E0,0E0,0E0,0E0,0E0],"parents":[2147483647,0,0,1,1,2,2,3,3,4,4,5,5,7,7,8,8,9,9,10,10,11,11],"right_children":[2,4,6,8,10,12,-1,14,16,18,20,22,-1,-1,-1,-1,-1,-1,-1,-1,-1,-1,-1],"split_conditions":[1.706238E0,2.0465231E-1,6.706746E-1,5.4573125E-1,6.3128996E-1,4.0169218E-1,9.921237E-2,5.7901263E-2,9.2861885E-1,1.7860413E-1,7.6202667E-1,1.6992482E0,-7.333334E-2,-2.8360529E-2,-8.88392E-2,-1.3456139E-2,-9.411765E-2,-9.3650796E-2,7.920406E-3,5.7594474E-2,-3.440729E-2,-5.555556E-2,6.935728E-2],"split_indices":[10,3,14,0,12,8,0,10,9,14,10,4,0,0,0,0,0,0,0,0,0,0,0],"split_type":[0,0,0,0,0,0,0,0,0,0,0,0,0,0,0,0,0,0,0,0,0,0,0],"sum_hessian":[4.9956778E2,3.5102332E2,1.485445E2,2.2691101E2,1.2411229E2,2.258051E1,1.2596398E2,1.6740042E2,5.9510593E1,2.4610168E1,9.950212E1,1.983051E1,2.75E0,1.5360169E1,1.5204025E2,4.3510593E1,1.6E1,1.475E1,9.860169E0,7.446186E1,2.5040255E1,1.25E0,1.858051E1],"tree_param":{"num_deleted":"0","num_feature":"18","num_nodes":"23","size_leaf_vector":"1"}},{"base_weights":[6.0776018E-2,-1.1958874E0,1.2307122E0,-1.635078E0,-4.276767E-1,4.2852792E-1,9.4043605E-2,-9.4982356E-2,-1.1484058E0,1.0345567E0,-7.809928E-1,7.9494345E-1,-7.857472E-1,-2.206933E-3,-8.0501236E-2,7.0508756E-2,-6.659376E-2,2.5559513E-2,-5.8738302E-2,6.130569E-2,5.3221804E-5,-6.978818E-2,5.2794516E-2],"categories":[],"categories_nodes":[],"categories_segments":[],"categories_sizes":[],"default_left":[0,0,0,0,0,0,0,0,0,0,0,0,0,0,0,0,0,0,0,0,0,0,0],"id":1,"left_children":[1,3,5,7,9,11,-1,-1,13,15,17,19,21,-1,-1,-1,-1,-1,-1,-1,-1,-1,-1],"loss_changes":[7.5139166E2,8.2443756E1,1.3721921E2,1.796103E1,4.7817528E1,5.3912376E1,0E0,0E0,2.9301765E1,1.8000443E1,3.8179825E1,3.1661541E1,3.3228302E1,0E0,0E0,0E0,0E0,0E0,0E0,0E0,0E0,0E0,0E0],"parents":[2147483647,0,0,1,1,2,2,3,3,4,4,5,5,8,8,9,9,10,10,11,11,12,12],"right_children":[2,4,6,8,10,12,-1,-1,14,16,18,20,22,-1,-1,-1,-1,-1,-1,-1,-1,-1,-1],"split_conditions":[6.107464E-1,5.0373614E-1,2.036218E0,3.5160613E-1,4.888138E-1,4.960266E-2,9.4043605E-2,-9.4982356E-2,5.876224E-1,3.6385933E-1,1.0041672E-1,7.6202667E-1,1.5592408E0,-2.206933E-3,-8.0501236E-2,7.0508756E-2,-6.659376E-2,2.5559513E-2,-5.8738302E-2,6.130569E-2,5.3221804E-5,-6.978818E-2,5.2794516E-2],"split_indices":[0,0,10,7,4,16,0,0,1,3,7,10,10,0,0,0,0,0,0,0,0,0,0],"split_type":[0,0,0,0,0,0,0,0,0,0,0,0,0,0,0,0,0,0,0,0,0,0,0],"sum_hessian":[5.0907462E2,2.454294E2,2.6364523E2,1.5543683E2,8.999257E1,1.1876679E2,1.4487845E2,9.881486E1,5.6621967E1,1.713783E1,7.285474E1,9.150107E1,2.7265718E1,1.7014986E1,3.960698E1,1.5138951E1,1.9988785E0,1.6946365E1,5.590837E1,5.894338E1,3.2557693E1,2.0663376E1,6.602344E0],"tree_param":{"num_deleted":"0","num_feature":"18","num_nodes":"23","size_leaf_vector":"1"}},{"base_weights":[-4.994838E-2,-1.1023378E0,1.0404687E0,-1.6169806E0,-3.4655142E-1,3.3894625E-1,1.7763425E0,-3.1061152E-1,-1.6792113E0,2.7495998E-1,-1.0279628E0,8.621517E-1,-4.413164E-1,1.063818E0,9.038331E-2,-7.384616E-2,6.222079E-2,-9.147198E-2,-5.1278185E-2,-5.7198256E-2,4.4278655E-2,-6.9291346E-2,7.30203E-2,5.4374915E-2,-8.291488E-2,-7.212207E-2,2.9049097E-2,6.7215234E-2,3.0757442E-2],"categories":[],"categories_nodes":[],"categories_segments":[],"categories_sizes":[],"default_left":[0,0,0,0,0,0,0,0,0,0,0,0,0,0,0,0,0,0,0,0,0,0,0,0,0,0,0,0,0],"id":2,"left_children":[1,3,5,7,9,11,13,15,17,19,21,23,25,27,-1,-1,-1,-1,-1,-1,-1,-1,-1,-1,-1,-1,-1,-1,-1],"loss_changes":[5.573197E2,9.5558624E1,1.2254288E2,1.1407745E1,4.3217026E1,5.074031E1,6.701355E-1,1.6164337E1,1.185556E1,4.7633675E1,4.527537E1,4.393688E1,5.219175E1,9.459686E-2,0E0,0E0,0E0,0E0,0E0,0E0,0E0,0E0,0E0,0E0,0E0,0E0,0E0,0E0,0E0],"parents":[2147483647,0,0,1,1,2,2,3,3,4,4,5,5,6,6,7,7,8,8,9,9,10,10,11,11,12,12,13,13],"right_children":[2,4,6,8,10,12,14,16,18,20,22,24,26,28,-1,-1,-1,-1,-1,-1,-1,-1,-1,-1,-1,-1,-1,-1,-1],"split_conditions":[6.050828E-1,4.902014E-1,2.036218E0,2.2717407E-3,6.0787773E-1,7.6202667E-1,6.706746E-1,2.4636686E-1,6.0643937E-2,3.65921E-1,4.2638668E-1,1.3277245E0,4.4766617E-1,6.4185804E-1,9.038331E-2,-7.384616E-2,6.222079E-2,-9.147198E-2,-5.1278185E-2,-5.7198256E-2,4.4278655E-2,-6.9291346E-2,7.30203E-2,5.4374915E-2,-8.291488E-2,-7.212207E-2,2.9049097E-2,6.7215234E-2,3.0757442E-2],"split_indices":[0,0,10,15,10,10,14,3,15,7,14,9,14,0,0,0,0,0,0,0,0,0,0,0,0,0,0,0,0],"split_type":[0,0,0,0,0,0,0,0,0,0,0,0,0,0,0,0,0,0,0,0,0,0,0,0,0,0,0,0,0],"sum_hessian":[4.836638E2,2.4611803E2,2.3754576E2,1.4573932E2,1.003787E2,1.223591E2,1.1518665E2,6.899241E0,1.3884009E2,5.2808685E1,4.7570015E1,7.318196E1,4.9177143E1,6.3228073E0,1.08863846E2,3.9710643E0,2.9281769E0,1.1143099E2,2.740909E1,1.5625389E1,3.7183296E1,4.1976284E1,5.593731E0,6.769781E1,5.484149E0,2.463823E1,2.4538914E1,2.6622746E0,3.660533E0],"tree_param":{"num_deleted":"0","num_feature":"18","num_nodes":"29","size_leaf_vector":"1"}},{"base_weights":[-6.538257E-2,-1.166592E0,1.1268799E0,-1.5760518E0,-5.9219784E-1,4.1148967E-1,1.6901082E0,-8.8587135E-2,-4.9180648E-1,9.370363E-1,-9.143612E-1,-8.232835E-2,5.5173254E-1,3.2848123E-2,8.5729025E-2,-5.5644352E-2,3.0670613E-2,-6.716389E-2,6.961487E-2,-5.746159E-2,2.2019006E-2,3.224024E-2,-7.786085E-2],"categories":[],"categories_nodes":[],"categories_segments":[],"categories_sizes":[],"default_left":[0,0,0,0,0,0,0,0,0,0,0,0,0,0,0,0,0,0,0,0,0,0,0],"id":3,"left_children":[1,3,5,7,9,11,13,-1,15,17,19,-1,21,-1,-1,-1,-1,-1,-1,-1,-1,-1,-1],"loss_changes":[6.459E2,5.92081E1,9.449176E1,3.067691E1,5.40764E1,3.132535E1,2.2073364E0,0E0,1.7237545E1,2.1897264E1,2.9058151E1,0E0,2.0516842E1,0E0,0E0,0E0,0E0,0E0,0E0,0E0,0E0,0E0,0E0],"parents":[2147483647,0,0,1,1,2,2,3,3,4,4,5,5,6,6,8,8,9,9,10,10,12,12],"right_children":[2,4,6,8,10,12,14,-1,16,18,20,-1,22,-1,-1,-1,-1,-1,-1,-1,-1,-1,-1],"split_conditions":[6.274644E-1,3.7231886E-1,1.8723055E0,1.2579437E0,5.9308135E-3,4.312998E-2,2.0257876E0,-8.8587135E-2,6.546616E-1,1.0813475E-1,8.4992266E-1,-8.232835E-2,7.076207E-1,3.2848123E-2,8.5729025E-2,-5.5644352E-2,3.0670613E-2,-6.716389E-2,6.961487E-2,-5.746159E-2,2.2019006E-2,3.224024E-2,-7.786085E-2],"split_indices":[0,7,10,1,16,3,1,0,6,6,6,0,14,0,0,0,0,0,0,0,0,0,0],"split_type":[0,0,0,0,0,0,0,0,0,0,0,0,0,0,0,0,0,0,0,0,0,0,0],"sum_hessian":[4.8995163E2,2.5471278E2,2.3523885E2,1.4768845E2,1.0702434E2,1.0438445E2,1.308544E2,1.2457107E2,2.3117376E1,1.8291288E1,8.873305E1,5.974097E0,9.8410355E1,3.6721454E0,1.2718225E2,1.4795864E1,8.321512E0,2.719463E0,1.5571824E1,7.5751724E1,1.2981327E1,9.491578E1,3.4945767E0],"tree_param":{"num_deleted":"0","num_feature":"18","num_nodes":"23","size_leaf_vector":"1"}},{"base_weights":[8.094905E-2,-9.7322744E-1,1.0898596E0,-1.3683089E0,-3.550587E-1,4.0049222E-1,1.6205268E0,-8.437403E-2,-7.888734E-1,1.4629515E-1,-1.2014381E0,-8.5652314E-2,5.802571E-1,7.251291E-1,8.312633E-2,2.3649631E-2,-7.0450775E-2,2.5916804E-2,-8.342772E-2,-7.265287E-2,4.8337646E-2,3.807996E-2,-2.6371075E-2,6.0613085E-2,-5.665608E-2],"categories":[],"categories_nodes":[],"categories_segments":[],"categories_sizes":[],"default_left":[0,0,0,0,0,0,0,0,0,0,0,0,0,0,0,0,0,0,0,0,0,0,0,0,0],"id":4,"left_children":[1,3,5,7,9,11,13,-1,15,17,19,-1,21,23,-1,-1,-1,-1,-1,-1,-1,-1,-1,-1,-1],"loss_changes":[5.4101776E2,6.0277985E1,9.442261E1,2.6675873E1,4.191405E1,4.444668E1,4.304413E0,0E0,4.4227707E1,4.3174603E1,2.142609E1,0E0,2.1723747E1,8.92144E0,0E0,0E0,0E0,0E0,0E0,0E0,0E0,0E0,0E0,0E0,0E0],"parents":[2147483647,0,0,1,1,2,2,3,3,4,4,5,5,6,6,8,8,9,9,10,10,12,12,13,13],"right_children":[2,4,6,8,10,12,14,-1,16,18,20,-1,22,24,-1,-1,-1,-1,-1,-1,-1,-1,-1,-1,-1],"split_conditions":[6.050828E-1,4.902014E-1,1.8215337E0,3.5160613E-1,7.1347547E-1,1.7046934E-1,2.0257876E0,-8.437403E-2,5.876224E-1,6.834705E-2,1.3188007E0,-8.5652314E-2,1.63782E0,1.9616301E0,8.312633E-2,2.3649631E-2,-7.0450775E-2,2.5916804E-2,-8.342772E-2,-7.265287E-2,4.8337646E-2,3.807996E-2,-2.6371075E-2,6.0613085E-2,-5.665608E-2],"split_indices":[0,0,10,7,12,7,1,0,1,15,4,0,1,1,0,0,0,0,0,0,0,0,0,0,0],"split_type":[0,0,0,0,0,0,0,0,0,0,0,0,0,0,0,0,0,0,0,0,0,0,0,0,0],"sum_hessian":[5.0668365E2,2.478006E2,2.5888306E2,1.5043909E2,9.7361496E1,1.13367195E2,1.4551587E2,9.577232E1,5.4666767E1,6.1662685E1,3.5698814E1,8.217909E0,1.0514929E2,7.338136E0,1.3817773E2,1.809148E1,3.6575287E1,5.1765285E1,9.897399E0,3.2282276E1,3.4165375E0,9.062516E1,1.4524129E1,6.0894465E0,1.2486897E0],"tree_param":{"num_deleted":"0","num_feature":"18","num_nodes":"25","size_leaf_vector":"1"}},{"base_weights":[3.8629375E-2,-1.0053775E0,1.004906E0,-1.3831834E0,-4.1791585E-1,3.221531E-1,1.5717627E0,-1.351622E-1,-1.5025022E0,1.4544336E-1,-1.2286056E0,7.0377743E-1,-1.0656296E0,2.3796792E-1,8.0605894E-2,6.402052E-2,-7.303301E-2,1.5089874E-2,-7.874643E-2,3.9940618E-2,-5.8829155E-2,1.0975811E-2,-8.529891E-2,5.597682E-2,-1.1020601E-2,-8.936288E-2,2.9971818E-3,5.5698752E-2,-6.1387576E-2],"categories":[],"categories_nodes":[],"categories_segments":[],"categories_sizes":[],"default_left":[0,0,0,0,0,0,0,0,0,0,0,0,0,0,0,0,0,0,0,0,0,0,0,0,0,0,0,0,0],"id":5,"left_children":[1,3,5,7,9,11,13,15,17,19,21,23,25,27,-1,-1,-1,-1,-1,-1,-1,-1,-1,-1,-1,-1,-1,-1,-1],"loss_changes":[5.129143E2,5.3667633E1,1.0167929E2,2.1882782E1,4.4522743E1,6.484827E1,7.36734E0,2.8216436E1,1.8152618E1,5.1194103E1,2.7967178E1,3.6952343E1,2.1632582E1,8.303881E0,0E0,0E0,0E0,0E0,0E0,0E0,0E0,0E0,0E0,0E0,0E0,0E0,0E0,0E0,0E0],"parents":[2147483647,0,0,1,1,2,2,3,3,4,4,5,5,6,6,7,7,8,8,9,9,10,10,11,11,12,12,13,13],"right_children":[2,4,6,8,10,12,14,16,18,20,22,24,26,28,-1,-1,-1,-1,-1,-1,-1,-1,-1,-1,-1,-1,-1,-1,-1],"split_conditions":[6.050828E-1,4.902014E-1,1.8215337E0,5.5174986E-3,6.3979113E-1,9.181459E-1,5.8216333E-1,1.5864672E-1,8.643903E-3,1.0055112E0,9.597552E-2,1.2688988E0,6.5550005E-1,4.580736E-2,8.0605894E-2,6.402052E-2,-7.303301E-2,1.5089874E-2,-7.874643E-2,3.9940618E-2,-5.8829155E-2,1.0975811E-2,-8.529891E-2,5.597682E-2,-1.1020601E-2,-8.936288E-2,2.9971818E-3,5.5698752E-2,-6.1387576E-2],"split_indices":[0,0,10,16,10,10,14,10,6,1,7,1,7,7,0,0,0,0,0,0,0,0,0,0,0,0,0,0,0],"split_type":[0,0,0,0,0,0,0,0,0,0,0,0,0,0,0,0,0,0,0,0,0,0,0,0,0,0,0,0,0],"sum_hessian":[5.064388E2,2.434089E2,2.630299E2,1.4731427E2,9.609463E1,1.2002889E2,1.4300102E2,1.3041277E1,1.34273E2,5.718004E1,3.8914585E1,9.452773E1,2.5501167E1,4.4021034E0,1.385989E2,6.322812E0,6.7184653E0,5.059627E0,1.2921336E2,3.8532406E1,1.8647633E1,9.781703E0,2.9132885E1,6.5051895E1,2.9475836E1,1.5180667E1,1.0320499E1,2.9055452E0,1.496558E0],"tree_param":{"num_deleted":"0","num_feature":"18","num_nodes":"29","size_leaf_vector":"1"}},{"base_weights":[1.9057551E-2,-6.2408835E-1,1.4905945E0,-9.9998015E-1,3.851684E-1,1.5252172E0,-5.6830585E-2,-1.2385526E0,-3.9750386E-2,5.4925084E-1,-8.224647E-2,4.1653454E-1,1.5547774E0,-7.653629E-2,-3.9245192E-2,1.1616637E-2,-8.125494E-2,-2.6652012E-2,4.1103035E-2,6.767765E-2,-5.6584645E-2,7.8906864E-2,2.4402527E-2],"categories":[],"categories_nodes":[],"categories_segments":[],"categories_sizes":[],"default_left":[0,0,0,0,0,0,0,0,0,0,0,0,0,0,0,0,0,0,0,0,0,0,0],"id":6,"left_children":[1,3,5,7,9,11,-1,13,15,17,-1,19,21,-1,-1,-1,-1,-1,-1,-1,-1,-1,-1],"loss_changes":[4.5837125E2,1.2825089E2,1.5131775E1,5.627324E1,3.1611336E1,4.13089E0,0E0,2.489618E1,2.1928211E1,2.584323E1,0E0,9.006681E0,2.759613E0,0E0,0E0,0E0,0E0,0E0,0E0,0E0,0E0,0E0,0E0],"parents":[2147483647,0,0,1,1,2,2,3,3,4,4,5,5,7,7,8,8,9,9,11,11,12,12],"right_children":[2,4,6,8,10,12,-1,14,16,18,-1,20,22,-1,-1,-1,-1,-1,-1,-1,-1,-1,-1],"split_conditions":[6.345905E-1,2.4636686E-1,2.165985E0,6.107464E-1,1.2253272E-1,1.8961478E0,-5.6830585E-2,3.5160613E-1,1.63782E0,6.3128996E-1,-8.224647E-2,5.1436865E-1,1.3277245E0,-7.653629E-2,-3.9245192E-2,1.1616637E-2,-8.125494E-2,-2.6652012E-2,4.1103035E-2,6.767765E-2,-5.6584645E-2,7.8906864E-2,2.4402527E-2],"split_indices":[2,3,6,0,15,1,0,7,1,12,0,0,9,0,0,0,0,0,0,0,0,0,0],"split_type":[0,0,0,0,0,0,0,0,0,0,0,0,0,0,0,0,0,0,0,0,0,0,0],"sum_hessian":[4.8234186E2,3.360463E2,1.4629558E2,2.4485912E2,9.118717E1,1.4480669E2,1.4888854E0,1.958978E2,4.896133E1,8.504302E1,6.144147E0,4.152537E0,1.4065414E2,1.1771135E2,7.818644E1,4.251774E1,6.4435954E0,1.6928885E1,6.811414E1,2.6652277E0,1.4873092E0,1.3717087E2,3.483281E0],"tree_param":{"num_deleted":"0","num_feature":"18","num_nodes":"23","size_leaf_vector":"1"}},{"base_weights":[-3.71955E-2,-8.485344E-1,9.589968E-1,-1.3058501E0,-3.3502883E-1,3.7793124E-1,1.4309305E0,-1.4932413E0,-2.5248462E-1,3.210653E-1,-9.290116E-1,-7.7845365E-2,5.288621E-1,1.4739109E0,-5.568796E-2,-7.84862E-2,3.401563E-2,1.8574623E-2,-7.4127674E-2,-4.479852E-2,3.8939815E-2,-7.1258835E-2,1.055166E-2,3.0015043E-3,4.5963295E-2,5.125919E-2,7.647486E-2],"categories":[],"categories_nodes":[],"categories_segments":[],"categories_sizes":[],"default_left":[0,0,0,0,0,0,0,0,0,0,0,0,0,0,0,0,0,0,0,0,0,0,0,0,0,0,0],"id":7,"left_children":[1,3,5,7,9,11,13,15,17,19,21,-1,23,25,-1,-1,-1,-1,-1,-1,-1,-1,-1,-1,-1,-1,-1],"loss_changes":[3.7763898E2,6.00282E1,5.6975418E1,2.6438095E1,4.809017E1,2.8671345E1,1.4260986E1,2.0206482E1,1.7222002E1,3.3573017E1,3.685363E1,0E0,1.6272682E1,1.2728577E0,0E0,0E0,0E0,0E0,0E0,0E0,0E0,0E0,0E0,0E0,0E0,0E0,0E0],"parents":[2147483647,0,0,1,1,2,2,3,3,4,4,5,5,6,6,7,7,8,8,9,9,10,10,12,12,13,13],"right_children":[2,4,6,8,10,12,14,16,18,20,22,-1,24,26,-1,-1,-1,-1,-1,-1,-1,-1,-1,-1,-1,-1,-1],"split_conditions":[6.376753E-1,3.5160613E-1,1.8236552E0,1.2579437E0,2.5356147E-2,2.1546409E-1,2.165985E0,3.0356103E-1,4.0169218E-1,1.028554E-1,2.5024116E-1,-7.7845365E-2,7.054199E-1,6.706746E-1,-5.568796E-2,-7.84862E-2,3.401563E-2,1.8574623E-2,-7.4127674E-2,-4.479852E-2,3.8939815E-2,-7.1258835E-2,1.055166E-2,3.0015043E-3,4.5963295E-2,5.125919E-2,7.647486E-2],"split_indices":[0,7,4,1,16,7,6,3,8,14,3,0,8,14,0,0,0,0,0,0,0,0,0,0,0,0,0],"split_type":[0,0,0,0,0,0,0,0,0,0,0,0,0,0,0,0,0,0,0,0,0,0,0,0,0,0,0],"sum_hessian":[4.6522388E2,2.5648248E2,2.087414E2,1.348475E2,1.2163497E2,9.436091E1,1.1438048E2,1.1412701E2,2.0720507E1,5.8014027E1,6.3620945E1,6.154084E0,8.8206825E1,1.1289445E2,1.4860278E0,1.10516E2,3.611003E0,1.4210126E1,6.5103807E0,1.5594161E1,4.241987E1,4.4154232E1,1.9466715E1,4.060202E1,4.7604805E1,1.4586452E1,9.8308E1],"tree_param":{"num_deleted":"0","num_feature":"18","num_nodes":"27","size_leaf_vector":"1"}},{"base_weights":[-1.0463588E-2,-7.871079E-1,1.2789665E0,-1.3886161E0,-2.6389194E-1,1.3637532E0,-7.51656E-2,-1.4593909E0,-5.963565E-1,1.4562201E-1,-1.2612381E0,-5.4163106E-2,1.3940482E0,-2.6071245E-2,-7.667199E-2,9.706372E-2,-6.9813065E-2,2.061409E-2,-8.11991E-2,-8.4573574E-2,-1.7648632E-2,7.1095765E-2,-5.333976E-2],"categories":[],"categories_nodes":[],"categories_segments":[],"categories_sizes":[],"default_left":[0,0,0,0,0,0,0,0,0,0,0,0,0,0,0,0,0,0,0,0,0,0,0],"id":8,"left_children":[1,3,5,7,9,11,-1,13,15,17,19,-1,21,-1,-1,-1,-1,-1,-1,-1,-1,-1,-1],"loss_changes":[4.6915182E2,9.164787E1,4.3593872E1,6.7428284E0,6.455001E1,1.421817E1,0E0,7.8093567E0,2.8744394E1,5.381226E1,1.736921E1,0E0,1.3158752E1,0E0,0E0,0E0,0E0,0E0,0E0,0E0,0E0,0E0,0E0],"parents":[2147483647,0,0,1,1,2,2,3,3,4,4,5,5,7,7,8,8,9,9,10,10,12,12],"right_children":[2,4,6,8,10,12,-1,14,16,18,20,-1,22,-1,-1,-1,-1,-1,-1,-1,-1,-1,-1],"split_conditions":[4.5450827E-1,4.902014E-1,1.3277245E0,7.954292E-1,7.6202667E-1,3.1987154E-1,-7.51656E-2,5.5174986E-3,7.9817593E-1,1.0041608E0,1.2431352E0,-5.4163106E-2,2.165985E0,-2.6071245E-2,-7.667199E-2,9.706372E-2,-6.9813065E-2,2.061409E-2,-8.11991E-2,-8.4573574E-2,-1.7648632E-2,7.1095765E-2,-5.333976E-2],"split_indices":[14,0,9,6,10,10,0,16,1,9,10,0,6,0,0,0,0,0,0,0,0,0,0],"split_type":[0,0,0,0,0,0,0,0,0,0,0,0,0,0,0,0,0,0,0,0,0,0,0],"sum_hessian":[4.6647733E2,2.9137006E2,1.7510725E2,1.3477443E2,1.5659563E2,1.7042365E2,4.6836195E0,1.22949E2,1.1825432E1,1.11618614E2,4.4977013E1,1.6590654E0,1.6876457E2,9.584552E0,1.1336445E2,2.4922128E0,9.333219E0,9.766813E1,1.3950487E1,2.9934927E1,1.5042088E1,1.6729231E2,1.4722676E0],"tree_param":{"num_deleted":"0","num_feature":"18","num_nodes":"23","size_leaf_vector":"1"}},{"base_weights":[-4.4045087E-2,-5.9456336E-1,1.3880866E0,-1.2894788E0,-6.633141E-2,7.751674E-1,7.345044E-2,-1.2146039E-2,-1.3513998E0,3.0331004E-1,-6.4560694E-1,1.1224563E0,-7.150175E-2,-5.9421416E-2,6.819785E-2,-1.9651461E-2,-7.0725605E-2,3.9435785E-2,-2.2832824E-2,-8.376258E-2,-9.997024E-4,1.7430004E-2,6.609192E-2],"categories":[],"categories_nodes":[],"categories_segments":[],"categories_sizes":[],"default_left":[0,0,0,0,0,0,0,0,0,0,0,0,0,0,0,0,0,0,0,0,0,0,0],"id":9,"left_children":[1,3,5,7,9,11,-1,13,15,17,19,21,-1,-1,-1,-1,-1,-1,-1,-1,-1,-1,-1],"loss_changes":[3.5325372E2,1.1869641E2,5.032318E0,1.1032349E1,3.978679E1,1.4339733E1,0E0,1.3708968E1,7.5020905E0,4.224884E1,4.6567894E1,1.8421917E0,0E0,0E0,0E0,0E0,0E0,0E0,0E0,0E0,0E0,0E0,0E0],"parents":[2147483647,0,0,1,1,2,2,3,3,4,4,5,5,7,7,8,8,9,9,10,10,11,11],"right_children":[2,4,6,8,10,12,-1,14,16,18,20,22,-1,-1,-1,-1,-1,-1,-1,-1,-1,-1,-1],"split_conditions":[1.8215337E0,5.0193375E-1,6.706746E-1,2.2717407E-3,7.4636096E-1,3.977648E-1,7.345044E-2,2.4636686E-1,5.5174986E-3,8.487935E-1,3.795426E-1,1.5094529E-1,-7.150175E-2,-5.9421416E-2,6.819785E-2,-1.9651461E-2,-7.0725605E-2,3.9435785E-2,-2.2832824E-2,-8.376258E-2,-9.997024E-4,1.7430004E-2,6.609192E-2],"split_indices":[10,5,14,15,10,8,0,3,16,4,2,8,0,0,0,0,0,0,0,0,0,0,0],"split_type":[0,0,0,0,0,0,0,0,0,0,0,0,0,0,0,0,0,0,0,0,0,0,0],"sum_hessian":[4.4600897E2,3.2258905E2,1.2341993E2,1.3869186E2,1.8389719E2,1.5628203E1,1.07791725E2,6.467789E0,1.3222408E2,1.12552635E2,7.134455E1,1.392604E1,1.7021629E0,3.5605984E0,2.9071908E0,8.615999E0,1.2360807E2,6.866018E1,4.389245E1,2.6330908E1,4.5013645E1,3.4160025E0,1.0510037E1],"tree_param":{"num_deleted":"0","num_feature":"18","num_nodes":"23","size_leaf_vector":"1"}},{"base_weights":[5.467709E-2,-6.0503435E-1,1.1940929E0,-1.2369038E0,-1.1956908E-1,2.4462236E-1,1.3360792E0,-1.3074894E0,-1.1510594E-1,2.408872E-1,-8.99308E-1,9.599087E-1,-7.873847E-2,9.9940586E-1,7.135658E-2,-9.2402956E-4,-6.8977594E-2,8.594379E-2,-6.1582543E-2,-5.5773433E-2,2.7028864E-2,-6.0443837E-2,4.7374416E-2,5.853237E-2,-5.047673E-2,7.663176E-2,2.8725747E-2],"categories":[],"categories_nodes":[],"categories_segments":[],"categories_sizes":[],"default_left":[0,0,0,0,0,0,0,0,0,0,0,0,0,0,0,0,0,0,0,0,0,0,0,0,0,0,0],"id":10,"left_children":[1,3,5,7,9,11,13,15,17,19,21,23,-1,25,-1,-1,-1,-1,-1,-1,-1,-1,-1,-1,-1,-1,-1],"loss_changes":[3.5284824E2,9.1061134E1,2.2875473E1,1.0070633E1,4.7788258E1,3.2242004E1,3.1564636E0,1.1246094E1,2.0009737E1,4.7973892E1,3.1857323E1,8.474482E0,0E0,7.085575E0,0E0,0E0,0E0,0E0,0E0,0E0,0E0,0E0,0E0,0E0,0E0,0E0,0E0],"parents":[2147483647,0,0,1,1,2,2,3,3,4,4,5,5,6,6,7,7,8,8,9,9,10,10,11,11,13,13],"right_children":[2,4,6,8,10,12,14,16,18,20,22,24,-1,26,-1,-1,-1,-1,-1,-1,-1,-1,-1,-1,-1,-1,-1],"split_conditions":[4.5450827E-1,4.902014E-1,1.4184874E0,7.4488556E-1,7.6202667E-1,3.415338E-2,2.1600943E0,2.2717407E-3,7.475349E-1,2.8768975E-1,9.8778284E-1,6.5946007E-1,-7.873847E-2,1.770637E0,7.135658E-2,-9.2402956E-4,-6.8977594E-2,8.594379E-2,-6.1582543E-2,-5.5773433E-2,2.7028864E-2,-6.0443837E-2,4.7374416E-2,5.853237E-2,-5.047673E-2,7.663176E-2,2.8725747E-2],"split_indices":[14,0,10,12,10,16,10,15,12,7,7,2,0,1,0,0,0,0,0,0,0,0,0,0,0,0,0],"split_type":[0,0,0,0,0,0,0,0,0,0,0,0,0,0,0,0,0,0,0,0,0,0,0,0,0,0,0],"sum_hessian":[4.6744815E2,2.9633932E2,1.7110881E2,1.280825E2,1.6825684E2,2.2613571E1,1.4849524E2,1.2034465E2,7.7378435E0,1.1553746E2,5.271938E1,1.6571108E1,6.0424623E0,3.416042E1,1.1433482E2,6.4382133E0,1.1390644E2,2.7240286E0,5.0138154E0,2.041589E1,9.512157E1,4.5446793E1,7.2725854E0,1.5335718E1,1.2353908E0,1.3992717E1,2.0167702E1],"tree_param":{"num_deleted":"0","num_feature":"18","num_nodes":"27","size_leaf_vector":"1"}},{"base_weights":[-2.0762043E-2,-8.703424E-1,8.629231E-1,-1.2809523E0,-3.4087813E-1,2.961812E-1,1.3520746E0,5.371929E-1,-1.3568223E0,7.656487E-1,-7.1668905E-1,7.3942727E-1,-6.2807065E-1,2.6613012E-2,6.868206E-2,-4.931569E-2,7.940637E-2,-7.179309E-2,-5.1024146E-2,6.4926885E-2,-2.5136178E-2,2.0584745E-2,-5.528018E-2,2.2268299E-2,7.776336E-2,-8.394884E-2,3.324668E-2],"categories":[],"categories_nodes":[],"categories_segments":[],"categories_sizes":[],"default_left":[0,0,0,0,0,0,0,0,0,0,0,0,0,0,0,0,0,0,0,0,0,0,0,0,0,0,0],"id":11,"left_children":[1,3,5,7,9,11,13,15,17,19,21,23,25,-1,-1,-1,-1,-1,-1,-1,-1,-1,-1,-1,-1,-1,-1],"loss_changes":[3.315149E2,4.8504715E1,5.960527E1,1.816858E1,4.200458E1,4.2068256E1,1.318039E0,1.0822E1,1.7685852E0,1.8062437E1,3.333914E1,1.5884159E1,4.6579247E1,0E0,0E0,0E0,0E0,0E0,0E0,0E0,0E0,0E0,0E0,0E0,0E0,0E0,0E0],"parents":[2147483647,0,0,1,1,2,2,3,3,4,4,5,5,6,6,7,7,8,8,9,9,10,10,11,11,12,12],"right_children":[2,4,6,8,10,12,14,16,18,20,22,24,26,-1,-1,-1,-1,-1,-1,-1,-1,-1,-1,-1,-1,-1,-1],"split_conditions":[6.2269914E-1,4.902014E-1,1.8723055E0,8.643903E-3,5.502003E-1,1.1900862E0,2.0257876E0,4.0175915E-3,5.3789705E-1,4.9862495E-1,1.5787041E-1,4.2787692E-1,6.413748E-1,2.6613012E-2,6.868206E-2,-4.931569E-2,7.940637E-2,-7.179309E-2,-5.1024146E-2,6.4926885E-2,-2.5136178E-2,2.0584745E-2,-5.528018E-2,2.2268299E-2,7.776336E-2,-8.394884E-2,3.324668E-2],"split_indices":[0,0,10,6,4,4,1,3,8,10,8,2,7,0,0,0,0,0,0,0,0,0,0,0,0,0,0],"split_type":[0,0,0,0,0,0,0,0,0,0,0,0,0,0,0,0,0,0,0,0,0,0,0,0,0,0,0],"sum_hessian":[4.395711E2,2.2411789E2,2.1545322E2,1.25427246E2,9.869064E1,1.0055428E2,1.1489894E2,4.7807603E0,1.20646484E2,2.475764E1,7.393301E1,6.8096855E1,3.2457428E1,3.6033552E0,1.11295586E2,1.9766955E0,2.8040648E0,9.50425E1,2.560398E1,1.741654E1,7.341101E0,1.8935522E1,5.4997482E1,5.1191345E1,1.6905506E1,1.7740276E1,1.4717151E1],"tree_param":{"num_deleted":"0","num_feature":"18","num_nodes":"27","size_leaf_vector":"1"}},{"base_weights":[1.780135E-2,-7.7574646E-1,7.6568246E-1,-1.2503986E0,-2.3750652E-1,1.9284005E-1,1.3072376E0,-1.3328936E0,6.290167E-2,1.191703E-1,-7.466695E-2,5.1644367E-1,-7.1371424E-1,8.1313396E-1,6.844546E-2,-7.116578E-2,-2.4214277E-2,-3.4229957E-2,2.5597801E-2,5.334551E-3,6.0529776E-2,-8.162674E-2,2.1949468E-2,6.0688462E-2,-7.737508E-2],"categories":[],"categories_nodes":[],"categories_segments":[],"categories_sizes":[],"default_left":[0,0,0,0,0,0,0,0,0,0,0,0,0,0,0,0,0,0,0,0,0,0,0,0,0],"id":12,"left_children":[1,3,5,7,9,11,13,15,-1,17,-1,19,21,23,-1,-1,-1,-1,-1,-1,-1,-1,-1,-1,-1],"loss_changes":[2.6073358E2,5.416263E1,6.990889E1,2.506874E1,4.547566E1,3.2955143E1,2.4241943E0,7.7457733E0,0E0,2.5507732E1,0E0,2.3318937E1,3.2109272E1,1.639008E1,0E0,0E0,0E0,0E0,0E0,0E0,0E0,0E0,0E0,0E0,0E0],"parents":[2147483647,0,0,1,1,2,2,3,3,4,4,5,5,6,6,7,7,9,9,11,11,12,12,13,13],"right_children":[2,4,6,8,10,12,14,16,-1,18,-1,20,22,24,-1,-1,-1,-1,-1,-1,-1,-1,-1,-1,-1],"split_conditions":[6.050828E-1,3.5160613E-1,1.8723055E0,1.395697E0,2.943978E-1,9.181459E-1,6.706746E-1,1E0,6.290167E-2,9.624228E-2,-7.466695E-2,8.3495545E-1,1.5279858E0,6.9657344E-1,6.844546E-2,-7.116578E-2,-2.4214277E-2,-3.4229957E-2,2.5597801E-2,5.334551E-3,6.0529776E-2,-8.162674E-2,2.1949468E-2,6.0688462E-2,-7.737508E-2],"split_indices":[0,7,10,6,2,10,14,17,0,14,0,7,10,12,0,0,0,0,0,0,0,0,0,0,0],"split_type":[0,0,0,0,0,0,0,0,0,0,0,0,0,0,0,0,0,0,0,0,0,0,0,0,0],"sum_hessian":[4.3732965E2,2.1216853E2,2.2516112E2,1.1204098E2,1.00127556E2,1.10078804E2,1.1508231E2,1.0892731E2,3.1136644E0,7.868488E1,2.1442678E1,8.143875E1,2.8640055E1,1.4344128E1,1.0073818E2,9.7826355E1,1.1100952E1,2.558552E1,5.309936E1,5.193538E1,2.950337E1,1.5705181E1,1.2934873E1,1.2678266E1,1.6658624E0],"tree_param":{"num_deleted":"0","num_feature":"18","num_nodes":"25","size_leaf_vector":"1"}},{"base_weights":[-4.1059065E-3,-8.145214E-1,7.86703E-1,3.5403034E-1,-9.71676E-1,3.8828424E-1,1.2849945E0,-6.6043906E-2,1.3368905E0,-1.0844055E0,6.290766E-1,-8.352667E-1,6.051916E-1,6.649403E-2,-4.987904E-2,-4.7921967E-2,8.1881836E-2,2.1717977E-2,-5.6568064E-2,-5.2296378E-2,5.1822137E-2,-8.9285605E-2,5.302127E-2,3.6087584E-2,-7.155586E-2],"categories":[],"categories_nodes":[],"categories_segments":[],"categories_sizes":[],"default_left":[0,0,0,0,0,0,0,0,0,0,0,0,0,0,0,0,0,0,0,0,0,0,0,0,0],"id":13,"left_children":[1,3,5,7,9,11,13,-1,15,17,19,21,23,-1,-1,-1,-1,-1,-1,-1,-1,-1,-1,-1,-1],"loss_changes":[2.76568E2,3.9483215E1,4.2862793E1,4.4563477E1,3.463034E1,3.3097332E1,1.1225082E1,0E0,1.3222479E1,1.3051254E1,9.961139E0,3.5968758E1,2.5929203E1,0E0,0E0,0E0,0E0,0E0,0E0,0E0,0E0,0E0,0E0,0E0,0E0],"parents":[2147483647,0,0,1,1,2,2,3,3,4,4,5,5,6,6,8,8,9,9,10,10,11,11,12,12],"right_children":[2,4,6,8,10,12,14,-1,16,18,20,22,24,-1,-1,-1,-1,-1,-1,-1,-1,-1,-1,-1,-1],"split_conditions":[6.107464E-1,5.9308135E-3,2.1487322E0,3.9754915E-1,5.13335E-1,1.9038932E-2,1.9212067E0,-6.6043906E-2,1.0813475E-1,8.643903E-3,3.099262E-2,9.2970693E-1,1.3277245E0,6.649403E-2,-4.987904E-2,-4.7921967E-2,8.1881836E-2,2.1717977E-2,-5.6568064E-2,-5.2296378E-2,5.1822137E-2,-8.9285605E-2,5.302127E-2,3.6087584E-2,-7.155586E-2],"split_indices":[0,16,1,7,2,16,6,0,6,6,16,7,9,0,0,0,0,0,0,0,0,0,0,0,0],"split_type":[0,0,0,0,0,0,0,0,0,0,0,0,0,0,0,0,0,0,0,0,0,0,0,0,0],"sum_hessian":[4.2954178E2,2.1212627E2,2.1741551E2,2.4997807E1,1.8712845E2,1.21803986E2,9.561153E1,9.117171E0,1.5880636E1,1.7511867E2,1.2009783E1,1.791223E1,1.03891754E2,9.417694E1,1.4345814E0,1.5863738E0,1.4294262E1,5.004352E0,1.7011432E2,2.0427763E0,9.967007E0,1.1969223E1,5.9430075E0,9.887748E1,5.0142713E0],"tree_param":{"num_deleted":"0","num_feature":"18","num_nodes":"25","size_leaf_vector":"1"}},{"base_weights":[7.201279E-2,-7.262536E-1,7.914666E-1,-1.1986456E0,-1.9874907E-1,3.2361254E-1,1.2541348E0,-6.869687E-2,-1.4958356E-1,2.4371044E-1,-8.1171846E-1,-7.4482225E-2,5.034692E-1,7.1180403E-1,6.490889E-2,-6.101973E-2,5.4220445E-2,2.4636494E-2,-6.497271E-2,-7.163497E-2,3.0559195E-2,3.655695E-2,-1.3380674E-2,5.3640503E-2,-5.7517644E-2],"categories":[],"categories_nodes":[],"categories_segments":[],"categories_sizes":[],"default_left":[0,0,0,0,0,0,0,0,0,0,0,0,0,0,0,0,0,0,0,0,0,0,0,0,0],"id":14,"left_children":[1,3,5,7,9,11,13,-1,15,17,19,-1,21,23,-1,-1,-1,-1,-1,-1,-1,-1,-1,-1,-1],"loss_changes":[2.4957677E2,5.110611E1,4.905922E1,1.9747223E1,2.6924133E1,3.8244576E1,1.8120117E0,0E0,2.3332958E1,2.29287E1,3.7582344E1,0E0,1.8688713E1,8.506298E0,0E0,0E0,0E0,0E0,0E0,0E0,0E0,0E0,0E0,0E0,0E0],"parents":[2147483647,0,0,1,1,2,2,3,3,4,4,5,5,6,6,8,8,9,9,10,10,12,12,13,13],"right_children":[2,4,6,8,10,12,14,-1,16,18,20,-1,22,24,-1,-1,-1,-1,-1,-1,-1,-1,-1,-1,-1],"split_conditions":[6.050828E-1,3.5160613E-1,1.8215337E0,8.666056E-2,3.7439E-2,2.1546409E-1,2.0257876E0,-6.869687E-2,5.087168E-1,7.4919987E-1,2.5844026E-1,-7.4482225E-2,4.960266E-2,1.9616301E0,6.490889E-2,-6.101973E-2,5.4220445E-2,2.4636494E-2,-6.497271E-2,-7.163497E-2,3.0559195E-2,3.655695E-2,-1.3380674E-2,5.3640503E-2,-5.7517644E-2],"split_indices":[0,7,10,16,16,7,1,0,0,10,3,0,16,1,0,0,0,0,0,0,0,0,0,0,0],"split_type":[0,0,0,0,0,0,0,0,0,0,0,0,0,0,0,0,0,0,0,0,0,0,0,0,0],"sum_hessian":[4.3256277E2,2.0504578E2,2.27517E2,1.0750257E2,9.7543205E1,1.139695E2,1.1354749E2,9.184599E1,1.5656582E1,5.700077E1,4.054244E1,9.627343E0,1.04342155E2,9.817682E0,1.0372981E2,8.388438E0,7.2681437E0,4.966678E1,7.333992E0,2.8219875E1,1.2322561E1,8.0596924E1,2.3745234E1,8.578504E0,1.2391788E0],"tree_param":{"num_deleted":"0","num_feature":"18","num_nodes":"25","size_leaf_vector":"1"}},{"base_weights":[-5.29958E-2,-6.083133E-1,1.0211755E0,-1.1139057E0,-1.9949076E-1,1.083892E0,-6.424498E-2,1.0026233E-1,-1.2524955E0,2.842471E-1,-8.238243E-1,-5.6002676E-2,1.1123027E0,6.708162E-2,-6.0670324E-2,2.949333E-2,-6.700518E-2,2.7649436E-2,-7.6485716E-2,-5.2181645E-3,-7.843621E-2,5.7035115E-2,-4.627425E-2],"categories":[],"categories_nodes":[],"categories_segments":[],"categories_sizes":[],"default_left":[0,0,0,0,0,0,0,0,0,0,0,0,0,0,0,0,0,0,0,0,0,0,0],"id":15,"left_children":[1,3,5,7,9,11,-1,13,15,17,19,-1,21,-1,-1,-1,-1,-1,-1,-1,-1,-1,-1],"loss_changes":[2.4065408E2,5.4736717E1,2.1280243E1,2.00923E1,4.5002453E1,9.661942E0,0E0,2.2962011E1,1.7992401E1,4.1923454E1,3.4654736E1,0E0,8.764328E0,0E0,0E0,0E0,0E0,0E0,0E0,0E0,0E0,0E0,0E0],"parents":[2147483647,0,0,1,1,2,2,3,3,4,4,5,5,7,7,8,8,9,9,10,10,12,12],"right_children":[2,4,6,8,10,12,-1,14,16,18,20,-1,22,-1,-1,-1,-1,-1,-1,-1,-1,-1,-1],"split_conditions":[7.3702514E-1,4.902014E-1,1.4231418E0,5.5174986E-3,7.2922546E-1,1.0299339E0,-6.424498E-2,5.391307E-1,8.643903E-3,8.527475E-2,6.6774505E-1,-5.6002676E-2,2.165985E0,6.708162E-2,-6.0670324E-2,2.949333E-2,-6.700518E-2,2.7649436E-2,-7.6485716E-2,-5.2181645E-3,-7.843621E-2,5.7035115E-2,-4.627425E-2],"split_indices":[0,0,9,16,12,1,0,1,6,15,10,0,6,0,0,0,0,0,0,0,0,0,0],"split_type":[0,0,0,0,0,0,0,0,0,0,0,0,0,0,0,0,0,0,0,0,0,0,0],"sum_hessian":[4.01398E2,2.6489047E2,1.3650752E2,1.1765788E2,1.472326E2,1.3340929E2,3.09824E0,1.2082372E1,1.05575516E2,8.3263885E1,6.396871E1,1.2088575E0,1.3220042E2,6.2011857E0,5.881186E0,4.5321984E0,1.0104331E2,7.312538E1,1.0138506E1,3.311994E1,3.0848768E1,1.3081752E2,1.3829167E0],"tree_param":{"num_deleted":"0","num_feature":"18","num_nodes":"23","size_leaf_vector":"1"}},{"base_weights":[5.684948E-2,-4.2777577E-1,1.0981841E0,-6.6095364E-1,6.1507946E-1,-4.211834E-1,1.2086818E0,-9.267754E-1,-1.845185E-1,-6.2044896E-2,7.960434E-1,-6.775459E-2,5.7075292E-2,8.1937176E-1,1.2827818E0,-3.2656092E-2,-7.0897184E-2,-6.72447E-2,5.2387393E-3,-5.5531677E-2,4.63614E-2,-7.027857E-2,5.3265806E-2,6.4880535E-2,2.3168897E-2],"categories":[],"categories_nodes":[],"categories_segments":[],"categories_sizes":[],"default_left":[0,0,0,0,0,0,0,0,0,0,0,0,0,0,0,0,0,0,0,0,0,0,0,0,0],"id":16,"left_children":[1,3,5,7,9,11,13,15,17,-1,19,-1,-1,21,23,-1,-1,-1,-1,-1,-1,-1,-1,-1,-1],"loss_changes":[2.0963501E2,6.9359886E1,2.265512E1,2.9239502E1,1.8565172E1,1.5680557E1,2.5037384E0,1.9075493E1,2.8477875E1,0E0,1.3109524E1,0E0,0E0,1.3794431E1,6.351166E-1,0E0,0E0,0E0,0E0,0E0,0E0,0E0,0E0,0E0,0E0],"parents":[2147483647,0,0,1,1,2,2,3,3,4,4,5,5,6,6,7,7,8,8,10,10,13,13,14,14],"right_children":[2,4,6,8,10,12,14,16,18,-1,20,-1,-1,22,24,-1,-1,-1,-1,-1,-1,-1,-1,-1,-1],"split_conditions":[1.4565042E0,8.221097E-1,4.2638668E-1,6.1473024E-1,7.132822E-2,7.3702514E-1,6.706746E-1,6.3979113E-1,6.3128996E-1,-6.2044896E-2,1.2206546E-1,-6.775459E-2,5.7075292E-2,1.9302726E-1,1.6056141E0,-3.2656092E-2,-7.0897184E-2,-6.72447E-2,5.2387393E-3,-5.5531677E-2,4.63614E-2,-7.027857E-2,5.3265806E-2,6.4880535E-2,2.3168897E-2],"split_indices":[10,7,14,6,3,0,14,10,12,0,14,0,0,9,12,0,0,0,0,0,0,0,0,0,0],"split_type":[0,0,0,0,0,0,0,0,0,0,0,0,0,0,0,0,0,0,0,0,0,0,0,0,0],"sum_hessian":[4.1347E2,2.8255933E2,1.3091069E2,2.312247E2,5.1334625E1,8.684548E0,1.22226135E2,1.4781033E2,8.341438E1,4.0402637E0,4.729436E1,5.5190506E0,3.1654978E0,2.1472189E1,1.00753944E2,9.641988E1,5.139044E1,1.5917856E1,6.749652E1,2.5638857E0,4.4730473E1,1.6679575E0,1.9804232E1,9.838977E1,2.3641744E0],"tree_param":{"num_deleted":"0","num_feature":"18","num_nodes":"25","size_leaf_vector":"1"}},{"base_weights":[4.3890815E-2,-9.940227E-1,4.497612E-1,-3.2117233E-1,-6.5115415E-2,7.67165E-2,1.1639099E0,-6.216827E-2,7.1330297E-1,2.5712976E-1,-9.6622497E-1,6.857525E-1,6.218341E-2,8.0210365E-2,-1.327454E-2,3.0850217E-2,-2.2089794E-2,-7.591701E-2,5.180843E-3,-5.001975E-2,4.426762E-2],"categories":[],"categories_nodes":[],"categories_segments":[],"categories_sizes":[],"default_left":[0,0,0,0,0,0,0,0,0,0,0,0,0,0,0,0,0,0,0,0,0],"id":17,"left_children":[1,3,5,7,-1,9,11,-1,13,15,17,19,-1,-1,-1,-1,-1,-1,-1,-1,-1],"loss_changes":[1.720827E2,2.3404678E1,7.812517E1,3.6579403E1,0E0,3.6736607E1,2.9862823E0,0E0,1.635668E1,4.2054E1,1.7173786E1,6.4793286E0,0E0,0E0,0E0,0E0,0E0,0E0,0E0,0E0,0E0],"parents":[2147483647,0,0,1,1,2,2,3,3,5,5,6,6,8,8,9,9,10,10,11,11],"right_children":[2,4,6,8,-1,10,12,-1,14,16,18,20,-1,-1,-1,-1,-1,-1,-1,-1,-1],"split_conditions":[4.902014E-1,5.876224E-1,1.7668295E0,3.8381207E-1,-6.5115415E-2,1.0041608E0,2.0409966E0,-6.216827E-2,1.5404579E-2,7.4919987E-1,1.1629575E0,9.814061E-2,6.218341E-2,8.0210365E-2,-1.327454E-2,3.0850217E-2,-2.2089794E-2,-7.591701E-2,5.180843E-3,-5.001975E-2,4.426762E-2],"split_indices":[0,1,10,7,0,9,1,0,16,10,12,9,0,0,0,0,0,0,0,0,0],"split_type":[0,0,0,0,0,0,0,0,0,0,0,0,0,0,0,0,0,0,0,0,0],"sum_hessian":[4.0643555E2,1.1384806E2,2.9258746E2,3.641408E1,7.7433975E1,1.9292044E2,9.966704E1,1.9145082E1,1.7269E1,1.6511198E2,2.7808447E1,1.5620258E1,8.404678E1,8.705884E0,8.563114E0,1.0906961E2,5.604238E1,1.8065916E1,9.742531E0,1.228694E0,1.4391564E1],"tree_param":{"num_deleted":"0","num_feature":"18","num_nodes":"21","size_leaf_vector":"1"}},{"base_weights":[4.314E-2,-3.6936304E-1,1.1295134E0,-7.307814E-2,-1.1448377E0,-5.052283E-2,1.1738575E0,-1.1024336E0,2.2851796E-1,-1.2928421E0,-1.1413044E-1,7.8837293E-1,6.302454E-2,-6.539845E-2,5.4516373E-3,-2.5225667E-2,3.4405883E-2,-7.045698E-2,2.1536376E-3,-7.360234E-2,4.9967464E-2,5.0222617E-2,-7.317653E-2],"categories":[],"categories_nodes":[],"categories_segments":[],"categories_sizes":[],"default_left":[0,0,0,0,0,0,0,0,0,0,0,0,0,0,0,0,0,0,0,0,0,0,0],"id":18,"left_children":[1,3,5,7,9,-1,11,13,15,17,19,21,-1,-1,-1,-1,-1,-1,-1,-1,-1,-1,-1],"loss_changes":[1.8271535E2,6.783277E1,1.1833313E1,6.6982185E1,1.2307838E1,0E0,2.6926727E0,1.2313465E1,5.663255E1,1.1138008E1,1.8630869E1,1.2625327E1,0E0,0E0,0E0,0E0,0E0,0E0,0E0,0E0,0E0,0E0,0E0],"parents":[2147483647,0,0,1,1,2,2,3,3,4,4,6,6,7,7,8,8,9,9,10,10,11,11],"right_children":[2,4,6,8,10,-1,12,14,16,18,20,22,-1,-1,-1,-1,-1,-1,-1,-1,-1,-1,-1],"split_conditions":[1.706238E0,5.022581E-2,4.2638668E-1,9.8409645E-2,3.4651232E-1,-5.052283E-2,6.706746E-1,6.506466E-2,3.8312232E-1,1.395697E0,8.075134E-1,5.713489E-1,6.302454E-2,-6.539845E-2,5.4516373E-3,-2.5225667E-2,3.4405883E-2,-7.045698E-2,2.1536376E-3,-7.360234E-2,4.9967464E-2,5.0222617E-2,-7.317653E-2],"split_indices":[10,16,14,14,3,0,14,15,7,6,7,6,0,0,0,0,0,0,0,0,0,0,0],"split_type":[0,0,0,0,0,0,0,0,0,0,0,0,0,0,0,0,0,0,0,0,0,0,0],"sum_hessian":[4.0579532E2,2.945955E2,1.1119982E2,2.1394714E2,8.064835E1,1.8151858E0,1.09384636E2,4.787912E1,1.6606802E2,7.0299385E1,1.034897E1,2.1925411E1,8.745922E1,4.0866177E1,7.012942E0,6.395935E1,1.0210868E2,6.461918E1,5.6802044E0,4.517609E0,5.831361E0,2.0511229E1,1.4141831E0],"tree_param":{"num_deleted":"0","num_feature":"18","num_nodes":"23","size_leaf_vector":"1"}},{"base_weights":[9.586065E-3,-7.6477075E-1,6.96649E-1,-1.0493646E0,-4.0715286E-1,2.8554955E-1,1.166718E0,-1.1886972E0,2.3947613E-1,-2.3315692E-2,-7.802762E-2,4.782007E-1,-6.8446064E-1,1.2155113E0,-5.1549014E-2,-6.455138E-2,-1.3243273E-2,5.5426817E-2,-5.74672E-2,-3.1730883E-2,4.557259E-2,-9.463823E-2,2.887716E-2,6.0322303E-2,-5.2575063E-2,6.158183E-2,1.7922068E-2],"categories":[],"categories_nodes":[],"categories_segments":[],"categories_sizes":[],"default_left":[0,0,0,0,0,0,0,0,0,0,0,0,0,0,0,0,0,0,0,0,0,0,0,0,0,0,0],"id":19,"left_children":[1,3,5,7,9,11,13,15,17,19,-1,21,23,25,-1,-1,-1,-1,-1,-1,-1,-1,-1,-1,-1,-1,-1],"loss_changes":[2.1037672E2,1.849356E1,4.0154205E1,1.8761215E1,3.7159832E1,2.1461044E1,1.1700012E1,8.451675E0,1.4394039E1,3.718073E1,0E0,2.3455276E1,1.4559655E1,8.820343E-1,0E0,0E0,0E0,0E0,0E0,0E0,0E0,0E0,0E0,0E0,0E0,0E0,0E0],"parents":[2147483647,0,0,1,1,2,2,3,3,4,4,5,5,6,6,7,7,8,8,9,9,11,11,12,12,13,13],"right_children":[2,4,6,8,10,12,14,16,18,20,-1,22,24,26,-1,-1,-1,-1,-1,-1,-1,-1,-1,-1,-1,-1,-1],"split_conditions":[6.107464E-1,3.65921E-1,6.706746E-1,1.2333384E0,5.1483196E-1,1.0114552E0,1.3969475E0,9.596401E-2,1.0041672E-1,4.902014E-1,-7.802762E-2,1.619552E-1,2.1465002E-3,4.9401915E-1,-5.1549014E-2,-6.455138E-2,-1.3243273E-2,5.5426817E-2,-5.74672E-2,-3.1730883E-2,4.557259E-2,-9.463823E-2,2.887716E-2,6.0322303E-2,-5.2575063E-2,6.158183E-2,1.7922068E-2],"split_indices":[0,7,14,10,0,9,9,16,7,0,0,2,16,3,0,0,0,0,0,0,0,0,0,0,0,0,0],"split_type":[0,0,0,0,0,0,0,0,0,0,0,0,0,0,0,0,0,0,0,0,0,0,0,0,0,0,0],"sum_hessian":[3.9341986E2,1.8490683E2,2.0851302E2,1.018889E2,8.301794E1,1.1209108E2,9.642194E1,9.201873E1,9.870169E0,6.3054413E1,1.996352E1,9.3940765E1,1.8150312E1,9.4764885E1,1.6570532E0,8.248465E1,9.53408E0,6.195267E0,3.6749012E0,3.83174E1,2.4737011E1,3.0518014E0,9.088896E1,2.578668E0,1.5571644E1,9.25859E1,2.1789885E0],"tree_param":{"num_deleted":"0","num_feature":"18","num_nodes":"27","size_leaf_vector":"1"}},{"base_weights":[1.1925343E-1,-2.8918123E-1,1.0382899E0,-8.465717E-1,5.184274E-2,5.315045E-1,6.043924E-2,-2.8553215E-1,-1.1147224E0,4.2004684E-1,-7.469867E-1,7.1243924E-1,-5.9739795E-2,4.6826318E-2,-4.343177E-2,-6.267066E-2,1.7482376E-2,4.2321645E-2,-9.774417E-3,2.2270505E-3,-6.0349334E-2,-5.9253193E-2,4.326365E-2],"categories":[],"categories_nodes":[],"categories_segments":[],"categories_sizes":[],"default_left":[0,0,0,0,0,0,0,0,0,0,0,0,0,0,0,0,0,0,0,0,0,0,0],"id":20,"left_children":[1,3,5,7,9,11,-1,13,15,17,19,21,-1,-1,-1,-1,-1,-1,-1,-1,-1,-1,-1],"loss_changes":[1.5523546E2,5.4510944E1,1.0349411E1,1.6053673E1,5.288049E1,1.1411405E1,0E0,2.6849314E1,1.5322601E1,3.2440094E1,2.0715218E1,1.0081644E1,0E0,0E0,0E0,0E0,0E0,0E0,0E0,0E0,0E0,0E0,0E0],"parents":[2147483647,0,0,1,1,2,2,3,3,4,4,5,5,7,7,8,8,9,9,10,10,11,11],"right_children":[2,4,6,8,10,12,-1,14,16,18,20,22,-1,-1,-1,-1,-1,-1,-1,-1,-1,-1,-1],"split_conditions":[4.902088E-1,4.902014E-1,2.036218E0,5.876224E-1,7.4919987E-1,7.076207E-1,6.043924E-2,1.5404579E-2,7.4488556E-1,1.0113732E0,2.5511813E-1,6.703054E-1,-5.9739795E-2,4.6826318E-2,-4.343177E-2,-6.267066E-2,1.7482376E-2,4.2321645E-2,-9.774417E-3,2.2270505E-3,-6.0349334E-2,-5.9253193E-2,4.326365E-2],"split_indices":[14,0,10,11,10,14,0,16,12,11,6,0,0,0,0,0,0,0,0,0,0,0,0],"split_type":[0,0,0,0,0,0,0,0,0,0,0,0,0,0,0,0,0,0,0,0,0,0,0],"sum_hessian":[4.1175732E2,2.8554282E2,1.262145E2,1.07824844E2,1.7771797E2,3.2809067E1,9.340543E1,3.5537067E1,7.228777E1,1.2197175E2,5.5746216E1,3.0228136E1,2.5809293E0,1.1283398E1,2.4253672E1,6.6165306E1,6.1224723E0,7.183557E1,5.013618E1,2.0821527E1,3.4924686E1,1.7497858E0,2.847835E1],"tree_param":{"num_deleted":"0","num_feature":"18","num_nodes":"23","size_leaf_vector":"1"}},{"base_weights":[6.4215705E-2,-9.8048234E-1,4.3674985E-1,-1.066798E0,1.8332261E-1,1.3424778E-1,1.1498845E0,-1.1556787E0,2.4792752E-1,9.923645E-2,-5.1891234E-2,4.6827346E-1,-4.7335085E-1,6.8544185E-1,6.0166266E-2,-1.2800202E-2,-6.2104613E-2,8.4862106E-2,-5.2780446E-2,4.23993E-2,-2.667052E-3,-4.6790022E-2,3.0859957E-2,5.1048655E-2,-1.2048053E-2],"categories":[],"categories_nodes":[],"categories_segments":[],"categories_sizes":[],"default_left":[0,0,0,0,0,0,0,0,0,0,0,0,0,0,0,0,0,0,0,0,0,0,0,0,0],"id":21,"left_children":[1,3,5,7,9,11,13,15,17,-1,-1,19,21,23,-1,-1,-1,-1,-1,-1,-1,-1,-1,-1,-1],"loss_changes":[1.508422E2,1.0431839E1,6.1453228E1,1.138884E1,1.9414082E1,4.1148617E1,1.2831116E0,6.6144867E0,1.4713456E1,0E0,0E0,2.5917292E1,3.690492E1,3.69236E0,0E0,0E0,0E0,0E0,0E0,0E0,0E0,0E0,0E0,0E0,0E0],"parents":[2147483647,0,0,1,1,2,2,3,3,4,4,5,5,6,6,7,7,8,8,11,11,12,12,13,13],"right_children":[2,4,6,8,10,12,14,16,18,-1,-1,20,22,24,-1,-1,-1,-1,-1,-1,-1,-1,-1,-1,-1],"split_conditions":[4.902014E-1,7.4488556E-1,1.8723055E0,2.6691988E-1,7.475349E-1,7.4919987E-1,5.7391472E-2,5.5174986E-3,2.698357E-1,9.923645E-2,-5.1891234E-2,2.943978E-1,8.054183E-1,2.7228653E-1,6.0166266E-2,-1.2800202E-2,-6.2104613E-2,8.4862106E-2,-5.2780446E-2,4.23993E-2,-2.667052E-3,-4.6790022E-2,3.0859957E-2,5.1048655E-2,-1.2048053E-2],"split_indices":[0,12,10,3,12,10,15,16,3,0,0,2,0,8,0,0,0,0,0,0,0,0,0,0,0],"split_type":[0,0,0,0,0,0,0,0,0,0,0,0,0,0,0,0,0,0,0,0,0,0,0,0,0],"sum_hessian":[3.854838E2,1.0089944E2,2.8458438E2,9.4010345E1,6.88909E0,2.0065674E2,8.3927635E1,8.817063E1,5.8397183E0,2.5306454E0,4.3584447E0,1.2962503E2,7.103171E1,1.0087301E1,7.384033E1,8.073869E0,8.009676E1,2.6222196E0,3.217499E0,7.465429E1,5.4970745E1,4.9979652E1,2.1052055E1,7.3302836E0,2.757018E0],"tree_param":{"num_deleted":"0","num_feature":"18","num_nodes":"25","size_leaf_vector":"1"}},{"base_weights":[7.8357495E-2,-9.48394E-1,4.2738315E-1,-1.0308564E0,3.823209E-1,1.3752957E-1,1.1081446E0,-1.1331142E0,2.674501E-1,8.114104E-2,-4.8174363E-2,-9.1984265E-2,1.9413525E-1,3.2359326E-1,5.9408434E-2,-1.0319811E-2,-6.1178833E-2,1.0236793E-1,-5.0705887E-2,5.322377E-2,2.044463E-3,6.234004E-2,-6.300733E-2],"categories":[],"categories_nodes":[],"categories_segments":[],"categories_sizes":[],"default_left":[0,0,0,0,0,0,0,0,0,0,0,0,0,0,0,0,0,0,0,0,0,0,0],"id":22,"left_children":[1,3,5,7,9,11,13,15,17,-1,-1,-1,19,21,-1,-1,-1,-1,-1,-1,-1,-1,-1],"loss_changes":[1.3479988E2,1.0868416E1,5.5210423E1,1.2271873E1,1.2080092E1,2.2509445E1,4.867012E0,6.769432E0,1.8936232E1,0E0,0E0,0E0,2.5741117E1,1.4900397E1,0E0,0E0,0E0,0E0,0E0,0E0,0E0,0E0,0E0],"parents":[2147483647,0,0,1,1,2,2,3,3,4,4,5,5,6,6,7,7,8,8,12,12,13,13],"right_children":[2,4,6,8,10,12,14,16,18,-1,-1,-1,20,22,-1,-1,-1,-1,-1,-1,-1,-1,-1],"split_conditions":[4.902014E-1,2.6691988E-1,6.706746E-1,7.4488556E-1,2.698288E-1,3.5688543E-1,1.4815024E0,5.5174986E-3,7.475349E-1,8.114104E-2,-4.8174363E-2,-9.1984265E-2,5.502003E-1,2.5050012E-2,5.9408434E-2,-1.0319811E-2,-6.1178833E-2,1.0236793E-1,-5.0705887E-2,5.322377E-2,2.044463E-3,6.234004E-2,-6.300733E-2],"split_indices":[0,3,14,12,8,4,10,16,12,0,0,0,4,16,0,0,0,0,0,0,0,0,0],"split_type":[0,0,0,0,0,0,0,0,0,0,0,0,0,0,0,0,0,0,0,0,0,0,0],"sum_hessian":[3.7402393E2,9.445177E1,2.7957217E2,8.9152466E1,5.2993016E0,1.9692694E2,8.264523E1,8.276122E1,6.391244E0,2.650431E0,2.6488707E0,4.604194E0,1.9232275E2,8.116379E0,7.4528854E1,7.652182E0,7.510904E1,2.4253075E0,3.9659364E0,2.7903328E1,1.6441942E2,5.261846E0,2.8545322E0],"tree_param":{"num_deleted":"0","num_feature":"18","num_nodes":"23","size_leaf_vector":"1"}},{"base_weights":[6.869532E-2,-8.666653E-1,3.9687797E-1,-2.98408E-1,-6.047873E-2,1.05481856E-1,1.1001076E0,-5.777948E-2,5.4803133E-1,4.51806E-1,-2.3758793E-1,1.1306933E0,3.018122E-3,4.3685082E-2,-5.13663E-2,-5.7100845E-3,4.6236865E-2,-4.808618E-2,4.358936E-3,5.777511E-2,8.440264E-3],"categories":[],"categories_nodes":[],"categories_segments":[],"categories_sizes":[],"default_left":[0,0,0,0,0,0,0,0,0,0,0,0,0,0,0,0,0,0,0,0,0],"id":23,"left_children":[1,3,5,7,-1,9,11,-1,13,15,17,19,-1,-1,-1,-1,-1,-1,-1,-1,-1],"loss_changes":[1.1729882E2,1.8983192E1,5.781992E1,2.870309E1,0E0,2.3989113E1,2.5625076E0,0E0,1.1232413E1,2.6973299E1,2.3984922E1,1.721283E0,0E0,0E0,0E0,0E0,0E0,0E0,0E0,0E0,0E0],"parents":[2147483647,0,0,1,1,2,2,3,3,5,5,6,6,8,8,9,9,10,10,11,11],"right_children":[2,4,6,8,-1,10,12,-1,14,16,18,20,-1,-1,-1,-1,-1,-1,-1,-1,-1],"split_conditions":[4.902014E-1,2.3910472E-2,6.706746E-1,3.5033333E-1,-6.047873E-2,8.510956E-1,1.6056141E0,-5.777948E-2,1.4114028E-1,7.054199E-1,2.5050012E-2,4.9401915E-1,3.018122E-3,4.3685082E-2,-5.13663E-2,-5.7100845E-3,4.6236865E-2,-4.808618E-2,4.358936E-3,5.777511E-2,8.440264E-3],"split_indices":[0,16,14,7,0,4,12,0,3,8,16,3,0,0,0,0,0,0,0,0,0],"split_type":[0,0,0,0,0,0,0,0,0,0,0,0,0,0,0,0,0,0,0,0,0],"sum_hessian":[3.7999875E2,9.8271675E1,2.8172708E2,3.768749E1,6.0584187E1,2.000024E2,8.1724686E1,1.8543459E1,1.9144032E1,9.937141E1,1.0063099E2,7.930435E1,2.4203367E0,1.6233507E1,2.910524E0,4.5579746E1,5.3791656E1,3.0550636E1,7.008035E1,7.711414E1,2.1902046E0],"tree_param":{"num_deleted":"0","num_feature":"18","num_nodes":"21","size_leaf_vector":"1"}},{"base_weights":[6.954069E-2,-3.555906E-1,9.39656E-1,-8.379119E-1,-6.284513E-2,9.7475415E-1,-5.116064E-2,-2.3732986E-1,-5.977304E-2,3.6603183E-1,-4.315062E-1,-4.725031E-2,1.0021231E0,-5.7008684E-2,3.233336E-2,3.4175072E-2,-6.793242E-2,3.9915587E-3,-7.782643E-2,2.1158112E-2,5.3537894E-2],"categories":[],"categories_nodes":[],"categories_segments":[],"categories_sizes":[],"default_left":[0,0,0,0,0,0,0,0,0,0,0,0,0,0,0,0,0,0,0,0,0],"id":24,"left_children":[1,3,5,7,9,11,-1,13,-1,15,17,-1,19,-1,-1,-1,-1,-1,-1,-1,-1],"loss_changes":[1.3692404E2,3.507409E1,9.365875E0,1.9876495E1,2.4806461E1,7.2441025E0,0E0,2.9694683E1,0E0,4.068128E1,4.8614235E1,0E0,4.2616653E0,0E0,0E0,0E0,0E0,0E0,0E0,0E0,0E0],"parents":[2147483647,0,0,1,1,2,2,3,3,4,4,5,5,7,7,9,9,10,10,12,12],"right_children":[2,4,6,8,10,12,-1,14,-1,16,18,-1,20,-1,-1,-1,-1,-1,-1,-1,-1],"split_conditions":[7.3702514E-1,4.902014E-1,2.165985E0,2.3910472E-2,2.943978E-1,1.9539797E-1,-5.116064E-2,3.5033333E-1,-5.977304E-2,7.4475485E-1,1.08532846E-1,-4.725031E-2,1.392081E0,-5.7008684E-2,3.233336E-2,3.4175072E-2,-6.793242E-2,3.9915587E-3,-7.782643E-2,2.1158112E-2,5.3537894E-2],"split_indices":[5,5,6,16,2,10,0,7,0,10,3,0,11,0,0,0,0,0,0,0,0],"split_type":[0,0,0,0,0,0,0,0,0,0,0,0,0,0,0,0,0,0,0,0,0],"sum_hessian":[3.6824844E2,2.4777763E2,1.2047082E2,9.288312E1,1.5489452E2,1.18849075E2,1.6217403E0,3.528237E1,5.7600746E1,7.160311E1,8.3291405E1,1.1992731E0,1.176498E2,1.7311747E1,1.7970627E1,6.098164E1,1.06214695E1,5.7902843E1,2.5388557E1,1.3228408E1,1.04421394E2],"tree_param":{"num_deleted":"0","num_feature":"18","num_nodes":"21","size_leaf_vector":"1"}},{"base_weights":[3.777639E-2,-2.5752732E-1,1.1306584E0,-5.5224776E-1,2.4101767E-1,1.8016258E-2,5.7112385E-2,3.3143997E-1,-7.1450007E-1,-5.561742E-1,4.9044418E-1,4.1497033E-2,-6.261845E-2,-5.0436348E-2,-1.1219896E-2,2.9682567E-2,-7.668757E-2,4.1891944E-2,-1.53813455E-2],"categories":[],"categories_nodes":[],"categories_segments":[],"categories_sizes":[],"default_left":[0,0,0,0,0,0,0,0,0,0,0,0,0,0,0,0,0,0,0],"id":25,"left_children":[1,3,5,7,9,-1,-1,11,13,15,17,-1,-1,-1,-1,-1,-1,-1,-1],"loss_changes":[1.176618E2,4.2321327E1,2.807541E-1,2.615369E1,2.1622822E1,0E0,0E0,2.37171E1,2.184121E1,3.0200005E1,2.3079304E1,0E0,0E0,0E0,0E0,0E0,0E0,0E0,0E0],"parents":[2147483647,0,0,1,1,2,2,3,3,4,4,7,7,8,8,9,9,10,10],"right_children":[2,4,6,8,10,-1,-1,12,14,16,18,-1,-1,-1,-1,-1,-1,-1,-1],"split_conditions":[2.036218E0,2.0465231E-1,6.8176013E-1,6.633471E-3,6.797274E-1,1.8016258E-2,5.7112385E-2,5.891118E-1,6.0643937E-2,3.5596746E-1,7.6202667E-1,4.1497033E-2,-6.261845E-2,-5.0436348E-2,-1.1219896E-2,2.9682567E-2,-7.668757E-2,4.1891944E-2,-1.53813455E-2],"split_indices":[10,3,2,16,12,0,0,10,15,8,10,0,0,0,0,0,0,0,0],"split_type":[0,0,0,0,0,0,0,0,0,0,0,0,0,0,0,0,0,0,0],"sum_hessian":[3.626782E2,2.8612872E2,7.654945E1,1.7975615E2,1.0637259E2,1.6102288E0,7.4939224E1,2.7723055E1,1.520331E2,2.5057264E1,8.131532E1,2.1448248E1,6.2748075E0,9.4339386E1,5.7693707E1,1.1694699E1,1.3362565E1,5.661945E1,2.4695873E1],"tree_param":{"num_deleted":"0","num_feature":"18","num_nodes":"19","size_leaf_vector":"1"}},{"base_weights":[8.176465E-2,-2.7106342E-1,8.5591877E-1,-3.642171E-1,1.0863618E0,9.225057E-1,-5.936826E-2,-7.525444E-1,-7.572565E-2,2.4205325E-2,5.819075E-2,-5.4178145E-2,9.59575E-1,-5.9992593E-2,-1.2497509E-2,2.1800755E-2,-3.1041801E-2,4.964422E-2,-4.6917025E-2],"categories":[],"categories_nodes":[],"categories_segments":[],"categories_sizes":[],"default_left":[0,0,0,0,0,0,0,0,0,0,0,0,0,0,0,0,0,0,0],"id":26,"left_children":[1,3,5,7,9,11,-1,13,15,-1,-1,-1,17,-1,-1,-1,-1,-1,-1],"loss_changes":[9.743986E1,3.1404419E1,1.62872E1,2.5735228E1,1.8289566E-1,9.122917E0,0E0,2.1736797E1,3.7429195E1,0E0,0E0,0E0,7.712219E0,0E0,0E0,0E0,0E0,0E0,0E0],"parents":[2147483647,0,0,1,1,2,2,3,3,4,4,5,5,7,7,8,8,12,12],"right_children":[2,4,6,8,10,12,-1,14,16,-1,-1,-1,18,-1,-1,-1,-1,-1,-1],"split_conditions":[4.629787E-1,1.8723055E0,1.4231418E0,6.3128996E-1,3.8014793E-1,1.0299339E0,-5.936826E-2,3.7231886E-1,2.943978E-1,2.4205325E-2,5.819075E-2,-5.4178145E-2,2.165985E0,-5.9992593E-2,-1.2497509E-2,2.1800755E-2,-3.1041801E-2,4.964422E-2,-4.6917025E-2],"split_indices":[13,10,9,12,12,1,0,7,2,0,0,0,6,0,0,0,0,0,0],"split_type":[0,0,0,0,0,0,0,0,0,0,0,0,0,0,0,0,0,0,0],"sum_hessian":[3.5488586E2,2.4422697E2,1.1065889E2,2.2922783E2,1.4999143E1,1.0769774E2,2.9611557E0,9.702187E1,1.3220596E2,2.5353425E0,1.24638E1,1.4417963E0,1.0625594E2,5.0600365E1,4.6421505E1,6.829338E1,6.3912582E1,1.0489189E2,1.3640518E0],"tree_param":{"num_deleted":"0","num_feature":"18","num_nodes":"19","size_leaf_vector":"1"}},{"base_weights":[-2.573072E-2,-3.3603802E-1,1.0585792E0,-8.9030915E-1,-6.705484E-2,1.0967224E0,-4.000433E-2,3.068363E-1,-1.0683559E0,-7.345881E-2,3.5882268E-2,1.1507936E0,1.927239E-1,-5.026132E-2,6.734977E-2,3.763758E-2,-5.9285946E-2,7.917487E-2,-5.8892574E-3,2.6723359E-2,5.833435E-2,-5.1356196E-2,4.4817008E-2],"categories":[],"categories_nodes":[],"categories_segments":[],"categories_sizes":[],"default_left":[0,0,0,0,0,0,0,0,0,0,0,0,0,0,0,0,0,0,0,0,0,0,0],"id":27,"left_children":[1,3,5,7,9,11,-1,13,15,-1,17,19,21,-1,-1,-1,-1,-1,-1,-1,-1,-1,-1],"loss_changes":[1.14296036E2,3.9306904E1,6.2363586E0,1.8699234E1,2.5867016E1,3.4193115E0,0E0,1.7643816E1,1.6976807E1,0E0,4.004462E1,6.2950134E-2,5.5599713E0,0E0,0E0,0E0,0E0,0E0,0E0,0E0,0E0,0E0,0E0],"parents":[2147483647,0,0,1,1,2,2,3,3,4,4,5,5,7,7,8,8,10,10,11,11,12,12],"right_children":[2,4,6,8,10,12,-1,14,16,-1,18,20,22,-1,-1,-1,-1,-1,-1,-1,-1,-1,-1],"split_conditions":[6.706746E-1,4.902014E-1,2.165985E0,1.20311365E-1,1.350866E-1,1.3277245E0,-4.000433E-2,3.7791097E-1,8.643903E-3,-7.345881E-2,1.5787041E-1,5.946726E-1,7.328298E-1,-5.026132E-2,6.734977E-2,3.763758E-2,-5.9285946E-2,7.917487E-2,-5.8892574E-3,2.6723359E-2,5.833435E-2,-5.1356196E-2,4.4817008E-2],"split_indices":[14,0,6,2,8,9,0,7,6,0,8,2,2,0,0,0,0,0,0,0,0,0,0],"split_type":[0,0,0,0,0,0,0,0,0,0,0,0,0,0,0,0,0,0,0,0,0,0,0],"sum_hessian":[3.3763507E2,2.630466E2,7.458846E1,8.519092E1,1.7785568E2,7.349025E1,1.0982126E0,1.0936056E1,7.425486E1,1.1256513E1,1.6659917E2,6.908504E1,4.4052124E0,4.8508058E0,6.0852504E0,4.167912E0,7.0086945E1,1.4207537E1,1.5239163E2,2.607251E0,6.647779E1,1.4432665E0,2.9619458E0],"tree_param":{"num_deleted":"0","num_feature":"18","num_nodes":"23","size_leaf_vector":"1"}},{"base_weights":[-3.2942053E-2,-5.635353E-1,5.633118E-1,-8.5405076E-1,-1.476964E-1,2.0001224E-1,1.0480754E0,-9.5682013E-1,7.3204845E-1,-4.8243716E-1,8.725152E-1,4.2116573E-1,-5.6641614E-1,3.5471505E-1,1.1244745E0,-2.0149132E-2,-5.8426566E-2,6.361363E-2,-5.0002187E-2,2.500225E-2,-4.2558856E-2,-5.877796E-2,6.496127E-2,-9.001154E-2,2.6662407E-2,4.645989E-3,-8.0483206E-2,5.078828E-2,-5.7255883E-2,5.6769248E-2,2.0047741E-2],"categories":[],"categories_nodes":[],"categories_segments":[],"categories_sizes":[],"default_left":[0,0,0,0,0,0,0,0,0,0,0,0,0,0,0,0,0,0,0,0,0,0,0,0,0,0,0,0,0,0,0],"id":28,"left_children":[1,3,5,7,9,11,13,15,17,19,21,23,25,27,29,-1,-1,-1,-1,-1,-1,-1,-1,-1,-1,-1,-1,-1,-1,-1,-1],"loss_changes":[1.03050095E2,2.0691807E1,2.680664E1,1.7202713E1,2.5037952E1,1.5310723E1,3.0697174E0,1.07282715E1,7.5669694E0,2.032182E1,1.7401718E1,1.8284712E1,1.4139908E1,9.054941E0,6.713867E-3,0E0,0E0,0E0,0E0,0E0,0E0,0E0,0E0,0E0,0E0,0E0,0E0,0E0,0E0,0E0,0E0],"parents":[2147483647,0,0,1,1,2,2,3,3,4,4,5,5,6,6,7,7,8,8,9,9,10,10,11,11,12,12,13,13,14,14],"right_children":[2,4,6,8,10,12,14,16,18,20,22,24,26,28,30,-1,-1,-1,-1,-1,-1,-1,-1,-1,-1,-1,-1,-1,-1,-1,-1],"split_conditions":[6.376753E-1,5.1905453E-1,6.706746E-1,1.7668295E0,7.809322E-1,5.105893E-1,1.3273413E0,1.730925E-1,2.3474084E-2,1.8513604E-1,3.9907926E-1,1.619552E-1,3.4377187E-1,1.0951942E-1,1.4591873E0,-2.0149132E-2,-5.8426566E-2,6.361363E-2,-5.0002187E-2,2.500225E-2,-4.2558856E-2,-5.877796E-2,6.496127E-2,-9.001154E-2,2.6662407E-2,4.645989E-3,-8.0483206E-2,5.078828E-2,-5.7255883E-2,5.6769248E-2,2.0047741E-2],"split_indices":[0,6,14,10,8,2,10,2,3,2,10,2,8,3,6,0,0,0,0,0,0,0,0,0,0,0,0,0,0,0,0],"split_type":[0,0,0,0,0,0,0,0,0,0,0,0,0,0,0,0,0,0,0,0,0,0,0,0,0,0,0,0,0,0,0],"sum_hessian":[3.2372488E2,1.7132309E2,1.5240178E2,1.0023947E2,7.108362E1,8.792223E1,6.4479546E1,9.4512405E1,5.72707E0,5.3919315E1,1.71643E1,6.858303E1,1.9339205E1,6.9597054E0,5.7519844E1,2.6940184E1,6.757222E1,4.5678644E0,1.1592057E0,1.46170635E1,3.9302254E1,2.6569312E0,1.450737E1,2.5707548E0,6.6012276E1,1.2408149E1,6.9310555E0,5.054628E0,1.9050775E0,5.610456E1,1.4152822E0],"tree_param":{"num_deleted":"0","num_feature":"18","num_nodes":"31","size_leaf_vector":"1"}},{"base_weights":[1.18204676E-1,-2.0394889E-1,8.785212E-1,-6.5898085E-1,4.3244936E-2,9.502145E-1,-5.5920422E-2,3.345917E-2,-9.890765E-1,3.307892E-1,-6.306665E-1,-5.0271213E-2,9.963009E-1,-3.1382453E-2,4.0075228E-2,4.3295603E-3,-5.783244E-2,2.7184179E-2,-4.5650367E-2,2.6082823E-2,-5.709074E-2,5.6321215E-2,2.2738317E-2],"categories":[],"categories_nodes":[],"categories_segments":[],"categories_sizes":[],"default_left":[0,0,0,0,0,0,0,0,0,0,0,0,0,0,0,0,0,0,0,0,0,0,0],"id":29,"left_children":[1,3,5,7,9,11,-1,13,15,17,19,-1,21,-1,-1,-1,-1,-1,-1,-1,-1,-1,-1],"loss_changes":[8.3712E1,2.7063522E1,1.56204605E1,1.9385994E1,3.0570517E1,9.897415E0,0E0,1.4872786E1,1.0441006E1,2.9751019E1,2.8398853E1,0E0,6.3180695E0,0E0,0E0,0E0,0E0,0E0,0E0,0E0,0E0,0E0,0E0],"parents":[2147483647,0,0,1,1,2,2,3,3,4,4,5,5,7,7,8,8,9,9,10,10,12,12],"right_children":[2,4,6,8,10,12,-1,14,16,18,20,-1,22,-1,-1,-1,-1,-1,-1,-1,-1,-1,-1],"split_conditions":[4.5450827E-1,4.902014E-1,1.4231418E0,5.876224E-1,7.6202667E-1,3.2667243E-1,-5.5920422E-2,3.146723E-1,4.9522698E-2,9.983658E-1,1.5587509E-1,-5.0271213E-2,6.9160193E-1,-3.1382453E-2,4.0075228E-2,4.3295603E-3,-5.783244E-2,2.7184179E-2,-4.5650367E-2,2.6082823E-2,-5.709074E-2,5.6321215E-2,2.2738317E-2],"split_indices":[14,0,9,1,10,10,0,0,8,9,8,0,6,0,0,0,0,0,0,0,0,0,0],"split_type":[0,0,0,0,0,0,0,0,0,0,0,0,0,0,0,0,0,0,0,0,0,0,0],"sum_hessian":[3.4003568E2,2.3935176E2,1.0068393E2,8.366894E1,1.5568282E2,9.770047E1,2.9834573E0,2.730016E1,5.636878E1,1.09479355E2,4.620346E1,1.7701342E0,9.5930336E1,1.4769691E1,1.2530468E1,7.6629033E0,4.8705875E1,9.395964E1,1.5519713E1,1.4190994E1,3.2012463E1,7.647449E1,1.9455845E1],"tree_param":{"num_deleted":"0","num_feature":"18","num_nodes":"23","size_leaf_vector":"1"}},{"base_weights":[1.0970539E-1,-4.547131E-1,5.859823E-1,-7.915688E-1,-1.2328095E-1,3.1209642E-1,1.0688154E0,-1.0425022E0,1.940872E-1,1.5215327E-1,-6.2149834E-2,4.1368926E-1,-6.727456E-2,1.4335466E-2,1.0803825E0,-5.913642E-2,3.2793507E-3,6.23806E-2,-5.9367266E-2,-1.28702065E-2,4.1542273E-2,3.6225792E-2,-5.1448017E-4,1.8357031E-2,5.4486185E-2],"categories":[],"categories_nodes":[],"categories_segments":[],"categories_sizes":[],"default_left":[0,0,0,0,0,0,0,0,0,0,0,0,0,0,0,0,0,0,0,0,0,0,0,0,0],"id":30,"left_children":[1,3,5,7,9,11,13,15,17,19,-1,21,-1,-1,23,-1,-1,-1,-1,-1,-1,-1,-1,-1,-1],"loss_changes":[9.158855E1,1.7322876E1,2.408881E1,1.9296432E1,2.4810863E1,2.0638191E1,2.9122162E-1,9.663315E0,2.550766E1,1.827166E1,0E0,1.4915922E1,0E0,0E0,3.365326E-2,0E0,0E0,0E0,0E0,0E0,0E0,0E0,0E0,0E0,0E0],"parents":[2147483647,0,0,1,1,2,2,3,3,4,4,5,5,6,6,7,7,8,8,9,9,11,11,14,14],"right_children":[2,4,6,8,10,12,14,16,18,20,-1,22,-1,-1,24,-1,-1,-1,-1,-1,-1,-1,-1,-1,-1],"split_conditions":[6.050828E-1,3.5160613E-1,1.8723055E0,1.2464226E0,2.943978E-1,1.3277245E0,3.8014793E-1,8.816122E-1,1.3764834E-1,2.4870992E-1,-6.2149834E-2,7.6202667E-1,-6.727456E-2,1.4335466E-2,3.6456704E-2,-5.913642E-2,3.2793507E-3,6.23806E-2,-5.9367266E-2,-1.28702065E-2,4.1542273E-2,3.6225792E-2,-5.1448017E-4,1.8357031E-2,5.4486185E-2],"split_indices":[0,7,10,1,2,9,12,8,8,2,0,10,0,0,9,0,0,0,0,0,0,0,0,0,0],"split_type":[0,0,0,0,0,0,0,0,0,0,0,0,0,0,0,0,0,0,0,0,0,0,0,0,0],"sum_hessian":[3.3871524E2,1.5503462E2,1.8368062E2,7.619968E1,7.883494E1,1.18249985E2,6.543063E1,6.0690987E1,1.5508695E1,6.3964653E1,1.4870286E1,1.1212812E2,6.1218576E0,1.3294146E0,6.410122E1,5.381363E1,6.877355E0,8.853558E0,6.655137E0,4.0278996E1,2.368566E1,6.428833E1,4.783979E1,1.3496932E0,6.275153E1],"tree_param":{"num_deleted":"0","num_feature":"18","num_nodes":"25","size_leaf_vector":"1"}},{"base_weights":[1.12738155E-1,-7.183887E-1,3.671082E-1,7.641201E-1,-8.0875045E-1,1.4071868E-1,1.0134261E0,7.699637E-2,-3.6637682E-2,-9.1948986E-1,6.250762E-1,3.7272197E-1,-2.8867003E-1,2.926882E-1,5.4165836E-2,2.100136E-2,-5.1526487E-2,9.503526E-2,-4.195253E-2,-3.1821907E-2,2.709548E-2,-6.860822E-2,3.298822E-3,-5.8989745E-2,4.335673E-2],"categories":[],"categories_nodes":[],"categories_segments":[],"categories_sizes":[],"default_left":[0,0,0,0,0,0,0,0,0,0,0,0,0,0,0,0,0,0,0,0,0,0,0,0,0],"id":31,"left_children":[1,3,5,7,9,11,13,-1,-1,15,17,19,21,23,-1,-1,-1,-1,-1,-1,-1,-1,-1,-1,-1],"loss_changes":[7.174732E1,1.1277607E1,3.7834602E1,7.0342407E0,1.256057E1,1.9372137E1,3.0664062E0,0E0,0E0,1.0915878E1,1.2814686E1,2.1854946E1,2.6372898E1,7.204463E0,0E0,0E0,0E0,0E0,0E0,0E0,0E0,0E0,0E0,0E0,0E0],"parents":[2147483647,0,0,1,1,2,2,3,3,4,4,5,5,6,6,9,9,10,10,11,11,12,12,13,13],"right_children":[2,4,6,8,10,12,14,-1,-1,16,18,20,22,24,-1,-1,-1,-1,-1,-1,-1,-1,-1,-1,-1],"split_conditions":[4.902014E-1,8.643903E-3,1.8215337E0,3.319308E-2,7.4488556E-1,7.4919987E-1,5.8216333E-1,7.699637E-2,-3.6637682E-2,2.2717407E-3,7.475349E-1,6.3128996E-1,2.6641676E-2,3.75714E-1,5.4165836E-2,2.100136E-2,-5.1526487E-2,9.503526E-2,-4.195253E-2,-3.1821907E-2,2.709548E-2,-6.860822E-2,3.298822E-3,-5.8989745E-2,4.335673E-2],"split_indices":[0,6,10,9,12,10,14,0,0,15,12,12,16,9,0,0,0,0,0,0,0,0,0,0,0],"split_type":[0,0,0,0,0,0,0,0,0,0,0,0,0,0,0,0,0,0,0,0,0,0,0,0,0],"sum_hessian":[3.3712177E2,7.857199E1,2.5854977E2,4.0856166E0,7.448638E1,1.9238106E2,6.616871E1,2.6719975E0,1.4136189E0,6.947899E1,5.00739E0,1.2498325E2,6.739781E1,6.3078313E0,5.9860874E1,5.1055903E0,6.43734E1,2.516602E0,2.4907877E0,1.754861E1,1.0743464E2,1.5912823E1,5.148499E1,1.474483E0,4.8333483E0],"tree_param":{"num_deleted":"0","num_feature":"18","num_nodes":"25","size_leaf_vector":"1"}},{"base_weights":[6.1090793E-2,-2.8573632E-1,8.13054E-1,-4.108281E-1,4.8525405E-1,8.9225835E-1,-4.0116197E-1,-5.050612E-1,9.309071E-1,-8.838549E-2,1.1200105E0,9.289329E-1,-4.739884E-2,-6.1069686E-2,3.33509E-2,-1.4193455E-2,-5.1119175E-2,5.2249487E-2,1.3600824E-3,2.921961E-2,-6.675342E-2,1.0513482E-2,6.6412106E-2,-4.8841435E-2,4.8171725E-2],"categories":[],"categories_nodes":[],"categories_segments":[],"categories_sizes":[],"default_left":[0,0,0,0,0,0,0,0,0,0,0,0,0,0,0,0,0,0,0,0,0,0,0,0,0],"id":32,"left_children":[1,3,5,7,9,11,13,15,17,19,21,23,-1,-1,-1,-1,-1,-1,-1,-1,-1,-1,-1,-1,-1],"loss_changes":[8.5209595E1,2.1776386E1,1.0273865E1,2.487664E1,1.1638042E1,7.4340744E0,6.9510546E0,2.0422913E1,1.3138266E0,1.5519645E1,2.5843868E0,7.234276E0,0E0,0E0,0E0,0E0,0E0,0E0,0E0,0E0,0E0,0E0,0E0,0E0,0E0],"parents":[2147483647,0,0,1,1,2,2,3,3,4,4,5,5,6,6,7,7,8,8,9,9,10,10,11,11],"right_children":[2,4,6,8,10,12,14,16,18,20,22,24,-1,-1,-1,-1,-1,-1,-1,-1,-1,-1,-1,-1,-1],"split_conditions":[7.3702514E-1,8.221097E-1,1.3277245E0,1.8856816E0,2.4636686E-1,2.165985E0,2.3330612E0,4.9307276E-2,4.2552775E-1,3.0732067E-2,3.1602483E-2,1.0299339E0,-4.739884E-2,-6.1069686E-2,3.33509E-2,-1.4193455E-2,-5.1119175E-2,5.2249487E-2,1.3600824E-3,2.921961E-2,-6.675342E-2,1.0513482E-2,6.6412106E-2,-4.8841435E-2,4.8171725E-2],"split_indices":[0,7,9,4,3,6,1,16,8,16,16,1,0,0,0,0,0,0,0,0,0,0,0,0,0],"split_type":[0,0,0,0,0,0,0,0,0,0,0,0,0,0,0,0,0,0,0,0,0,0,0,0,0],"sum_hessian":[3.248316E2,2.2272461E2,1.02106995E2,1.920345E2,3.0690111E1,9.610325E1,6.00374E0,1.800152E2,1.2019296E1,1.6573305E1,1.4116805E1,9.4710945E1,1.3923099E0,3.3148813E0,2.6888583E0,1.271838E2,5.28314E1,1.0533252E1,1.4860437E0,1.1109344E1,5.463962E0,3.0037103E0,1.1113095E1,1.1984702E0,9.3512474E1],"tree_param":{"num_deleted":"0","num_feature":"18","num_nodes":"25","size_leaf_vector":"1"}},{"base_weights":[6.551833E-2,-1.23724826E-1,1.0669171E0,-6.421316E-1,1.0303168E-1,1.1797971E-2,5.4933943E-2,5.75006E-2,-9.905758E-1,3.4694493E-1,-3.423588E-1,5.2666526E-2,-3.0142838E-2,4.5525515E-3,-5.8161713E-2,-8.584285E-2,2.0992877E-2,-4.8638478E-2,8.777955E-3],"categories":[],"categories_nodes":[],"categories_segments":[],"categories_sizes":[],"default_left":[0,0,0,0,0,0,0,0,0,0,0,0,0,0,0,0,0,0,0],"id":33,"left_children":[1,3,5,7,9,-1,-1,11,13,15,17,-1,-1,-1,-1,-1,-1,-1,-1],"loss_changes":[6.0567074E1,3.1701075E1,1.0812798E0,2.0054665E1,2.0551495E1,0E0,0E0,1.919072E1,1.03424835E1,1.908292E1,2.206508E1,0E0,0E0,0E0,0E0,0E0,0E0,0E0,0E0],"parents":[2147483647,0,0,1,1,2,2,3,3,4,4,7,7,8,8,9,9,10,10],"right_children":[2,4,6,8,10,-1,-1,12,14,16,18,-1,-1,-1,-1,-1,-1,-1,-1],"split_conditions":[2.036218E0,5.0193375E-1,2.1487322E0,5.876224E-1,7.4919987E-1,1.1797971E-2,5.4933943E-2,1.5404579E-2,4.9522698E-2,3.5688543E-1,6.502819E-1,5.2666526E-2,-3.0142838E-2,4.5525515E-3,-5.8161713E-2,-8.584285E-2,2.0992877E-2,-4.8638478E-2,8.777955E-3],"split_indices":[10,0,1,1,10,0,0,16,8,4,9,0,0,0,0,0,0,0,0],"split_type":[0,0,0,0,0,0,0,0,0,0,0,0,0,0,0,0,0,0,0],"sum_hessian":[3.1790536E2,2.6811395E2,4.979141E1,8.103084E1,1.870831E2,2.143432E0,4.7647976E1,2.7217167E1,5.3813675E1,1.2102572E2,6.605738E1,1.0614793E1,1.6602375E1,7.472776E0,4.6340897E1,3.360466E0,1.1766525E2,2.9397028E1,3.6660355E1],"tree_param":{"num_deleted":"0","num_feature":"18","num_nodes":"19","size_leaf_vector":"1"}},{"base_weights":[5.794369E-2,-1.1784007E-1,1.0363029E0,-6.1431617E-1,1.4588608E-1,3.5581097E-1,5.432877E-2,4.5622802E-1,-8.0384463E-1,-6.110098E-2,2.1772027E-1,4.0029284E-2,-8.384372E-3,-5.17458E-2,5.6687444E-2,3.9230444E-2,-4.4762477E-2,2.2038374E-2,-1.30884545E-2],"categories":[],"categories_nodes":[],"categories_segments":[],"categories_sizes":[],"default_left":[0,0,0,0,0,0,0,0,0,0,0,0,0,0,0,0,0,0,0],"id":34,"left_children":[1,3,5,7,9,11,-1,13,15,-1,17,-1,-1,-1,-1,-1,-1,-1,-1],"loss_changes":[5.3800613E1,3.4850025E1,1.2431564E0,1.9092548E1,1.7382338E1,1.2435579E0,0E0,1.5842175E1,1.2139496E1,0E0,1.7906017E1,0E0,0E0,0E0,0E0,0E0,0E0,0E0,0E0],"parents":[2147483647,0,0,1,1,2,2,3,3,4,4,5,5,7,7,8,8,10,10],"right_children":[2,4,6,8,10,12,-1,14,16,-1,18,-1,-1,-1,-1,-1,-1,-1,-1],"split_conditions":[2.036218E0,6.3970095E-1,6.706746E-1,5.5174986E-3,1.060971E-1,6.4663804E-1,5.432877E-2,3.9754915E-1,8.643903E-3,-6.110098E-2,7.6202667E-1,4.0029284E-2,-8.384372E-3,-5.17458E-2,5.6687444E-2,3.9230444E-2,-4.4762477E-2,2.2038374E-2,-1.30884545E-2],"split_indices":[10,12,14,16,6,0,0,7,6,0,10,0,0,0,0,0,0,0,0],"split_type":[0,0,0,0,0,0,0,0,0,0,0,0,0,0,0,0,0,0,0],"sum_hessian":[3.1112122E2,2.6448093E2,4.6640266E1,9.129143E1,1.7318951E2,3.764281E0,4.2875984E1,1.3519562E1,7.7771866E1,7.8422117E0,1.6534729E2,1.7489983E0,2.0152826E0,4.0588984E0,9.460663E0,3.8190875E0,7.395278E1,1.1290657E2,5.2440727E1],"tree_param":{"num_deleted":"0","num_feature":"18","num_nodes":"19","size_leaf_vector":"1"}},{"base_weights":[-8.247343E-3,-5.078769E-1,5.272743E-1,-7.2522783E-1,-2.8812343E-2,-6.92448E-2,6.192526E-1,-4.8455453E-1,-6.8175554E-2,-4.7451454E-1,8.710462E-1,3.9992478E-1,9.472659E-1,-5.6327797E-2,-3.4427927E-3,5.397538E-2,-4.268938E-2,-4.8290398E-2,5.6997966E-2,2.9538719E-2,-3.864446E-2,5.0495155E-2,-4.5536794E-2],"categories":[],"categories_nodes":[],"categories_segments":[],"categories_sizes":[],"default_left":[0,0,0,0,0,0,0,0,0,0,0,0,0,0,0,0,0,0,0,0,0,0,0],"id":35,"left_children":[1,3,5,7,9,-1,11,13,-1,15,17,19,21,-1,-1,-1,-1,-1,-1,-1,-1,-1,-1],"loss_changes":[8.1193825E1,1.6324806E1,2.6619434E1,1.59217415E1,2.0480871E1,0E0,9.725052E0,2.1256727E1,0E0,2.1025415E1,9.461774E0,1.9682945E1,7.38435E0,0E0,0E0,0E0,0E0,0E0,0E0,0E0,0E0,0E0,0E0],"parents":[2147483647,0,0,1,1,2,2,3,3,4,4,6,6,7,7,9,9,10,10,11,11,12,12],"right_children":[2,4,6,8,10,-1,12,14,-1,16,18,20,22,-1,-1,-1,-1,-1,-1,-1,-1,-1,-1],"split_conditions":[2.5931695E-1,6.800601E-1,3.810603E-1,9.6601397E-1,6.383259E-1,-6.92448E-2,6.706746E-1,3.7231886E-1,-6.8175554E-2,7.4996036E-3,9.595983E-2,1.8033369E-1,2.165985E0,-5.6327797E-2,-3.4427927E-3,5.397538E-2,-4.268938E-2,-4.8290398E-2,5.6997966E-2,2.9538719E-2,-3.864446E-2,5.0495155E-2,-4.5536794E-2],"split_indices":[14,6,4,1,8,0,14,7,0,15,14,15,6,0,0,0,0,0,0,0,0,0,0],"split_type":[0,0,0,0,0,0,0,0,0,0,0,0,0,0,0,0,0,0,0,0,0,0,0],"sum_hessian":[3.0145667E2,1.5598128E2,1.4547537E2,1.0694612E2,4.9035156E1,6.0313215E0,1.3944405E2,7.893992E1,2.8006208E1,3.310891E1,1.5926248E1,8.489667E1,5.4547382E1,3.0352991E1,4.8586926E1,6.133095E0,2.6975815E1,1.7028865E0,1.4223361E1,7.3441895E1,1.1454772E1,5.3210022E1,1.337363E0],"tree_param":{"num_deleted":"0","num_feature":"18","num_nodes":"23","size_leaf_vector":"1"}},{"base_weights":[-6.298772E-2,-9.3979466E-1,2.6843646E-1,-1.1239372E0,2.722079E-1,2.430069E-2,9.8885906E-1,1.0413336E-1,-6.249941E-2,-5.4849166E-2,1.1583925E0,1.1798537E-1,-6.523522E-2,4.5720342E-1,1.0720633E0,-4.5339964E-2,6.684622E-2,7.860774E-2,-3.4209177E-2,1.5554994E-2,-1.8268052E-2,4.3958664E-2,-3.0945376E-2,5.446851E-2,1.2507848E-2],"categories":[],"categories_nodes":[],"categories_segments":[],"categories_sizes":[],"default_left":[0,0,0,0,0,0,0,0,0,0,0,0,0,0,0,0,0,0,0,0,0,0,0,0,0],"id":36,"left_children":[1,3,5,7,9,11,13,15,-1,-1,17,19,-1,21,23,-1,-1,-1,-1,-1,-1,-1,-1,-1,-1],"loss_changes":[8.2402466E1,1.7662148E1,3.6194977E1,1.0610916E1,1.4692932E1,1.9431719E1,1.8144073E0,1.0217327E1,0E0,0E0,6.5663013E0,1.3699822E1,0E0,4.537112E0,3.5768127E-1,0E0,0E0,0E0,0E0,0E0,0E0,0E0,0E0,0E0,0E0],"parents":[2147483647,0,0,1,1,2,2,3,3,4,4,5,5,6,6,7,7,10,10,11,11,13,13,14,14],"right_children":[2,4,6,8,10,12,14,16,-1,-1,18,20,-1,22,24,-1,-1,-1,-1,-1,-1,-1,-1,-1,-1],"split_conditions":[1.4853652E-1,8.301574E-1,1.8723055E0,5.391307E-1,4.696207E-1,1.2580788E0,6.506466E-2,5.3789705E-1,-6.249941E-2,-5.4849166E-2,7.957697E-1,4.960266E-2,-6.523522E-2,4.9253512E-2,4.6022564E-1,-4.5339964E-2,6.684622E-2,7.860774E-2,-3.4209177E-2,1.5554994E-2,-1.8268052E-2,4.3958664E-2,-3.0945376E-2,5.446851E-2,1.2507848E-2],"split_indices":[14,8,10,1,9,9,15,8,0,0,12,16,0,15,15,0,0,0,0,0,0,0,0,0,0],"split_type":[0,0,0,0,0,0,0,0,0,0,0,0,0,0,0,0,0,0,0,0,0,0,0,0,0],"sum_hessian":[2.8169647E2,7.676731E1,2.0492917E2,6.670528E1,1.0062039E1,1.538324E2,5.109677E1,6.2255716E0,6.0479702E1,3.860122E0,6.201917E0,1.445537E2,9.278706E0,7.793447E0,4.330332E1,3.5658674E0,2.6597044E0,5.1844735E0,1.0174438E0,1.03541466E2,4.101223E1,5.729698E0,2.0637486E0,4.2091587E1,1.2117372E0],"tree_param":{"num_deleted":"0","num_feature":"18","num_nodes":"25","size_leaf_vector":"1"}},{"base_weights":[8.01092E-2,-1.5934555E-1,7.011782E-1,-5.5760946E-2,-3.70509E-2,9.0719825E-1,9.9562764E-2,3.6203998E-1,-3.5196722E-1,-2.3682145E-2,9.5912087E-1,-8.5857004E-2,7.6697284E-1,-5.6747008E-2,2.9865423E-2,-5.7556182E-2,-2.4156212E-3,5.0918747E-2,2.2807764E-3,4.6129897E-2,-4.0059846E-2],"categories":[],"categories_nodes":[],"categories_segments":[],"categories_sizes":[],"default_left":[0,0,0,0,0,0,0,0,0,0,0,0,0,0,0,0,0,0,0,0,0],"id":37,"left_children":[1,3,5,-1,7,9,11,13,15,-1,17,-1,19,-1,-1,-1,-1,-1,-1,-1,-1],"loss_changes":[4.4569458E1,2.5275303E1,1.0242962E1,0E0,2.4388624E1,4.898056E0,2.8464777E1,3.0837456E1,2.6250854E1,0E0,3.2047615E0,0E0,4.9040394E0,0E0,0E0,0E0,0E0,0E0,0E0,0E0,0E0],"parents":[2147483647,0,0,1,1,2,2,4,4,5,5,6,6,7,7,8,8,10,10,12,12],"right_children":[2,4,6,-1,8,10,12,14,16,-1,18,-1,20,-1,-1,-1,-1,-1,-1,-1,-1],"split_conditions":[4.5450827E-1,4.3249595E-1,6.6818917E-1,-5.5760946E-2,5.0384E-1,5.5174986E-3,6.706746E-1,9.624228E-2,2.2823203E-2,-2.3682145E-2,1.391518E0,-8.5857004E-2,2.165985E0,-5.6747008E-2,2.9865423E-2,-5.7556182E-2,-2.4156212E-3,5.0918747E-2,2.2807764E-3,4.6129897E-2,-4.0059846E-2],"split_indices":[14,12,6,0,10,16,14,14,16,0,12,0,6,0,0,0,0,0,0,0,0],"split_type":[0,0,0,0,0,0,0,0,0,0,0,0,0,0,0,0,0,0,0,0,0],"sum_hessian":[2.9793994E2,2.1556985E2,8.237008E1,2.3530764E1,1.920391E2,6.09799E1,2.1390182E1,8.463377E1,1.0740533E2,1.9155421E0,5.9064358E1,5.3243527E0,1.606583E1,1.0975322E1,7.365845E1,2.8805178E1,7.860014E1,5.5358746E1,3.7056136E0,1.4989904E1,1.075925E0],"tree_param":{"num_deleted":"0","num_feature":"18","num_nodes":"21","size_leaf_vector":"1"}},{"base_weights":[2.4963394E-2,-6.598738E-1,2.8936386E-1,-8.7257373E-1,3.6285248E-1,8.14088E-2,8.674722E-1,4.9033016E-3,-9.8674864E-1,9.722021E-1,-5.3466808E-2,1.6039935E-1,-6.302302E-2,3.0077842E-1,5.3667326E-2,-4.7163114E-2,7.58203E-2,-1.3930246E-2,-6.126981E-2,-4.224136E-2,6.662994E-2,1.752621E-2,-1.7350702E-2,4.2065505E-2,-8.698218E-2],"categories":[],"categories_nodes":[],"categories_segments":[],"categories_sizes":[],"default_left":[0,0,0,0,0,0,0,0,0,0,0,0,0,0,0,0,0,0,0,0,0,0,0,0,0],"id":38,"left_children":[1,3,5,7,9,11,13,15,17,19,-1,21,-1,23,-1,-1,-1,-1,-1,-1,-1,-1,-1,-1,-1],"loss_changes":[5.2484062E1,1.788176E1,2.50617E1,6.731167E0,1.378827E1,1.661552E1,6.117405E0,1.393481E1,9.699257E0,8.179754E0,0E0,1.431541E1,0E0,1.9219902E1,0E0,0E0,0E0,0E0,0E0,0E0,0E0,0E0,0E0,0E0,0E0],"parents":[2147483647,0,0,1,1,2,2,3,3,4,4,5,5,6,6,7,7,8,8,9,9,11,11,13,13],"right_children":[2,4,6,8,10,12,14,16,18,20,-1,22,-1,24,-1,-1,-1,-1,-1,-1,-1,-1,-1,-1,-1],"split_conditions":[1.4975354E-1,8.018141E-1,1.7668295E0,3.3097968E-2,2.724391E-1,1.3277245E0,6.706746E-1,9.396399E-1,1.8513604E-1,9.624228E-2,-5.3466808E-2,4.960266E-2,-6.302302E-2,6.9657344E-1,5.3667326E-2,-4.7163114E-2,7.58203E-2,-1.3930246E-2,-6.126981E-2,-4.224136E-2,6.662994E-2,1.752621E-2,-1.7350702E-2,4.2065505E-2,-8.698218E-2],"split_indices":[14,8,10,14,2,9,14,1,2,14,0,16,0,12,0,0,0,0,0,0,0,0,0,0,0],"split_type":[0,0,0,0,0,0,0,0,0,0,0,0,0,0,0,0,0,0,0,0,0,0,0,0,0],"sum_hessian":[2.877985E2,7.974672E1,2.0805179E2,6.613848E1,1.3608234E1,1.5385016E2,5.420162E1,7.7251163E0,5.8413364E1,9.77182E0,3.836414E0,1.4612862E2,7.721549E0,1.5099479E1,3.9102142E1,4.978222E0,2.7468944E0,1.5269954E1,4.3143414E1,1.394904E0,8.376916E0,1.0652392E2,3.96047E1,1.240178E1,2.697698E0],"tree_param":{"num_deleted":"0","num_feature":"18","num_nodes":"25","size_leaf_vector":"1"}},{"base_weights":[9.770263E-2,-1.7687516E-1,8.330585E-1,-6.941733E-1,7.196887E-2,-1.6256659E-1,9.3629193E-1,-7.369347E-2,-1.0086477E0,2.8031918E-1,-5.068503E-1,-5.436155E-2,4.8567623E-2,1.717523E-1,9.683775E-1,1.8775558E-2,-4.9753793E-2,1.6834402E-2,-6.0742516E-2,-4.9093463E-3,3.2041628E-2,-5.1159073E-2,1.4426417E-2,3.3576246E-2,-1.650465E-2,4.9553007E-2,2.7222778E-3],"categories":[],"categories_nodes":[],"categories_segments":[],"categories_sizes":[],"default_left":[0,0,0,0,0,0,0,0,0,0,0,0,0,0,0,0,0,0,0,0,0,0,0,0,0,0,0],"id":39,"left_children":[1,3,5,7,9,11,13,15,17,19,21,-1,-1,23,25,-1,-1,-1,-1,-1,-1,-1,-1,-1,-1,-1,-1],"loss_changes":[5.6897083E1,2.649966E1,8.024189E0,1.2966171E1,1.6982323E1,9.493652E0,1.5395927E0,1.0123975E1,1.2691082E1,1.4162139E1,1.5620333E1,0E0,0E0,1.2290453E0,1.3251381E0,0E0,0E0,0E0,0E0,0E0,0E0,0E0,0E0,0E0,0E0,0E0,0E0],"parents":[2147483647,0,0,1,1,2,2,3,3,4,4,5,5,6,6,7,7,8,8,9,9,10,10,13,13,14,14],"right_children":[2,4,6,8,10,12,14,16,18,20,22,-1,-1,24,26,-1,-1,-1,-1,-1,-1,-1,-1,-1,-1,-1,-1],"split_conditions":[1.4565042E0,6.3128996E-1,4.2638668E-1,5.876224E-1,7.6202667E-1,7.3702514E-1,3.8014793E-1,4.9307276E-2,3.3097968E-2,2.1385401E-1,4.2584252E-1,-5.436155E-2,4.8567623E-2,1.4896989E-2,1.3969475E0,1.8775558E-2,-4.9753793E-2,1.6834402E-2,-6.0742516E-2,-4.9093463E-3,3.2041628E-2,-5.1159073E-2,1.4426417E-2,3.3576246E-2,-1.650465E-2,4.9553007E-2,2.7222778E-3],"split_indices":[10,12,14,1,10,0,12,16,14,3,2,0,0,9,9,0,0,0,0,0,0,0,0,0,0,0,0],"split_type":[0,0,0,0,0,0,0,0,0,0,0,0,0,0,0,0,0,0,0,0,0,0,0,0,0,0,0],"sum_hessian":[2.8006122E2,2.0447198E2,7.558923E1,6.583152E1,1.3864046E2,7.0473175E0,6.8541916E1,2.2557787E1,4.3273735E1,1.02323906E2,3.6316555E1,3.904518E0,3.1427996E0,3.0165281E0,6.552539E1,1.5562835E1,6.994952E0,5.6670685E0,3.7606667E1,5.0271286E1,5.2052616E1,2.1847523E1,1.4469033E1,1.3419794E0,1.6745486E0,6.3856163E1,1.6692225E0],"tree_param":{"num_deleted":"0","num_feature":"18","num_nodes":"27","size_leaf_vector":"1"}},{"base_weights":[4.2191632E-2,-1.8023032E-1,7.8213465E-1,-2.942486E-4,-8.731841E-1,2.0315959E-1,9.638076E-1,-3.7526542E-1,4.868284E-1,-1.1216636E0,4.0350863E-1,-6.2340885E-2,7.0725167E-1,6.57453E-2,1.025892E0,2.7220562E-2,-3.0759666E-2,-4.1003533E-2,3.2357626E-2,-6.401393E-2,1.5628356E-2,5.170241E-2,-5.934716E-2,5.0334085E-2,-8.0427695E-3,-5.0707597E-2,3.855682E-2,5.4712635E-2,1.4800397E-2],"categories":[],"categories_nodes":[],"categories_segments":[],"categories_sizes":[],"default_left":[0,0,0,0,0,0,0,0,0,0,0,0,0,0,0,0,0,0,0,0,0,0,0,0,0,0,0,0,0],"id":40,"left_children":[1,3,5,7,9,11,13,15,17,19,21,-1,23,25,27,-1,-1,-1,-1,-1,-1,-1,-1,-1,-1,-1,-1,-1,-1],"loss_changes":[4.5584343E1,2.65724E1,6.5363655E0,3.12679E1,1.4388824E1,1.2981289E1,2.633915E0,2.1678152E1,1.6131557E1,8.825989E0,9.14237E0,0E0,3.5206866E0,3.9824014E0,1.9337921E0,0E0,0E0,0E0,0E0,0E0,0E0,0E0,0E0,0E0,0E0,0E0,0E0,0E0,0E0],"parents":[2147483647,0,0,1,1,2,2,3,3,4,4,5,5,6,6,7,7,8,8,9,9,10,10,12,12,13,13,14,14],"right_children":[2,4,6,8,10,12,14,16,18,20,22,-1,24,26,28,-1,-1,-1,-1,-1,-1,-1,-1,-1,-1,-1,-1,-1,-1],"split_conditions":[1.514378E0,7.6202667E-1,2.8495261E-2,2.0465231E-1,9.8778284E-1,6.8176013E-1,6.750405E-2,6.633471E-3,3.6236748E-1,5.691457E-1,9.112979E-1,-6.2340885E-2,1.480317E-2,2.1487322E0,8.383559E-1,2.7220562E-2,-3.0759666E-2,-4.1003533E-2,3.2357626E-2,-6.401393E-2,1.5628356E-2,5.170241E-2,-5.934716E-2,5.0334085E-2,-8.0427695E-3,-5.0707597E-2,3.855682E-2,5.4712635E-2,1.4800397E-2],"split_indices":[10,10,16,3,7,2,9,16,10,3,10,0,16,1,6,0,0,0,0,0,0,0,0,0,0,0,0,0,0],"split_type":[0,0,0,0,0,0,0,0,0,0,0,0,0,0,0,0,0,0,0,0,0,0,0,0,0,0,0,0,0],"sum_hessian":[2.7511798E2,2.1211426E2,6.3003708E1,1.6918358E2,4.2930687E1,1.5553714E1,4.7449997E1,9.572625E1,7.345732E1,3.603811E1,6.892577E0,3.6323063E0,1.1921408E1,3.2013164E0,4.424868E1,1.9543657E1,7.6182594E1,7.577056E0,6.588027E1,3.25461E1,3.4920092E0,5.1862946E0,1.7062826E0,8.745318E0,3.1760888E0,1.0919352E0,2.1093812E0,4.0002815E1,4.245863E0],"tree_param":{"num_deleted":"0","num_feature":"18","num_nodes":"29","size_leaf_vector":"1"}},{"base_weights":[7.275183E-2,-1.8097474E-1,6.805303E-1,-6.204628E-1,1.9056367E-2,5.5886876E-2,4.7341123E-1,1.2696165E-1,-5.5155344E-2,7.6746064E-1,-1.7635278E-1,2.7779227E-1,9.486461E-1,-5.1296562E-2,4.439824E-2,4.9697082E-2,-4.9175397E-2,2.7751682E-2,-1.6811369E-2,5.5212557E-2,2.875279E-3,5.053071E-2,2.645108E-3],"categories":[],"categories_nodes":[],"categories_segments":[],"categories_sizes":[],"default_left":[0,0,0,0,0,0,0,0,0,0,0,0,0,0,0,0,0,0,0,0,0,0,0],"id":41,"left_children":[1,3,5,7,9,-1,11,13,-1,15,17,19,21,-1,-1,-1,-1,-1,-1,-1,-1,-1,-1],"loss_changes":[4.3889126E1,1.7683077E1,7.0589104E0,2.2831736E1,2.0479374E1,0E0,5.183707E0,2.3352163E1,0E0,1.247319E1,1.3179991E1,7.7508965E0,8.719511E-1,0E0,0E0,0E0,0E0,0E0,0E0,0E0,0E0,0E0,0E0],"parents":[2147483647,0,0,1,1,2,2,3,3,4,4,6,6,7,7,9,9,10,10,11,11,12,12],"right_children":[2,4,6,8,10,-1,12,14,-1,16,18,20,22,-1,-1,-1,-1,-1,-1,-1,-1,-1,-1],"split_conditions":[7.3702514E-1,4.9366856E-1,3.668189E-1,5.876224E-1,5.1483196E-1,5.5886876E-2,2.3330612E0,3.8381207E-1,-5.5155344E-2,7.1347547E-1,1.5587509E-1,7.4483633E-1,1.4591873E0,-5.1296562E-2,4.439824E-2,4.9697082E-2,-4.9175397E-2,2.7751682E-2,-1.6811369E-2,5.5212557E-2,2.875279E-3,5.053071E-2,2.645108E-3],"split_indices":[0,0,6,1,0,0,1,7,0,12,8,0,6,0,0,0,0,0,0,0,0,0,0],"split_type":[0,0,0,0,0,0,0,0,0,0,0,0,0,0,0,0,0,0,0,0,0,0,0],"sum_hessian":[2.828084E2,2.0001237E2,8.2796036E1,6.1903175E1,1.3810919E2,2.5201551E1,5.7594482E1,2.457821E1,3.7324966E1,2.7988316E1,1.1012088E2,4.1922596E1,1.5671887E1,9.634362E0,1.4943849E1,2.5165592E1,2.822724E0,1.9310135E1,9.0810745E1,7.9780855E0,3.394451E1,1.4537906E1,1.1339812E0],"tree_param":{"num_deleted":"0","num_feature":"18","num_nodes":"23","size_leaf_vector":"1"}},{"base_weights":[5.030321E-2,-1.2251813E-1,9.074306E-1,-3.342613E-1,3.0722362E-1,9.522901E-1,-1.414381E-2,-1.5338594E-1,-7.227075E-2,7.387108E-1,-2.3922306E-1,9.8216707E-1,3.3095542E-3,-3.2773633E-2,6.3417456E-3,4.415422E-2,-7.1445145E-2,-4.6722177E-2,2.563543E-2,4.9872667E-2,8.782837E-3],"categories":[],"categories_nodes":[],"categories_segments":[],"categories_sizes":[],"default_left":[0,0,0,0,0,0,0,0,0,0,0,0,0,0,0,0,0,0,0,0,0],"id":42,"left_children":[1,3,5,7,9,11,-1,13,-1,15,17,19,-1,-1,-1,-1,-1,-1,-1,-1,-1],"loss_changes":[4.0894833E1,2.1032097E1,2.7425575E0,3.0842653E1,1.8200632E1,1.1227188E0,0E0,1.8942612E1,0E0,1.4705618E1,1.850562E1,3.58963E-1,0E0,0E0,0E0,0E0,0E0,0E0,0E0,0E0,0E0],"parents":[2147483647,0,0,1,1,2,2,3,3,4,4,5,5,7,7,9,9,10,10,11,11],"right_children":[2,4,6,8,10,12,-1,14,-1,16,18,20,-1,-1,-1,-1,-1,-1,-1,-1,-1],"split_conditions":[6.706746E-1,7.054199E-1,1.613672E0,5.3789705E-1,2.943978E-1,1.3969475E0,-1.414381E-2,1.4853652E-1,-7.227075E-2,4.193077E-1,4.3253696E-1,4.6319556E-1,3.3095542E-3,-3.2773633E-2,6.3417456E-3,4.415422E-2,-7.1445145E-2,-4.6722177E-2,2.563543E-2,4.9872667E-2,8.782837E-3],"split_indices":[14,8,8,8,2,9,0,14,0,3,7,3,0,0,0,0,0,0,0,0,0],"split_type":[0,0,0,0,0,0,0,0,0,0,0,0,0,0,0,0,0,0,0,0,0],"sum_hessian":[2.7432358E2,2.2900641E2,4.531717E1,1.5356416E2,7.544224E1,4.3864014E1,1.453156E0,1.3304495E2,2.0519222E1,4.1958767E1,3.3483475E1,4.2328392E1,1.5356207E0,4.7176735E1,8.586821E1,3.989422E1,2.064547E0,1.7271698E1,1.6211779E1,4.1308693E1,1.0197006E0],"tree_param":{"num_deleted":"0","num_feature":"18","num_nodes":"21","size_leaf_vector":"1"}},{"base_weights":[1.1981115E-1,-4.7585478E-1,3.3152318E-1,-5.6657102E-2,-1.278244E-2,2.0359662E-1,9.9403477E-1,6.343641E-1,-8.9488363E-1,3.8393852E-1,-2.914006E-1,4.0731555E-1,5.19417E-2,4.561885E-2,-4.8069227E-2,-6.248516E-2,4.6250008E-2,-6.4089596E-2,2.636589E-2,-4.297269E-2,1.7361369E-2,3.5042614E-2,-1.3687628E-3],"categories":[],"categories_nodes":[],"categories_segments":[],"categories_sizes":[],"default_left":[0,0,0,0,0,0,0,0,0,0,0,0,0,0,0,0,0,0,0,0,0,0,0],"id":43,"left_children":[1,3,5,-1,7,9,11,13,15,17,19,21,-1,-1,-1,-1,-1,-1,-1,-1,-1,-1,-1],"loss_changes":[3.562985E1,2.2560232E1,1.7435656E1,0E0,2.5984211E1,1.5795306E1,4.5539474E-1,1.2530462E1,1.359049E1,3.1533796E1,1.7524416E1,5.316206E-1,0E0,0E0,0E0,0E0,0E0,0E0,0E0,0E0,0E0,0E0,0E0],"parents":[2147483647,0,0,1,1,2,2,4,4,5,5,6,6,7,7,8,8,9,9,10,10,11,11],"right_children":[2,4,6,-1,8,10,12,14,16,18,20,22,-1,-1,-1,-1,-1,-1,-1,-1,-1,-1,-1],"split_conditions":[1.3988644E-1,3.5160613E-1,2.036218E0,-5.6657102E-2,4.9478626E-1,4.960266E-2,6.706746E-1,5.022581E-2,2.8488252E-1,1.3683671E-1,8.500661E-2,6.4663804E-1,5.19417E-2,4.561885E-2,-4.8069227E-2,-6.248516E-2,4.6250008E-2,-6.4089596E-2,2.636589E-2,-4.297269E-2,1.7361369E-2,3.5042614E-2,-1.3687628E-3],"split_indices":[14,7,10,0,7,16,14,16,3,8,16,5,0,0,0,0,0,0,0,0,0,0,0],"split_type":[0,0,0,0,0,0,0,0,0,0,0,0,0,0,0,0,0,0,0,0,0,0,0],"sum_hessian":[2.802798E2,7.316828E1,2.071115E2,2.9644176E1,4.3524105E1,1.7468776E2,3.242373E1,2.5267588E1,1.8256516E1,1.2820377E2,4.6484E1,3.0160174E0,2.9407711E1,2.1883303E1,3.3842847E0,1.5540013E1,2.716503E0,9.5314E0,1.1867236E2,2.4418346E1,2.2065657E1,1.4348176E0,1.5811999E0],"tree_param":{"num_deleted":"0","num_feature":"18","num_nodes":"23","size_leaf_vector":"1"}},{"base_weights":[-7.1793976E-3,-2.4672225E-1,6.4718974E-1,-6.3278776E-1,-1.7114935E-2,7.5689983E-1,-5.6657255E-1,-9.5139736E-1,5.182112E-1,-5.576257E-1,2.8484812E-1,8.141515E-1,-4.6922136E-2,-5.88977E-2,3.416401E-2,-2.4379913E-2,-6.444254E-2,3.404657E-2,-4.495851E-2,-4.6357594E-2,4.6132334E-2,2.8715018E-2,-3.4153283E-2,-1.3550471E-2,4.459347E-2],"categories":[],"categories_nodes":[],"categories_segments":[],"categories_sizes":[],"default_left":[0,0,0,0,0,0,0,0,0,0,0,0,0,0,0,0,0,0,0,0,0,0,0,0,0],"id":44,"left_children":[1,3,5,7,9,11,13,15,17,19,21,23,-1,-1,-1,-1,-1,-1,-1,-1,-1,-1,-1,-1,-1],"loss_changes":[3.9639107E1,1.6396645E1,9.452984E0,2.5797045E1,1.927026E1,6.837982E0,5.5345664E0,7.8848495E0,4.21176E0,2.399759E1,2.1625021E1,5.3921127E0,0E0,0E0,0E0,0E0,0E0,0E0,0E0,0E0,0E0,0E0,0E0,0E0,0E0],"parents":[2147483647,0,0,1,1,2,2,3,3,4,4,5,5,6,6,7,7,8,8,9,9,10,10,11,11],"right_children":[2,4,6,8,10,12,14,16,18,20,22,24,-1,-1,-1,-1,-1,-1,-1,-1,-1,-1,-1,-1,-1],"split_conditions":[7.3702514E-1,3.668189E-1,1.3277245E0,3.7849018E-1,3.4223917E-1,2.165985E0,7.328298E-1,1.1937796E-1,6.110461E-1,8.666056E-2,1.0113732E0,7.4774575E-1,-4.6922136E-2,-5.88977E-2,3.416401E-2,-2.4379913E-2,-6.444254E-2,3.404657E-2,-4.495851E-2,-4.6357594E-2,4.6132334E-2,2.8715018E-2,-3.4153283E-2,-1.3550471E-2,4.459347E-2],"split_indices":[0,6,9,14,7,6,2,14,8,16,1,4,0,0,0,0,0,0,0,0,0,0,0,0,0],"split_type":[0,0,0,0,0,0,0,0,0,0,0,0,0,0,0,0,0,0,0,0,0,0,0,0,0],"sum_hessian":[2.5086328E2,1.8409512E2,6.676816E1,6.800106E1,1.16094055E2,6.1578568E1,5.1895914E0,5.339432E1,1.4606741E1,4.130746E1,7.47866E1,6.0069786E1,1.5087824E0,3.5235353E0,1.6660564E0,2.3517117E1,2.9877205E1,1.3568603E1,1.0381377E0,3.3354664E1,7.952794E0,5.7883377E1,1.690322E1,3.8483844E0,5.62214E1],"tree_param":{"num_deleted":"0","num_feature":"18","num_nodes":"25","size_leaf_vector":"1"}},{"base_weights":[-5.7913647E-3,-2.1747641E-1,7.870602E-1,-7.9639816E-1,-1.712509E-2,9.7686875E-1,9.953525E-2,8.142137E-1,-9.4039893E-1,2.9583842E-1,-2.7448538E-1,1.0966067E0,-2.5013188E-1,-7.337642E-2,6.307469E-1,6.9148414E-2,-2.9582558E-2,2.1526275E-2,-5.4794785E-2,-1.5128887E-2,3.5707172E-2,-5.5037994E-2,1.0953422E-2,1.6934415E-2,5.6577124E-2,-5.004356E-2,3.370167E-2,4.652012E-2,-9.734313E-3],"categories":[],"categories_nodes":[],"categories_segments":[],"categories_sizes":[],"default_left":[0,0,0,0,0,0,0,0,0,0,0,0,0,0,0,0,0,0,0,0,0,0,0,0,0,0,0,0,0],"id":45,"left_children":[1,3,5,7,9,11,13,15,17,19,21,23,25,-1,27,-1,-1,-1,-1,-1,-1,-1,-1,-1,-1,-1,-1,-1,-1],"loss_changes":[4.2367558E1,2.3093323E1,6.844898E0,1.2639839E1,1.20840645E1,6.382393E0,1.1433148E1,4.606469E0,1.058897E1,1.716973E1,3.3801514E1,6.246376E-1,3.8041477E0,0E0,2.6858354E0,0E0,0E0,0E0,0E0,0E0,0E0,0E0,0E0,0E0,0E0,0E0,0E0,0E0,0E0],"parents":[2147483647,0,0,1,1,2,2,3,3,4,4,5,5,6,6,7,7,8,8,9,9,10,10,11,11,12,12,14,14],"right_children":[2,4,6,8,10,12,14,16,18,20,22,24,26,-1,28,-1,-1,-1,-1,-1,-1,-1,-1,-1,-1,-1,-1,-1,-1],"split_conditions":[8.054183E-1,4.902014E-1,9.4029486E-1,8.643903E-3,1.0113732E0,1.3277245E0,6.706746E-1,3.319308E-2,3.988772E-1,6.3128996E-1,2.6300943E-1,2.292862E-1,7.328298E-1,-7.337642E-2,9.4059706E-2,6.9148414E-2,-2.9582558E-2,2.1526275E-2,-5.4794785E-2,-1.5128887E-2,3.5707172E-2,-5.5037994E-2,1.0953422E-2,1.6934415E-2,5.6577124E-2,-5.004356E-2,3.370167E-2,4.652012E-2,-9.734313E-3],"split_indices":[0,0,6,6,1,9,14,9,1,8,14,2,2,0,15,0,0,0,0,0,0,0,0,0,0,0,0,0,0],"split_type":[0,0,0,0,0,0,0,0,0,0,0,0,0,0,0,0,0,0,0,0,0,0,0,0,0,0,0,0,0],"sum_hessian":[2.5041618E2,1.98219E2,5.2197186E1,5.019728E1,1.4802171E2,4.057468E1,1.1622505E1,3.7377105E0,4.645957E1,6.672777E1,8.129395E1,3.7064022E1,3.5106587E0,2.49619E0,9.126315E0,2.672724E0,1.0649865E0,4.5526633E0,4.1906906E1,2.7567327E1,3.916044E1,2.9940056E1,5.1353897E1,2.104399E0,3.495962E1,1.8912857E0,1.6193731E0,6.6023192E0,2.5239964E0],"tree_param":{"num_deleted":"0","num_feature":"18","num_nodes":"29","size_leaf_vector":"1"}},{"base_weights":[7.36677E-2,-6.122659E-1,2.9066354E-1,-3.6050513E-1,-5.6051917E-2,1.518491E-1,9.555652E-1,-6.3231665E-1,1.0408804E0,3.7985355E-1,-4.9884048E-1,1.02000065E-1,5.1548053E-2,9.56041E-3,-5.050419E-2,-3.12363E-2,7.378333E-2,2.250307E-2,-5.6538194E-2,-6.381479E-2,-8.818443E-3,3.382222E-2,-2.3744185E-2],"categories":[],"categories_nodes":[],"categories_segments":[],"categories_sizes":[],"default_left":[0,0,0,0,0,0,0,0,0,0,0,0,0,0,0,0,0,0,0,0,0,0,0],"id":46,"left_children":[1,3,5,7,-1,9,11,13,15,17,19,21,-1,-1,-1,-1,-1,-1,-1,-1,-1,-1,-1],"loss_changes":[3.9004765E1,7.6669426E0,1.8207685E1,1.7276146E1,0E0,2.4771051E1,2.0928574E0,1.1754147E1,6.3279743E0,1.3581865E1,1.0661944E1,1.6076189E0,0E0,0E0,0E0,0E0,0E0,0E0,0E0,0E0,0E0,0E0,0E0],"parents":[2147483647,0,0,1,1,2,2,3,3,5,5,6,6,7,7,8,8,9,9,10,10,11,11],"right_children":[2,4,6,8,-1,10,12,14,16,18,20,22,-1,-1,-1,-1,-1,-1,-1,-1,-1,-1,-1],"split_conditions":[1.3988644E-1,6.6774505E-1,2.036218E0,6.365637E-1,-5.6051917E-2,4.960266E-2,6.706746E-1,2.0566443E-1,4.9366856E-1,1.3277245E0,4.4149634E-1,1.0454272E-1,5.1548053E-2,9.56041E-3,-5.050419E-2,-3.12363E-2,7.378333E-2,2.250307E-2,-5.6538194E-2,-6.381479E-2,-8.818443E-3,3.382222E-2,-2.3744185E-2],"split_indices":[14,10,10,10,0,16,14,6,0,9,10,9,0,0,0,0,0,0,0,0,0,0,0],"split_type":[0,0,0,0,0,0,0,0,0,0,0,0,0,0,0,0,0,0,0,0,0,0,0],"sum_hessian":[2.598544E2,6.201155E1,1.9784285E2,4.2626736E1,1.9384815E1,1.6468849E2,3.3154354E1,3.6161644E1,6.46509E0,1.2226318E2,4.2425316E1,2.8818185E0,3.0272535E1,1.1526956E1,2.463469E1,1.2478578E0,5.2172318E0,1.175041E2,4.7590847E0,1.1570892E1,3.0854424E1,1.3574876E0,1.5243309E0],"tree_param":{"num_deleted":"0","num_feature":"18","num_nodes":"23","size_leaf_vector":"1"}},{"base_weights":[5.8604468E-2,-1.321998E-1,7.0496804E-1,-5.397836E-2,-1.659277E-2,-2.7967897E-1,8.517518E-1,4.6023265E-2,-9.656774E-2,-5.3503998E-2,4.009963E-2,9.172073E-1,5.6505322E-2,-2.0621046E-2,1.3697604E-2,-9.914761E-3,4.737171E-2,-5.7959136E-2,3.847282E-2],"categories":[],"categories_nodes":[],"categories_segments":[],"categories_sizes":[],"default_left":[0,0,0,0,0,0,0,0,0,0,0,0,0,0,0,0,0,0,0],"id":47,"left_children":[1,3,5,-1,7,9,11,13,-1,-1,-1,15,17,-1,-1,-1,-1,-1,-1],"loss_changes":[3.1144876E1,2.1364876E1,8.554855E0,0E0,2.107274E1,7.8841844E0,2.56773E0,1.792411E1,0E0,0E0,0E0,1.7534714E0,5.1326437E0,0E0,0E0,0E0,0E0,0E0,0E0],"parents":[2147483647,0,0,1,1,2,2,4,4,5,5,6,6,7,7,11,11,12,12],"right_children":[2,4,6,-1,8,10,12,14,-1,-1,-1,16,18,-1,-1,-1,-1,-1,-1],"split_conditions":[1.4565042E0,4.7015315E-1,4.2638668E-1,-5.397836E-2,4.6319556E-1,7.3702514E-1,7.457689E-1,3.4223917E-1,-9.656774E-2,-5.3503998E-2,4.009963E-2,3.8014793E-1,2.0257876E0,-2.0621046E-2,1.3697604E-2,-9.914761E-3,4.737171E-2,-5.7959136E-2,3.847282E-2],"split_indices":[10,12,14,0,3,0,7,7,0,0,0,12,1,0,0,0,0,0,0],"split_type":[0,0,0,0,0,0,0,0,0,0,0,0,0,0,0,0,0,0,0],"sum_hessian":[2.5077937E2,1.9423682E2,5.6542557E1,2.0217964E1,1.7401886E2,7.2179713E0,4.9324585E1,1.694534E2,4.565456E0,4.1766896E0,3.0412817E0,4.54318E1,3.892784E0,5.600281E1,1.13450584E2,1.0519032E0,4.4379898E1,1.2076563E0,2.6851277E0],"tree_param":{"num_deleted":"0","num_feature":"18","num_nodes":"19","size_leaf_vector":"1"}},{"base_weights":[-2.0199494E-2,-1.5731435E-1,8.2176316E-1,1.005038E-1,-9.654453E-1,1.5274586E-1,9.615848E-1,-5.5185515E-2,2.6632857E-1,-6.488004E-2,2.3916131E-1,3.851683E-2,-4.8184153E-2,1.4087393E-2,4.923235E-2,-4.3412317E-2,1.8966822E-2,-5.4383624E-2,4.877651E-2],"categories":[],"categories_nodes":[],"categories_segments":[],"categories_sizes":[],"default_left":[0,0,0,0,0,0,0,0,0,0,0,0,0,0,0,0,0,0,0],"id":48,"left_children":[1,3,5,7,9,11,13,-1,15,-1,17,-1,-1,-1,-1,-1,-1,-1,-1],"loss_changes":[2.8393751E1,4.4138565E1,3.0754738E0,3.247596E1,2.080455E1,5.6679397E0,1.6634369E-1,0E0,1.8595028E1,0E0,1.2702655E1,0E0,0E0,0E0,0E0,0E0,0E0,0E0,0E0],"parents":[2147483647,0,0,1,1,2,2,3,3,4,4,5,5,6,6,8,8,10,10],"right_children":[2,4,6,8,10,12,14,-1,16,-1,18,-1,-1,-1,-1,-1,-1,-1,-1],"split_conditions":[1.8723055E0,4.960266E-2,6.506466E-2,9.624228E-2,8.816122E-1,4.8726436E-2,6.1318034E-1,-5.5185515E-2,1.3683671E-1,-6.488004E-2,8.021848E-2,3.851683E-2,-4.8184153E-2,1.4087393E-2,4.923235E-2,-4.3412317E-2,1.8966822E-2,-5.4383624E-2,4.877651E-2],"split_indices":[10,16,15,14,8,15,0,0,8,0,16,0,0,0,0,0,0,0,0],"split_type":[0,0,0,0,0,0,0,0,0,0,0,0,0,0,0,0,0,0,0],"sum_hessian":[2.438294E2,2.103816E2,3.3447796E1,1.6016104E2,5.0220573E1,6.143737E0,2.730406E1,1.8700773E1,1.4146027E2,3.930539E1,1.0915181E1,4.1551647E0,1.9885721E0,1.3294947E0,2.5974566E1,1.2208317E1,1.2925195E2,3.72542E0,7.189761E0],"tree_param":{"num_deleted":"0","num_feature":"18","num_nodes":"19","size_leaf_vector":"1"}},{"base_weights":[6.3898735E-2,-1.3898638E-1,6.15484E-1,-3.6934458E-2,-6.384208E-2,6.842421E-1,-4.7053438E-2,-1.9966467E-1,4.3225154E-1,7.3594105E-1,-4.5499306E-2,-3.007041E-2,1.842298E-3,8.935052E-2,8.739572E-3,2.2240693E-2,5.214087E-2],"categories":[],"categories_nodes":[],"categories_segments":[],"categories_sizes":[],"default_left":[0,0,0,0,0,0,0,0,0,0,0,0,0,0,0,0,0],"id":49,"left_children":[1,3,5,7,-1,9,-1,11,13,15,-1,-1,-1,-1,-1,-1,-1],"loss_changes":[2.7647388E1,2.0956131E1,7.7519245E0,1.2838244E1,0E0,5.9596786E0,0E0,1.1869944E1,1.47996645E1,5.1395683E0,0E0,0E0,0E0,0E0,0E0,0E0,0E0],"parents":[2147483647,0,0,1,1,2,2,3,3,5,5,7,7,8,8,9,9],"right_children":[2,4,6,8,-1,10,-1,12,14,16,-1,-1,-1,-1,-1,-1,-1],"split_conditions":[7.3702514E-1,1.08147055E-1,1.4231418E0,6.0643937E-2,-6.384208E-2,2.165985E0,-4.7053438E-2,5.0193375E-1,4.9522698E-2,6.706746E-1,-4.5499306E-2,-3.007041E-2,1.842298E-3,8.935052E-2,8.739572E-3,2.2240693E-2,5.214087E-2],"split_indices":[0,15,9,15,0,6,0,0,8,14,0,0,0,0,0,0,0],"split_type":[0,0,0,0,0,0,0,0,0,0,0,0,0,0,0,0,0],"sum_hessian":[2.4528926E2,1.7987524E2,6.541402E1,1.660179E2,1.3857347E1,6.3183403E1,2.2306104E0,1.236917E2,4.2326187E1,6.1720264E1,1.4631412E0,4.5263325E1,7.842838E1,5.810473E0,3.6515717E1,3.292987E1,2.8790394E1],"tree_param":{"num_deleted":"0","num_feature":"18","num_nodes":"17","size_leaf_vector":"1"}},{"base_weights":[1.0017167E-1,-4.8902053E-1,2.6093954E-1,2.1831799E-1,-5.330025E-2,1.3295542E-1,8.729856E-1,-4.7833174E-2,7.6712483E-1,9.0981275E-1,-1.6291369E-2,1.948301E-1,5.016017E-2,5.3361136E-2,-4.586296E-2,-4.422068E-2,5.2943785E-2,-2.0571612E-2,1.0561506E-2,4.604596E-2,-6.093487E-2],"categories":[],"categories_nodes":[],"categories_segments":[],"categories_sizes":[],"default_left":[0,0,0,0,0,0,0,0,0,0,0,0,0,0,0,0,0,0,0,0,0],"id":50,"left_children":[1,3,5,7,-1,9,11,-1,13,15,17,19,-1,-1,-1,-1,-1,-1,-1,-1,-1],"loss_changes":[2.3476358E1,2.1940254E1,1.51043415E1,1.6677565E1,0E0,1.8783926E1,2.756195E0,0E0,9.778465E0,7.918518E0,1.238347E1,7.9221144E0,0E0,0E0,0E0,0E0,0E0,0E0,0E0,0E0,0E0],"parents":[2147483647,0,0,1,1,2,2,3,3,5,5,6,6,8,8,9,9,10,10,11,11],"right_children":[2,4,6,8,-1,10,12,-1,14,16,18,20,-1,-1,-1,-1,-1,-1,-1,-1,-1],"split_conditions":[4.9366856E-1,2.3910472E-2,6.706746E-1,3.5033333E-1,-5.330025E-2,5.1483196E-1,1.4815024E0,-4.7833174E-2,1.4114028E-1,2.0664655E-2,2.9249664E-2,1.0951942E-1,5.016017E-2,5.3361136E-2,-4.586296E-2,-4.422068E-2,5.2943785E-2,-2.0571612E-2,1.0561506E-2,4.604596E-2,-6.093487E-2],"split_indices":[0,16,14,7,0,0,10,0,3,15,16,3,0,0,0,0,0,0,0,0,0],"split_type":[0,0,0,0,0,0,0,0,0,0,0,0,0,0,0,0,0,0,0,0,0],"sum_hessian":[2.4549464E2,5.218864E1,1.93306E2,2.3725107E1,2.8463531E1,1.6088153E2,3.242448E1,7.3168178E0,1.640829E1,2.5105692E1,1.3577583E2,5.625238E0,2.6799242E1,1.4237985E1,2.1703055E0,1.5473642E0,2.3558327E1,4.9317272E1,8.645856E1,3.946519E0,1.6787192E0],"tree_param":{"num_deleted":"0","num_feature":"18","num_nodes":"21","size_leaf_vector":"1"}},{"base_weights":[1.0513367E-1,-2.8789456E-3,4.9450327E-2,-4.0908936E-1,2.0221764E-1,-6.554356E-1,5.777494E-1,-3.9754936E-1,3.317153E-1,-4.866109E-2,1.6084319E-2,4.954674E-2,-6.410412E-2,-4.1015428E-2,5.013783E-2,4.085697E-2,8.231229E-3],"categories":[],"categories_nodes":[],"categories_segments":[],"categories_sizes":[],"default_left":[0,0,0,0,0,0,0,0,0,0,0,0,0,0,0,0,0],"id":51,"left_children":[1,3,-1,5,7,9,11,13,15,-1,-1,-1,-1,-1,-1,-1,-1],"loss_changes":[2.3901947E1,1.8750471E1,0E0,1.8734777E1,1.1748129E1,1.9221022E1,1.326999E1,1.6814081E1,9.886528E0,0E0,0E0,0E0,0E0,0E0,0E0,0E0,0E0],"parents":[2147483647,0,0,1,1,3,3,4,4,5,5,6,6,7,7,8,8],"right_children":[2,4,-1,6,8,10,12,14,16,-1,-1,-1,-1,-1,-1,-1,-1],"split_conditions":[2.036218E0,3.4223917E-1,4.9450327E-2,1.2208683E0,2.5058448E-1,1.2431352E0,2.5684536E-1,1.0526184E0,5.1007724E-1,-4.866109E-2,1.6084319E-2,4.954674E-2,-6.410412E-2,-4.1015428E-2,5.013783E-2,4.085697E-2,8.231229E-3],"split_indices":[10,7,0,6,6,10,7,7,0,0,0,0,0,0,0,0,0],"split_type":[0,0,0,0,0,0,0,0,0,0,0,0,0,0,0,0,0],"sum_hessian":[2.4933252E2,2.2306934E2,2.6263176E1,7.450719E1,1.4856215E2,5.9892056E1,1.4615131E1,2.6013048E1,1.225491E2,4.519683E1,1.4695225E1,1.2340682E1,2.274449E0,2.0298903E1,5.714144E0,3.038516E1,9.216394E1],"tree_param":{"num_deleted":"0","num_feature":"18","num_nodes":"17","size_leaf_vector":"1"}},{"base_weights":[9.361271E-2,-5.533624E-3,8.1529284E-1,3.5660516E-2,-8.8590585E-2,-4.613502E-2,9.294207E-1,-5.6715536E-1,1.5596654E-1,5.1236507E-2,-1.694533E-2,2.3593573E-2,-5.631574E-2,-5.752312E-2,1.2616046E-2],"categories":[],"categories_nodes":[],"categories_segments":[],"categories_sizes":[],"default_left":[0,0,0,0,0,0,0,0,0,0,0,0,0,0,0],"id":52,"left_children":[1,3,5,7,-1,-1,9,11,13,-1,-1,-1,-1,-1,-1],"loss_changes":[1.7314186E1,1.5611335E1,6.6549683E0,1.5303657E1,0E0,0E0,3.722929E0,2.093566E1,2.2404894E1,0E0,0E0,0E0,0E0,0E0,0E0],"parents":[2147483647,0,0,1,1,2,2,3,3,6,6,7,7,8,8],"right_children":[2,4,6,8,-1,-1,10,12,14,-1,-1,-1,-1,-1,-1],"split_conditions":[6.706746E-1,4.193077E-1,7.3548E-1,2.1103656E-1,-8.8590585E-2,-4.613502E-2,1.3277245E0,1.5404579E-2,1.060971E-1,5.1236507E-2,-1.694533E-2,2.3593573E-2,-5.631574E-2,-5.752312E-2,1.2616046E-2],"split_indices":[14,3,10,9,0,0,9,16,6,0,0,0,0,0,0],"split_type":[0,0,0,0,0,0,0,0,0,0,0,0,0,0,0],"sum_hessian":[2.409176E2,2.1269002E2,2.8227589E1,2.0880008E2,3.889944E0,1.302821E0,2.6924767E1,3.412019E1,1.7467989E2,2.5221539E1,1.7032291E0,1.199229E1,2.21279E1,1.1246972E1,1.6343292E2],"tree_param":{"num_deleted":"0","num_feature":"18","num_nodes":"15","size_leaf_vector":"1"}},{"base_weights":[4.107459E-2,-3.930156E-1,2.639607E-1,-5.7247466E-1,8.5740197E-1,1.302392E-1,7.6555055E-1,-8.45538E-1,1.2585165E-1,8.193196E-3,4.6698194E-2,3.8514635E-1,-8.8504684E-1,8.765684E-1,-5.084115E-1,-5.0757803E-2,3.1411268E-2,-4.957558E-2,3.2030825E-2,2.935395E-2,-1.998009E-2,-5.763345E-2,3.8873624E-2,5.2894544E-2,5.3898757E-3,-3.897576E-2,1.1621774E-3],"categories":[],"categories_nodes":[],"categories_segments":[],"categories_sizes":[],"default_left":[0,0,0,0,0,0,0,0,0,0,0,0,0,0,0,0,0,0,0,0,0,0,0,0,0,0,0],"id":53,"left_children":[1,3,5,7,9,11,13,15,17,-1,-1,19,21,23,25,-1,-1,-1,-1,-1,-1,-1,-1,-1,-1,-1,-1],"loss_changes":[2.2464518E1,1.8175533E1,1.01828785E1,1.336257E1,3.934188E-1,3.197728E1,4.9803505E0,1.3162956E1,1.2375907E1,0E0,0E0,1.5828623E1,1.1945925E1,4.048258E0,4.7977847E-1,0E0,0E0,0E0,0E0,0E0,0E0,0E0,0E0,0E0,0E0,0E0,0E0],"parents":[2147483647,0,0,1,1,2,2,3,3,4,4,5,5,6,6,7,7,8,8,11,11,12,12,13,13,14,14],"right_children":[2,4,6,8,10,12,14,16,18,-1,-1,20,22,24,26,-1,-1,-1,-1,-1,-1,-1,-1,-1,-1,-1,-1],"split_conditions":[3.5033333E-1,2.1600943E0,8.054183E-1,6.622232E-2,6.506466E-2,7.6202667E-1,1.3277245E0,3.0356103E-1,3.5855472E-2,8.193196E-3,4.6698194E-2,5.022581E-2,1.1425215E0,9.1477203E-1,5.5560005E-1,-5.0757803E-2,3.1411268E-2,-4.957558E-2,3.2030825E-2,2.935395E-2,-1.998009E-2,-5.763345E-2,3.8873624E-2,5.2894544E-2,5.3898757E-3,-3.897576E-2,1.1621774E-3],"split_indices":[7,10,0,16,15,10,9,3,15,0,0,16,7,6,6,0,0,0,0,0,0,0,0,0,0,0,0],"split_type":[0,0,0,0,0,0,0,0,0,0,0,0,0,0,0,0,0,0,0,0,0,0,0,0,0,0,0],"sum_hessian":[2.3011278E2,7.780922E1,1.5230356E2,6.851777E1,9.29145E0,1.2124095E2,3.106261E1,4.9105473E1,1.9412294E1,1.2359388E0,8.0555105E0,9.740596E1,2.3834991E1,2.8859612E1,2.2029984E0,4.431622E1,4.7892513E0,5.8304377E0,1.3581858E1,7.767134E1,1.9734623E1,2.0794323E1,3.0406685E0,2.3047533E1,5.8120785E0,1.1502523E0,1.052746E0],"tree_param":{"num_deleted":"0","num_feature":"18","num_nodes":"27","size_leaf_vector":"1"}},{"base_weights":[9.295925E-2,4.1708726E-4,8.973105E-1,1.5472984E-1,-4.1603094E-1,2.8000364E-1,4.966119E-2,-2.6752725E-1,3.90803E-1,4.4481122E-1,-9.5960027E-1,3.8732316E-2,-2.1960117E-2,-5.300066E-2,8.1881285E-3,-3.2743055E-2,2.6075652E-2,-2.4968004E-2,7.064475E-2,-6.659763E-2,-1.1827467E-3],"categories":[],"categories_nodes":[],"categories_segments":[],"categories_sizes":[],"default_left":[0,0,0,0,0,0,0,0,0,0,0,0,0,0,0,0,0,0,0,0,0],"id":54,"left_children":[1,3,5,7,9,11,-1,13,15,17,19,-1,-1,-1,-1,-1,-1,-1,-1,-1,-1],"loss_changes":[1.7763271E1,1.3882199E1,1.17976E0,1.5816151E1,2.775584E1,2.013619E0,0E0,1.9694408E1,1.4214613E1,2.1991951E1,1.2554981E1,0E0,0E0,0E0,0E0,0E0,0E0,0E0,0E0,0E0,0E0],"parents":[2147483647,0,0,1,1,2,2,3,3,4,4,5,5,7,7,8,8,9,9,10,10],"right_children":[2,4,6,8,10,12,-1,14,16,18,20,-1,-1,-1,-1,-1,-1,-1,-1,-1,-1],"split_conditions":[2.036218E0,7.6202667E-1,6.706746E-1,6.3128996E-1,1.5587509E-1,6.4663804E-1,4.966119E-2,3.7231886E-1,2.8292668E-1,1.350866E-1,9.038382E-1,3.8732316E-2,-2.1960117E-2,-5.300066E-2,8.1881285E-3,-3.2743055E-2,2.6075652E-2,-2.4968004E-2,7.064475E-2,-6.659763E-2,-1.1827467E-3],"split_indices":[10,10,14,12,8,0,0,7,6,8,8,0,0,0,0,0,0,0,0,0,0],"split_type":[0,0,0,0,0,0,0,0,0,0,0,0,0,0,0,0,0,0,0,0,0],"sum_hessian":[2.376419E2,2.140191E2,2.3622793E1,1.5661475E2,5.7404366E1,3.703845E0,1.9918947E1,5.61133E1,1.0050144E2,2.2288347E1,3.511602E1,2.148857E0,1.554988E0,1.9262003E1,3.6851295E1,1.0721414E1,8.978003E1,1.15286455E1,1.0759702E1,2.481902E1,1.0297001E1],"tree_param":{"num_deleted":"0","num_feature":"18","num_nodes":"21","size_leaf_vector":"1"}},{"base_weights":[5.889278E-2,-4.380001E-2,8.973315E-1,6.6325545E-2,-8.563978E-1,2.5358644E-1,4.9765132E-2,-3.7960362E-1,2.2641473E-1,-6.745639E-2,-1.4009741E-1,3.8193177E-2,-2.3360875E-2,3.5455707E-2,-4.489033E-2,-1.4084676E-2,1.984803E-2,2.8697733E-2,-5.6795128E-2],"categories":[],"categories_nodes":[],"categories_segments":[],"categories_sizes":[],"default_left":[0,0,0,0,0,0,0,0,0,0,0,0,0,0,0,0,0,0,0],"id":55,"left_children":[1,3,5,7,9,11,-1,13,15,-1,17,-1,-1,-1,-1,-1,-1,-1,-1],"loss_changes":[1.9600075E1,1.8253836E1,1.313961E0,1.2936267E1,8.401958E0,2.0570493E0,0E0,2.7674759E1,1.1644032E1,0E0,8.499056E0,0E0,0E0,0E0,0E0,0E0,0E0,0E0,0E0],"parents":[2147483647,0,0,1,1,2,2,3,3,4,4,5,5,7,7,8,8,10,10],"right_children":[2,4,6,8,10,12,-1,14,16,-1,18,-1,-1,-1,-1,-1,-1,-1,-1],"split_conditions":[2.036218E0,1.08147055E-1,6.706746E-1,1.9765181E-2,2.3205574E-1,6.4663804E-1,4.9765132E-2,6.633471E-3,2.2823203E-2,-6.745639E-2,3.0732067E-2,3.8193177E-2,-2.3360875E-2,3.5455707E-2,-4.489033E-2,-1.4084676E-2,1.984803E-2,2.8697733E-2,-5.6795128E-2],"split_indices":[10,15,14,15,15,0,0,16,16,0,16,0,0,0,0,0,0,0,0],"split_type":[0,0,0,0,0,0,0,0,0,0,0,0,0,0,0,0,0,0,0],"sum_hessian":[2.2618243E2,2.0234657E2,2.3835846E1,1.7900562E2,2.334097E1,3.6223862E0,2.021346E1,4.6924892E1,1.3208072E2,1.330514E1,1.0035829E1,2.0859475E0,1.5364387E0,1.5013627E1,3.1911266E1,3.3028126E1,9.90526E1,6.091491E0,3.9443376E0],"tree_param":{"num_deleted":"0","num_feature":"18","num_nodes":"19","size_leaf_vector":"1"}},{"base_weights":[4.423844E-2,-5.8360016E-1,1.9428018E-1,2.31859E-1,-5.238204E-2,2.9007387E-1,-5.2910936E-1,9.8026204E-1,-4.804783E-2,-7.4168116E-2,3.3345994E-1,-6.600454E-2,6.0045445E-1,-3.946743E-2,6.377313E-2,4.9576923E-2,1.3262254E-2,4.6705466E-2,-4.1203488E-2],"categories":[],"categories_nodes":[],"categories_segments":[],"categories_sizes":[],"default_left":[0,0,0,0,0,0,0,0,0,0,0,0,0,0,0,0,0,0,0],"id":56,"left_children":[1,3,5,7,-1,9,11,13,-1,-1,15,-1,17,-1,-1,-1,-1,-1,-1],"loss_changes":[2.1340755E1,1.6784678E1,1.2808659E1,1.5825926E1,0E0,1.2952754E1,2.0189632E1,6.617217E0,0E0,0E0,