{"learner":{"attributes":{"scikit_learn":"{\"_estimator_type\": \"classifier\"}"},"feature_names":["residual","risk_tcn","iso_score","ae_score"],"feature_types":["float","float","float","float"],"gradient_booster":{"model":{"cats":{"enc":[],"feature_segments":[],"sorted_idx":[]},"gbtree_model_param":{"num_parallel_tree":"1","num_trees":"600"},"iteration_indptr":[0,3,6,9,12,15,18,21,24,27,30,33,36,39,42,45,48,51,54,57,60,63,66,69,72,75,78,81,84,87,90,93,96,99,102,105,108,111,114,117,120,123,126,129,132,135,138,141,144,147,150,153,156,159,162,165,168,171,174,177,180,183,186,189,192,195,198,201,204,207,210,213,216,219,222,225,228,231,234,237,240,243,246,249,252,255,258,261,264,267,270,273,276,279,282,285,288,291,294,297,300,303,306,309,312,315,318,321,324,327,330,333,336,339,342,345,348,351,354,357,360,363,366,369,372,375,378,381,384,387,390,393,396,399,402,405,408,411,414,417,420,423,426,429,432,435,438,441,444,447,450,453,456,459,462,465,468,471,474,477,480,483,486,489,492,495,498,501,504,507,510,513,516,519,522,525,528,531,534,537,540,543,546,549,552,555,558,561,564,567,570,573,576,579,582,585,588,591,594,597,600],"tree_info":[0,1,2,0,1,2,0,1,2,0,1,2,0,1,2,0,1,2,0,1,2,0,1,2,0,1,2,0,1,2,0,1,2,0,1,2,0,1,2,0,1,2,0,1,2,0,1,2,0,1,2,0,1,2,0,1,2,0,1,2,0,1,2,0,1,2,0,1,2,0,1,2,0,1,2,0,1,2,0,1,2,0,1,2,0,1,2,0,1,2,0,1,2,0,1,2,0,1,2,0,1,2,0,1,2,0,1,2,0,1,2,0,1,2,0,1,2,0,1,2,0,1,2,0,1,2,0,1,2,0,1,2,0,1,2,0,1,2,0,1,2,0,1,2,0,1,2,0,1,2,0,1,2,0,1,2,0,1,2,0,1,2,0,1,2,0,1,2,0,1,2,0,1,2,0,1,2,0,1,2,0,1,2,0,1,2,0,1,2,0,1,2,0,1,2,0,1,2,0,1,2,0,1,2,0,1,2,0,1,2,0,1,2,0,1,2,0,1,2,0,1,2,0,1,2,0,1,2,0,1,2,0,1,2,0,1,2,0,1,2,0,1,2,0,1,2,0,1,2,0,1,2,0,1,2,0,1,2,0,1,2,0,1,2,0,1,2,0,1,2,0,1,2,0,1,2,0,1,2,0,1,2,0,1,2,0,1,2,0,1,2,0,1,2,0,1,2,0,1,2,0,1,2,0,1,2,0,1,2,0,1,2,0,1,2,0,1,2,0,1,2,0,1,2,0,1,2,0,1,2,0,1,2,0,1,2,0,1,2,0,1,2,0,1,2,0,1,2,0,1,2,0,1,2,0,1,2,0,1,2,0,1,2,0,1,2,0,1,2,0,1,2,0,1,2,0,1,2,0,1,2,0,1,2,0,1,2,0,1,2,0,1,2,0,1,2,0,1,2,0,1,2,0,1,2,0,1,2,0,1,2,0,1,2,0,1,2,0,1,2,0,1,2,0,1,2,0,1,2,0,1,2,0,1,2,0,1,2,0,1,2,0,1,2,0,1,2,0,1,2,0,1,2,0,1,2,0,1,2,0,1,2,0,1,2,0,1,2,0,1,2,0,1,2,0,1,2,0,1,2,0,1,2,0,1,2,0,1,2,0,1,2,0,1,2,0,1,2,0,1,2,0,1,2,0,1,2,0,1,2,0,1,2,0,1,2,0,1,2,0,1,2,0,1,2,0,1,2,0,1,2,0,1,2,0,1,2,0,1,2,0,1,2,0,1,2,0,1,2,0,1,2,0,1,2,0,1,2,0,1,2,0,1,2,0,1,2,0,1,2,0,1,2,0,1,2,0,1,2,0,1,2,0,1,2,0,1,2,0,1,2,0,1,2,0,1,2,0,1,2],"trees":[{"base_weights":[-7.865193E-7,1.8845305E0,-5.2757496E-1,1.0522552E-1,1.4474345E0,1.0000912E-1,-5.4567164E-1,1.4968526E0,-2.7931279E-2,-3.9448196E-1,-6.371226E-1,-6.4842566E-3,7.8228794E-2,-2.2722214E-2,2.2075877E-2,-3.2002002E-2,-1.4033655E-2],"categories":[],"categories_nodes":[],"categories_segments":[],"categories_sizes":[],"default_left":[0,0,0,0,0,0,0,0,0,0,0,0,0,0,0,0,0],"id":0,"left_children":[1,3,5,-1,7,-1,9,11,-1,13,15,-1,-1,-1,-1,-1,-1],"loss_changes":[3.3767952E3,6.83811E1,1.2247467E2,0E0,2.5808533E1,0E0,3.6187683E1,2.731372E1,0E0,5.0124954E1,1.5263672E0,0E0,0E0,0E0,0E0,0E0,0E0],"parents":[2147483647,0,0,1,1,2,2,4,4,6,6,7,7,9,9,10,10],"right_children":[2,4,6,-1,8,-1,10,12,-1,14,16,-1,-1,-1,-1,-1,-1],"split_conditions":[8.7669545E-1,1.1289455E-6,8.90863E-6,1.0522552E-1,1.4360277E-1,1.0000912E-1,1.5739283E-1,3.0321234E-1,-2.7931279E-2,1.5270524E-4,2.507926E-2,-6.4842566E-3,7.8228794E-2,-2.2722214E-2,2.2075877E-2,-3.2002002E-2,-1.4033655E-2],"split_indices":[2,3,3,0,0,0,0,2,0,3,3,0,0,0,0,0,0],"split_type":[0,0,0,0,0,0,0,0,0,0,0,0,0,0,0,0,0],"sum_hessian":[3.394392E3,7.418567E2,2.6525354E3,4.9095584E2,2.5090085E2,1.807643E1,2.634459E3,2.451164E2,5.7844577E0,9.949267E2,1.6395322E3,9.761272E0,2.3535512E2,9.2876697E2,6.615974E1,1.6254326E3,1.4099616E1],"tree_param":{"num_deleted":"0","num_feature":"4","num_nodes":"17","size_leaf_vector":"1"}},{"base_weights":[1.3772398E-6,-1.0310749E0,2.6908985E-1,-5.7581495E-2,-7.477151E-1,5.079199E-1,-1.1029664E0,4.6921784E-1,-8.081992E-1,5.7757616E-1,-5.737225E-2,8.272492E-3,-1.1136893E0,-1.0180799E-2,3.960681E-2,-3.196105E-2,-5.5131752E-2,1.6869802E-2,4.1503314E-2,-4.231559E-2,6.396635E-3,-3.2650866E-2,-5.620401E-2],"categories":[],"categories_nodes":[],"categories_segments":[],"categories_sizes":[],"default_left":[0,0,0,0,0,0,0,0,0,0,0,0,0,0,0,0,0,0,0,0,0,0,0],"id":1,"left_children":[1,3,5,-1,7,9,11,13,15,17,19,-1,21,-1,-1,-1,-1,-1,-1,-1,-1,-1,-1],"loss_changes":[1.2796278E3,3.1746399E1,1.1990962E3,0E0,2.1559067E1,1.2272772E2,7.564026E0,3.2589724E0,1.2952042E1,1.6795746E2,5.0215343E1,0E0,1.842041E0,0E0,0E0,0E0,0E0,0E0,0E0,0E0,0E0,0E0,0E0],"parents":[2147483647,0,0,1,1,2,2,4,4,5,5,6,6,7,7,8,8,9,9,10,10,12,12],"right_children":[2,4,6,-1,8,10,12,14,16,18,20,-1,22,-1,-1,-1,-1,-1,-1,-1,-1,-1,-1],"split_conditions":[8.181643E-1,1.1289455E-6,6.9041806E-1,-5.7581495E-2,3.0321234E-1,3.5190287E-3,7.816496E-3,1.116519E-2,1.3396974E-5,1.5739283E-1,4.3131056E-1,8.272492E-3,8.2035735E-3,-1.0180799E-2,3.960681E-2,-3.196105E-2,-5.5131752E-2,1.6869802E-2,4.1503314E-2,-4.231559E-2,6.396635E-3,-3.2650866E-2,-5.620401E-2],"split_indices":[2,3,0,0,2,3,3,0,3,0,0,0,3,0,0,0,0,0,0,0,0,0,0],"split_type":[0,0,0,0,0,0,0,0,0,0,0,0,0,0,0,0,0,0,0,0,0,0,0],"sum_hessian":[4.6100903E3,9.5354083E2,3.6565493E3,6.667912E2,2.8674966E2,3.1149656E3,5.4158374E2,1.3257262E1,2.734924E2,2.773223E3,3.4174277E2,4.4190874E0,5.371646E2,4.4190874E0,8.838175E0,1.7578148E2,9.771093E1,1.4224551E3,1.3507677E3,6.432227E1,2.774205E2,1.3257262E1,5.2390735E2],"tree_param":{"num_deleted":"0","num_feature":"4","num_nodes":"23","size_leaf_vector":"1"}},{"base_weights":[-1.2788773E-6,-3.270682E-1,2.4508963E0,-4.3413106E-1,8.3714336E-1,1.6095174E-2,2.4674296E0,-5.8644587E-1,-3.390366E-1,2.040511E0,5.4829866E-1,1.6511246E0,1.2415655E-1,-3.0928973E-2,-2.0357227E-2,-6.2898905E-3,-2.7956137E-2,3.0575285E-2,1.1297067E-1,3.09071E-2,-2.8293166E-2,2.5374217E-2,9.635695E-2],"categories":[],"categories_nodes":[],"categories_segments":[],"categories_sizes":[],"default_left":[0,0,0,0,0,0,0,0,0,0,0,0,0,0,0,0,0,0,0,0,0,0,0],"id":2,"left_children":[1,3,5,7,9,-1,11,13,15,17,19,21,-1,-1,-1,-1,-1,-1,-1,-1,-1,-1,-1],"loss_changes":[2.3743909E3,3.260948E2,1.1481201E1,3.447473E1,7.549803E1,0E0,3.334961E-1,5.041565E0,6.9205826E1,1.1850327E1,1.4288769E1,2.0246372E0,0E0,0E0,0E0,0E0,0E0,0E0,0E0,0E0,0E0,0E0,0E0],"parents":[2147483647,0,0,1,1,2,2,3,3,4,4,6,6,7,7,8,8,9,9,10,10,11,11],"right_children":[2,4,6,8,10,-1,12,14,16,18,20,22,-1,-1,-1,-1,-1,-1,-1,-1,-1,-1,-1],"split_conditions":[6.9041806E-1,3.5190287E-3,7.816496E-3,1E0,4.3131056E-1,1.6095174E-2,8.2035735E-3,4.2585257E-4,6.202997E-5,9.943647E-1,1.1092739E-2,7.0850337E-1,1.2415655E-1,-3.0928973E-2,-2.0357227E-2,-6.2898905E-3,-2.7956137E-2,3.0575285E-2,1.1297067E-1,3.09071E-2,-2.8293166E-2,2.5374217E-2,9.635695E-2],"split_indices":[0,3,3,2,0,0,3,3,3,2,3,0,0,0,0,0,0,0,0,0,0,0,0],"split_type":[0,0,0,0,0,0,0,0,0,0,0,0,0,0,0,0,0,0,0,0,0,0,0],"sum_hessian":[2.9600361E3,2.6122974E3,3.4773883E2,2.392872E3,2.1942542E2,2.8373976E0,3.4490143E2,9.177405E2,1.4751315E3,4.12999E1,1.7812552E2,8.512193E0,3.3638925E2,7.7618585E2,1.4155461E2,7.5001874E2,7.2511273E2,5.9900618E0,3.5309837E1,1.6803699E2,1.0088525E1,2.2068648E0,6.305328E0],"tree_param":{"num_deleted":"0","num_feature":"4","num_nodes":"23","size_leaf_vector":"1"}},{"base_weights":[-4.5450628E-4,1.6929775E0,-5.1896363E-1,9.364495E-2,1.3258731E0,1.273044E0,-5.4393053E-1,1.3687123E0,-2.7501693E-2,9.3309574E-2,5.0274056E-1,-4.010522E-1,-6.296706E-1,-6.172824E-3,7.135109E-2,7.6278526E-4,4.4151556E-2,-2.3165032E-2,2.1478556E-2,-3.1630334E-2,-1.3912407E-2],"categories":[],"categories_nodes":[],"categories_segments":[],"categories_sizes":[],"default_left":[0,0,0,0,0,0,0,0,0,0,0,0,0,0,0,0,0,0,0,0,0],"id":3,"left_children":[1,3,5,-1,7,9,11,13,-1,-1,15,17,19,-1,-1,-1,-1,-1,-1,-1,-1],"loss_changes":[2.980333E3,5.006958E1,1.16954895E2,0E0,2.2058472E1,1.551313E1,3.1152222E1,2.2753601E1,0E0,0E0,3.1441383E0,5.005211E1,1.4751587E0,0E0,0E0,0E0,0E0,0E0,0E0,0E0,0E0],"parents":[2147483647,0,0,1,1,2,2,4,4,5,5,6,6,7,7,10,10,11,11,12,12],"right_children":[2,4,6,-1,8,10,12,14,-1,-1,16,18,20,-1,-1,-1,-1,-1,-1,-1,-1],"split_conditions":[8.7669545E-1,1.1289455E-6,4.2387694E-2,9.364495E-2,1.4360277E-1,8.90863E-6,1.5739283E-1,3.0321234E-1,-2.7501693E-2,9.3309574E-2,1.3396974E-5,1.5270524E-4,2.507926E-2,-6.172824E-3,7.135109E-2,7.6278526E-4,4.4151556E-2,-2.3165032E-2,2.1478556E-2,-3.1630334E-2,-1.3912407E-2],"split_indices":[2,3,0,0,0,3,0,2,0,0,3,3,3,0,0,0,0,0,0,0,0],"split_type":[0,0,0,0,0,0,0,0,0,0,0,0,0,0,0,0,0,0,0,0,0],"sum_hessian":[3.3922244E3,7.946526E2,2.5975718E3,5.30532E2,2.6412064E2,3.500616E1,2.5625657E3,2.5848807E2,5.63258E0,1.8973532E1,1.6032629E1,9.6318317E2,1.5993826E3,9.679057E0,2.48809E2,7.4818935E0,8.550735E0,8.964442E2,6.6738945E1,1.5853376E3,1.4044921E1],"tree_param":{"num_deleted":"0","num_feature":"4","num_nodes":"21","size_leaf_vector":"1"}},{"base_weights":[5.3059746E-4,-9.7495365E-1,2.5872636E-1,-5.4370742E-2,-7.096328E-1,4.8932704E-1,-1.0435913E0,4.529675E-1,-7.666323E-1,5.569118E-1,-5.4914214E-2,7.9180915E-3,-1.0536228E0,-1.03379125E-2,3.862197E-2,-3.0185625E-2,-5.2503474E-2,1.620413E-2,4.016466E-2,-4.0179256E-2,6.133136E-3,-3.1253602E-2,-5.3160984E-2],"categories":[],"categories_nodes":[],"categories_segments":[],"categories_sizes":[],"default_left":[0,0,0,0,0,0,0,0,0,0,0,0,0,0,0,0,0,0,0,0,0,0,0],"id":4,"left_children":[1,3,5,-1,7,9,11,13,15,17,19,-1,21,-1,-1,-1,-1,-1,-1,-1,-1,-1,-1],"loss_changes":[1.1604069E3,2.7999817E1,1.0945576E3,0E0,1.9559753E1,1.1389606E2,6.7785034E0,3.14802E0,1.2145416E1,1.5770978E2,4.568177E1,0E0,1.5724487E0,0E0,0E0,0E0,0E0,0E0,0E0,0E0,0E0,0E0,0E0],"parents":[2147483647,0,0,1,1,2,2,4,4,5,5,6,6,7,7,8,8,9,9,10,10,12,12],"right_children":[2,4,6,-1,8,10,12,14,16,18,20,-1,22,-1,-1,-1,-1,-1,-1,-1,-1,-1,-1],"split_conditions":[8.181643E-1,1.1289455E-6,6.9041806E-1,-5.4370742E-2,3.0321234E-1,3.5190287E-3,7.816496E-3,1.116519E-2,1.3396974E-5,1.5739283E-1,4.3131056E-1,7.9180915E-3,8.2035735E-3,-1.03379125E-2,3.862197E-2,-3.0185625E-2,-5.2503474E-2,1.620413E-2,4.016466E-2,-4.0179256E-2,6.133136E-3,-3.1253602E-2,-5.3160984E-2],"split_indices":[2,3,0,0,2,3,3,0,3,0,0,0,3,0,0,0,0,0,0,0,0,0,0],"split_type":[0,0,0,0,0,0,0,0,0,0,0,0,0,0,0,0,0,0,0,0,0,0,0],"sum_hessian":[4.6052393E3,9.632453E2,3.6419941E3,6.743226E2,2.8892273E2,3.0946501E3,5.473438E2,1.3178487E1,2.7574423E2,2.752782E3,3.418683E2,4.4079547E0,5.4293585E2,4.4147058E0,8.763781E0,1.7708543E2,9.865881E1,1.416506E3,1.336276E3,6.486591E1,2.7700238E2,1.3340544E1,5.295953E2],"tree_param":{"num_deleted":"0","num_feature":"4","num_nodes":"23","size_leaf_vector":"1"}},{"base_weights":[-3.0468847E-4,-4.2694035E-1,1.6394609E0,-5.8188784E-1,-3.3036834E-1,8.172095E-1,1.0831425E-1,-3.0742407E-2,-3.9693362E-1,-1.2085289E-1,-5.515218E-1,1.8172106E0,5.785711E-1,9.065313E-2,-2.9833937E-2,9.498518E-2,-6.5536373E-3,-2.9987222E-2,-2.4319325E-2,2.8025294E-2,1.0006487E-1,2.149836E-2,4.5143764E-2],"categories":[],"categories_nodes":[],"categories_segments":[],"categories_sizes":[],"default_left":[0,0,0,0,0,0,0,0,0,0,0,0,0,0,0,0,0,0,0,0,0,0,0],"id":5,"left_children":[1,3,5,7,9,11,-1,-1,13,15,17,19,21,-1,-1,-1,-1,-1,-1,-1,-1,-1,-1],"loss_changes":[2.0712737E3,3.4963867E1,2.6302563E2,5.2471924E0,6.710434E1,5.629721E1,0E0,0E0,6.2470284E1,1.5647701E1,1.9226074E0,9.481308E0,9.032684E0,0E0,0E0,0E0,0E0,0E0,0E0,0E0,0E0,0E0,0E0],"parents":[2147483647,0,0,1,1,2,2,3,3,4,4,5,5,8,8,9,9,10,10,11,11,12,12],"right_children":[2,4,6,8,10,12,-1,-1,14,16,18,20,22,-1,-1,-1,-1,-1,-1,-1,-1,-1,-1],"split_conditions":[3.5190287E-3,1E0,7.0850337E-1,4.2585257E-4,6.202997E-5,4.3131056E-1,1.0831425E-1,-3.0742407E-2,1.5739283E-1,4.737612E-5,2.896225E-3,9.943647E-1,6.2425655E-1,9.065313E-2,-2.9833937E-2,9.498518E-2,-6.5536373E-3,-2.9987222E-2,-2.4319325E-2,2.8025294E-2,1.0006487E-1,2.149836E-2,4.5143764E-2],"split_indices":[3,2,0,3,3,0,0,0,0,3,3,2,0,0,0,0,0,0,0,0,0,0,0],"split_type":[0,0,0,0,0,0,0,0,0,0,0,0,0,0,0,0,0,0,0,0,0,0,0],"sum_hessian":[2.9587275E3,2.3484463E3,6.1028125E2,8.997668E2,1.4486796E3,2.3931569E2,3.7096555E2,7.6170135E2,1.380654E2,7.447078E2,7.0397174E2,4.4832535E1,1.9448317E2,1.07748375E1,1.27290565E2,2.8173058E0,7.418905E2,3.9978506E2,3.0418668E2,6.244954E0,3.8587578E1,1.3496487E2,5.9518288E1],"tree_param":{"num_deleted":"0","num_feature":"4","num_nodes":"23","size_leaf_vector":"1"}},{"base_weights":[-8.7763224E-4,1.5393263E0,-5.1053536E-1,1.6400952E0,1.0375932E0,1.2120135E0,-5.3574055E-1,8.4568016E-2,1.4130975E0,6.601992E-1,1.4107373E0,8.7595575E-2,4.8892334E-1,-3.9245278E-1,-6.225183E-1,-5.8671148E-3,7.656411E-2,3.8116258E-2,-2.186146E-2,7.9092555E-2,-2.7101953E-2,8.526497E-4,4.2460397E-2,-2.2747274E-2,2.10928E-2,-3.127414E-2,-1.3734388E-2],"categories":[],"categories_nodes":[],"categories_segments":[],"categories_sizes":[],"default_left":[0,0,0,0,0,0,0,0,0,0,0,0,0,0,0,0,0,0,0,0,0,0,0,0,0,0,0],"id":6,"left_children":[1,3,5,7,9,11,13,-1,15,17,19,-1,21,23,25,-1,-1,-1,-1,-1,-1,-1,-1,-1,-1,-1,-1],"loss_changes":[2.6569553E3,4.0846558E1,1.1106787E2,5.745117E0,1.9272766E1,1.3581516E1,3.0930908E1,0E0,2.4574524E1,8.538357E0,2.4669693E1,0E0,2.9090695E0,4.8454254E1,1.4365845E0,0E0,0E0,0E0,0E0,0E0,0E0,0E0,0E0,0E0,0E0,0E0,0E0],"parents":[2147483647,0,0,1,1,2,2,3,3,4,4,5,5,6,6,8,8,9,9,10,10,12,12,13,13,14,14],"right_children":[2,4,6,8,10,12,14,-1,16,18,20,-1,22,24,26,-1,-1,-1,-1,-1,-1,-1,-1,-1,-1,-1,-1],"split_conditions":[8.7669545E-1,7.433975E-1,4.2387694E-2,1.1289455E-6,1.3396974E-5,8.90863E-6,1.5739283E-1,8.4568016E-2,3.0321234E-1,8.90863E-6,1.4360277E-1,8.7595575E-2,1.3396974E-5,1.5270524E-4,2.507926E-2,-5.8671148E-3,7.656411E-2,3.8116258E-2,-2.186146E-2,7.9092555E-2,-2.7101953E-2,8.526497E-4,4.2460397E-2,-2.2747274E-2,2.10928E-2,-3.127414E-2,-1.3734388E-2],"split_indices":[2,2,0,3,3,3,0,0,2,3,0,0,3,3,3,0,0,0,0,0,0,0,0,0,0,0,0],"split_type":[0,0,0,0,0,0,0,0,0,0,0,0,0,0,0,0,0,0,0,0,0,0,0,0,0,0,0],"sum_hessian":[3.3827554E3,8.4055316E2,2.5422021E3,6.980806E2,1.4247253E2,3.5983242E1,2.506219E3,5.6420886E2,1.3387175E2,7.220969E1,7.026284E1,1.9786654E1,1.6196589E1,9.473968E2,1.5588221E3,9.597353E0,1.2427439E2,6.6341354E1,5.868328E0,6.477667E1,5.486168E0,7.4658203E0,8.730769E0,8.802824E2,6.7114395E1,1.5448575E3,1.3964637E1],"tree_param":{"num_deleted":"0","num_feature":"4","num_nodes":"27","size_leaf_vector":"1"}},{"base_weights":[9.1456884E-4,-9.0818316E-1,2.541546E-1,-5.162705E-2,-6.4328563E-1,4.8012486E-1,-9.9240154E-1,-4.6989092E-1,-9.541622E-1,5.4755986E-1,-5.2196812E-2,7.924699E-3,-1.0019646E0,-3.0010825E-2,7.894045E-3,-5.081276E-2,3.3071473E-2,1.6383417E-2,3.891973E-2,-3.8253102E-2,5.9017125E-3,-2.9672166E-2,-5.0556082E-2],"categories":[],"categories_nodes":[],"categories_segments":[],"categories_sizes":[],"default_left":[0,0,0,0,0,0,0,0,0,0,0,0,0,0,0,0,0,0,0,0,0,0,0],"id":7,"left_children":[1,3,5,-1,7,9,11,13,15,17,19,-1,21,-1,-1,-1,-1,-1,-1,-1,-1,-1,-1],"loss_changes":[1.0571898E3,3.2293823E1,1.0121748E3,0E0,1.6924133E1,1.0919586E2,6.2284546E0,1.7182526E1,1.2150864E1,1.3675592E2,4.1695496E1,0E0,1.4465332E0,0E0,0E0,0E0,0E0,0E0,0E0,0E0,0E0,0E0,0E0],"parents":[2147483647,0,0,1,1,2,2,4,4,5,5,6,6,7,7,8,8,9,9,10,10,12,12],"right_children":[2,4,6,-1,8,10,12,14,16,18,20,-1,22,-1,-1,-1,-1,-1,-1,-1,-1,-1,-1],"split_conditions":[8.4321576E-1,1.1289455E-6,6.9041806E-1,-5.162705E-2,1.3396974E-5,3.5190287E-3,7.816496E-3,5.70066E-6,1.4360277E-1,1.5739283E-1,4.3131056E-1,7.924699E-3,8.2035735E-3,-3.0010825E-2,7.894045E-3,-5.081276E-2,3.3071473E-2,1.6383417E-2,3.891973E-2,-3.8253102E-2,5.9017125E-3,-2.9672166E-2,-5.0556082E-2],"split_indices":[2,3,0,0,3,3,3,3,0,0,0,0,3,0,0,0,0,0,0,0,0,0,0],"split_type":[0,0,0,0,0,0,0,0,0,0,0,0,0,0,0,0,0,0,0,0,0,0,0],"sum_hessian":[4.5900835E3,9.9948395E2,3.5905996E3,6.782003E2,3.212836E2,3.0401155E3,5.504841E2,2.0785933E2,1.1342427E2,2.6982678E3,3.4184775E2,4.4080606E0,5.4607605E2,1.721623E2,3.569705E1,1.0958356E2,3.8407161E0,1.3831284E3,1.3151394E3,6.52231E1,2.7662466E2,1.3414749E1,5.3266125E2],"tree_param":{"num_deleted":"0","num_feature":"4","num_nodes":"23","size_leaf_vector":"1"}},{"base_weights":[-4.1620393E-4,-4.1967696E-1,1.4865313E0,-5.771947E-1,-3.2182437E-1,7.6723677E-1,9.622611E-2,-3.0548846E-2,-3.8677323E-1,-1.1605641E-1,-5.441236E-1,1.6387571E0,5.4933816E-1,8.5403696E-2,-2.951554E-2,8.9632146E-2,-6.3089537E-3,-2.9677749E-2,-2.3879375E-2,2.5730684E-2,8.990375E-2,2.05301E-2,4.2352673E-2],"categories":[],"categories_nodes":[],"categories_segments":[],"categories_sizes":[],"default_left":[0,0,0,0,0,0,0,0,0,0,0,0,0,0,0,0,0,0,0,0,0,0,0],"id":8,"left_children":[1,3,5,7,9,11,-1,-1,13,15,17,19,21,-1,-1,-1,-1,-1,-1,-1,-1,-1,-1],"loss_changes":[1.8416615E3,3.5332886E1,2.0322253E2,5.4357605E0,6.505766E1,4.6113785E1,0E0,0E0,5.881752E1,1.4535159E1,1.9664154E0,7.8526917E0,7.894623E0,0E0,0E0,0E0,0E0,0E0,0E0,0E0,0E0,0E0,0E0],"parents":[2147483647,0,0,1,1,2,2,3,3,4,4,5,5,8,8,9,9,10,10,11,11,12,12],"right_children":[2,4,6,8,10,12,-1,-1,14,16,18,20,22,-1,-1,-1,-1,-1,-1,-1,-1,-1,-1],"split_conditions":[3.5190287E-3,1E0,7.0850337E-1,4.2585257E-4,6.202997E-5,4.3131056E-1,9.622611E-2,-3.0548846E-2,1.5739283E-1,4.737612E-5,2.896225E-3,9.943647E-1,6.2425655E-1,8.5403696E-2,-2.951554E-2,8.9632146E-2,-6.3089537E-3,-2.9677749E-2,-2.3879375E-2,2.5730684E-2,8.990375E-2,2.05301E-2,4.2352673E-2],"split_indices":[3,2,0,3,3,0,0,0,0,3,3,2,0,0,0,0,0,0,0,0,0,0,0],"split_type":[0,0,0,0,0,0,0,0,0,0,0,0,0,0,0,0,0,0,0,0,0,0,0],"sum_hessian":[2.9521316E3,2.3033853E3,6.487464E2,8.807323E2,1.4226531E3,2.4656859E2,4.021778E2,7.461509E2,1.3458142E2,7.395872E2,6.830658E2,4.801283E1,1.9855576E2,1.12634945E1,1.2331793E2,2.9726923E0,7.3661456E2,3.87363E2,2.957028E2,6.4849896E0,4.152784E1,1.3706311E2,6.1492645E1],"tree_param":{"num_deleted":"0","num_feature":"4","num_nodes":"23","size_leaf_vector":"1"}},{"base_weights":[-1.289193E-3,1.3988267E0,-5.0742537E-1,1.4949827E0,8.969371E-1,1.1510316E0,-5.278352E-1,7.727536E-2,1.2922406E0,1.0055033E0,-2.8758755E-2,8.1503816E-2,5.36198E-1,-3.845634E-1,-6.155732E-1,-6.345405E-3,6.938665E-2,3.6314342E-2,8.0416106E-2,5.7721697E-3,4.2081684E-2,-2.2320388E-2,2.0296335E-2,-3.0929193E-2,-1.3508995E-2],"categories":[],"categories_nodes":[],"categories_segments":[],"categories_sizes":[],"default_left":[0,0,0,0,0,0,0,0,0,0,0,0,0,0,0,0,0,0,0,0,0,0,0,0,0],"id":9,"left_children":[1,3,5,7,9,11,13,-1,15,17,-1,-1,19,21,23,-1,-1,-1,-1,-1,-1,-1,-1,-1,-1],"loss_changes":[2.3870989E3,4.182202E1,8.43537E1,5.6760254E0,2.3960724E1,8.077419E0,3.0494568E1,0E0,2.1254333E1,2.1827057E1,0E0,0E0,1.8048191E0,4.5704178E1,1.4077759E0,0E0,0E0,0E0,0E0,0E0,0E0,0E0,0E0,0E0,0E0],"parents":[2147483647,0,0,1,1,2,2,3,3,4,4,5,5,6,6,8,8,9,9,12,12,13,13,14,14],"right_children":[2,4,6,8,10,12,14,-1,16,18,-1,-1,20,22,24,-1,-1,-1,-1,-1,-1,-1,-1,-1,-1],"split_conditions":[8.8361377E-1,7.5778186E-1,4.2387694E-2,1.1289455E-6,1.4360277E-1,8.90863E-6,1.5739283E-1,7.727536E-2,3.0321234E-1,6.202997E-5,-2.8758755E-2,8.1503816E-2,1.3396974E-5,1.5270524E-4,2.507926E-2,-6.345405E-3,6.938665E-2,3.6314342E-2,8.0416106E-2,5.7721697E-3,4.2081684E-2,-2.2320388E-2,2.0296335E-2,-3.0929193E-2,-1.3508995E-2],"split_indices":[2,2,0,3,0,3,0,0,2,3,0,0,3,3,3,0,0,0,0,0,0,0,0,0,0],"split_type":[0,0,0,0,0,0,0,0,0,0,0,0,0,0,0,0,0,0,0,0,0,0,0,0,0],"sum_hessian":[3.3665173E3,8.933885E2,2.473129E3,7.480855E2,1.4530296E2,2.9392082E1,2.4437368E3,5.9354767E2,1.5453787E2,1.3561827E2,9.6847E0,1.5592227E1,1.3799855E1,9.301813E2,1.5135555E3,9.722303E0,1.4481557E2,9.41939E1,4.142437E1,6.383791E0,7.4160643E0,8.6309216E2,6.708913E1,1.4996925E3,1.3863044E1],"tree_param":{"num_deleted":"0","num_feature":"4","num_nodes":"25","size_leaf_vector":"1"}},{"base_weights":[1.1935272E-3,-8.6593705E-1,2.4487695E-1,-4.925519E-2,-6.125421E-1,4.6330586E-1,-9.476412E-1,4.4281748E-1,-6.586254E-1,5.2887934E-1,-4.9504697E-2,7.9329265E-3,-9.568307E-1,-1.019584E-2,3.7922353E-2,-2.5384536E-2,-4.5558985E-2,1.574954E-2,3.7783217E-2,-3.650342E-2,5.684707E-3,-2.8217828E-2,-4.828298E-2],"categories":[],"categories_nodes":[],"categories_segments":[],"categories_sizes":[],"default_left":[0,0,0,0,0,0,0,0,0,0,0,0,0,0,0,0,0,0,0,0,0,0,0],"id":10,"left_children":[1,3,5,-1,7,9,11,13,15,17,19,-1,21,-1,-1,-1,-1,-1,-1,-1,-1,-1,-1],"loss_changes":[9.652059E2,2.965503E1,9.2925E2,0E0,1.6008446E1,1.01391235E2,5.76709E0,3.0366933E0,1.1355972E1,1.2940814E2,3.814235E1,0E0,1.3536987E0,0E0,0E0,0E0,0E0,0E0,0E0,0E0,0E0,0E0,0E0],"parents":[2147483647,0,0,1,1,2,2,4,4,5,5,6,6,7,7,8,8,9,9,10,10,12,12],"right_children":[2,4,6,-1,8,10,12,14,16,18,20,-1,22,-1,-1,-1,-1,-1,-1,-1,-1,-1,-1],"split_conditions":[8.4321576E-1,1.1289455E-6,6.9041806E-1,-4.925519E-2,3.0321234E-1,3.5190287E-3,7.816496E-3,1.116519E-2,1.3396974E-5,1.5739283E-1,4.3131056E-1,7.9329265E-3,8.2035735E-3,-1.019584E-2,3.7922353E-2,-2.5384536E-2,-4.5558985E-2,1.574954E-2,3.7783217E-2,-3.650342E-2,5.684707E-3,-2.8217828E-2,-4.828298E-2],"split_indices":[2,3,0,0,2,3,3,0,3,0,0,0,3,0,0,0,0,0,0,0,0,0,0],"split_type":[0,0,0,0,0,0,0,0,0,0,0,0,0,0,0,0,0,0,0,0,0,0,0],"sum_hessian":[4.565822E3,1.0010612E3,3.5647605E3,6.789002E2,3.2216107E2,3.0134163E3,5.5134424E2,1.3118725E1,3.0904233E2,2.6717468E3,3.4166953E2,4.4080234E0,5.469362E2,4.418672E0,8.700053E0,1.9532185E2,1.1372048E2,1.3761975E3,1.2955492E3,6.541319E1,2.7625635E2,1.3461264E1,5.33475E2],"tree_param":{"num_deleted":"0","num_feature":"4","num_nodes":"23","size_leaf_vector":"1"}},{"base_weights":[-3.7710203E-4,-4.1236106E-1,1.3607811E0,-5.72502E-1,-3.1328094E-1,7.223192E-1,8.673787E-2,-6.070859E-1,-3.7679E-1,-1.11099154E-1,-5.369045E-1,1.492946E0,5.223207E-1,-3.042374E-2,-1.8919034E-2,8.081956E-2,-2.9210953E-2,8.491484E-2,-6.056193E-3,-2.9381538E-2,-2.344395E-2,6.3023753E-3,7.9698876E-2,4.196351E-2,2.0141527E-2],"categories":[],"categories_nodes":[],"categories_segments":[],"categories_sizes":[],"default_left":[0,0,0,0,0,0,0,0,0,0,0,0,0,0,0,0,0,0,0,0,0,0,0,0,0],"id":11,"left_children":[1,3,5,7,9,11,-1,13,15,17,19,21,23,-1,-1,-1,-1,-1,-1,-1,-1,-1,-1,-1,-1],"loss_changes":[1.6501803E3,3.5662964E1,1.619989E2,5.6071167E0,6.3135834E1,3.8409042E1,0E0,2.0141602E-3,5.5566944E1,1.3543475E1,2.0137024E0,6.960106E0,7.3656654E0,0E0,0E0,0E0,0E0,0E0,0E0,0E0,0E0,0E0,0E0,0E0,0E0],"parents":[2147483647,0,0,1,1,2,2,3,3,4,4,5,5,7,7,8,8,9,9,10,10,11,11,12,12],"right_children":[2,4,6,8,10,12,-1,14,16,18,20,22,24,-1,-1,-1,-1,-1,-1,-1,-1,-1,-1,-1,-1],"split_conditions":[3.5190287E-3,1E0,7.0850337E-1,4.2585257E-4,6.202997E-5,4.3131056E-1,8.673787E-2,9.948439E-1,1.5739283E-1,4.737612E-5,2.896225E-3,4.0096825E-1,5.093938E-1,-3.042374E-2,-1.8919034E-2,8.081956E-2,-2.9210953E-2,8.491484E-2,-6.056193E-3,-2.9381538E-2,-2.344395E-2,6.3023753E-3,7.9698876E-2,4.196351E-2,2.0141527E-2],"split_indices":[3,2,0,3,3,0,0,2,0,3,3,0,0,0,0,0,0,0,0,0,0,0,0,0,0],"split_type":[0,0,0,0,0,0,0,0,0,0,0,0,0,0,0,0,0,0,0,0,0,0,0,0,0],"sum_hessian":[2.9406758E3,2.257954E3,6.8272156E2,8.612145E2,1.3967397E3,2.532678E2,4.2945377E2,7.300982E2,1.3111624E2,7.3432294E2,6.6241675E2,5.0854053E1,2.0241376E2,7.240407E2,6.057474E0,1.1718729E1,1.19397514E2,3.1180792E0,7.312049E2,3.7508212E2,2.8733466E2,3.6547616E0,4.719929E1,5.3768417E1,1.4864534E2],"tree_param":{"num_deleted":"0","num_feature":"4","num_nodes":"25","size_leaf_vector":"1"}},{"base_weights":[-1.6980949E-3,1.2952435E0,-4.993395E-1,1.3871982E0,8.6468935E-1,1.1036335E0,-5.1995355E-1,7.12912E-2,1.2138478E0,9.557339E-1,-2.8546521E-2,7.7388994E-2,5.218541E-1,-3.7619874E-1,-6.089325E-1,-6.0343514E-3,6.546153E-2,2.4087796E-2,6.05942E-2,5.7601784E-3,4.059704E-2,-2.191489E-2,1.9967714E-2,-3.0599514E-2,-1.3243473E-2],"categories":[],"categories_nodes":[],"categories_segments":[],"categories_sizes":[],"default_left":[0,0,0,0,0,0,0,0,0,0,0,0,0,0,0,0,0,0,0,0,0,0,0,0,0],"id":12,"left_children":[1,3,5,7,9,11,13,-1,15,17,-1,-1,19,21,23,-1,-1,-1,-1,-1,-1,-1,-1,-1,-1],"loss_changes":[2.1596602E3,3.5537598E1,8.0482666E1,3.3779297E0,2.2236649E1,7.2087593E0,3.0319336E1,0E0,1.8710602E1,1.840834E1,0E0,0E0,1.6688051E0,4.4275833E1,1.3881226E0,0E0,0E0,0E0,0E0,0E0,0E0,0E0,0E0,0E0,0E0],"parents":[2147483647,0,0,1,1,2,2,3,3,4,4,5,5,6,6,8,8,9,9,12,12,13,13,14,14],"right_children":[2,4,6,8,10,12,14,-1,16,18,-1,-1,20,22,24,-1,-1,-1,-1,-1,-1,-1,-1,-1,-1],"split_conditions":[8.8361377E-1,7.433975E-1,4.2387694E-2,1.1289455E-6,1.4360277E-1,8.90863E-6,1.5739283E-1,7.12912E-2,3.0321234E-1,2.444708E-2,-2.8546521E-2,7.7388994E-2,1.3396974E-5,1.5270524E-4,2.507926E-2,-6.0343514E-3,6.546153E-2,2.4087796E-2,6.05942E-2,5.7601784E-3,4.059704E-2,-2.191489E-2,1.9967714E-2,-3.0599514E-2,-1.3243473E-2],"split_indices":[2,2,0,3,0,3,0,0,2,0,0,0,3,3,3,0,0,0,0,0,0,0,0,0,0],"split_type":[0,0,0,0,0,0,0,0,0,0,0,0,0,0,0,0,0,0,0,0,0,0,0,0,0],"sum_hessian":[3.3441719E3,9.26901E2,2.417271E3,7.6194763E2,1.6495338E2,3.0024084E1,2.3872468E3,6.17199E2,1.4474863E2,1.5543051E2,9.522867E0,1.6084394E1,1.3939689E1,9.1469324E2,1.4725536E3,9.637785E0,1.3511084E2,5.5540184E1,9.989033E1,6.3854895E0,7.5541997E0,8.472854E2,6.740786E1,1.4588102E3,1.3743493E1],"tree_param":{"num_deleted":"0","num_feature":"4","num_nodes":"25","size_leaf_vector":"1"}},{"base_weights":[1.4026904E-3,-8.283768E-1,2.3616241E-1,-4.718397E-2,-5.841557E-1,4.474001E-1,-9.083279E-1,-4.2304778E-1,-8.7365127E-1,5.1119506E-1,-4.6508346E-2,7.7668848E-3,-9.171749E-1,-2.736028E-2,8.765155E-3,-4.6586584E-2,3.242996E-2,1.51402205E-2,3.6735598E-2,-3.4893047E-2,5.498941E-3,-2.6937155E-2,-4.628652E-2],"categories":[],"categories_nodes":[],"categories_segments":[],"categories_sizes":[],"default_left":[0,0,0,0,0,0,0,0,0,0,0,0,0,0,0,0,0,0,0,0,0,0,0],"id":13,"left_children":[1,3,5,-1,7,9,11,13,15,17,19,-1,21,-1,-1,-1,-1,-1,-1,-1,-1,-1,-1],"loss_changes":[8.835522E2,2.7615112E1,8.5513824E2,0E0,1.4714432E1,9.40863E1,5.3293457E0,1.5676006E1,1.0744728E1,1.229259E2,3.497678E1,0E0,1.2716064E0,0E0,0E0,0E0,0E0,0E0,0E0,0E0,0E0,0E0,0E0],"parents":[2147483647,0,0,1,1,2,2,4,4,5,5,6,6,7,7,8,8,9,9,10,10,12,12],"right_children":[2,4,6,-1,8,10,12,14,16,18,20,-1,22,-1,-1,-1,-1,-1,-1,-1,-1,-1,-1],"split_conditions":[8.4321576E-1,1.1289455E-6,6.9041806E-1,-4.718397E-2,1.3396974E-5,3.5190287E-3,7.816496E-3,5.70066E-6,1.4360277E-1,1.5739283E-1,4.3131056E-1,7.7668848E-3,8.2035735E-3,-2.736028E-2,8.765155E-3,-4.6586584E-2,3.242996E-2,1.51402205E-2,3.6735598E-2,-3.4893047E-2,5.498941E-3,-2.6937155E-2,-4.628652E-2],"split_indices":[2,3,0,0,3,3,3,3,0,0,0,0,3,0,0,0,0,0,0,0,0,0,0],"split_type":[0,0,0,0,0,0,0,0,0,0,0,0,0,0,0,0,0,0,0,0,0,0,0],"sum_hessian":[4.5337124E3,9.9924866E2,3.5344636E3,6.7683484E2,3.224138E2,2.9842686E3,5.5019507E2,2.0871991E2,1.1369389E2,2.6428708E3,3.413978E2,4.401892E0,5.4579315E2,1.7292372E2,3.5796192E1,1.0988908E2,3.8048115E0,1.368933E3,1.2739379E3,6.5462234E1,2.7593555E2,1.3480654E1,5.323125E2],"tree_param":{"num_deleted":"0","num_feature":"4","num_nodes":"23","size_leaf_vector":"1"}},{"base_weights":[-2.3256533E-4,-4.050136E-1,1.2554816E0,-5.677823E-1,-3.048315E-1,6.5473574E-1,1.5685483E0,-6.031373E-1,-3.6723122E-1,-1.0624437E-1,-5.2985024E-1,1.0882511E0,3.045436E-1,1.2196987E-2,1.5768706E0,-3.0227795E-2,-1.8535933E-2,7.673828E-2,-2.8925693E-2,8.0704615E-2,-5.808347E-3,-2.9097943E-2,-2.3012279E-2,-1.0351539E-2,6.777412E-2,-2.8288225E-2,2.3853539E-2,2.4871357E-2,7.893472E-2],"categories":[],"categories_nodes":[],"categories_segments":[],"categories_sizes":[],"default_left":[0,0,0,0,0,0,0,0,0,0,0,0,0,0,0,0,0,0,0,0,0,0,0,0,0,0,0,0,0],"id":14,"left_children":[1,3,5,7,9,11,13,15,17,19,21,23,25,-1,27,-1,-1,-1,-1,-1,-1,-1,-1,-1,-1,-1,-1,-1,-1],"loss_changes":[1.4876998E3,3.5919495E1,1.3316125E2,5.7495728E0,6.126448E1,3.7038025E1,4.778076E0,1.1413574E-2,5.2633163E1,1.2652048E1,2.0645752E0,3.821846E1,2.0923393E1,0E0,1.3049316E-1,0E0,0E0,0E0,0E0,0E0,0E0,0E0,0E0,0E0,0E0,0E0,0E0,0E0,0E0],"parents":[2147483647,0,0,1,1,2,2,3,3,4,4,5,5,6,6,7,7,8,8,9,9,10,10,11,11,12,12,14,14],"right_children":[2,4,6,8,10,12,14,16,18,20,22,24,26,-1,28,-1,-1,-1,-1,-1,-1,-1,-1,-1,-1,-1,-1,-1,-1],"split_conditions":[3.5190287E-3,1E0,6.9041806E-1,4.2585257E-4,6.202997E-5,5.093938E-1,7.816496E-3,9.948439E-1,1.5739283E-1,4.737612E-5,2.896225E-3,1E0,5.2427677E-3,1.2196987E-2,8.8629955E-1,-3.0227795E-2,-1.8535933E-2,7.673828E-2,-2.8925693E-2,8.0704615E-2,-5.808347E-3,-2.9097943E-2,-2.3012279E-2,-1.0351539E-2,6.777412E-2,-2.8288225E-2,2.3853539E-2,2.4871357E-2,7.893472E-2],"split_indices":[3,2,0,3,3,0,3,2,0,3,3,2,3,0,2,0,0,0,0,0,0,0,0,0,0,0,0,0,0],"split_type":[0,0,0,0,0,0,0,0,0,0,0,0,0,0,0,0,0,0,0,0,0,0,0,0,0,0,0,0,0],"sum_hessian":[2.924876E3,2.2123875E3,7.124884E2,8.4112317E2,1.3712644E3,2.4515337E2,4.6733502E2,7.1335834E2,1.2776482E2,7.291954E2,6.42069E2,1.0860266E2,1.365507E2,3.1070886E0,4.6422794E2,7.074392E2,5.919146E0,1.2147472E1,1.1561735E2,3.254609E0,7.259408E2,3.6297305E2,2.790959E2,1.8612467E1,8.99902E1,2.2213926E1,1.1433678E2,1.2447149E0,4.6298325E2],"tree_param":{"num_deleted":"0","num_feature":"4","num_nodes":"29","size_leaf_vector":"1"}},{"base_weights":[-2.1159907E-3,1.2075164E0,-4.9141416E-1,1.2254832E0,-2.8227359E-2,1.0605612E0,-5.122335E-1,1.2907935E0,8.97318E-1,7.375472E-2,5.0817424E-1,-3.68026E-1,-6.025316E-1,6.630505E-2,5.6617647E-2,2.2637662E-2,5.6729842E-2,5.746846E-3,3.9206155E-2,-2.1518571E-2,1.9644167E-2,-3.0282257E-2,-1.2945034E-2],"categories":[],"categories_nodes":[],"categories_segments":[],"categories_sizes":[],"default_left":[0,0,0,0,0,0,0,0,0,0,0,0,0,0,0,0,0,0,0,0,0,0,0],"id":15,"left_children":[1,3,5,7,-1,9,11,13,15,-1,17,19,21,-1,-1,-1,-1,-1,-1,-1,-1,-1,-1],"loss_changes":[1.9640266E3,3.1119507E1,7.688281E1,1.9125977E1,0E0,6.486328E0,3.0145386E1,2.901245E0,1.640303E1,0E0,1.5455093E0,4.2889923E1,1.3757935E0,0E0,0E0,0E0,0E0,0E0,0E0,0E0,0E0,0E0,0E0],"parents":[2147483647,0,0,1,1,2,2,3,3,5,5,6,6,7,7,8,8,10,10,11,11,12,12],"right_children":[2,4,6,8,-1,10,12,14,16,-1,18,20,22,-1,-1,-1,-1,-1,-1,-1,-1,-1,-1],"split_conditions":[8.8361377E-1,1.4360277E-1,4.2387694E-2,7.433975E-1,-2.8227359E-2,8.90863E-6,1.5739283E-1,1.1289455E-6,2.444708E-2,7.375472E-2,1.3396974E-5,1.5270524E-4,2.507926E-2,6.630505E-2,5.6617647E-2,2.2637662E-2,5.6729842E-2,5.746846E-3,3.9206155E-2,-2.1518571E-2,1.9644167E-2,-3.0282257E-2,-1.2945034E-2],"split_indices":[2,0,0,2,0,3,0,3,0,0,3,3,3,0,0,0,0,0,0,0,0,0,0],"split_type":[0,0,0,0,0,0,0,0,0,0,0,0,0,0,0,0,0,0,0,0,0,0,0],"sum_hessian":[3.3163337E3,9.5469336E2,2.3616404E3,9.454163E2,9.277054E0,3.0600365E1,2.33104E3,7.860466E2,1.5936977E2,1.6527254E1,1.407311E1,8.995383E2,1.4315016E3,6.367758E2,1.4927072E2,5.6472034E1,1.0289773E2,6.3873773E0,7.685733E0,8.318174E2,6.772093E1,1.4178922E3,1.3609357E1],"tree_param":{"num_deleted":"0","num_feature":"4","num_nodes":"23","size_leaf_vector":"1"}},{"base_weights":[1.5749846E-3,-7.9495263E-1,2.2802654E-1,-4.5360576E-2,-5.5850756E-1,4.323144E-1,-8.7302303E-1,4.3228245E-1,-6.016041E-1,4.9448848E-1,-4.3986157E-2,7.4584903E-3,-8.815502E-1,-1.0099604E-2,3.722802E-2,-2.297556E-2,-4.2049065E-2,1.4562805E-2,3.57663E-2,-3.3570793E-2,5.336044E-3,-2.5541533E-2,-4.450061E-2],"categories":[],"categories_nodes":[],"categories_segments":[],"categories_sizes":[],"default_left":[0,0,0,0,0,0,0,0,0,0,0,0,0,0,0,0,0,0,0,0,0,0,0],"id":16,"left_children":[1,3,5,-1,7,9,11,13,15,17,19,-1,21,-1,-1,-1,-1,-1,-1,-1,-1,-1,-1],"loss_changes":[8.111043E2,2.5914978E1,7.87937E2,0E0,1.4054649E1,8.750122E1,4.9106445E0,2.9329548E0,1.0158272E1,1.170683E2,3.241066E1,0E0,1.2516174E0,0E0,0E0,0E0,0E0,0E0,0E0,0E0,0E0,0E0,0E0],"parents":[2147483647,0,0,1,1,2,2,4,4,5,5,6,6,7,7,8,8,9,9,10,10,12,12],"right_children":[2,4,6,-1,8,10,12,14,16,18,20,-1,22,-1,-1,-1,-1,-1,-1,-1,-1,-1,-1],"split_conditions":[8.4321576E-1,1.1289455E-6,6.9041806E-1,-4.5360576E-2,3.0321234E-1,3.5190287E-3,7.816496E-3,1.116519E-2,1.3396974E-5,1.5739283E-1,4.3131056E-1,7.4584903E-3,8.2035735E-3,-1.0099604E-2,3.722802E-2,-2.297556E-2,-4.2049065E-2,1.4562805E-2,3.57663E-2,-3.3570793E-2,5.336044E-3,-2.5541533E-2,-4.450061E-2],"split_indices":[2,3,0,0,2,3,3,0,3,0,0,0,3,0,0,0,0,0,0,0,0,0,0],"split_type":[0,0,0,0,0,0,0,0,0,0,0,0,0,0,0,0,0,0,0,0,0,0,0],"sum_hessian":[4.4947637E3,9.9442664E2,3.5003372E3,6.723656E2,3.2206104E2,2.9530398E3,5.472973E2,1.3048367E1,3.0901266E2,2.6120383E3,3.4100156E2,4.391335E0,5.42906E2,4.4213114E0,8.627055E0,1.9574135E2,1.1327131E2,1.3614457E3,1.2505927E3,6.537492E1,2.7562665E2,1.3485327E1,5.2942065E2],"tree_param":{"num_deleted":"0","num_feature":"4","num_nodes":"23","size_leaf_vector":"1"}},{"base_weights":[-2.1092339E-5,-3.976487E-1,1.1660091E0,-5.630704E-1,-2.9647562E-1,6.198818E-1,1.4443561E0,-5.9921587E-1,-3.5754156E-1,-1.0149817E-1,-5.2294475E-1,1.0171757E0,2.917062E-1,1.1852467E-2,1.4516515E0,-3.0033264E-2,-1.8157486E-2,7.308582E-2,-2.8644929E-2,7.692753E-2,-5.565738E-3,-2.8826183E-2,-2.258368E-2,-1.0444111E-2,6.305219E-2,-2.8083777E-2,2.2804223E-2,2.36019E-2,7.266302E-2],"categories":[],"categories_nodes":[],"categories_segments":[],"categories_sizes":[],"default_left":[0,0,0,0,0,0,0,0,0,0,0,0,0,0,0,0,0,0,0,0,0,0,0,0,0,0,0,0,0],"id":17,"left_children":[1,3,5,7,9,11,13,15,17,19,21,23,25,-1,27,-1,-1,-1,-1,-1,-1,-1,-1,-1,-1,-1,-1,-1,-1],"loss_changes":[1.3478745E3,3.611487E1,1.1148187E2,5.8893127E0,5.9437317E1,3.247229E1,3.9622192E0,2.0431519E-2,4.995189E1,1.1846907E1,2.1188354E0,3.4136894E1,1.976033E1,0E0,7.9711914E-2,0E0,0E0,0E0,0E0,0E0,0E0,0E0,0E0,0E0,0E0,0E0,0E0,0E0,0E0],"parents":[2147483647,0,0,1,1,2,2,3,3,4,4,5,5,6,6,7,7,8,8,9,9,10,10,11,11,12,12,14,14],"right_children":[2,4,6,8,10,12,14,16,18,20,22,24,26,-1,28,-1,-1,-1,-1,-1,-1,-1,-1,-1,-1,-1,-1,-1,-1],"split_conditions":[3.5190287E-3,1E0,6.9041806E-1,4.2585257E-4,6.202997E-5,5.093938E-1,7.816496E-3,9.948439E-1,1.5739283E-1,4.737612E-5,2.896225E-3,1E0,5.2427677E-3,1.1852467E-2,8.8629955E-1,-3.0033264E-2,-1.8157486E-2,7.308582E-2,-2.8644929E-2,7.692753E-2,-5.565738E-3,-2.8826183E-2,-2.258368E-2,-1.0444111E-2,6.305219E-2,-2.8083777E-2,2.2804223E-2,2.36019E-2,7.266302E-2],"split_indices":[3,2,0,3,3,0,3,2,0,3,3,2,3,0,2,0,0,0,0,0,0,0,0,0,0,0,0,0,0],"split_type":[0,0,0,0,0,0,0,0,0,0,0,0,0,0,0,0,0,0,0,0,0,0,0,0,0,0,0,0,0],"sum_hessian":[2.905121E3,2.1668599E3,7.382613E2,8.205937E2,1.3462662E3,2.5033049E2,4.879308E2,6.962345E2,1.24359184E2,7.242097E2,6.220565E2,1.1229056E2,1.3803995E2,3.13188E0,4.8479892E2,6.904507E2,5.783793E0,1.2550416E1,1.1180877E2,3.3824172E0,7.208273E2,3.510566E2,2.709999E2,1.865337E1,9.3637184E1,2.1904444E1,1.161355E2,1.2775799E0,4.8352133E2],"tree_param":{"num_deleted":"0","num_feature":"4","num_nodes":"29","size_leaf_vector":"1"}},{"base_weights":[-2.5435106E-3,1.1321867E0,-4.8364398E-1,1.1487024E0,-2.8044587E-2,1.021228E0,-5.0466925E-1,1.2095231E0,8.427387E-1,7.052141E-2,4.951084E-1,-3.6003307E-1,-5.963667E-1,6.209165E-2,5.3230762E-2,2.1113247E-2,5.3274453E-2,5.732149E-3,3.789998E-2,-2.1130754E-2,1.9325722E-2,-2.9977212E-2,-1.2617513E-2],"categories":[],"categories_nodes":[],"categories_segments":[],"categories_sizes":[],"default_left":[0,0,0,0,0,0,0,0,0,0,0,0,0,0,0,0,0,0,0,0,0,0,0],"id":18,"left_children":[1,3,5,7,-1,9,11,13,15,-1,17,19,21,-1,-1,-1,-1,-1,-1,-1,-1,-1,-1],"loss_changes":[1.7937295E3,2.7999878E1,7.352258E1,1.7015991E1,0E0,5.8796654E0,2.9975098E1,2.4523926E0,1.4911034E1,0E0,1.4334629E0,4.1544647E1,1.369873E0,0E0,0E0,0E0,0E0,0E0,0E0,0E0,0E0,0E0,0E0],"parents":[2147483647,0,0,1,1,2,2,3,3,5,5,6,6,7,7,8,8,10,10,11,11,12,12],"right_children":[2,4,6,8,-1,10,12,14,16,-1,18,20,22,-1,-1,-1,-1,-1,-1,-1,-1,-1,-1],"split_conditions":[8.8361377E-1,1.4360277E-1,4.2387694E-2,7.433975E-1,-2.8044587E-2,8.90863E-6,1.5739283E-1,1.1289455E-6,2.444708E-2,7.052141E-2,1.3396974E-5,1.5270524E-4,2.507926E-2,6.209165E-2,5.3230762E-2,2.1113247E-2,5.3274453E-2,5.732149E-3,3.789998E-2,-2.1130754E-2,1.9325722E-2,-2.9977212E-2,-1.2617513E-2],"split_indices":[2,0,0,2,0,3,0,3,0,0,3,3,3,0,0,0,0,0,0,0,0,0,0],"split_type":[0,0,0,0,0,0,0,0,0,0,0,0,0,0,0,0,0,0,0,0,0,0,0],"sum_hessian":[3.2837021E3,9.772927E2,2.3064094E3,9.6816986E2,9.122865E0,3.1124403E1,2.275285E3,8.051633E2,1.6300652E2,1.6923975E1,1.4200428E1,8.847221E2,1.3905627E3,6.5217834E2,1.5298497E2,5.7452415E1,1.0555411E2,6.38946E0,7.8109674E0,8.166938E2,6.8028336E1,1.3771002E3,1.3462528E1],"tree_param":{"num_deleted":"0","num_feature":"4","num_nodes":"23","size_leaf_vector":"1"}},{"base_weights":[1.7139864E-3,-7.809232E-1,2.1601675E-1,-4.374331E-2,-5.631245E-1,4.1074347E-1,-8.414047E-1,4.3253133E-1,-6.1134124E-1,4.6971643E-1,-4.148341E-2,7.1643987E-3,-8.4966654E-1,-9.436819E-3,3.697469E-2,-2.3620022E-2,-4.2819787E-2,1.3321674E-2,3.488288E-2,-3.234097E-2,5.183514E-3,-2.423788E-2,-4.290439E-2],"categories":[],"categories_nodes":[],"categories_segments":[],"categories_sizes":[],"default_left":[0,0,0,0,0,0,0,0,0,0,0,0,0,0,0,0,0,0,0,0,0,0,0],"id":19,"left_children":[1,3,5,-1,7,9,11,13,15,17,19,-1,21,-1,-1,-1,-1,-1,-1,-1,-1,-1,-1],"loss_changes":[7.4670013E2,1.9088379E1,7.199974E2,0E0,1.4244171E1,7.87511E1,4.546173E0,2.816368E0,9.066399E0,1.208302E2,3.0072271E1,0E0,1.2418213E0,0E0,0E0,0E0,0E0,0E0,0E0,0E0,0E0,0E0,0E0],"parents":[2147483647,0,0,1,1,2,2,4,4,5,5,6,6,7,7,8,8,9,9,10,10,12,12],"right_children":[2,4,6,-1,8,10,12,14,16,18,20,-1,22,-1,-1,-1,-1,-1,-1,-1,-1,-1,-1],"split_conditions":[8.181643E-1,1.1289455E-6,6.9041806E-1,-4.374331E-2,3.0321234E-1,3.5190287E-3,7.816496E-3,1.116519E-2,1.3396974E-5,1.5739283E-1,4.3131056E-1,7.1643987E-3,8.2035735E-3,-9.436819E-3,3.697469E-2,-2.3620022E-2,-4.2819787E-2,1.3321674E-2,3.488288E-2,-3.234097E-2,5.183514E-3,-2.423788E-2,-4.290439E-2],"split_indices":[2,3,0,0,2,3,3,0,3,0,0,0,3,0,0,0,0,0,0,0,0,0,0],"split_type":[0,0,0,0,0,0,0,0,0,0,0,0,0,0,0,0,0,0,0,0,0,0,0],"sum_hessian":[4.4500234E3,9.560111E2,3.4940122E3,6.6581067E2,2.902005E2,2.9511604E3,5.428518E2,1.3036272E1,2.771642E2,2.610675E3,3.4048538E2,4.380779E0,5.38471E2,4.4384165E0,8.597856E0,1.7874644E2,9.841776E1,1.3811256E3,1.2295493E3,6.51855E1,2.752999E2,1.3467293E1,5.250037E2],"tree_param":{"num_deleted":"0","num_feature":"4","num_nodes":"23","size_leaf_vector":"1"}},{"base_weights":[2.5176635E-4,-3.9027536E-1,1.0892252E0,-5.583826E-1,-2.88212E-1,6.095385E-1,6.762805E-2,-5.953021E-1,-3.4824952E-1,-9.6861966E-2,-5.161729E-1,1.1990991E0,4.470301E-1,-2.9839182E-2,-1.7783446E-2,6.979578E-2,-2.8382033E-2,7.3522985E-2,-5.328457E-3,-2.8565506E-2,-2.2157513E-2,3.3675246E-3,6.3955486E-2,1.6411383E-2,3.4874775E-2],"categories":[],"categories_nodes":[],"categories_segments":[],"categories_sizes":[],"default_left":[0,0,0,0,0,0,0,0,0,0,0,0,0,0,0,0,0,0,0,0,0,0,0,0,0],"id":20,"left_children":[1,3,5,7,9,11,-1,13,15,17,19,21,23,-1,-1,-1,-1,-1,-1,-1,-1,-1,-1,-1,-1],"loss_changes":[1.2263799E3,3.6256958E1,9.532788E1,6.005142E0,5.7649895E1,2.5485054E1,0E0,2.9052734E-2,4.7506096E1,1.1116531E1,2.1763E0,5.1742096E0,6.1537704E0,0E0,0E0,0E0,0E0,0E0,0E0,0E0,0E0,0E0,0E0,0E0,0E0],"parents":[2147483647,0,0,1,1,2,2,3,3,4,4,5,5,7,7,8,8,9,9,10,10,11,11,12,12],"right_children":[2,4,6,8,10,12,-1,14,16,18,20,22,24,-1,-1,-1,-1,-1,-1,-1,-1,-1,-1,-1,-1],"split_conditions":[3.5190287E-3,1E0,7.0850337E-1,4.2585257E-4,6.202997E-5,4.3131056E-1,6.762805E-2,9.948439E-1,1.5739283E-1,4.737612E-5,2.896225E-3,4.0096825E-1,6.2425655E-1,-2.9839182E-2,-1.7783446E-2,6.979578E-2,-2.8382033E-2,7.3522985E-2,-5.328457E-3,-2.8565506E-2,-2.2157513E-2,3.3675246E-3,6.3955486E-2,1.6411383E-2,3.4874775E-2],"split_indices":[3,2,0,3,3,0,0,2,0,3,3,0,0,0,0,0,0,0,0,0,0,0,0,0,0],"split_type":[0,0,0,0,0,0,0,0,0,0,0,0,0,0,0,0,0,0,0,0,0,0,0,0,0],"sum_hessian":[2.8817432E3,2.121554E3,7.601891E2,7.997785E2,1.3217755E3,2.7059457E2,4.895945E2,6.7870044E2,1.2107809E2,7.1936584E2,6.024097E2,5.7092247E1,2.1350233E2,6.7304895E2,5.651493E0,1.2929061E1,1.08149025E2,3.5016797E0,7.1586414E2,3.3935165E2,2.6305807E2,3.8913238E0,5.3200924E1,1.4638055E2,6.712177E1],"tree_param":{"num_deleted":"0","num_feature":"4","num_nodes":"25","size_leaf_vector":"1"}},{"base_weights":[-2.9689919E-3,1.0675101E0,-4.760652E-1,1.0826446E0,-2.7722647E-2,9.8467547E-1,-4.9729192E-1,1.1394763E0,7.9670906E-1,6.760245E-2,4.8222956E-1,-3.5236484E-1,-5.904241E-1,5.84897E-2,5.0200123E-2,3.0059049E-2,6.2363524E-2,5.702605E-3,3.665008E-2,-2.075751E-2,1.8994136E-2,-2.9683694E-2,-1.2263458E-2],"categories":[],"categories_nodes":[],"categories_segments":[],"categories_sizes":[],"default_left":[0,0,0,0,0,0,0,0,0,0,0,0,0,0,0,0,0,0,0,0,0,0,0],"id":21,"left_children":[1,3,5,7,-1,9,11,13,15,-1,17,19,21,-1,-1,-1,-1,-1,-1,-1,-1,-1,-1],"loss_changes":[1.6452861E3,2.504248E1,7.03483E1,1.5128784E1,0E0,5.3666363E0,2.9775146E1,2.1970215E0,1.3957726E1,0E0,1.3314128E0,4.0225563E1,1.3696594E0,0E0,0E0,0E0,0E0,0E0,0E0,0E0,0E0,0E0,0E0],"parents":[2147483647,0,0,1,1,2,2,3,3,5,5,6,6,7,7,8,8,10,10,11,11,12,12],"right_children":[2,4,6,8,-1,10,12,14,16,-1,18,20,22,-1,-1,-1,-1,-1,-1,-1,-1,-1,-1],"split_conditions":[8.8361377E-1,1.4360277E-1,4.2387694E-2,7.433975E-1,-2.7722647E-2,8.90863E-6,1.5739283E-1,1.1289455E-6,6.202997E-5,6.760245E-2,1.3396974E-5,1.5270524E-4,2.507926E-2,5.84897E-2,5.0200123E-2,3.0059049E-2,6.2363524E-2,5.702605E-3,3.665008E-2,-2.075751E-2,1.8994136E-2,-2.9683694E-2,-1.2263458E-2],"split_indices":[2,0,0,2,0,3,0,3,3,0,3,3,3,0,0,0,0,0,0,0,0,0,0],"split_type":[0,0,0,0,0,0,0,0,0,0,0,0,0,0,0,0,0,0,0,0,0,0,0],"sum_hessian":[3.2467275E3,9.947166E2,2.252011E3,9.858502E2,8.866403E0,3.1606236E1,2.2204048E3,8.199036E2,1.6594653E2,1.7280394E1,1.4325841E1,8.7052545E2,1.3498793E3,6.6373224E2,1.5617145E2,1.1735348E2,4.8593067E1,6.3936467E0,7.9321947E0,8.021772E2,6.8348274E1,1.3365748E3,1.3304369E1],"tree_param":{"num_deleted":"0","num_feature":"4","num_nodes":"23","size_leaf_vector":"1"}},{"base_weights":[1.8217048E-3,-7.377488E-1,2.1320283E-1,-4.2299893E-2,-5.1348233E-1,4.044113E-1,-8.129945E-1,-3.633722E-1,-7.8762937E-1,4.6358994E-1,-3.8930785E-2,7.178911E-3,-8.211154E-1,-2.4147782E-2,1.0420389E-2,-4.2051997E-2,3.0929029E-2,1.3491518E-2,3.4028415E-2,-3.1048074E-2,5.0092125E-3,-2.3127751E-2,-4.147407E-2],"categories":[],"categories_nodes":[],"categories_segments":[],"categories_sizes":[],"default_left":[0,0,0,0,0,0,0,0,0,0,0,0,0,0,0,0,0,0,0,0,0,0,0],"id":22,"left_children":[1,3,5,-1,7,9,11,13,15,17,19,-1,21,-1,-1,-1,-1,-1,-1,-1,-1,-1,-1],"loss_changes":[6.8822076E2,2.33219E1,6.721293E2,0E0,1.2928291E1,7.5754E1,4.2977295E0,1.4415268E1,8.9891815E0,1.0688843E2,2.7662031E1,0E0,1.2172852E0,0E0,0E0,0E0,0E0,0E0,0E0,0E0,0E0,0E0,0E0],"parents":[2147483647,0,0,1,1,2,2,4,4,5,5,6,6,7,7,8,8,9,9,10,10,12,12],"right_children":[2,4,6,-1,8,10,12,14,16,18,20,-1,22,-1,-1,-1,-1,-1,-1,-1,-1,-1,-1],"split_conditions":[8.4321576E-1,1.1289455E-6,6.9041806E-1,-4.2299893E-2,1.3396974E-5,3.5190287E-3,7.816496E-3,5.70066E-6,1.4360277E-1,1.5739283E-1,4.3131056E-1,7.178911E-3,8.2035735E-3,-2.4147782E-2,1.0420389E-2,-4.2051997E-2,3.0929029E-2,1.3491518E-2,3.4028415E-2,-3.1048074E-2,5.0092125E-3,-2.3127751E-2,-4.147407E-2],"split_indices":[2,3,0,0,3,3,3,3,0,0,0,0,3,0,0,0,0,0,0,0,0,0,0],"split_type":[0,0,0,0,0,0,0,0,0,0,0,0,0,0,0,0,0,0,0,0,0,0,0],"sum_hessian":[4.4003174E3,9.775657E2,3.422752E3,6.5745337E2,3.201123E2,2.8856775E3,5.370743E2,2.0835324E2,1.1175906E2,2.5458096E3,3.39868E2,4.3807287E0,5.326936E2,1.7244337E2,3.590987E1,1.0805677E2,3.702291E0,1.3460465E3,1.1997631E3,6.48952E1,2.749728E2,1.3428995E1,5.192646E2],"tree_param":{"num_deleted":"0","num_feature":"4","num_nodes":"23","size_leaf_vector":"1"}},{"base_weights":[5.688267E-4,-3.8291526E-1,1.0225936E0,-5.536952E-1,-2.801332E-1,5.786417E-1,6.319561E-2,-5.9142077E-1,-3.3879828E-1,-9.256797E-2,-5.0952023E-1,9.086723E-1,3.2725543E-1,-2.964679E-2,-1.741628E-2,6.678878E-2,-2.8121728E-2,7.041752E-2,-5.1079704E-3,-2.8315276E-2,-2.1733023E-2,-1.1286703E-2,5.638024E-2,-2.804682E-2,2.3671502E-2],"categories":[],"categories_nodes":[],"categories_segments":[],"categories_sizes":[],"default_left":[0,0,0,0,0,0,0,0,0,0,0,0,0,0,0,0,0,0,0,0,0,0,0,0,0],"id":23,"left_children":[1,3,5,7,9,11,-1,13,15,17,19,21,23,-1,-1,-1,-1,-1,-1,-1,-1,-1,-1,-1,-1],"loss_changes":[1.1198253E3,3.6313904E1,8.278699E1,6.119766E0,5.584475E1,2.263176E1,0E0,3.7200928E-2,4.5226463E1,1.0449948E1,2.2370605E0,2.979206E1,2.083594E1,0E0,0E0,0E0,0E0,0E0,0E0,0E0,0E0,0E0,0E0,0E0,0E0],"parents":[2147483647,0,0,1,1,2,2,3,3,4,4,5,5,7,7,8,8,9,9,10,10,11,11,12,12],"right_children":[2,4,6,8,10,12,-1,14,16,18,20,22,24,-1,-1,-1,-1,-1,-1,-1,-1,-1,-1,-1,-1],"split_conditions":[3.5190287E-3,1E0,7.0850337E-1,4.2585257E-4,6.202997E-5,5.093938E-1,6.319561E-2,9.948439E-1,1.5739283E-1,4.737612E-5,2.896225E-3,1E0,5.2427677E-3,-2.964679E-2,-1.741628E-2,6.678878E-2,-2.8121728E-2,7.041752E-2,-5.1079704E-3,-2.8315276E-2,-2.1733023E-2,-1.1286703E-2,5.638024E-2,-2.804682E-2,2.3671502E-2],"split_indices":[3,2,0,3,3,0,0,2,0,3,3,2,3,0,0,0,0,0,0,0,0,0,0,0,0],"split_type":[0,0,0,0,0,0,0,0,0,0,0,0,0,0,0,0,0,0,0,0,0,0,0,0,0],"sum_hessian":[2.8552068E3,2.0766367E3,7.785702E2,7.785806E2,1.298056E3,2.753706E2,5.0319955E2,6.608204E2,1.17760284E2,7.149E2,5.83156E2,1.1793107E2,1.5743954E2,6.552972E2,5.523202E0,1.3287954E1,1.0447233E2,3.613455E0,7.1128656E2,3.2787775E2,2.5527824E2,1.9072926E1,9.885814E1,2.1848059E1,1.3559149E2],"tree_param":{"num_deleted":"0","num_feature":"4","num_nodes":"25","size_leaf_vector":"1"}},{"base_weights":[-3.4298738E-3,1.010513E0,-4.685805E-1,1.0244957E0,-2.7420644E-2,9.51473E-1,-4.9001294E-1,1.0781155E0,7.551658E-1,6.4996935E-2,4.7027233E-1,-3.447017E-1,-5.847057E-1,5.537969E-2,4.7372185E-2,1.834247E-2,4.8016883E-2,5.68527E-3,3.549143E-2,-2.0384971E-2,1.8686427E-2,-2.9401783E-2,-1.1887891E-2],"categories":[],"categories_nodes":[],"categories_segments":[],"categories_sizes":[],"default_left":[0,0,0,0,0,0,0,0,0,0,0,0,0,0,0,0,0,0,0,0,0,0,0],"id":24,"left_children":[1,3,5,7,-1,9,11,13,15,-1,17,19,21,-1,-1,-1,-1,-1,-1,-1,-1,-1,-1],"loss_changes":[1.512901E3,2.2551758E1,6.7392456E1,1.3629761E1,0E0,4.9280357E0,2.9615356E1,2.154602E0,1.3143921E1,0E0,1.2382872E0,3.8957596E1,1.3742371E0,0E0,0E0,0E0,0E0,0E0,0E0,0E0,0E0,0E0,0E0],"parents":[2147483647,0,0,1,1,2,2,3,3,5,5,6,6,7,7,8,8,10,10,11,11,12,12],"right_children":[2,4,6,8,-1,10,12,14,16,-1,18,20,22,-1,-1,-1,-1,-1,-1,-1,-1,-1,-1],"split_conditions":[8.8361377E-1,1.4360277E-1,4.2387694E-2,7.433975E-1,-2.7420644E-2,8.90863E-6,1.5739283E-1,1.1289455E-6,2.444708E-2,6.4996935E-2,1.3396974E-5,1.5270524E-4,2.507926E-2,5.537969E-2,4.7372185E-2,1.834247E-2,4.8016883E-2,5.68527E-3,3.549143E-2,-2.0384971E-2,1.8686427E-2,-2.9401783E-2,-1.1887891E-2],"split_indices":[2,0,0,2,0,3,0,3,0,0,3,3,3,0,0,0,0,0,0,0,0,0,0],"split_type":[0,0,0,0,0,0,0,0,0,0,0,0,0,0,0,0,0,0,0,0,0,0,0],"sum_hessian":[3.2057676E3,1.00779266E3,2.1979749E3,9.9917334E2,8.619305E0,3.2034927E1,2.16594E3,8.307751E2,1.6839825E2,1.7593203E1,1.4441724E1,8.5639526E2,1.3095448E3,6.717567E2,1.590184E2,5.9179955E1,1.0921831E2,6.396105E0,8.045618E0,7.877514E2,6.8643814E1,1.2964075E3,1.3137368E1],"tree_param":{"num_deleted":"0","num_feature":"4","num_nodes":"23","size_leaf_vector":"1"}},{"base_weights":[1.9256521E-3,-7.2761893E-1,2.0207462E-1,-4.1004505E-2,-5.172592E-1,3.8435107E-1,-7.8733224E-1,4.5042175E-1,-5.6498563E-1,4.404518E-1,-3.608827E-2,7.1034925E-3,-7.953248E-1,-7.859468E-3,3.7415426E-2,-2.1601912E-2,-4.0154666E-2,1.2321236E-2,3.3261858E-2,-2.9965267E-2,4.8953122E-3,-2.2112269E-2,-4.0183116E-2],"categories":[],"categories_nodes":[],"categories_segments":[],"categories_sizes":[],"default_left":[0,0,0,0,0,0,0,0,0,0,0,0,0,0,0,0,0,0,0,0,0,0,0],"id":25,"left_children":[1,3,5,-1,7,9,11,13,15,17,19,-1,21,-1,-1,-1,-1,-1,-1,-1,-1,-1,-1],"loss_changes":[6.349105E2,1.7785004E1,6.1565497E2,0E0,1.3580902E1,6.7992004E1,4.058441E0,2.6731474E0,8.372055E0,1.1073605E2,2.5732935E1,0E0,1.195221E0,0E0,0E0,0E0,0E0,0E0,0E0,0E0,0E0,0E0,0E0],"parents":[2147483647,0,0,1,1,2,2,4,4,5,5,6,6,7,7,8,8,9,9,10,10,12,12],"right_children":[2,4,6,-1,8,10,12,14,16,18,20,-1,22,-1,-1,-1,-1,-1,-1,-1,-1,-1,-1],"split_conditions":[8.181643E-1,1.1289455E-6,6.9041806E-1,-4.1004505E-2,3.0321234E-1,3.5190287E-3,7.816496E-3,1.116519E-2,1.3396974E-5,1.5739283E-1,4.3131056E-1,7.1034925E-3,8.2035735E-3,-7.859468E-3,3.7415426E-2,-2.1601912E-2,-4.0154666E-2,1.2321236E-2,3.3261858E-2,-2.9965267E-2,4.8953122E-3,-2.2112269E-2,-4.0183116E-2],"split_indices":[2,3,0,0,2,3,3,0,3,0,0,0,3,0,0,0,0,0,0,0,0,0,0],"split_type":[0,0,0,0,0,0,0,0,0,0,0,0,0,0,0,0,0,0,0,0,0,0,0],"sum_hessian":[4.3461714E3,9.350977E2,3.4110737E3,6.475469E2,2.8755084E2,2.8809363E3,5.301376E2,1.3118955E1,2.744319E2,2.5417356E3,3.3920062E2,4.377104E0,5.2576044E2,4.4711976E0,8.647757E0,1.7791022E2,9.652168E1,1.3653273E3,1.1764083E3,6.452233E1,2.746783E2,1.3375444E1,5.12385E2],"tree_param":{"num_deleted":"0","num_feature":"4","num_nodes":"23","size_leaf_vector":"1"}},{"base_weights":[9.2953927E-4,-3.7553743E-1,9.641002E-1,-5.4909056E-1,-2.7205318E-1,5.307023E-1,1.1781057E0,-5.876322E-1,-3.294449E-1,-8.81539E-2,-5.029719E-1,8.581851E-1,2.503581E-1,9.865474E-3,1.1838171E0,-2.9459132E-2,-1.7050479E-2,6.407564E-2,-2.7871264E-2,6.761707E-2,-4.881508E-3,-2.807465E-2,-2.1309873E-2,-1.13436505E-2,5.3123213E-2,-2.7842825E-2,1.9847075E-2,3.6815386E-2,5.9403926E-2],"categories":[],"categories_nodes":[],"categories_segments":[],"categories_sizes":[],"default_left":[0,0,0,0,0,0,0,0,0,0,0,0,0,0,0,0,0,0,0,0,0,0,0,0,0,0,0,0,0],"id":26,"left_children":[1,3,5,7,9,11,13,15,17,19,21,23,25,-1,27,-1,-1,-1,-1,-1,-1,-1,-1,-1,-1,-1,-1,-1,-1],"loss_changes":[1.0253607E3,3.6365448E1,7.3079834E1,6.227234E0,5.412722E1,2.4068787E1,2.7420044E0,4.5288086E-2,4.3132996E1,9.842131E0,2.3006134E0,2.7190735E1,1.7250381E1,0E0,1.317749E-1,0E0,0E0,0E0,0E0,0E0,0E0,0E0,0E0,0E0,0E0,0E0,0E0,0E0,0E0],"parents":[2147483647,0,0,1,1,2,2,3,3,4,4,5,5,6,6,7,7,8,8,9,9,10,10,11,11,12,12,14,14],"right_children":[2,4,6,8,10,12,14,16,18,20,22,24,26,-1,28,-1,-1,-1,-1,-1,-1,-1,-1,-1,-1,-1,-1,-1,-1],"split_conditions":[3.5190287E-3,1E0,6.9041806E-1,4.2585257E-4,6.202997E-5,5.093938E-1,7.816496E-3,9.948439E-1,1.5739283E-1,4.737612E-5,2.896225E-3,1E0,5.2427677E-3,9.865474E-3,9.373428E-1,-2.9459132E-2,-1.7050479E-2,6.407564E-2,-2.7871264E-2,6.761707E-2,-4.881508E-3,-2.807465E-2,-2.1309873E-2,-1.13436505E-2,5.3123213E-2,-2.7842825E-2,1.9847075E-2,3.6815386E-2,5.9403926E-2],"split_indices":[3,2,0,3,3,0,3,2,0,3,3,2,3,0,2,0,0,0,0,0,0,0,0,0,0,0,0,0,0],"split_type":[0,0,0,0,0,0,0,0,0,0,0,0,0,0,0,0,0,0,0,0,0,0,0,0,0,0,0,0,0],"sum_hessian":[2.8257874E3,2.032119E3,7.9366833E2,7.574671E2,1.2746519E3,2.6350507E2,5.3016327E2,6.429689E2,1.1449821E2,7.103357E2,5.6431616E2,1.20584114E2,1.4292097E2,3.2752473E0,5.26888E2,6.375717E2,5.3971696E0,1.3621891E1,1.0087632E2,3.7162569E0,7.0661945E2,3.166426E2,2.4767358E2,1.9087498E1,1.0149661E2,2.1534504E1,1.2138647E2,6.6091137E0,5.2027893E2],"tree_param":{"num_deleted":"0","num_feature":"4","num_nodes":"29","size_leaf_vector":"1"}},{"base_weights":[-3.884178E-3,9.606658E-1,-4.612658E-1,9.736811E-1,-2.7130922E-2,9.2033744E-1,-4.828985E-1,1.028188E0,7.3195434E-1,6.261699E-2,4.5843592E-1,-3.373444E-1,-5.791863E-1,5.267119E-2,4.513664E-2,1.780791E-2,4.6677735E-2,5.6531895E-3,3.437689E-2,-2.0025898E-2,1.8366057E-2,-2.9130196E-2,-1.1493748E-2],"categories":[],"categories_nodes":[],"categories_segments":[],"categories_sizes":[],"default_left":[0,0,0,0,0,0,0,0,0,0,0,0,0,0,0,0,0,0,0,0,0,0,0],"id":27,"left_children":[1,3,5,7,-1,9,11,13,15,-1,17,19,21,-1,-1,-1,-1,-1,-1,-1,-1,-1,-1],"loss_changes":[1.3956554E3,2.0438293E1,6.4582214E1,1.2544617E1,0E0,4.5519524E0,2.9425781E1,1.6484985E0,1.3998894E1,0E0,1.1531518E0,3.771351E1,1.3830261E0,0E0,0E0,0E0,0E0,0E0,0E0,0E0,0E0,0E0,0E0],"parents":[2147483647,0,0,1,1,2,2,3,3,5,5,6,6,7,7,8,8,10,10,11,11,12,12],"right_children":[2,4,6,8,-1,10,12,14,16,-1,18,20,22,-1,-1,-1,-1,-1,-1,-1,-1,-1,-1],"split_conditions":[8.8361377E-1,1.4360277E-1,4.2387694E-2,7.2200966E-1,-2.7130922E-2,8.90863E-6,1.5739283E-1,1.1289455E-6,2.444708E-2,6.261699E-2,1.3396974E-5,1.5270524E-4,2.507926E-2,5.267119E-2,4.513664E-2,1.780791E-2,4.6677735E-2,5.6531895E-3,3.437689E-2,-2.0025898E-2,1.8366057E-2,-2.9130196E-2,-1.1493748E-2],"split_indices":[2,0,0,2,0,3,0,3,0,0,3,3,3,0,0,0,0,0,0,0,0,0,0],"split_type":[0,0,0,0,0,0,0,0,0,0,0,0,0,0,0,0,0,0,0,0,0,0,0],"sum_hessian":[3.1615457E3,1.01659576E3,2.14495E3,1.008219E3,8.376758E0,3.2426743E1,2.1125232E3,8.200523E2,1.8816672E2,1.7870583E1,1.455616E1,8.428807E2,1.2696426E3,6.7656213E2,1.4349014E2,6.666518E1,1.2150153E2,6.400654E0,8.155506E0,7.739292E2,6.8951454E1,1.2566794E3,1.2963114E1],"tree_param":{"num_deleted":"0","num_feature":"4","num_nodes":"23","size_leaf_vector":"1"}},{"base_weights":[2.0175793E-3,-6.8992746E-1,1.9983909E-1,-3.9836526E-2,-4.7343776E-1,3.788967E-1,-7.638019E-1,4.5024228E-1,-5.146476E-1,4.3529722E-1,-3.3687107E-2,-2.8268942E-1,-7.8006357E-1,-7.274901E-3,3.7144758E-2,-1.9139545E-2,-3.7166815E-2,1.2495549E-2,3.251214E-2,-2.894849E-2,4.7659036E-3,1.131838E-2,-3.1726595E-2,-1.70119E-2,-3.9265323E-2],"categories":[],"categories_nodes":[],"categories_segments":[],"categories_sizes":[],"default_left":[0,0,0,0,0,0,0,0,0,0,0,0,0,0,0,0,0,0,0,0,0,0,0,0,0],"id":28,"left_children":[1,3,5,-1,7,9,11,13,15,17,19,21,23,-1,-1,-1,-1,-1,-1,-1,-1,-1,-1,-1,-1],"loss_changes":[5.873001E2,2.1679138E1,5.760176E2,0E0,1.2321144E1,6.55072E1,3.8726501E0,2.566E0,8.897514E0,9.850372E1,2.3929955E1,3.4882252E0,8.98468E-1,0E0,0E0,0E0,0E0,0E0,0E0,0E0,0E0,0E0,0E0,0E0,0E0],"parents":[2147483647,0,0,1,1,2,2,4,4,5,5,6,6,7,7,8,8,9,9,10,10,11,11,12,12],"right_children":[2,4,6,-1,8,10,12,14,16,18,20,22,24,-1,-1,-1,-1,-1,-1,-1,-1,-1,-1,-1,-1],"split_conditions":[8.4321576E-1,1.1289455E-6,6.9041806E-1,-3.9836526E-2,3.0321234E-1,3.5190287E-3,8.2035735E-3,1.116519E-2,1.3396974E-5,1.5739283E-1,4.3131056E-1,7.0850337E-1,9.373428E-1,-7.274901E-3,3.7144758E-2,-1.9139545E-2,-3.7166815E-2,1.2495549E-2,3.251214E-2,-2.894849E-2,4.7659036E-3,1.131838E-2,-3.1726595E-2,-1.70119E-2,-3.9265323E-2],"split_indices":[2,3,0,0,2,3,3,0,3,0,0,0,2,0,0,0,0,0,0,0,0,0,0,0,0],"split_type":[0,0,0,0,0,0,0,0,0,0,0,0,0,0,0,0,0,0,0,0,0,0,0,0,0],"sum_hessian":[4.2885625E3,9.5292163E2,3.3356409E3,6.3631946E2,3.166022E2,2.8134673E3,5.221737E2,1.3097961E1,3.0350424E2,2.4750684E3,3.383988E2,1.7673594E1,5.045001E2,4.4803476E0,8.617614E0,1.9420432E2,1.0929994E2,1.3300712E3,1.1449972E3,6.4075356E1,2.7432346E2,7.368799E0,1.0304793E1,6.7192116E0,4.9778088E2],"tree_param":{"num_deleted":"0","num_feature":"4","num_nodes":"25","size_leaf_vector":"1"}},{"base_weights":[1.2985985E-3,-3.6819226E-1,9.125583E-1,-5.44521E-1,-2.6416123E-1,5.235612E-1,5.6126602E-2,-5.838994E-1,-3.2018718E-1,-8.408329E-2,-4.9651504E-1,8.128203E-1,2.986648E-1,-2.9274354E-2,-1.6691208E-2,6.156927E-2,-2.7629247E-2,6.504046E-2,-4.6719415E-3,-2.7843138E-2,-2.0887248E-2,-1.1393513E-2,5.0229598E-2,-2.7641503E-2,2.1561058E-2],"categories":[],"categories_nodes":[],"categories_segments":[],"categories_sizes":[],"default_left":[0,0,0,0,0,0,0,0,0,0,0,0,0,0,0,0,0,0,0,0,0,0,0,0,0],"id":29,"left_children":[1,3,5,7,9,11,-1,13,15,17,19,21,23,-1,-1,-1,-1,-1,-1,-1,-1,-1,-1,-1,-1],"loss_changes":[9.413621E2,3.6346252E1,6.529346E1,6.3253326E0,5.2388336E1,1.8273247E1,0E0,5.305481E-2,4.1171814E1,9.283594E0,2.367157E0,2.4959877E1,1.8490782E1,0E0,0E0,0E0,0E0,0E0,0E0,0E0,0E0,0E0,0E0,0E0,0E0],"parents":[2147483647,0,0,1,1,2,2,3,3,4,4,5,5,7,7,8,8,9,9,10,10,11,11,12,12],"right_children":[2,4,6,8,10,12,-1,14,16,18,20,22,24,-1,-1,-1,-1,-1,-1,-1,-1,-1,-1,-1,-1],"split_conditions":[3.5190287E-3,1E0,7.0850337E-1,4.2585257E-4,6.202997E-5,5.093938E-1,5.6126602E-2,9.948439E-1,1.5739283E-1,4.737612E-5,2.896225E-3,1E0,5.2427677E-3,-2.9274354E-2,-1.6691208E-2,6.156927E-2,-2.7629247E-2,6.504046E-2,-4.6719415E-3,-2.7843138E-2,-2.0887248E-2,-1.1393513E-2,5.0229598E-2,-2.7641503E-2,2.1561058E-2],"split_indices":[3,2,0,3,3,0,0,2,0,3,3,2,3,0,0,0,0,0,0,0,0,0,0,0,0],"split_type":[0,0,0,0,0,0,0,0,0,0,0,0,0,0,0,0,0,0,0,0,0,0,0,0,0],"sum_hessian":[2.7938328E3,1.9882484E3,8.055843E2,7.3619354E2,1.2520549E3,2.8362823E2,5.2195605E2,6.2489905E2,1.1129449E2,7.061439E2,5.4591095E2,1.2291812E2,1.6071011E2,6.1962384E2,5.275191E0,1.393835E1,9.735614E1,3.8120198E0,7.023319E2,3.0566437E2,2.4024658E2,1.9096827E1,1.038213E2,2.1221323E1,1.3948878E2],"tree_param":{"num_deleted":"0","num_feature":"4","num_nodes":"25","size_leaf_vector":"1"}},{"base_weights":[-4.3733534E-3,9.137363E-1,-4.5517626E-1,9.2887425E-1,-2.7481988E-2,8.918605E-1,-4.7706708E-1,5.0300498E-2,7.70581E-1,6.047187E-2,4.4742104E-1,-3.3299968E-1,-5.738248E-1,-1.094897E-2,4.0213723E-2,5.632616E-3,3.3339974E-2,-1.9662356E-2,1.6778154E-2,-2.8867131E-2,-1.108548E-2],"categories":[],"categories_nodes":[],"categories_segments":[],"categories_sizes":[],"default_left":[0,0,0,0,0,0,0,0,0,0,0,0,0,0,0,0,0,0,0,0,0],"id":30,"left_children":[1,3,5,7,-1,9,11,-1,13,-1,15,17,19,-1,-1,-1,-1,-1,-1,-1,-1],"loss_changes":[1.289828E3,2.3245056E1,6.205783E1,1.1631836E1,0E0,4.2255516E0,2.8487396E1,0E0,1.14189E1,0E0,1.0751054E0,3.3522194E1,1.3947754E0,0E0,0E0,0E0,0E0,0E0,0E0,0E0,0E0],"parents":[2147483647,0,0,1,1,2,2,3,3,5,5,6,6,8,8,10,10,11,11,12,12],"right_children":[2,4,6,8,-1,10,12,-1,14,-1,16,18,20,-1,-1,-1,-1,-1,-1,-1,-1],"split_conditions":[8.8629955E-1,1.4360277E-1,4.2387694E-2,1.1289455E-6,-2.7481988E-2,8.90863E-6,1.5739283E-1,5.0300498E-2,3.0321234E-1,6.047187E-2,1.3396974E-5,1.5270524E-4,2.507926E-2,-1.094897E-2,4.0213723E-2,5.632616E-3,3.3339974E-2,-1.9662356E-2,1.6778154E-2,-2.8867131E-2,-1.108548E-2],"split_indices":[2,0,0,3,0,3,0,0,2,0,3,3,3,0,0,0,0,0,0,0,0],"split_type":[0,0,0,0,0,0,0,0,0,0,0,0,0,0,0,0,0,0,0,0,0],"sum_hessian":[3.114376E3,1.0252714E3,2.0891045E3,1.01513544E3,1.0135865E1,3.2771793E1,2.0563328E3,6.78937E2,3.3619846E2,1.8109951E1,1.466184E1,8.2796954E2,1.2283633E3,1.0889177E1,3.2530927E2,6.403573E0,8.258267E0,7.599028E2,6.806676E1,1.2155795E3,1.2783855E1],"tree_param":{"num_deleted":"0","num_feature":"4","num_nodes":"21","size_leaf_vector":"1"}},{"base_weights":[2.1112303E-3,-6.8323064E-1,1.895997E-1,-3.8778823E-2,-4.7807148E-1,3.602642E-1,-7.4245375E-1,4.50117E-1,-5.2441525E-1,-7.3465174E-1,3.795035E-1,-2.6894772E-1,-7.586647E-1,-6.707616E-3,3.688064E-2,-1.979204E-2,-3.7962448E-2,1.1937278E-2,-4.379947E-2,2.1835469E-2,-1.5479944E-3,1.1109444E-2,-3.0559698E-2,-1.6276946E-2,-3.819437E-2],"categories":[],"categories_nodes":[],"categories_segments":[],"categories_sizes":[],"default_left":[0,0,0,0,0,0,0,0,0,0,0,0,0,0,0,0,0,0,0,0,0,0,0,0,0],"id":31,"left_children":[1,3,5,-1,7,9,11,13,15,17,19,21,23,-1,-1,-1,-1,-1,-1,-1,-1,-1,-1,-1,-1],"loss_changes":[5.435228E2,1.6843475E1,5.2858655E2,0E0,1.2480156E1,5.94299E1,3.7441711E0,2.4630754E0,7.8990707E0,6.926901E0,6.482422E1,3.2582207E0,8.7509155E-1,0E0,0E0,0E0,0E0,0E0,0E0,0E0,0E0,0E0,0E0,0E0,0E0],"parents":[2147483647,0,0,1,1,2,2,4,4,5,5,6,6,7,7,8,8,9,9,10,10,11,11,12,12],"right_children":[2,4,6,-1,8,10,12,14,16,18,20,22,24,-1,-1,-1,-1,-1,-1,-1,-1,-1,-1,-1,-1],"split_conditions":[8.181643E-1,1.1289455E-6,6.9041806E-1,-3.8778823E-2,3.0321234E-1,8.90863E-6,8.2035735E-3,1.116519E-2,1.3396974E-5,8.3008295E-1,3.5190287E-3,7.0850337E-1,9.373428E-1,-6.707616E-3,3.688064E-2,-1.979204E-2,-3.7962448E-2,1.1937278E-2,-4.379947E-2,2.1835469E-2,-1.5479944E-3,1.1109444E-2,-3.0559698E-2,-1.6276946E-2,-3.819437E-2],"split_indices":[2,3,0,0,2,3,3,0,3,2,3,0,2,0,0,0,0,0,0,0,0,0,0,0,0],"split_type":[0,0,0,0,0,0,0,0,0,0,0,0,0,0,0,0,0,0,0,0,0,0,0,0,0],"sum_hessian":[4.227949E3,9.076173E2,3.3203318E3,6.239749E2,2.8364236E2,2.8069722E3,5.1335974E2,1.3074258E1,2.705681E2,4.7828865E1,2.7591433E3,1.7575918E1,4.9578384E2,4.4876046E0,8.586653E0,1.7657607E2,9.399205E1,5.9768567E0,4.185201E1,2.4215854E3,3.3755792E2,7.361982E0,1.0213937E1,6.6615267E0,4.891223E2],"tree_param":{"num_deleted":"0","num_feature":"4","num_nodes":"25","size_leaf_vector":"1"}},{"base_weights":[1.7010756E-3,-3.6084104E-1,8.665983E-1,-2.9220883E-2,-2.7676314E-1,4.9942812E-1,5.325467E-2,-1.0165449E-1,-5.021873E-1,9.552451E-1,3.7017852E-1,-6.3829287E-3,8.036E-2,-2.7977318E-2,-2.0490704E-2,1.5937396E-4,5.109301E-2,1.3295702E-2,2.9364256E-2],"categories":[],"categories_nodes":[],"categories_segments":[],"categories_sizes":[],"default_left":[0,0,0,0,0,0,0,0,0,0,0,0,0,0,0,0,0,0,0],"id":32,"left_children":[1,3,5,-1,7,9,-1,11,13,15,17,-1,-1,-1,-1,-1,-1,-1,-1],"loss_changes":[8.659617E2,3.6418716E1,5.891797E1,0E0,5.5846786E1,1.6620674E1,0E0,3.5676598E1,3.0495758E0,3.9933548E0,4.9619923E0,0E0,0E0,0E0,0E0,0E0,0E0,0E0,0E0],"parents":[2147483647,0,0,1,1,2,2,4,4,5,5,7,7,8,8,9,9,10,10],"right_children":[2,4,6,-1,8,10,-1,12,14,16,18,-1,-1,-1,-1,-1,-1,-1,-1],"split_conditions":[3.5190287E-3,8.974537E-1,7.0850337E-1,-2.9220883E-2,1.5739283E-1,4.3131056E-1,5.325467E-2,4.945245E-4,2.896225E-3,4.0096825E-1,6.2425655E-1,-6.3829287E-3,8.036E-2,-2.7977318E-2,-2.0490704E-2,1.5937396E-4,5.109301E-2,1.3295702E-2,2.9364256E-2],"split_indices":[3,2,0,0,0,0,0,3,3,0,0,0,0,0,0,0,0,0,0],"split_type":[0,0,0,0,0,0,0,0,0,0,0,0,0,0,0,0,0,0,0],"sum_hessian":[2.7596978E3,1.9449913E3,8.147063E2,5.29914E2,1.4150774E3,2.8711887E2,5.2758746E2,7.9723737E2,6.1783997E2,6.2016888E1,2.2510199E2,7.861989E2,1.1038495E1,3.780395E2,2.398005E2,4.1240506E0,5.7892838E1,1.5357372E2,7.152828E1],"tree_param":{"num_deleted":"0","num_feature":"4","num_nodes":"19","size_leaf_vector":"1"}},{"base_weights":[-4.978649E-3,8.7365854E-1,-4.4803804E-1,8.879424E-1,-2.7235126E-2,8.5490584E-1,-4.6999067E-1,9.4062954E-1,6.6036165E-1,5.7092376E-2,4.444475E-1,-3.2346106E-1,-5.6916416E-1,4.8194107E-2,4.133711E-2,1.4860498E-2,4.274138E-2,5.8874316E-3,3.2754865E-2,-1.921508E-2,1.68925E-2,-2.863883E-2,-1.066319E-2],"categories":[],"categories_nodes":[],"categories_segments":[],"categories_sizes":[],"default_left":[0,0,0,0,0,0,0,0,0,0,0,0,0,0,0,0,0,0,0,0,0,0,0],"id":33,"left_children":[1,3,5,7,-1,9,11,13,15,-1,17,19,21,-1,-1,-1,-1,-1,-1,-1,-1,-1,-1],"loss_changes":[1.1940248E3,2.1314453E1,5.8723602E1,1.1589111E1,0E0,3.5133991E0,2.8964813E1,1.3865356E0,1.3501999E1,0E0,1.0022137E0,3.279812E1,1.4141235E0,0E0,0E0,0E0,0E0,0E0,0E0,0E0,0E0,0E0,0E0],"parents":[2147483647,0,0,1,1,2,2,3,3,5,5,6,6,7,7,8,8,10,10,11,11,12,12],"right_children":[2,4,6,8,-1,10,12,14,16,-1,18,20,22,-1,-1,-1,-1,-1,-1,-1,-1,-1,-1],"split_conditions":[8.8629955E-1,1.4360277E-1,4.2387694E-2,7.2200966E-1,-2.7235126E-2,8.90863E-6,1.5739283E-1,1.1289455E-6,2.444708E-2,5.7092376E-2,1.3396974E-5,1.5270524E-4,2.507926E-2,4.8194107E-2,4.133711E-2,1.4860498E-2,4.274138E-2,5.8874316E-3,3.2754865E-2,-1.921508E-2,1.68925E-2,-2.863883E-2,-1.066319E-2],"split_indices":[2,0,0,2,0,3,0,3,0,0,3,3,3,0,0,0,0,0,0,0,0,0,0],"split_type":[0,0,0,0,0,0,0,0,0,0,0,0,0,0,0,0,0,0,0,0,0,0,0],"sum_hessian":[3.065193E3,1.0271888E3,2.0380042E3,1.0173177E3,9.871109E0,3.3139683E1,2.0048645E3,8.235294E2,1.937883E2,1.8455793E1,1.4683889E1,8.109464E2,1.1939181E3,6.776989E2,1.458305E2,6.846429E1,1.2532402E2,6.36748E0,8.316409E0,7.4300854E2,6.7937836E1,1.1813181E3,1.2599932E1],"tree_param":{"num_deleted":"0","num_feature":"4","num_nodes":"23","size_leaf_vector":"1"}},{"base_weights":[2.1603028E-3,-6.6344786E-1,1.8359104E-1,-3.7817262E-2,-4.5976785E-1,3.485725E-1,-7.227553E-1,4.354769E-1,-5.0449604E-1,-7.0083153E-1,3.6726874E-1,-2.5470024E-1,-7.39008E-1,-6.919676E-3,3.6075383E-2,-1.884024E-2,-3.7013438E-2,1.2115235E-2,-4.189873E-2,2.1159958E-2,-1.4256659E-3,1.1023114E-2,-2.9465575E-2,-1.5535858E-2,-3.721204E-2],"categories":[],"categories_nodes":[],"categories_segments":[],"categories_sizes":[],"default_left":[0,0,0,0,0,0,0,0,0,0,0,0,0,0,0,0,0,0,0,0,0,0,0,0,0],"id":34,"left_children":[1,3,5,-1,7,9,11,13,15,17,19,21,23,-1,-1,-1,-1,-1,-1,-1,-1,-1,-1,-1,-1],"loss_changes":[5.034404E2,1.6548035E1,4.9010056E2,0E0,1.1521748E1,5.4645996E1,3.651886E0,2.3925335E0,7.8280945E0,6.5237865E0,6.031656E1,3.066E0,8.609619E-1,0E0,0E0,0E0,0E0,0E0,0E0,0E0,0E0,0E0,0E0,0E0,0E0],"parents":[2147483647,0,0,1,1,2,2,4,4,5,5,6,6,7,7,8,8,9,9,10,10,11,11,12,12],"right_children":[2,4,6,-1,8,10,12,14,16,18,20,22,24,-1,-1,-1,-1,-1,-1,-1,-1,-1,-1,-1,-1],"split_conditions":[8.181643E-1,1.1289455E-6,6.9041806E-1,-3.7817262E-2,3.0321234E-1,8.90863E-6,8.2035735E-3,1.116519E-2,1.3396974E-5,8.3008295E-1,3.5190287E-3,7.0850337E-1,9.373428E-1,-6.919676E-3,3.6075383E-2,-1.884024E-2,-3.7013438E-2,1.2115235E-2,-4.189873E-2,2.1159958E-2,-1.4256659E-3,1.1023114E-2,-2.9465575E-2,-1.5535858E-2,-3.721204E-2],"split_indices":[2,3,0,0,2,3,3,0,3,2,3,0,2,0,0,0,0,0,0,0,0,0,0,0,0],"split_type":[0,0,0,0,0,0,0,0,0,0,0,0,0,0,0,0,0,0,0,0,0,0,0,0,0],"sum_hessian":[4.1668633E3,8.919485E2,3.2749148E3,6.1069867E2,2.8124982E2,2.771108E3,5.0380698E2,1.296745E1,2.6828235E2,4.786745E1,2.7232405E3,1.7466518E1,4.8634045E2,4.4850817E0,8.482368E0,1.7571545E2,9.256691E1,5.979497E0,4.188795E1,2.385992E3,3.372485E2,7.3584037E0,1.0108114E1,6.5990934E0,4.7974136E2],"tree_param":{"num_deleted":"0","num_feature":"4","num_nodes":"25","size_leaf_vector":"1"}},{"base_weights":[2.2976273E-3,-3.5325742E-1,8.2516533E-1,-5.358966E-1,-2.4762009E-1,4.604195E-1,1.0060723E0,-5.7688904E-1,-3.037036E-1,-7.132518E-2,-4.849883E-1,7.2035694E-1,1.8679671E-1,8.211423E-3,1.0110061E0,-2.8927812E-2,-1.5976535E-2,5.7531577E-2,-2.7213251E-2,6.34309E-2,-4.0338472E-3,-2.7442107E-2,-2.0126177E-2,-1.3667834E-2,4.495163E-2,5.0562788E-2,2.8694167E-3,3.5762414E-2,5.084225E-2],"categories":[],"categories_nodes":[],"categories_segments":[],"categories_sizes":[],"default_left":[0,0,0,0,0,0,0,0,0,0,0,0,0,0,0,0,0,0,0,0,0,0,0,0,0,0,0,0,0],"id":35,"left_children":[1,3,5,7,9,11,13,15,17,19,21,23,25,-1,27,-1,-1,-1,-1,-1,-1,-1,-1,-1,-1,-1,-1,-1,-1],"loss_changes":[7.9765344E2,3.6597107E1,5.381537E1,6.4566193E0,5.0515648E1,1.9393932E1,2.1143188E0,6.877136E-2,3.7942802E1,8.802969E0,2.4890518E0,2.518377E1,1.4357342E1,0E0,2.1490479E-1,0E0,0E0,0E0,0E0,0E0,0E0,0E0,0E0,0E0,0E0,0E0,0E0,0E0,0E0],"parents":[2147483647,0,0,1,1,2,2,3,3,4,4,5,5,6,6,7,7,8,8,9,9,10,10,11,11,12,12,14,14],"right_children":[2,4,6,8,10,12,14,16,18,20,22,24,26,-1,28,-1,-1,-1,-1,-1,-1,-1,-1,-1,-1,-1,-1,-1,-1],"split_conditions":[3.5190287E-3,1E0,6.9041806E-1,4.2585257E-4,6.202997E-5,5.2074033E-1,7.816496E-3,9.948439E-1,1.5739283E-1,4.737612E-5,2.896225E-3,1E0,9.7896004E-1,8.211423E-3,8.2035735E-3,-2.8927812E-2,-1.5976535E-2,5.7531577E-2,-2.7213251E-2,6.34309E-2,-4.0338472E-3,-2.7442107E-2,-2.0126177E-2,-1.3667834E-2,4.495163E-2,5.0562788E-2,2.8694167E-3,3.5762414E-2,5.084225E-2],"split_indices":[3,2,0,3,3,0,3,2,0,3,3,2,2,0,3,0,0,0,0,0,0,0,0,0,0,0,0,0,0],"split_type":[0,0,0,0,0,0,0,0,0,0,0,0,0,0,0,0,0,0,0,0,0,0,0,0,0,0,0,0,0],"sum_hessian":[2.724327E3,1.9027385E3,8.215885E2,6.9575543E2,1.2069832E3,2.735666E2,5.480219E2,5.900931E2,1.0566234E2,6.933374E2,5.136457E2,1.3945439E2,1.341122E2,3.3928921E0,5.44629E2,5.8505493E2,5.03814E0,1.4460003E1,9.120233E1,3.8721397E0,6.894653E2,2.8630194E2,2.2734375E2,2.1172504E1,1.1828188E2,1.727011E1,1.1684208E2,1.293488E1,5.3169415E2],"tree_param":{"num_deleted":"0","num_feature":"4","num_nodes":"29","size_leaf_vector":"1"}},{"base_weights":[-5.6094048E-3,7.7825165E-1,-4.7464344E-1,8.4063053E-1,-2.9811556E-2,-3.3910406E-1,-5.6408274E-1,9.033839E-1,6.383007E-1,1.8030268E-1,-3.7259287E-1,-5.6787497E-1,-1.0227556E-2,4.6328705E-2,3.9558012E-2,2.2771453E-2,5.6386054E-2,2.719137E-2,-8.399996E-3,-1.9017031E-2,2.9297773E-2,-2.724042E-2,-2.99054E-2],"categories":[],"categories_nodes":[],"categories_segments":[],"categories_sizes":[],"default_left":[0,0,0,0,0,0,0,0,0,0,0,0,0,0,0,0,0,0,0,0,0,0,0],"id":36,"left_children":[1,3,5,7,-1,9,11,13,15,17,19,21,-1,-1,-1,-1,-1,-1,-1,-1,-1,-1,-1],"loss_changes":[1.1088026E3,9.730194E1,2.2681885E1,1.3141296E1,0E0,1.3158302E1,1.4316406E0,1.4068604E0,2.2683006E1,5.948565E0,5.476074E0,4.5718384E-1,0E0,0E0,0E0,0E0,0E0,0E0,0E0,0E0,0E0,0E0,0E0],"parents":[2147483647,0,0,1,1,2,2,3,3,5,5,6,6,7,7,8,8,9,9,10,10,11,11],"right_children":[2,4,6,8,-1,10,12,14,16,18,20,22,-1,-1,-1,-1,-1,-1,-1,-1,-1,-1,-1],"split_conditions":[9.4411695E-1,2.7498842E-4,1.5739283E-1,7.2200966E-1,-2.9811556E-2,1E0,2.507926E-2,1.1289455E-6,8.612918E-2,1.0630055E-1,1.9002071E-4,3.5190287E-3,-1.0227556E-2,4.6328705E-2,3.9558012E-2,2.2771453E-2,5.6386054E-2,2.719137E-2,-8.399996E-3,-1.9017031E-2,2.9297773E-2,-2.724042E-2,-2.99054E-2],"split_indices":[2,3,0,2,0,2,3,3,0,0,3,3,0,0,0,0,0,0,0,0,0,0,0],"split_type":[0,0,0,0,0,0,0,0,0,0,0,0,0,0,0,0,0,0,0,0,0,0,0],"sum_hessian":[3.0138525E3,1.1280197E3,1.885833E3,1.0794202E3,4.859951E1,7.5160956E2,1.1342235E3,8.212434E2,2.5817673E2,4.5259354E1,7.0635016E2,1.1218115E3,1.2411951E1,6.745884E2,1.46655E2,1.8935492E2,6.882181E1,2.1871073E1,2.3388283E1,7.0128503E2,5.0651474E0,6.4711163E2,4.7469983E2],"tree_param":{"num_deleted":"0","num_feature":"4","num_nodes":"23","size_leaf_vector":"1"}},{"base_weights":[2.2185137E-3,-6.4503235E-1,1.7784816E-1,-3.694014E-2,-4.4235146E-1,3.3730805E-1,-7.045789E-1,4.353903E-1,-4.8655707E-1,3.8836867E-1,-2.6203314E-2,-2.4492295E-1,-7.207836E-1,-6.3820146E-3,3.5827838E-2,-1.8029533E-2,-3.6100123E-2,1.0206329E-2,3.0785939E-2,-2.7143419E-2,4.705642E-3,1.0864894E-2,-2.8648177E-2,-1.4731183E-2,-3.630342E-2],"categories":[],"categories_nodes":[],"categories_segments":[],"categories_sizes":[],"default_left":[0,0,0,0,0,0,0,0,0,0,0,0,0,0,0,0,0,0,0,0,0,0,0,0,0],"id":37,"left_children":[1,3,5,-1,7,9,11,13,15,17,19,21,23,-1,-1,-1,-1,-1,-1,-1,-1,-1,-1,-1,-1],"loss_changes":[4.6674692E2,1.632846E1,4.5467685E2,0E0,1.1064014E1,5.0792877E1,3.5076141E0,2.297954E0,7.6509514E0,1.00364716E2,2.1056738E1,2.9080515E0,8.6091614E-1,0E0,0E0,0E0,0E0,0E0,0E0,0E0,0E0,0E0,0E0,0E0,0E0],"parents":[2147483647,0,0,1,1,2,2,4,4,5,5,6,6,7,7,8,8,9,9,10,10,11,11,12,12],"right_children":[2,4,6,-1,8,10,12,14,16,18,20,22,24,-1,-1,-1,-1,-1,-1,-1,-1,-1,-1,-1,-1],"split_conditions":[8.181643E-1,1.1289455E-6,6.9041806E-1,-3.694014E-2,3.0321234E-1,3.5190287E-3,8.2035735E-3,1.116519E-2,1.3396974E-5,1.5739283E-1,4.3131056E-1,7.0850337E-1,9.373428E-1,-6.3820146E-3,3.5827838E-2,-1.8029533E-2,-3.6100123E-2,1.0206329E-2,3.0785939E-2,-2.7143419E-2,4.705642E-3,1.0864894E-2,-2.8648177E-2,-1.4731183E-2,-3.630342E-2],"split_indices":[2,3,0,0,2,3,3,0,3,0,0,0,2,0,0,0,0,0,0,0,0,0,0,0,0],"split_type":[0,0,0,0,0,0,0,0,0,0,0,0,0,0,0,0,0,0,0,0,0,0,0,0,0],"sum_hessian":[4.103916E3,8.7533966E2,3.2285764E3,5.966526E2,2.7868704E2,2.7349688E3,4.936076E2,1.29382105E1,2.6574884E2,2.3980571E3,3.3691156E2,1.7357841E1,4.7624976E2,4.491033E0,8.447178E0,1.7477396E2,9.097487E1,1.3256569E3,1.0724003E3,6.2974144E1,2.739374E2,7.345441E0,1.00124E1,6.5287223E0,4.6972104E2],"tree_param":{"num_deleted":"0","num_feature":"4","num_nodes":"25","size_leaf_vector":"1"}},{"base_weights":[2.9033166E-3,-3.4572306E-1,7.87849E-1,-2.887849E-2,-2.603934E-1,4.5561245E-1,9.7000414E-1,-8.58511E-2,-4.924235E-1,8.891518E-1,3.3387727E-1,4.8845347E-2,3.7464406E-2,-5.582527E-3,7.540882E-2,-2.7641801E-2,-1.981518E-2,-3.616274E-4,4.7571372E-2,1.8714732E-2,-1.0266355E-2],"categories":[],"categories_nodes":[],"categories_segments":[],"categories_sizes":[],"default_left":[0,0,0,0,0,0,0,0,0,0,0,0,0,0,0,0,0,0,0,0,0],"id":38,"left_children":[1,3,5,-1,7,9,11,13,15,17,19,-1,-1,-1,-1,-1,-1,-1,-1,-1,-1],"loss_changes":[7.3589606E2,3.668875E1,4.9609436E1,0E0,5.5157112E1,1.5259438E1,8.053589E-2,3.220726E1,3.1774292E0,3.5806236E0,5.1271343E0,0E0,0E0,0E0,0E0,0E0,0E0,0E0,0E0,0E0,0E0],"parents":[2147483647,0,0,1,1,2,2,4,4,5,5,6,6,7,7,8,8,9,9,10,10],"right_children":[2,4,6,-1,8,10,12,14,16,18,20,-1,-1,-1,-1,-1,-1,-1,-1,-1,-1],"split_conditions":[3.5190287E-3,8.974537E-1,7.0850337E-1,-2.887849E-2,1.5739283E-1,4.3131056E-1,2.507926E-2,4.945245E-4,2.896225E-3,4.0096825E-1,1.22492565E-2,4.8845347E-2,3.7464406E-2,-5.582527E-3,7.540882E-2,-2.7641801E-2,-1.981518E-2,-3.616274E-4,4.7571372E-2,1.8714732E-2,-1.0266355E-2],"split_indices":[3,2,0,0,0,0,3,3,3,0,3,0,0,0,0,0,0,0,0,0,0],"split_type":[0,0,0,0,0,0,0,0,0,0,0,0,0,0,0,0,0,0,0,0,0],"sum_hessian":[2.6871648E3,1.8611235E3,8.2604126E2,4.9914426E2,1.3619792E3,2.9375552E2,5.322857E2,7.780608E2,5.839185E2,6.301921E1,2.3073631E2,5.1282135E2,1.9464355E1,7.6658356E2,1.1477243E1,3.5564178E2,2.2827672E2,4.1512165E0,5.8867996E1,2.1493144E2,1.5804864E1],"tree_param":{"num_deleted":"0","num_feature":"4","num_nodes":"21","size_leaf_vector":"1"}},{"base_weights":[-6.122156E-3,7.493102E-1,-4.6810204E-1,8.0847186E-1,-2.9560179E-2,-3.3238384E-1,-5.5919755E-1,8.6993045E-1,6.126169E-1,1.8049952E-1,-3.659934E-1,-5.630954E-1,-9.901811E-3,4.4661727E-2,3.793116E-2,2.1793999E-2,5.426783E-2,1.8680343E-2,-2.1559017E-2,-1.8688878E-2,2.8670898E-2,-2.6967956E-2,-2.9698491E-2],"categories":[],"categories_nodes":[],"categories_segments":[],"categories_sizes":[],"default_left":[0,0,0,0,0,0,0,0,0,0,0,0,0,0,0,0,0,0,0,0,0,0,0],"id":39,"left_children":[1,3,5,7,-1,9,11,13,15,17,19,21,-1,-1,-1,-1,-1,-1,-1,-1,-1,-1,-1],"loss_changes":[1.0339937E3,8.9643616E1,2.254367E1,1.2433411E1,0E0,1.2836678E1,1.4350586E0,1.4429321E0,2.1305977E1,5.622051E0,5.301056E0,4.7579956E-1,0E0,0E0,0E0,0E0,0E0,0E0,0E0,0E0,0E0,0E0,0E0],"parents":[2147483647,0,0,1,1,2,2,3,3,5,5,6,6,7,7,8,8,9,9,10,10,11,11],"right_children":[2,4,6,8,-1,10,12,14,16,18,20,22,-1,-1,-1,-1,-1,-1,-1,-1,-1,-1,-1],"split_conditions":[9.4411695E-1,2.7498842E-4,1.5739283E-1,7.2200966E-1,-2.9560179E-2,1E0,2.507926E-2,1.1289455E-6,8.612918E-2,2.3198906E-4,1.9002071E-4,3.5190287E-3,-9.901811E-3,4.4661727E-2,3.793116E-2,2.1793999E-2,5.426783E-2,1.8680343E-2,-2.1559017E-2,-1.8688878E-2,2.8670898E-2,-2.6967956E-2,-2.9698491E-2],"split_indices":[2,3,0,2,0,2,3,3,0,3,3,3,0,0,0,0,0,0,0,0,0,0,0],"split_type":[0,0,0,0,0,0,0,0,0,0,0,0,0,0,0,0,0,0,0,0,0,0,0],"sum_hessian":[2.960774E3,1.1233094E3,1.8374645E3,1.0762094E3,4.7100048E1,7.3985065E2,1.0976138E3,8.1654004E2,2.5966928E2,4.523235E1,6.946183E2,1.0853412E3,1.227265E1,6.6937115E2,1.471689E2,1.9040654E2,6.926275E1,3.4674744E1,1.0557606E1,6.89507E2,5.111277E0,6.2404425E2,4.612969E2],"tree_param":{"num_deleted":"0","num_feature":"4","num_nodes":"23","size_leaf_vector":"1"}},{"base_weights":[2.3466893E-3,-6.1390793E-1,1.7632683E-1,-3.61377E-2,-4.055955E-1,3.3308068E-1,-6.880135E-1,-2.6613405E-1,-6.7610675E-1,-8.5002136E-1,3.4859067E-1,-2.3300757E-1,-7.04302E-1,-1.9152416E-2,1.3842379E-2,-3.615181E-2,2.7728138E-2,1.3460234E-2,-4.6286672E-2,2.0152658E-2,-1.1923849E-3,1.0661657E-2,-2.767072E-2,-1.4191369E-2,-3.547978E-2],"categories":[],"categories_nodes":[],"categories_segments":[],"categories_sizes":[],"default_left":[0,0,0,0,0,0,0,0,0,0,0,0,0,0,0,0,0,0,0,0,0,0,0,0,0],"id":40,"left_children":[1,3,5,-1,7,9,11,13,15,17,19,21,23,-1,-1,-1,-1,-1,-1,-1,-1,-1,-1,-1,-1],"loss_changes":[4.3320172E2,1.9876709E1,4.2713885E2,0E0,1.1423328E1,4.9251038E1,3.4232635E0,1.3093923E1,6.4061203E0,3.1992016E0,5.3438293E1,2.7235408E0,8.3761597E-1,0E0,0E0,0E0,0E0,0E0,0E0,0E0,0E0,0E0,0E0,0E0,0E0],"parents":[2147483647,0,0,1,1,2,2,4,4,5,5,6,6,7,7,8,8,9,9,10,10,11,11,12,12],"right_children":[2,4,6,-1,8,10,12,14,16,18,20,22,24,-1,-1,-1,-1,-1,-1,-1,-1,-1,-1,-1,-1],"split_conditions":[8.4321576E-1,1.1289455E-6,6.9041806E-1,-3.61377E-2,1.3396974E-5,8.90863E-6,8.2035735E-3,5.70066E-6,1.4360277E-1,2.444708E-2,3.5190287E-3,7.0850337E-1,9.373428E-1,-1.9152416E-2,1.3842379E-2,-3.615181E-2,2.7728138E-2,1.3460234E-2,-4.6286672E-2,2.0152658E-2,-1.1923849E-3,1.0661657E-2,-2.767072E-2,-1.4191369E-2,-3.547978E-2],"split_indices":[2,3,0,0,3,3,3,3,0,0,3,0,2,0,0,0,0,0,0,0,0,0,0,0,0],"split_type":[0,0,0,0,0,0,0,0,0,0,0,0,0,0,0,0,0,0,0,0,0,0,0,0,0],"sum_hessian":[4.0384458E3,8.885579E2,3.1498877E3,5.819905E2,3.0656747E2,2.666851E3,4.8303656E2,2.0359059E2,1.0297686E2,3.3812687E1,2.6330386E3,1.7223255E1,4.658133E2,1.6776266E2,3.5827938E1,9.959159E1,3.3852723E0,1.9804684E0,3.1832218E1,2.297053E3,3.3598547E2,7.3379517E0,9.885304E0,6.470527E0,4.5934277E2],"tree_param":{"num_deleted":"0","num_feature":"4","num_nodes":"25","size_leaf_vector":"1"}},{"base_weights":[3.2655993E-3,-3.384007E-1,7.537562E-1,-5.27585E-1,-2.3151593E-1,4.204081E-1,9.2211974E-1,-5.702334E-1,-2.8797063E-1,-5.952737E-2,-4.736638E-1,6.610845E-1,1.660526E-1,7.466856E-3,9.26713E-1,-2.8599499E-2,-1.5269661E-2,5.3494006E-2,-2.6814533E-2,6.1860282E-2,-3.442954E-3,-2.7066562E-2,-1.9363133E-2,-1.4199669E-2,4.1471176E-2,4.7225904E-2,2.0885656E-3,3.248636E-2,4.6615344E-2],"categories":[],"categories_nodes":[],"categories_segments":[],"categories_sizes":[],"default_left":[0,0,0,0,0,0,0,0,0,0,0,0,0,0,0,0,0,0,0,0,0,0,0,0,0,0,0,0,0],"id":41,"left_children":[1,3,5,7,9,11,13,15,17,19,21,23,25,-1,27,-1,-1,-1,-1,-1,-1,-1,-1,-1,-1,-1,-1,-1,-1],"loss_changes":[6.796995E2,3.6710464E1,4.6152924E1,6.5477905E0,4.8519436E1,1.7038227E1,1.8143616E0,8.4228516E-2,3.4716816E1,8.346804E0,2.619896E0,2.3080265E1,1.3265764E1,0E0,2.4130249E-1,0E0,0E0,0E0,0E0,0E0,0E0,0E0,0E0,0E0,0E0,0E0,0E0,0E0,0E0],"parents":[2147483647,0,0,1,1,2,2,3,3,4,4,5,5,6,6,7,7,8,8,9,9,10,10,11,11,12,12,14,14],"right_children":[2,4,6,8,10,12,14,16,18,20,22,24,26,-1,28,-1,-1,-1,-1,-1,-1,-1,-1,-1,-1,-1,-1,-1,-1],"split_conditions":[3.5190287E-3,1E0,6.9041806E-1,4.2585257E-4,6.202997E-5,5.2074033E-1,7.816496E-3,9.948439E-1,1.5739283E-1,4.737612E-5,2.896225E-3,1E0,9.7896004E-1,7.466856E-3,8.2035735E-3,-2.8599499E-2,-1.5269661E-2,5.3494006E-2,-2.6814533E-2,6.1860282E-2,-3.442954E-3,-2.7066562E-2,-1.9363133E-2,-1.4199669E-2,4.1471176E-2,4.7225904E-2,2.0885656E-3,3.248636E-2,4.6615344E-2],"split_indices":[3,2,0,3,3,0,3,2,0,3,3,2,2,0,3,0,0,0,0,0,0,0,0,0,0,0,0,0,0],"split_type":[0,0,0,0,0,0,0,0,0,0,0,0,0,0,0,0,0,0,0,0,0,0,0,0,0,0,0,0,0],"sum_hessian":[2.64876E3,1.8205092E3,8.282509E2,6.558064E2,1.1647028E3,2.7911655E2,5.4913434E2,5.5554626E2,1.0026013E2,6.8173663E2,4.8296613E2,1.4259305E2,1.365235E2,3.4426637E0,5.4569165E2,5.507338E2,4.8124332E0,1.4989091E1,8.527104E1,3.930809E0,6.7780585E2,2.6789307E2,2.1507306E2,2.1454967E1,1.21138084E2,1.7886612E1,1.18636894E2,1.3121294E1,5.325704E2],"tree_param":{"num_deleted":"0","num_feature":"4","num_nodes":"29","size_leaf_vector":"1"}},{"base_weights":[-6.835019E-3,7.2204155E-1,-4.614855E-1,7.783409E-1,-2.9312937E-2,-3.2343164E-1,-5.549332E-1,4.3172345E-2,6.382674E-1,1.8263566E-1,-3.5726666E-1,-5.589458E-1,-1.8898214E-1,2.7582774E-2,5.231243E-2,2.6265515E-2,-7.7774557E-3,-1.8255966E-2,2.814417E-2,-2.6749352E-2,-2.950241E-2,-1.2564023E-2,-7.0530856E-3],"categories":[],"categories_nodes":[],"categories_segments":[],"categories_sizes":[],"default_left":[0,0,0,0,0,0,0,0,0,0,0,0,0,0,0,0,0,0,0,0,0,0,0],"id":42,"left_children":[1,3,5,7,-1,9,11,-1,13,15,17,19,21,-1,-1,-1,-1,-1,-1,-1,-1,-1,-1],"loss_changes":[9.638534E2,8.275464E1,2.2928955E1,1.2224243E1,0E0,1.2486923E1,1.4608154E0,0E0,1.3870499E1,5.4269614E0,5.1212463E0,4.7027588E-1,3.6053956E-3,0E0,0E0,0E0,0E0,0E0,0E0,0E0,0E0,0E0,0E0],"parents":[2147483647,0,0,1,1,2,2,3,3,5,5,6,6,8,8,9,9,10,10,11,11,12,12],"right_children":[2,4,6,8,-1,10,12,-1,14,16,18,20,22,-1,-1,-1,-1,-1,-1,-1,-1,-1,-1],"split_conditions":[9.4411695E-1,2.7498842E-4,1.5739283E-1,1.1289455E-6,-2.9312937E-2,1E0,2.507926E-2,4.3172345E-2,8.612918E-2,1.0630055E-1,1.9002071E-4,3.5190287E-3,1.0837086E0,2.7582774E-2,5.231243E-2,2.6265515E-2,-7.7774557E-3,-1.8255966E-2,2.814417E-2,-2.6749352E-2,-2.950241E-2,-1.2564023E-2,-7.0530856E-3],"split_indices":[2,3,0,3,0,2,3,0,0,0,3,3,0,0,0,0,0,0,0,0,0,0,0],"split_type":[0,0,0,0,0,0,0,0,0,0,0,0,0,0,0,0,0,0,0,0,0,0,0],"sum_hessian":[2.9065632E3,1.1163268E3,1.7902365E3,1.0706588E3,4.5667973E1,7.244459E2,1.0657905E3,6.627936E2,4.0786526E2,4.512454E1,6.7932135E2,1.0537096E3,1.2080969E1,3.3838113E2,6.9484146E1,2.2138649E1,2.2985891E1,6.7417114E2,5.1502447E0,6.054909E2,4.482187E2,3.4074528E0,8.673516E0],"tree_param":{"num_deleted":"0","num_feature":"4","num_nodes":"23","size_leaf_vector":"1"}},{"base_weights":[2.4728104E-3,-6.113318E-1,1.6714226E-1,-3.5401057E-2,-4.0880793E-1,3.162245E-1,-6.7246E-1,3.483583E-1,-4.5955873E-1,-6.525415E-1,3.341266E-1,-2.24219E-1,-6.887819E-1,-1.8471051E-2,2.881189E-2,-1.6852869E-2,-3.4471285E-2,1.21478075E-2,-3.9183374E-2,1.9327411E-2,-1.0952296E-3,1.0500868E-2,-2.6942808E-2,-1.3443227E-2,-3.470799E-2],"categories":[],"categories_nodes":[],"categories_segments":[],"categories_sizes":[],"default_left":[0,0,0,0,0,0,0,0,0,0,0,0,0,0,0,0,0,0,0,0,0,0,0,0,0],"id":43,"left_children":[1,3,5,-1,7,9,11,13,15,17,19,21,23,-1,-1,-1,-1,-1,-1,-1,-1,-1,-1,-1,-1],"loss_changes":[4.018327E2,1.6177979E1,3.9257367E2,0E0,1.0693493E1,4.639621E1,3.3059998E0,3.122396E0,7.013733E0,5.9029903E0,4.8814026E1,2.5861835E0,8.42865E-1,0E0,0E0,0E0,0E0,0E0,0E0,0E0,0E0,0E0,0E0,0E0,0E0],"parents":[2147483647,0,0,1,1,2,2,4,4,5,5,6,6,7,7,8,8,9,9,10,10,11,11,12,12],"right_children":[2,4,6,-1,8,10,12,14,16,18,20,22,24,-1,-1,-1,-1,-1,-1,-1,-1,-1,-1,-1,-1],"split_conditions":[8.181643E-1,1.1289455E-6,6.9041806E-1,-3.5401057E-2,3.1564918E-1,8.90863E-6,8.2035735E-3,1.2939216E-6,1.3396974E-5,8.3008295E-1,3.5190287E-3,7.0850337E-1,9.373428E-1,-1.8471051E-2,2.881189E-2,-1.6852869E-2,-3.4471285E-2,1.21478075E-2,-3.9183374E-2,1.9327411E-2,-1.0952296E-3,1.0500868E-2,-2.6942808E-2,-1.3443227E-2,-3.470799E-2],"split_indices":[2,3,0,0,2,3,3,3,3,2,3,0,2,0,0,0,0,0,0,0,0,0,0,0,0],"split_type":[0,0,0,0,0,0,0,0,0,0,0,0,0,0,0,0,0,0,0,0,0,0,0,0,0],"sum_hessian":[3.9735833E3,8.3995233E2,3.133631E3,5.668363E2,2.731161E2,2.661645E3,4.7198608E2,1.6787926E1,2.5632816E2,4.7649685E1,2.613995E3,1.7100498E1,4.548856E2,3.8957837E0,1.2892141E1,1.6882422E2,8.750394E1,5.9771495E0,4.1672535E1,2.2784353E3,3.3555988E2,7.32443E0,9.776068E0,6.396845E0,4.4848874E2],"tree_param":{"num_deleted":"0","num_feature":"4","num_nodes":"25","size_leaf_vector":"1"}},{"base_weights":[3.8483862E-3,-3.3087474E-1,7.226112E-1,-5.235031E-1,-2.2344944E-1,4.168881E-1,8.9417857E-1,-5.669625E-1,-2.814011E-1,-5.244474E-2,-4.6856788E-1,6.585209E-1,2.2829019E-1,4.5043137E-2,3.419013E-2,-2.8438447E-2,-1.4919087E-2,4.8952475E-2,-2.7225329E-2,6.003774E-2,-3.0845252E-3,-2.6899567E-2,-1.9025356E-2,-1.2452706E-2,4.10119E-2,-2.8103372E-2,1.7451445E-2],"categories":[],"categories_nodes":[],"categories_segments":[],"categories_sizes":[],"default_left":[0,0,0,0,0,0,0,0,0,0,0,0,0,0,0,0,0,0,0,0,0,0,0,0,0,0,0],"id":44,"left_children":[1,3,5,7,9,11,13,15,17,19,21,23,25,-1,-1,-1,-1,-1,-1,-1,-1,-1,-1,-1,-1,-1,-1],"loss_changes":[6.282072E2,3.6748276E1,4.314337E1,6.543518E0,4.7988316E1,1.3525444E1,1.300354E-1,9.185791E-2,3.3345196E1,7.9050326E0,2.6722336E0,1.9434238E1,1.6425869E1,0E0,0E0,0E0,0E0,0E0,0E0,0E0,0E0,0E0,0E0,0E0,0E0,0E0,0E0],"parents":[2147483647,0,0,1,1,2,2,3,3,4,4,5,5,6,6,7,7,8,8,9,9,10,10,11,11,12,12],"right_children":[2,4,6,8,10,12,14,16,18,20,22,24,26,-1,-1,-1,-1,-1,-1,-1,-1,-1,-1,-1,-1,-1,-1],"split_conditions":[3.5190287E-3,1E0,7.0850337E-1,4.2585257E-4,6.202997E-5,5.093938E-1,2.507926E-2,9.948439E-1,1.65096E-1,4.737612E-5,2.896225E-3,1E0,5.2427677E-3,4.5043137E-2,3.419013E-2,-2.8438447E-2,-1.4919087E-2,4.8952475E-2,-2.7225329E-2,6.003774E-2,-3.0845252E-3,-2.6899567E-2,-1.9025356E-2,-1.2452706E-2,4.10119E-2,-2.8103372E-2,1.7451445E-2],"split_indices":[3,2,0,3,3,0,3,2,0,3,3,2,3,0,0,0,0,0,0,0,0,0,0,0,0,0,0],"split_type":[0,0,0,0,0,0,0,0,0,0,0,0,0,0,0,0,0,0,0,0,0,0,0,0,0,0,0],"sum_hessian":[2.609155E3,1.7805187E3,8.286362E2,6.3607513E2,1.1444436E3,2.9909546E2,5.295408E2,5.3813367E2,9.794145E1,6.748526E2,4.6959094E2,1.300206E2,1.6907486E2,5.1005313E2,1.9487661E1,5.334283E2,4.7054253E0,1.644376E1,8.1497696E1,3.9986022E0,6.70854E2,2.597251E2,2.0986584E2,1.9582321E1,1.1043827E2,2.1921448E1,1.4715341E2],"tree_param":{"num_deleted":"0","num_feature":"4","num_nodes":"27","size_leaf_vector":"1"}},{"base_weights":[-7.5447243E-3,6.970082E-1,-4.5498127E-1,7.508371E-1,-2.9088765E-2,-3.1466115E-1,-5.5081135E-1,8.099193E-1,5.500296E-1,1.8486968E-1,-3.4870344E-1,-5.549304E-1,-1.8254028E-1,4.1818347E-2,3.5051774E-2,1.801697E-2,5.071437E-2,1.8380402E-2,-2.0783737E-2,-1.7831067E-2,2.7627999E-2,-2.6537988E-2,-2.93136E-2,-1.2269069E-2,-6.745167E-3],"categories":[],"categories_nodes":[],"categories_segments":[],"categories_sizes":[],"default_left":[0,0,0,0,0,0,0,0,0,0,0,0,0,0,0,0,0,0,0,0,0,0,0,0,0],"id":45,"left_children":[1,3,5,7,-1,9,11,13,15,17,19,21,23,-1,-1,-1,-1,-1,-1,-1,-1,-1,-1,-1,-1],"loss_changes":[8.9957886E2,7.673108E1,2.32948E1,1.2178162E1,0E0,1.2147591E1,1.4697571E0,1.7750854E0,2.1211044E1,5.199581E0,4.946617E0,4.6435547E-1,5.6518614E-3,0E0,0E0,0E0,0E0,0E0,0E0,0E0,0E0,0E0,0E0,0E0,0E0],"parents":[2147483647,0,0,1,1,2,2,3,3,5,5,6,6,7,7,8,8,9,9,10,10,11,11,12,12],"right_children":[2,4,6,8,-1,10,12,14,16,18,20,22,24,-1,-1,-1,-1,-1,-1,-1,-1,-1,-1,-1,-1],"split_conditions":[9.4411695E-1,2.7498842E-4,1.5739283E-1,7.433975E-1,-2.9088765E-2,1E0,2.507926E-2,1.1289455E-6,8.612918E-2,2.3198906E-4,1.9002071E-4,3.5190287E-3,1.0837086E0,4.1818347E-2,3.5051774E-2,1.801697E-2,5.071437E-2,1.8380402E-2,-2.0783737E-2,-1.7831067E-2,2.7627999E-2,-2.6537988E-2,-2.93136E-2,-1.2269069E-2,-6.745167E-3],"split_indices":[2,3,0,2,0,2,3,3,0,3,3,3,0,0,0,0,0,0,0,0,0,0,0,0,0],"split_type":[0,0,0,0,0,0,0,0,0,0,0,0,0,0,0,0,0,0,0,0,0,0,0,0,0],"sum_hessian":[2.851601E3,1.1073547E3,1.7442463E3,1.0630209E3,4.433379E1,7.095559E2,1.0346904E3,8.190146E2,2.4400638E2,4.498743E1,6.645685E2,1.0227444E3,1.1946004E1,6.535804E2,1.654342E2,1.7448859E2,6.951779E1,3.4789337E1,1.0198096E1,6.5937994E2,5.1885486E0,5.8755634E2,4.3518805E2,3.3610895E0,8.584914E0],"tree_param":{"num_deleted":"0","num_feature":"4","num_nodes":"25","size_leaf_vector":"1"}},{"base_weights":[2.6210686E-3,-5.962021E-1,1.6213329E-1,-3.472304E-2,-3.9393154E-1,3.0619544E-1,-6.5804094E-1,4.476354E-1,-4.3789157E-1,1.7477538E-1,4.337434E-1,-2.130996E-1,-6.7451966E-1,-4.9948846E-3,3.592747E-2,-1.5818018E-2,-3.3742905E-2,-1.3332429E-2,1.2232806E-2,2.9302953E-2,-9.814169E-4,1.0313631E-2,-2.6054291E-2,-1.2825883E-2,-3.3998437E-2],"categories":[],"categories_nodes":[],"categories_segments":[],"categories_sizes":[],"default_left":[0,0,0,0,0,0,0,0,0,0,0,0,0,0,0,0,0,0,0,0,0,0,0,0,0],"id":46,"left_children":[1,3,5,-1,7,9,11,13,15,17,19,21,23,-1,-1,-1,-1,-1,-1,-1,-1,-1,-1,-1,-1],"loss_changes":[3.735302E2,1.6074615E1,3.6506015E2,0E0,1.0230907E1,4.396338E1,3.2412872E0,2.1425288E0,7.2248917E0,4.003269E1,9.2035E1,2.4258726E0,8.3851624E-1,0E0,0E0,0E0,0E0,0E0,0E0,0E0,0E0,0E0,0E0,0E0,0E0],"parents":[2147483647,0,0,1,1,2,2,4,4,5,5,6,6,7,7,8,8,9,9,10,10,11,11,12,12],"right_children":[2,4,6,-1,8,10,12,14,16,18,20,22,24,-1,-1,-1,-1,-1,-1,-1,-1,-1,-1,-1,-1],"split_conditions":[8.181643E-1,1.1289455E-6,6.9041806E-1,-3.472304E-2,3.0321234E-1,1.5739283E-1,8.2035735E-3,1.116519E-2,1.3396974E-5,9.5988774E-1,3.5190287E-3,7.0850337E-1,9.373428E-1,-4.9948846E-3,3.592747E-2,-1.5818018E-2,-3.3742905E-2,-1.3332429E-2,1.2232806E-2,2.9302953E-2,-9.814169E-4,1.0313631E-2,-2.6054291E-2,-1.2825883E-2,-3.3998437E-2],"split_indices":[2,3,0,0,2,0,3,0,3,2,3,0,2,0,0,0,0,0,0,0,0,0,0,0,0],"split_type":[0,0,0,0,0,0,0,0,0,0,0,0,0,0,0,0,0,0,0,0,0,0,0,0,0],"sum_hessian":[3.9084963E3,8.215577E2,3.0869387E3,5.513099E2,2.702478E2,2.6262664E3,4.6067236E2,1.2959999E1,2.572878E2,1.2946665E3,1.3315999E3,1.694961E1,4.4372275E2,4.4988384E0,8.461161E0,1.7161035E2,8.567747E1,1.7655902E2,1.1181075E3,9.9651575E2,3.3508405E2,7.3168325E0,9.632777E0,6.328558E0,4.373942E2],"tree_param":{"num_deleted":"0","num_feature":"4","num_nodes":"25","size_leaf_vector":"1"}},{"base_weights":[4.387263E-3,-3.2338932E-1,6.939823E-1,-2.8402437E-2,-2.3682684E-1,3.852346E-1,8.542424E-1,-6.69336E-2,-4.7708723E-1,6.107704E-1,1.4662603E-1,6.7924047E-3,8.586204E-1,-4.603912E-3,6.818081E-2,-2.714905E-2,-1.871485E-2,-1.4045623E-2,3.8281754E-2,4.3815624E-2,1.3885632E-3,2.9684916E-2,4.3206092E-2],"categories":[],"categories_nodes":[],"categories_segments":[],"categories_sizes":[],"default_left":[0,0,0,0,0,0,0,0,0,0,0,0,0,0,0,0,0,0,0,0,0,0,0],"id":47,"left_children":[1,3,5,-1,7,9,11,13,15,17,19,-1,21,-1,-1,-1,-1,-1,-1,-1,-1,-1,-1],"loss_changes":[5.8111127E2,3.6771378E1,4.0654846E1,0E0,5.2579903E1,1.5239559E1,1.5957336E0,2.7326109E1,3.4118423E0,2.0392868E1,1.2093923E1,0E0,2.7539062E-1,0E0,0E0,0E0,0E0,0E0,0E0,0E0,0E0,0E0,0E0],"parents":[2147483647,0,0,1,1,2,2,4,4,5,5,6,6,7,7,8,8,9,9,10,10,12,12],"right_children":[2,4,6,-1,8,10,12,14,16,18,20,-1,22,-1,-1,-1,-1,-1,-1,-1,-1,-1,-1],"split_conditions":[3.5190287E-3,8.974537E-1,6.9041806E-1,-2.8402437E-2,1.5739283E-1,5.2074033E-1,7.816496E-3,4.945245E-4,2.896225E-3,1E0,9.7896004E-1,6.7924047E-3,8.2035735E-3,-4.603912E-3,6.818081E-2,-2.714905E-2,-1.871485E-2,-1.4045623E-2,3.8281754E-2,4.3815624E-2,1.3885632E-3,2.9684916E-2,4.3206092E-2],"split_indices":[3,2,0,0,0,0,3,3,3,2,2,0,3,0,0,0,0,0,0,0,0,0,0],"split_type":[0,0,0,0,0,0,0,0,0,0,0,0,0,0,0,0,0,0,0,0,0,0,0],"sum_hessian":[2.5689192E3,1.7416254E3,8.2729395E2,4.537077E2,1.2879176E3,2.838496E2,5.4344434E2,7.5518726E2,5.327304E2,1.4512035E2,1.3872928E2,3.4857655E0,5.3995856E2,7.4306213E2,1.2125098E1,3.2201813E2,2.1071227E2,2.1353992E1,1.2376635E2,1.8539085E1,1.2019019E2,1.3200512E1,5.2675806E2],"tree_param":{"num_deleted":"0","num_feature":"4","num_nodes":"23","size_leaf_vector":"1"}},{"base_weights":[-8.274463E-3,6.7321986E-1,-4.4852418E-1,7.24755E-1,-2.889868E-2,-3.077152E-1,-5.4635143E-1,7.877997E-1,5.329159E-1,1.8095116E-1,-3.417229E-1,-5.5060625E-1,-1.7353135E-1,4.059824E-2,3.3874836E-2,1.8453253E-2,4.880568E-2,1.7796889E-2,-2.0411644E-2,-1.7484242E-2,2.712749E-2,-2.6285399E-2,-2.9132975E-2,-1.1879026E-2,-6.303443E-3],"categories":[],"categories_nodes":[],"categories_segments":[],"categories_sizes":[],"default_left":[0,0,0,0,0,0,0,0,0,0,0,0,0,0,0,0,0,0,0,0,0,0,0,0,0],"id":48,"left_children":[1,3,5,7,-1,9,11,13,15,17,19,21,23,-1,-1,-1,-1,-1,-1,-1,-1,-1,-1,-1,-1],"loss_changes":[8.3916296E2,7.120044E1,2.3238617E1,1.233667E1,0E0,1.167601E1,1.4928894E0,1.5603333E0,1.880935E1,4.900858E0,4.79245E0,4.8345947E-1,8.835971E-3,0E0,0E0,0E0,0E0,0E0,0E0,0E0,0E0,0E0,0E0,0E0,0E0],"parents":[2147483647,0,0,1,1,2,2,3,3,5,5,6,6,7,7,8,8,9,9,10,10,11,11,12,12],"right_children":[2,4,6,8,-1,10,12,14,16,18,20,22,24,-1,-1,-1,-1,-1,-1,-1,-1,-1,-1,-1,-1],"split_conditions":[9.4411695E-1,2.7498842E-4,1.5739283E-1,7.2200966E-1,-2.889868E-2,1E0,2.507926E-2,1.1289455E-6,8.612918E-2,2.3198906E-4,1.9002071E-4,3.5190287E-3,1.0837086E0,4.059824E-2,3.3874836E-2,1.8453253E-2,4.880568E-2,1.7796889E-2,-2.0411644E-2,-1.7484242E-2,2.712749E-2,-2.6285399E-2,-2.9132975E-2,-1.1879026E-2,-6.303443E-3],"split_indices":[2,3,0,2,0,2,3,3,0,3,3,3,0,0,0,0,0,0,0,0,0,0,0,0,0],"split_type":[0,0,0,0,0,0,0,0,0,0,0,0,0,0,0,0,0,0,0,0,0,0,0,0,0],"sum_hessian":[2.7949453E3,1.0967217E3,1.6982238E3,1.0537401E3,4.2981537E1,6.978742E2,1.0003495E3,7.907625E2,2.629776E2,4.512593E1,6.527483E2,9.8859015E2,1.1759327E1,6.4343774E2,1.4732478E2,1.9333434E2,6.9643265E1,3.509782E1,1.00281105E1,6.475226E2,5.2257004E0,5.6618787E2,4.2240228E2,3.3001838E0,8.459143E0],"tree_param":{"num_deleted":"0","num_feature":"4","num_nodes":"25","size_leaf_vector":"1"}},{"base_weights":[2.7747208E-3,-6.130778E-1,1.4980547E-1,-3.409815E-2,-4.2983294E-1,2.845004E-1,-6.4447266E-1,3.1946948E-1,-5.040126E-1,1.5027498E-1,4.2335135E-1,-2.0498633E-1,-6.610585E-1,-1.350133E-2,3.180858E-2,-2.961928E-2,-1.6842704E-2,1.0580612E-2,-2.1774145E-2,2.8785968E-2,-8.887443E-4,1.016122E-2,-2.5393886E-2,-1.2116314E-2,-3.333109E-2],"categories":[],"categories_nodes":[],"categories_segments":[],"categories_sizes":[],"default_left":[0,0,0,0,0,0,0,0,0,0,0,0,0,0,0,0,0,0,0,0,0,0,0,0,0],"id":49,"left_children":[1,3,5,-1,7,9,11,13,15,17,19,21,23,-1,-1,-1,-1,-1,-1,-1,-1,-1,-1,-1,-1],"loss_changes":[3.479354E2,9.054932E0,3.3204266E2,0E0,1.1557606E1,4.937848E1,3.1451263E0,3.7342725E0,2.56221E0,4.8612E1,8.76169E1,2.306144E0,8.477173E-1,0E0,0E0,0E0,0E0,0E0,0E0,0E0,0E0,0E0,0E0,0E0,0E0],"parents":[2147483647,0,0,1,1,2,2,4,4,5,5,6,6,7,7,8,8,9,9,10,10,11,11,12,12],"right_children":[2,4,6,-1,8,10,12,14,16,18,20,22,24,-1,-1,-1,-1,-1,-1,-1,-1,-1,-1,-1,-1],"split_conditions":[7.9294723E-1,1.1289455E-6,6.9041806E-1,-3.409815E-2,3.2687384E-1,1.5739283E-1,8.2035735E-3,1.116519E-2,7.2200966E-1,1.5270524E-4,3.5190287E-3,7.0850337E-1,9.373428E-1,-1.350133E-2,3.180858E-2,-2.961928E-2,-1.6842704E-2,1.0580612E-2,-2.1774145E-2,2.8785968E-2,-8.887443E-4,1.016122E-2,-2.5393886E-2,-1.2116314E-2,-3.333109E-2],"split_indices":[2,3,0,0,2,0,3,0,2,3,3,0,2,0,0,0,0,0,0,0,0,0,0,0,0],"split_type":[0,0,0,0,0,0,0,0,0,0,0,0,0,0,0,0,0,0,0,0,0,0,0,0,0],"sum_hessian":[3.8404841E3,7.3956683E2,3.1009172E3,5.3552966E2,2.040372E2,2.6518538E3,4.4906363E2,1.8081905E1,1.8595529E2,1.3494452E3,1.3024084E3,1.6816792E1,4.3224686E2,6.37085E0,1.1711055E1,1.1998047E2,6.597483E1,1.2221113E3,1.2733388E2,9.678139E2,3.345946E2,7.3032103E0,9.513581E0,6.2517114E0,4.2599515E2],"tree_param":{"num_deleted":"0","num_feature":"4","num_nodes":"25","size_leaf_vector":"1"}},{"base_weights":[4.9337894E-3,-3.1600076E-1,6.676633E-1,-5.1598763E-1,-2.072791E-1,3.8266894E-1,8.327372E-1,-5.6102073E-1,-2.6792756E-1,-4.0407293E-2,-4.5744938E-1,7.791268E-1,2.7421713E-1,4.1967522E-2,3.142715E-2,-2.8146613E-2,-1.4206315E-2,4.52937E-2,-2.6895562E-2,5.8722485E-2,-2.4815572E-3,-2.6555134E-2,-1.8260367E-2,-1.7761883E-3,4.1812528E-2,1.5672436E-2,-1.2546308E-2],"categories":[],"categories_nodes":[],"categories_segments":[],"categories_sizes":[],"default_left":[0,0,0,0,0,0,0,0,0,0,0,0,0,0,0,0,0,0,0,0,0,0,0,0,0,0,0],"id":50,"left_children":[1,3,5,7,9,11,13,15,17,19,21,23,25,-1,-1,-1,-1,-1,-1,-1,-1,-1,-1,-1,-1,-1,-1],"loss_changes":[5.38041E2,3.6950226E1,3.85094E1,6.5473785E0,4.6143368E1,1.2881527E1,1.7703247E-1,1.0813904E-1,3.0287933E1,7.5034714E0,2.8113785E0,3.0487442E0,5.037348E0,0E0,0E0,0E0,0E0,0E0,0E0,0E0,0E0,0E0,0E0,0E0,0E0,0E0,0E0],"parents":[2147483647,0,0,1,1,2,2,3,3,4,4,5,5,6,6,7,7,8,8,9,9,10,10,11,11,12,12],"right_children":[2,4,6,8,10,12,14,16,18,20,22,24,26,-1,-1,-1,-1,-1,-1,-1,-1,-1,-1,-1,-1,-1,-1],"split_conditions":[3.5190287E-3,1E0,7.0850337E-1,4.2585257E-4,6.202997E-5,4.3131056E-1,2.507926E-2,9.948439E-1,1.65096E-1,4.737612E-5,2.896225E-3,4.0096825E-1,1.22492565E-2,4.1967522E-2,3.142715E-2,-2.8146613E-2,-1.4206315E-2,4.52937E-2,-2.6895562E-2,5.8722485E-2,-2.4815572E-3,-2.6555134E-2,-1.8260367E-2,-1.7761883E-3,4.1812528E-2,1.5672436E-2,-1.2546308E-2],"split_indices":[3,2,0,3,3,0,3,2,0,3,3,0,3,0,0,0,0,0,0,0,0,0,0,0,0,0,0],"split_type":[0,0,0,0,0,0,0,0,0,0,0,0,0,0,0,0,0,0,0,0,0,0,0,0,0,0,0],"sum_hessian":[2.5276707E3,1.7033342E3,8.243365E2,5.9856476E2,1.1047695E3,3.0356332E2,5.2077313E2,5.0552887E2,9.303589E1,6.6341284E2,4.4135666E2,6.3875416E1,2.3968791E2,5.0142294E2,1.9350197E1,5.0103696E2,4.491918E0,1.695701E1,7.607888E1,4.047114E0,6.593657E2,2.4276022E2,1.9859644E2,4.210268E0,5.9665146E1,2.2340152E2,1.6286396E1],"tree_param":{"num_deleted":"0","num_feature":"4","num_nodes":"27","size_leaf_vector":"1"}},{"base_weights":[-8.957101E-3,6.518803E-1,-4.4230247E-1,7.015563E-1,-2.8745195E-2,-3.014325E-1,-5.4201394E-1,3.9496716E-2,5.635787E-1,1.7195974E-1,-3.3518583E-1,-5.463991E-1,-1.669527E-1,2.4197383E-2,4.6982344E-2,2.4302594E-2,-7.449448E-3,-1.7154371E-2,2.5607122E-2,-2.6038771E-2,-2.8958088E-2,-1.1580366E-2,-5.9892875E-3],"categories":[],"categories_nodes":[],"categories_segments":[],"categories_sizes":[],"default_left":[0,0,0,0,0,0,0,0,0,0,0,0,0,0,0,0,0,0,0,0,0,0,0],"id":51,"left_children":[1,3,5,7,-1,9,11,-1,13,15,17,19,21,-1,-1,-1,-1,-1,-1,-1,-1,-1,-1],"loss_changes":[7.847166E2,6.6540436E1,2.3082672E1,1.2278992E1,0E0,1.1053528E1,1.5005188E0,0E0,1.1850372E1,4.756144E0,4.4787674E0,5.010681E-1,1.0756135E-2,0E0,0E0,0E0,0E0,0E0,0E0,0E0,0E0,0E0,0E0],"parents":[2147483647,0,0,1,1,2,2,3,3,5,5,6,6,8,8,9,9,10,10,11,11,12,12],"right_children":[2,4,6,8,-1,10,12,-1,14,16,18,20,22,-1,-1,-1,-1,-1,-1,-1,-1,-1,-1],"split_conditions":[9.4411695E-1,2.7498842E-4,1.5739283E-1,1.1289455E-6,-2.8745195E-2,1E0,2.507926E-2,3.9496716E-2,8.612918E-2,1.0630055E-1,1.9002071E-4,3.5190287E-3,1.0837086E0,2.4197383E-2,4.6982344E-2,2.4302594E-2,-7.449448E-3,-1.7154371E-2,2.5607122E-2,-2.6038771E-2,-2.8958088E-2,-1.1580366E-2,-5.9892875E-3],"split_indices":[2,3,0,3,0,2,3,0,0,0,3,3,0,0,0,0,0,0,0,0,0,0,0],"split_type":[0,0,0,0,0,0,0,0,0,0,0,0,0,0,0,0,0,0,0,0,0,0,0],"sum_hessian":[2.7382043E3,1.0842517E3,1.6539525E3,1.0424674E3,4.178435E1,6.871649E2,9.6678766E2,6.3256775E2,4.098997E2,4.546212E1,6.417028E2,9.551631E2,1.1624574E1,3.401591E2,6.97406E1,2.2716501E1,2.2745619E1,6.363636E2,5.339199E0,5.454563E2,4.0970673E2,3.2538924E0,8.370682E0],"tree_param":{"num_deleted":"0","num_feature":"4","num_nodes":"23","size_leaf_vector":"1"}},{"base_weights":[2.9604181E-3,-5.9964037E-1,1.4552245E-1,-3.3520386E-2,-4.1494694E-1,2.7575663E-1,-6.318936E-1,3.2190377E-1,-4.8867476E-1,1.448111E-1,4.1341394E-1,-1.9463046E-1,-6.486997E-1,-1.282075E-2,3.1580422E-2,-2.8766587E-2,-1.6307477E-2,1.0193954E-2,-2.0901347E-2,2.8292611E-2,-7.7670644E-4,9.978655E-3,-2.457626E-2,-1.1655119E-2,-3.2716505E-2],"categories":[],"categories_nodes":[],"categories_segments":[],"categories_sizes":[],"default_left":[0,0,0,0,0,0,0,0,0,0,0,0,0,0,0,0,0,0,0,0,0,0,0,0,0],"id":52,"left_children":[1,3,5,-1,7,9,11,13,15,17,19,21,23,-1,-1,-1,-1,-1,-1,-1,-1,-1,-1,-1,-1],"loss_changes":[3.2433316E2,9.162323E0,3.0928384E2,0E0,1.1169903E1,4.7089355E1,3.0951996E0,3.572336E0,2.4132538E0,4.4702915E1,8.3353806E1,2.1642342E0,8.342743E-1,0E0,0E0,0E0,0E0,0E0,0E0,0E0,0E0,0E0,0E0,0E0,0E0],"parents":[2147483647,0,0,1,1,2,2,4,4,5,5,6,6,7,7,8,8,9,9,10,10,11,11,12,12],"right_children":[2,4,6,-1,8,10,12,14,16,18,20,22,24,-1,-1,-1,-1,-1,-1,-1,-1,-1,-1,-1,-1],"split_conditions":[7.9294723E-1,1.1289455E-6,6.9041806E-1,-3.3520386E-2,3.2687384E-1,1.5739283E-1,8.2035735E-3,1.116519E-2,7.2200966E-1,1.5270524E-4,3.5190287E-3,7.0850337E-1,9.373428E-1,-1.282075E-2,3.1580422E-2,-2.8766587E-2,-1.6307477E-2,1.0193954E-2,-2.0901347E-2,2.8292611E-2,-7.7670644E-4,9.978655E-3,-2.457626E-2,-1.1655119E-2,-3.2716505E-2],"split_indices":[2,3,0,0,2,0,3,0,2,3,3,0,2,0,0,0,0,0,0,0,0,0,0,0,0],"split_type":[0,0,0,0,0,0,0,0,0,0,0,0,0,0,0,0,0,0,0,0,0,0,0,0,0],"sum_hessian":[3.7733396E3,7.212891E2,3.0520503E3,5.195774E2,2.0171172E2,2.6146797E3,4.373708E2,1.8040926E1,1.8367079E2,1.3410588E3,1.2736208E3,1.6653732E1,4.2071707E2,6.3519135E0,1.1689012E1,1.18139755E2,6.553103E1,1.2142637E3,1.26795166E2,9.3944464E2,3.3417615E2,7.2952394E0,9.358494E0,6.1902905E0,4.1452676E2],"tree_param":{"num_deleted":"0","num_feature":"4","num_nodes":"25","size_leaf_vector":"1"}},{"base_weights":[5.371957E-3,-3.087829E-1,6.430672E-1,-5.123549E-1,-1.998174E-1,3.5359654E-1,7.987129E-1,-5.581053E-1,-2.617376E-1,-3.6894396E-2,-4.513192E-1,5.676347E-1,1.2785393E-1,6.197585E-3,8.0296415E-1,-2.8003538E-2,-1.39231E-2,4.2926423E-2,-2.6721442E-2,5.6893643E-2,-2.2991288E-3,-2.637422E-2,-1.7827475E-2,-1.4408066E-2,3.578592E-2,-8.307129E-3,2.0076862E-2,2.7261931E-2,4.0424448E-2],"categories":[],"categories_nodes":[],"categories_segments":[],"categories_sizes":[],"default_left":[0,0,0,0,0,0,0,0,0,0,0,0,0,0,0,0,0,0,0,0,0,0,0,0,0,0,0,0,0],"id":53,"left_children":[1,3,5,7,9,11,13,15,17,19,21,23,25,-1,27,-1,-1,-1,-1,-1,-1,-1,-1,-1,-1,-1,-1,-1,-1],"loss_changes":[4.984989E2,3.6877197E1,3.671933E1,6.5107727E0,4.4543793E1,1.3889652E1,1.4302673E0,1.1338806E-1,2.8413244E1,7.11007E0,2.897232E0,1.8967094E1,1.1486628E1,0E0,3.1344604E-1,0E0,0E0,0E0,0E0,0E0,0E0,0E0,0E0,0E0,0E0,0E0,0E0,0E0,0E0],"parents":[2147483647,0,0,1,1,2,2,3,3,4,4,5,5,6,6,7,7,8,8,9,9,10,10,11,11,12,12,14,14],"right_children":[2,4,6,8,10,12,14,16,18,20,22,24,26,-1,28,-1,-1,-1,-1,-1,-1,-1,-1,-1,-1,-1,-1,-1,-1],"split_conditions":[3.5190287E-3,1E0,6.9041806E-1,4.2585257E-4,6.202997E-5,5.2074033E-1,7.816496E-3,9.948439E-1,1.65096E-1,4.737612E-5,2.896225E-3,1E0,6.040391E-1,6.197585E-3,8.2035735E-3,-2.8003538E-2,-1.39231E-2,4.2926423E-2,-2.6721442E-2,5.6893643E-2,-2.2991288E-3,-2.637422E-2,-1.7827475E-2,-1.4408066E-2,3.578592E-2,-8.307129E-3,2.0076862E-2,2.7261931E-2,4.0424448E-2],"split_indices":[3,2,0,3,3,0,3,2,0,3,3,2,0,0,3,0,0,0,0,0,0,0,0,0,0,0,0,0,0],"split_type":[0,0,0,0,0,0,0,0,0,0,0,0,0,0,0,0,0,0,0,0,0,0,0,0,0,0,0,0,0],"sum_hessian":[2.4863347E3,1.666074E3,8.202606E2,5.795822E2,1.0864918E3,2.8796808E2,5.3229254E2,4.890744E2,9.050782E1,6.600547E2,4.2643707E2,1.4703867E2,1.4092941E2,3.5214171E0,5.287711E2,4.8466516E2,4.4092484E0,1.7297623E1,7.32102E1,4.113603E0,6.559411E2,2.3389369E2,1.925434E2,2.1550344E1,1.2548833E2,6.813272E1,7.27967E1,1.3189503E1,5.1558167E2],"tree_param":{"num_deleted":"0","num_feature":"4","num_nodes":"29","size_leaf_vector":"1"}},{"base_weights":[-9.645718E-3,6.319304E-1,-4.361527E-1,6.798693E-1,-2.85936E-2,-2.9526606E-1,-5.3779733E-1,3.848757E-2,5.423063E-1,1.637893E-1,-3.287499E-1,-5.42333E-1,-1.577459E-1,2.3263667E-2,4.5314323E-2,1.6553188E-2,-2.046094E-2,-1.6829228E-2,2.4197208E-2,-2.5797619E-2,-2.8791878E-2,-1.11853E-2,-5.538355E-3],"categories":[],"categories_nodes":[],"categories_segments":[],"categories_sizes":[],"default_left":[0,0,0,0,0,0,0,0,0,0,0,0,0,0,0,0,0,0,0,0,0,0,0],"id":54,"left_children":[1,3,5,7,-1,9,11,-1,13,15,17,19,21,-1,-1,-1,-1,-1,-1,-1,-1,-1,-1],"loss_changes":[7.3426154E2,6.2225037E1,2.2923035E1,1.2329529E1,0E0,1.0471172E1,1.5263367E0,0E0,1.1096344E1,4.615573E0,4.186882E0,5.193176E-1,1.3763785E-2,0E0,0E0,0E0,0E0,0E0,0E0,0E0,0E0,0E0,0E0],"parents":[2147483647,0,0,1,1,2,2,3,3,5,5,6,